{"learner":{"attributes":{},"feature_names":[],"feature_types":[],"gradient_booster":{"model":{"gbtree_model_param":{"num_parallel_tree":"1","num_trees":"1500"},"iteration_indptr":[0,2,4,6,8,10,12,14,16,18,20,22,24,26,28,30,32,34,36,38,40,42,44,46,48,50,52,54,56,58,60,62,64,66,68,70,72,74,76,78,80,82,84,86,88,90,92,94,96,98,100,102,104,106,108,110,112,114,116,118,120,122,124,126,128,130,132,134,136,138,140,142,144,146,148,150,152,154,156,158,160,162,164,166,168,170,172,174,176,178,180,182,184,186,188,190,192,194,196,198,200,202,204,206,208,210,212,214,216,218,220,222,224,226,228,230,232,234,236,238,240,242,244,246,248,250,252,254,256,258,260,262,264,266,268,270,272,274,276,278,280,282,284,286,288,290,292,294,296,298,300,302,304,306,308,310,312,314,316,318,320,322,324,326,328,330,332,334,336,338,340,342,344,346,348,350,352,354,356,358,360,362,364,366,368,370,372,374,376,378,380,382,384,386,388,390,392,394,396,398,400,402,404,406,408,410,412,414,416,418,420,422,424,426,428,430,432,434,436,438,440,442,444,446,448,450,452,454,456,458,460,462,464,466,468,470,472,474,476,478,480,482,484,486,488,490,492,494,496,498,500,502,504,506,508,510,512,514,516,518,520,522,524,526,528,530,532,534,536,538,540,542,544,546,548,550,552,554,556,558,560,562,564,566,568,570,572,574,576,578,580,582,584,586,588,590,592,594,596,598,600,602,604,606,608,610,612,614,616,618,620,622,624,626,628,630,632,634,636,638,640,642,644,646,648,650,652,654,656,658,660,662,664,666,668,670,672,674,676,678,680,682,684,686,688,690,692,694,696,698,700,702,704,706,708,710,712,714,716,718,720,722,724,726,728,730,732,734,736,738,740,742,744,746,748,750,752,754,756,758,760,762,764,766,768,770,772,774,776,778,780,782,784,786,788,790,792,794,796,798,800,802,804,806,808,810,812,814,816,818,820,822,824,826,828,830,832,834,836,838,840,842,844,846,848,850,852,854,856,858,860,862,864,866,868,870,872,874,876,878,880,882,884,886,888,890,892,894,896,898,900,902,904,906,908,910,912,914,916,918,920,922,924,926,928,930,932,934,936,938,940,942,944,946,948,950,952,954,956,958,960,962,964,966,968,970,972,974,976,978,980,982,984,986,988,990,992,994,996,998,1000,1002,1004,1006,1008,1010,1012,1014,1016,1018,1020,1022,1024,1026,1028,1030,1032,1034,1036,1038,1040,1042,1044,1046,1048,1050,1052,1054,1056,1058,1060,1062,1064,1066,1068,1070,1072,1074,1076,1078,1080,1082,1084,1086,1088,1090,1092,1094,1096,1098,1100,1102,1104,1106,1108,1110,1112,1114,1116,1118,1120,1122,1124,1126,1128,1130,1132,1134,1136,1138,1140,1142,1144,1146,1148,1150,1152,1154,1156,1158,1160,1162,1164,1166,1168,1170,1172,1174,1176,1178,1180,1182,1184,1186,1188,1190,1192,1194,1196,1198,1200,1202,1204,1206,1208,1210,1212,1214,1216,1218,1220,1222,1224,1226,1228,1230,1232,1234,1236,1238,1240,1242,1244,1246,1248,1250,1252,1254,1256,1258,1260,1262,1264,1266,1268,1270,1272,1274,1276,1278,1280,1282,1284,1286,1288,1290,1292,1294,1296,1298,1300,1302,1304,1306,1308,1310,1312,1314,1316,1318,1320,1322,1324,1326,1328,1330,1332,1334,1336,1338,1340,1342,1344,1346,1348,1350,1352,1354,1356,1358,1360,1362,1364,1366,1368,1370,1372,1374,1376,1378,1380,1382,1384,1386,1388,1390,1392,1394,1396,1398,1400,1402,1404,1406,1408,1410,1412,1414,1416,1418,1420,1422,1424,1426,1428,1430,1432,1434,1436,1438,1440,1442,1444,1446,1448,1450,1452,1454,1456,1458,1460,1462,1464,1466,1468,1470,1472,1474,1476,1478,1480,1482,1484,1486,1488,1490,1492,1494,1496,1498,1500],"tree_info":[0,1,0,1,0,1,0,1,0,1,0,1,0,1,0,1,0,1,0,1,0,1,0,1,0,1,0,1,0,1,0,1,0,1,0,1,0,1,0,1,0,1,0,1,0,1,0,1,0,1,0,1,0,1,0,1,0,1,0,1,0,1,0,1,0,1,0,1,0,1,0,1,0,1,0,1,0,1,0,1,0,1,0,1,0,1,0,1,0,1,0,1,0,1,0,1,0,1,0,1,0,1,0,1,0,1,0,1,0,1,0,1,0,1,0,1,0,1,0,1,0,1,0,1,0,1,0,1,0,1,0,1,0,1,0,1,0,1,0,1,0,1,0,1,0,1,0,1,0,1,0,1,0,1,0,1,0,1,0,1,0,1,0,1,0,1,0,1,0,1,0,1,0,1,0,1,0,1,0,1,0,1,0,1,0,1,0,1,0,1,0,1,0,1,0,1,0,1,0,1,0,1,0,1,0,1,0,1,0,1,0,1,0,1,0,1,0,1,0,1,0,1,0,1,0,1,0,1,0,1,0,1,0,1,0,1,0,1,0,1,0,1,0,1,0,1,0,1,0,1,0,1,0,1,0,1,0,1,0,1,0,1,0,1,0,1,0,1,0,1,0,1,0,1,0,1,0,1,0,1,0,1,0,1,0,1,0,1,0,1,0,1,0,1,0,1,0,1,0,1,0,1,0,1,0,1,0,1,0,1,0,1,0,1,0,1,0,1,0,1,0,1,0,1,0,1,0,1,0,1,0,1,0,1,0,1,0,1,0,1,0,1,0,1,0,1,0,1,0,1,0,1,0,1,0,1,0,1,0,1,0,1,0,1,0,1,0,1,0,1,0,1,0,1,0,1,0,1,0,1,0,1,0,1,0,1,0,1,0,1,0,1,0,1,0,1,0,1,0,1,0,1,0,1,0,1,0,1,0,1,0,1,0,1,0,1,0,1,0,1,0,1,0,1,0,1,0,1,0,1,0,1,0,1,0,1,0,1,0,1,0,1,0,1,0,1,0,1,0,1,0,1,0,1,0,1,0,1,0,1,0,1,0,1,0,1,0,1,0,1,0,1,0,1,0,1,0,1,0,1,0,1,0,1,0,1,0,1,0,1,0,1,0,1,0,1,0,1,0,1,0,1,0,1,0,1,0,1,0,1,0,1,0,1,0,1,0,1,0,1,0,1,0,1,0,1,0,1,0,1,0,1,0,1,0,1,0,1,0,1,0,1,0,1,0,1,0,1,0,1,0,1,0,1,0,1,0,1,0,1,0,1,0,1,0,1,0,1,0,1,0,1,0,1,0,1,0,1,0,1,0,1,0,1,0,1,0,1,0,1,0,1,0,1,0,1,0,1,0,1,0,1,0,1,0,1,0,1,0,1,0,1,0,1,0,1,0,1,0,1,0,1,0,1,0,1,0,1,0,1,0,1,0,1,0,1,0,1,0,1,0,1,0,1,0,1,0,1,0,1,0,1,0,1,0,1,0,1,0,1,0,1,0,1,0,1,0,1,0,1,0,1,0,1,0,1,0,1,0,1,0,1,0,1,0,1,0,1,0,1,0,1,0,1,0,1,0,1,0,1,0,1,0,1,0,1,0,1,0,1,0,1,0,1,0,1,0,1,0,1,0,1,0,1,0,1,0,1,0,1,0,1,0,1,0,1,0,1,0,1,0,1,0,1,0,1,0,1,0,1,0,1,0,1,0,1,0,1,0,1,0,1,0,1,0,1,0,1,0,1,0,1,0,1,0,1,0,1,0,1,0,1,0,1,0,1,0,1,0,1,0,1,0,1,0,1,0,1,0,1,0,1,0,1,0,1,0,1,0,1,0,1,0,1,0,1,0,1,0,1,0,1,0,1,0,1,0,1,0,1,0,1,0,1,0,1,0,1,0,1,0,1,0,1,0,1,0,1,0,1,0,1,0,1,0,1,0,1,0,1,0,1,0,1,0,1,0,1,0,1,0,1,0,1,0,1,0,1,0,1,0,1,0,1,0,1,0,1,0,1,0,1,0,1,0,1,0,1,0,1,0,1,0,1,0,1,0,1,0,1,0,1,0,1,0,1,0,1,0,1,0,1,0,1,0,1,0,1,0,1,0,1,0,1,0,1,0,1,0,1,0,1,0,1,0,1,0,1,0,1,0,1,0,1,0,1,0,1,0,1,0,1,0,1,0,1,0,1,0,1,0,1,0,1,0,1,0,1,0,1,0,1,0,1,0,1,0,1,0,1,0,1,0,1,0,1,0,1,0,1,0,1,0,1,0,1,0,1,0,1,0,1,0,1,0,1,0,1,0,1,0,1,0,1,0,1,0,1,0,1,0,1,0,1,0,1,0,1,0,1,0,1,0,1,0,1,0,1,0,1,0,1,0,1,0,1,0,1,0,1,0,1,0,1,0,1,0,1,0,1,0,1,0,1,0,1,0,1,0,1,0,1,0,1,0,1,0,1,0,1,0,1,0,1,0,1,0,1,0,1,0,1,0,1,0,1,0,1,0,1,0,1,0,1,0,1,0,1,0,1,0,1,0,1,0,1,0,1,0,1,0,1,0,1,0,1,0,1,0,1,0,1,0,1,0,1,0,1,0,1,0,1,0,1,0,1,0,1,0,1,0,1,0,1,0,1,0,1,0,1,0,1,0,1,0,1,0,1,0,1,0,1,0,1,0,1,0,1,0,1,0,1,0,1,0,1,0,1,0,1,0,1,0,1,0,1,0,1,0,1,0,1,0,1,0,1,0,1,0,1,0,1,0,1,0,1,0,1,0,1,0,1,0,1,0,1,0,1,0,1,0,1,0,1,0,1,0,1,0,1,0,1,0,1,0,1,0,1,0,1,0,1,0,1,0,1,0,1,0,1,0,1,0,1,0,1,0,1,0,1,0,1,0,1,0,1,0,1,0,1,0,1,0,1,0,1,0,1,0,1,0,1,0,1,0,1,0,1,0,1,0,1,0,1,0,1,0,1,0,1,0,1,0,1,0,1,0,1,0,1,0,1,0,1,0,1,0,1,0,1,0,1,0,1,0,1,0,1,0,1,0,1,0,1,0,1,0,1,0,1,0,1,0,1,0,1,0,1,0,1,0,1,0,1,0,1,0,1,0,1,0,1,0,1,0,1,0,1,0,1,0,1,0,1,0,1,0,1,0,1,0,1,0,1,0,1,0,1,0,1,0,1,0,1,0,1,0,1,0,1,0,1,0,1,0,1,0,1,0,1,0,1,0,1,0,1,0,1,0,1,0,1,0,1,0,1,0,1,0,1,0,1,0,1,0,1,0,1,0,1,0,1,0,1,0,1,0,1,0,1,0,1,0,1,0,1,0,1,0,1,0,1,0,1,0,1,0,1,0,1,0,1,0,1,0,1,0,1,0,1],"trees":[{"base_weights":[-1.506227E-1,1.1160088E-1,-3.1884804E-1,-1.4413266E-1,2.2861314E-1,-1.3324213E-1,-4.8315153E-1,6.962963E-4,-3.0502793E-3,8.4590167E-4,3.4384858E-3,-2.585608E-3,2.0706456E-4,-6.150235E-3,-3.9001238E-3],"categories":[],"categories_nodes":[],"categories_segments":[],"categories_sizes":[],"default_left":[0,0,0,0,0,0,0,0,0,0,0,0,0,0,0],"id":0,"left_children":[1,3,5,7,9,11,13,-1,-1,-1,-1,-1,-1,-1,-1],"loss_changes":[2.8162866E2,7.470819E1,1.18533356E2,2.698562E1,2.8392502E1,3.526264E1,2.5092682E1,0E0,0E0,0E0,0E0,0E0,0E0,0E0,0E0],"parents":[2147483647,0,0,1,1,2,2,3,3,4,4,5,5,6,6],"right_children":[2,4,6,8,10,12,14,-1,-1,-1,-1,-1,-1,-1,-1],"split_conditions":[4.7E-1,-2E0,1.2E1,-4.8E0,2.4E1,1E1,8E0,6.962963E-4,-3.0502793E-3,8.4590167E-4,3.4384858E-3,-2.585608E-3,2.0706456E-4,-6.150235E-3,-3.9001238E-3],"split_indices":[3,77,80,25,51,51,51,0,0,0,0,0,0,0,0],"split_type":[0,0,0,0,0,0,0,0,0,0,0,0,0,0,0],"sum_hessian":[6.3825E3,2.4945E3,3.888E3,7.83E2,1.7115E3,1.8265E3,2.0615E3,3.365E2,4.465E2,7.615E2,9.5E2,1.0065E3,8.2E2,8.51E2,1.2105E3],"tree_param":{"num_deleted":"0","num_feature":"106","num_nodes":"15","size_leaf_vector":"1"}},{"base_weights":[1.506227E-1,-1.1160088E-1,3.1884804E-1,1.4413266E-1,-2.2861314E-1,1.3324213E-1,4.8315153E-1,-6.962963E-4,3.0502793E-3,-8.4590167E-4,-3.4384858E-3,2.585608E-3,-2.0706456E-4,6.150235E-3,3.9001238E-3],"categories":[],"categories_nodes":[],"categories_segments":[],"categories_sizes":[],"default_left":[0,0,0,0,0,0,0,0,0,0,0,0,0,0,0],"id":1,"left_children":[1,3,5,7,9,11,13,-1,-1,-1,-1,-1,-1,-1,-1],"loss_changes":[2.8162866E2,7.470819E1,1.18533356E2,2.698562E1,2.8392502E1,3.526264E1,2.5092682E1,0E0,0E0,0E0,0E0,0E0,0E0,0E0,0E0],"parents":[2147483647,0,0,1,1,2,2,3,3,4,4,5,5,6,6],"right_children":[2,4,6,8,10,12,14,-1,-1,-1,-1,-1,-1,-1,-1],"split_conditions":[4.7E-1,-2E0,1.2E1,-4.8E0,2.4E1,1E1,8E0,-6.962963E-4,3.0502793E-3,-8.4590167E-4,-3.4384858E-3,2.585608E-3,-2.0706456E-4,6.150235E-3,3.9001238E-3],"split_indices":[3,77,80,25,51,51,51,0,0,0,0,0,0,0,0],"split_type":[0,0,0,0,0,0,0,0,0,0,0,0,0,0,0],"sum_hessian":[6.3825E3,2.4945E3,3.888E3,7.83E2,1.7115E3,1.8265E3,2.0615E3,3.365E2,4.465E2,7.615E2,9.5E2,1.0065E3,8.2E2,8.51E2,1.2105E3],"tree_param":{"num_deleted":"0","num_feature":"106","num_nodes":"15","size_leaf_vector":"1"}},{"base_weights":[-1.4911984E-1,1.1048636E-1,-3.1566742E-1,-1.426951E-1,2.2633107E-1,-1.319115E-1,-4.7833666E-1,6.893542E-4,-3.0198724E-3,8.374543E-4,3.4041773E-3,-2.5597943E-3,2.0499642E-4,-6.0890345E-3,-3.8612138E-3],"categories":[],"categories_nodes":[],"categories_segments":[],"categories_sizes":[],"default_left":[0,0,0,0,0,0,0,0,0,0,0,0,0,0,0],"id":2,"left_children":[1,3,5,7,9,11,13,-1,-1,-1,-1,-1,-1,-1,-1],"loss_changes":[2.7603372E2,7.3224174E1,1.1618295E2,2.645016E1,2.7828743E1,3.4561935E1,2.459732E1,0E0,0E0,0E0,0E0,0E0,0E0,0E0,0E0],"parents":[2147483647,0,0,1,1,2,2,3,3,4,4,5,5,6,6],"right_children":[2,4,6,8,10,12,14,-1,-1,-1,-1,-1,-1,-1,-1],"split_conditions":[4.7E-1,-2E0,1.2E1,-4.8E0,2.4E1,1E1,8E0,6.893542E-4,-3.0198724E-3,8.374543E-4,3.4041773E-3,-2.5597943E-3,2.0499642E-4,-6.0890345E-3,-3.8612138E-3],"split_indices":[3,77,80,25,51,51,51,0,0,0,0,0,0,0,0],"split_type":[0,0,0,0,0,0,0,0,0,0,0,0,0,0,0],"sum_hessian":[6.382427E3,2.494484E3,3.8879426E3,7.829957E2,1.7114883E3,1.8264933E3,2.0614495E3,3.3649985E2,4.4649588E2,7.6149945E2,9.499888E2,1.00649335E3,8.1999994E2,8.5096783E2,1.2104816E3],"tree_param":{"num_deleted":"0","num_feature":"106","num_nodes":"15","size_leaf_vector":"1"}},{"base_weights":[1.4911985E-1,-1.1048634E-1,3.1566745E-1,1.4269516E-1,-2.2633107E-1,1.3191149E-1,4.783367E-1,-6.893542E-4,3.0198735E-3,-8.374543E-4,-3.4041773E-3,2.559794E-3,-2.0499642E-4,6.089036E-3,3.861214E-3],"categories":[],"categories_nodes":[],"categories_segments":[],"categories_sizes":[],"default_left":[0,0,0,0,0,0,0,0,0,0,0,0,0,0,0],"id":3,"left_children":[1,3,5,7,9,11,13,-1,-1,-1,-1,-1,-1,-1,-1],"loss_changes":[2.7603375E2,7.322418E1,1.16183014E2,2.6450174E1,2.7828743E1,3.4561924E1,2.459732E1,0E0,0E0,0E0,0E0,0E0,0E0,0E0,0E0],"parents":[2147483647,0,0,1,1,2,2,3,3,4,4,5,5,6,6],"right_children":[2,4,6,8,10,12,14,-1,-1,-1,-1,-1,-1,-1,-1],"split_conditions":[4.7E-1,-2E0,1.2E1,-4.8E0,2.4E1,1E1,8E0,-6.893542E-4,3.0198735E-3,-8.374543E-4,-3.4041773E-3,2.559794E-3,-2.0499642E-4,6.089036E-3,3.861214E-3],"split_indices":[3,77,80,25,51,51,51,0,0,0,0,0,0,0,0],"split_type":[0,0,0,0,0,0,0,0,0,0,0,0,0,0,0],"sum_hessian":[6.382427E3,2.494484E3,3.8879426E3,7.8299567E2,1.7114883E3,1.8264933E3,2.0614495E3,3.3649985E2,4.4649585E2,7.6149945E2,9.499888E2,1.0064933E3,8.1999994E2,8.509678E2,1.2104816E3],"tree_param":{"num_deleted":"0","num_feature":"106","num_nodes":"15","size_leaf_vector":"1"}},{"base_weights":[-1.4763536E-1,1.0938434E-1,-3.1252763E-1,-1.4127347E-1,2.2407481E-1,-1.305951E-1,-4.7359264E-1,6.8248174E-4,-2.9898237E-3,8.290925E-4,3.3702892E-3,-2.5342726E-3,2.0294973E-4,-3.8884722E-3,-6.157805E-3],"categories":[],"categories_nodes":[],"categories_segments":[],"categories_sizes":[],"default_left":[0,0,0,0,0,0,0,0,0,0,0,0,0,0,0],"id":4,"left_children":[1,3,5,7,9,11,13,-1,-1,-1,-1,-1,-1,-1,-1],"loss_changes":[2.7055817E2,7.17706E1,1.13890686E2,2.5925886E1,2.7277527E1,3.387581E1,2.461081E1,0E0,0E0,0E0,0E0,0E0,0E0,0E0,0E0],"parents":[2147483647,0,0,1,1,2,2,3,3,4,4,5,5,6,6],"right_children":[2,4,6,8,10,12,14,-1,-1,-1,-1,-1,-1,-1,-1],"split_conditions":[4.7E-1,-2E0,1.2E1,-4.8E0,2.4E1,1E1,2.3E1,6.8248174E-4,-2.9898237E-3,8.290925E-4,3.3702892E-3,-2.5342726E-3,2.0294973E-4,-3.8884722E-3,-6.157805E-3],"split_indices":[3,77,80,25,51,51,80,0,0,0,0,0,0,0,0],"split_type":[0,0,0,0,0,0,0,0,0,0,0,0,0,0,0],"sum_hessian":[6.382209E3,2.4944363E3,3.887773E3,7.829829E2,1.7114534E3,1.8264731E3,2.0612998E3,3.3649936E2,4.4648358E2,7.614978E2,9.499555E2,1.0064733E3,8.199999E2,1.2938732E3,7.674266E2],"tree_param":{"num_deleted":"0","num_feature":"106","num_nodes":"15","size_leaf_vector":"1"}},{"base_weights":[1.476354E-1,-1.0938435E-1,3.1252772E-1,1.412735E-1,-2.2407483E-1,1.3059516E-1,4.7359273E-1,-6.8248203E-4,2.9898246E-3,-8.290925E-4,-3.3702895E-3,2.5342728E-3,-2.0294853E-4,3.8884731E-3,6.1578066E-3],"categories":[],"categories_nodes":[],"categories_segments":[],"categories_sizes":[],"default_left":[0,0,0,0,0,0,0,0,0,0,0,0,0,0,0],"id":5,"left_children":[1,3,5,7,9,11,13,-1,-1,-1,-1,-1,-1,-1,-1],"loss_changes":[2.7055832E2,7.177063E1,1.1389072E2,2.5925907E1,2.7277527E1,3.3875793E1,2.4610779E1,0E0,0E0,0E0,0E0,0E0,0E0,0E0,0E0],"parents":[2147483647,0,0,1,1,2,2,3,3,4,4,5,5,6,6],"right_children":[2,4,6,8,10,12,14,-1,-1,-1,-1,-1,-1,-1,-1],"split_conditions":[4.7E-1,-2E0,1.2E1,-4.8E0,2.4E1,1E1,2.3E1,-6.8248203E-4,2.9898246E-3,-8.290925E-4,-3.3702895E-3,2.5342728E-3,-2.0294853E-4,3.8884731E-3,6.1578066E-3],"split_indices":[3,77,80,25,51,51,80,0,0,0,0,0,0,0,0],"split_type":[0,0,0,0,0,0,0,0,0,0,0,0,0,0,0],"sum_hessian":[6.382209E3,2.4944363E3,3.8877727E3,7.829829E2,1.7114534E3,1.8264733E3,2.0612996E3,3.364994E2,4.4648355E2,7.614978E2,9.4995557E2,1.0064734E3,8.199999E2,1.293873E3,7.674265E2],"tree_param":{"num_deleted":"0","num_feature":"106","num_nodes":"15","size_leaf_vector":"1"}},{"base_weights":[-1.461687E-1,1.0829471E-1,-3.094271E-1,-1.3986748E-1,2.2184403E-1,-1.292928E-1,-4.6891555E-1,6.7567884E-4,-2.9601273E-3,8.2081516E-4,3.3368154E-3,-2.5090368E-3,2.009221E-4,-5.982787E-3,-3.7756427E-3],"categories":[],"categories_nodes":[],"categories_segments":[],"categories_sizes":[],"default_left":[0,0,0,0,0,0,0,0,0,0,0,0,0,0,0],"id":6,"left_children":[1,3,5,7,9,11,13,-1,-1,-1,-1,-1,-1,-1,-1],"loss_changes":[2.6519864E2,7.034684E1,1.11653534E2,2.5412563E1,2.6738556E1,3.3203873E1,2.4142517E1,0E0,0E0,0E0,0E0,0E0,0E0,0E0,0E0],"parents":[2147483647,0,0,1,1,2,2,3,3,4,4,5,5,6,6],"right_children":[2,4,6,8,10,12,14,-1,-1,-1,-1,-1,-1,-1,-1],"split_conditions":[4.7E-1,-2E0,1.2E1,-4.8E0,2.4E1,1E1,8E0,6.7567884E-4,-2.9601273E-3,8.2081516E-4,3.3368154E-3,-2.5090368E-3,2.009221E-4,-5.982787E-3,-3.7756427E-3],"split_indices":[3,77,80,25,51,51,51,0,0,0,0,0,0,0,0],"split_type":[0,0,0,0,0,0,0,0,0,0,0,0,0,0,0],"sum_hessian":[6.381862E3,2.494358E3,3.8875042E3,7.8296185E2,1.7113961E3,1.8264403E3,2.0610637E3,3.3649857E2,4.4646332E2,7.614952E2,9.499009E2,1.0064406E3,8.199997E2,8.507549E2,1.2103088E3],"tree_param":{"num_deleted":"0","num_feature":"106","num_nodes":"15","size_leaf_vector":"1"}},{"base_weights":[1.461687E-1,-1.0829467E-1,3.094271E-1,1.3986747E-1,-2.2184397E-1,1.2929282E-1,4.6891552E-1,-6.756797E-4,2.9601275E-3,-8.208149E-4,-3.3368142E-3,2.5090373E-3,-2.009221E-4,5.982787E-3,3.775642E-3],"categories":[],"categories_nodes":[],"categories_segments":[],"categories_sizes":[],"default_left":[0,0,0,0,0,0,0,0,0,0,0,0,0,0,0],"id":7,"left_children":[1,3,5,7,9,11,13,-1,-1,-1,-1,-1,-1,-1,-1],"loss_changes":[2.651986E2,7.034681E1,1.1165347E2,2.5412579E1,2.673854E1,3.320388E1,2.4142517E1,0E0,0E0,0E0,0E0,0E0,0E0,0E0,0E0],"parents":[2147483647,0,0,1,1,2,2,3,3,4,4,5,5,6,6],"right_children":[2,4,6,8,10,12,14,-1,-1,-1,-1,-1,-1,-1,-1],"split_conditions":[4.7E-1,-2E0,1.2E1,-4.8E0,2.4E1,1E1,8E0,-6.756797E-4,2.9601275E-3,-8.208149E-4,-3.3368142E-3,2.5090373E-3,-2.009221E-4,5.982787E-3,3.775642E-3],"split_indices":[3,77,80,25,51,51,51,0,0,0,0,0,0,0,0],"split_type":[0,0,0,0,0,0,0,0,0,0,0,0,0,0,0],"sum_hessian":[6.3818623E3,2.494358E3,3.8875042E3,7.829619E2,1.7113961E3,1.8264404E3,2.0610637E3,3.3649854E2,4.4646335E2,7.614951E2,9.4990094E2,1.0064407E3,8.199997E2,8.507549E2,1.2103088E3],"tree_param":{"num_deleted":"0","num_feature":"106","num_nodes":"15","size_leaf_vector":"1"}},{"base_weights":[-1.4471975E-1,-3.4995285E-1,5.373617E-2,-1.9642492E-1,-5.078178E-1,-9.741445E-2,2.6580983E-1,-2.9078184E-3,-3.2988994E-4,-4.149447E-3,-6.505815E-3,-2.2304049E-3,1.6938864E-3,1.435568E-3,3.6315476E-3],"categories":[],"categories_nodes":[],"categories_segments":[],"categories_sizes":[],"default_left":[0,0,0,0,0,0,0,0,0,0,0,0,0,0,0],"id":8,"left_children":[1,3,5,7,9,11,13,-1,-1,-1,-1,-1,-1,-1,-1],"loss_changes":[2.5997113E2,7.594882E1,1.0406472E2,2.4546608E1,2.023349E1,6.357802E1,1.6024422E1,0E0,0E0,0E0,0E0,0E0,0E0,0E0,0E0],"parents":[2147483647,0,0,1,1,2,2,3,3,4,4,5,5,6,6],"right_children":[2,4,6,8,10,12,14,-1,-1,-1,-1,-1,-1,-1,-1],"split_conditions":[1.5E1,1.3E1,5.45E-1,5.1E0,2.3E1,2.6E1,2E1,-2.9078184E-3,-3.2988994E-4,-4.149447E-3,-6.505815E-3,-2.2304049E-3,1.6938864E-3,1.435568E-3,3.6315476E-3],"split_indices":[51,80,55,77,80,51,28,0,0,0,0,0,0,0,0],"split_type":[0,0,0,0,0,0,0,0,0,0,0,0,0,0,0],"sum_hessian":[6.3813745E3,3.1367463E3,3.2446282E3,1.5913547E3,1.5453915E3,1.8947379E3,1.3498901E3,1.0083956E3,5.829591E2,9.38663E2,6.0672845E2,1.2882981E3,6.064399E2,5.994858E2,7.5040436E2],"tree_param":{"num_deleted":"0","num_feature":"106","num_nodes":"15","size_leaf_vector":"1"}},{"base_weights":[1.447198E-1,3.4995288E-1,-5.3736113E-2,1.964249E-1,5.078178E-1,9.741451E-2,-2.658098E-1,2.9078182E-3,3.2988974E-4,4.1494477E-3,6.505815E-3,2.2304053E-3,-1.6938855E-3,-1.4355682E-3,-3.6315464E-3],"categories":[],"categories_nodes":[],"categories_segments":[],"categories_sizes":[],"default_left":[0,0,0,0,0,0,0,0,0,0,0,0,0,0,0],"id":9,"left_children":[1,3,5,7,9,11,13,-1,-1,-1,-1,-1,-1,-1,-1],"loss_changes":[2.5997107E2,7.594885E1,1.0406472E2,2.4546612E1,2.023346E1,6.357801E1,1.6024399E1,0E0,0E0,0E0,0E0,0E0,0E0,0E0,0E0],"parents":[2147483647,0,0,1,1,2,2,3,3,4,4,5,5,6,6],"right_children":[2,4,6,8,10,12,14,-1,-1,-1,-1,-1,-1,-1,-1],"split_conditions":[1.5E1,1.3E1,5.45E-1,5.1E0,2.3E1,2.6E1,2E1,2.9078182E-3,3.2988974E-4,4.1494477E-3,6.505815E-3,2.2304053E-3,-1.6938855E-3,-1.4355682E-3,-3.6315464E-3],"split_indices":[51,80,55,77,80,51,28,0,0,0,0,0,0,0,0],"split_type":[0,0,0,0,0,0,0,0,0,0,0,0,0,0,0],"sum_hessian":[6.3813745E3,3.1367463E3,3.2446282E3,1.5913547E3,1.5453915E3,1.8947379E3,1.3498901E3,1.0083956E3,5.829591E2,9.386631E2,6.0672845E2,1.2882981E3,6.064399E2,5.994858E2,7.5040436E2],"tree_param":{"num_deleted":"0","num_feature":"106","num_nodes":"15","size_leaf_vector":"1"}},{"base_weights":[-1.4328636E-1,1.06476694E-1,-3.035491E-1,-1.376748E-1,2.1819235E-1,-1.2676218E-1,-4.6012095E-1,6.569784E-4,-2.9077774E-3,8.0857304E-4,3.2810206E-3,-2.4649564E-3,2.0303365E-4,-3.7684767E-3,-5.998731E-3],"categories":[],"categories_nodes":[],"categories_segments":[],"categories_sizes":[],"default_left":[0,0,0,0,0,0,0,0,0,0,0,0,0,0,0],"id":10,"left_children":[1,3,5,7,9,11,13,-1,-1,-1,-1,-1,-1,-1,-1],"loss_changes":[2.5548244E2,6.808646E1,1.0755228E2,2.4427414E1,2.5818817E1,3.2182167E1,2.3763062E1,0E0,0E0,0E0,0E0,0E0,0E0,0E0,0E0],"parents":[2147483647,0,0,1,1,2,2,3,3,4,4,5,5,6,6],"right_children":[2,4,6,8,10,12,14,-1,-1,-1,-1,-1,-1,-1,-1],"split_conditions":[4.7E-1,-2E0,1.2E1,-4.8E0,2.4E1,1E1,2.3E1,6.569784E-4,-2.9077774E-3,8.0857304E-4,3.2810206E-3,-2.4649564E-3,2.0303365E-4,-3.7684767E-3,-5.998731E-3],"split_indices":[3,77,80,25,51,51,80,0,0,0,0,0,0,0,0],"split_type":[0,0,0,0,0,0,0,0,0,0,0,0,0,0,0],"sum_hessian":[6.380831E3,2.4941438E3,3.8866873E3,7.829016E2,1.7112421E3,1.8263478E3,2.0603394E3,3.3649417E2,4.4640744E2,7.6148376E2,9.4975836E2,1.00635077E3,8.1999695E2,1.2933658E3,7.669735E2],"tree_param":{"num_deleted":"0","num_feature":"106","num_nodes":"15","size_leaf_vector":"1"}},{"base_weights":[1.4328639E-1,-1.064767E-1,3.0354914E-1,1.3767482E-1,-2.1819238E-1,1.2676221E-1,4.6012098E-1,-6.569775E-4,2.9077774E-3,-8.085728E-4,-3.281021E-3,2.464957E-3,-2.0303341E-4,3.7684767E-3,5.998731E-3],"categories":[],"categories_nodes":[],"categories_segments":[],"categories_sizes":[],"default_left":[0,0,0,0,0,0,0,0,0,0,0,0,0,0,0],"id":11,"left_children":[1,3,5,7,9,11,13,-1,-1,-1,-1,-1,-1,-1,-1],"loss_changes":[2.5548247E2,6.808647E1,1.0755231E2,2.44274E1,2.5818855E1,3.2182175E1,2.3763E1,0E0,0E0,0E0,0E0,0E0,0E0,0E0,0E0],"parents":[2147483647,0,0,1,1,2,2,3,3,4,4,5,5,6,6],"right_children":[2,4,6,8,10,12,14,-1,-1,-1,-1,-1,-1,-1,-1],"split_conditions":[4.7E-1,-2E0,1.2E1,-4.8E0,2.4E1,1E1,2.3E1,-6.569775E-4,2.9077774E-3,-8.085728E-4,-3.281021E-3,2.464957E-3,-2.0303341E-4,3.7684767E-3,5.998731E-3],"split_indices":[3,77,80,25,51,51,80,0,0,0,0,0,0,0,0],"split_type":[0,0,0,0,0,0,0,0,0,0,0,0,0,0,0],"sum_hessian":[6.380831E3,2.4941438E3,3.8866873E3,7.829016E2,1.7112421E3,1.8263478E3,2.0603394E3,3.3649417E2,4.4640744E2,7.614838E2,9.497583E2,1.00635077E3,8.19997E2,1.2933658E3,7.669735E2],"tree_param":{"num_deleted":"0","num_feature":"106","num_nodes":"15","size_leaf_vector":"1"}},{"base_weights":[-1.4187127E-1,-3.4346843E-1,5.303726E-2,-1.9276057E-1,-4.984935E-1,-9.560231E-2,2.6158342E-1,-2.7202095E-3,-2.3283676E-5,-4.0734527E-3,-6.3865026E-3,1.5189027E-3,-2.2576079E-3,1.4160128E-3,3.571336E-3],"categories":[],"categories_nodes":[],"categories_segments":[],"categories_sizes":[],"default_left":[0,0,0,0,0,0,0,0,0,0,0,0,0,0,0],"id":12,"left_children":[1,3,5,7,9,11,13,-1,-1,-1,-1,-1,-1,-1,-1],"loss_changes":[2.5075125E2,7.319217E1,1.0062174E2,2.403178E1,1.9485626E1,6.1094444E1,1.5434799E1,0E0,0E0,0E0,0E0,0E0,0E0,0E0,0E0],"parents":[2147483647,0,0,1,1,2,2,3,3,4,4,5,5,6,6],"right_children":[2,4,6,8,10,12,14,-1,-1,-1,-1,-1,-1,-1,-1],"split_conditions":[1.5E1,1.3E1,5.45E-1,6E0,2.3E1,-4.8E0,2E1,-2.7202095E-3,-2.3283676E-5,-4.0734527E-3,-6.3865026E-3,1.5189027E-3,-2.2576079E-3,1.4160128E-3,3.571336E-3],"split_indices":[51,80,55,77,80,25,28,0,0,0,0,0,0,0,0],"split_type":[0,0,0,0,0,0,0,0,0,0,0,0,0,0,0],"sum_hessian":[6.3801113E3,3.1358684E3,3.2442432E3,1.5912123E3,1.544656E3,1.8944972E3,1.3497458E3,1.1232659E3,4.6794647E2,9.383348E2,6.063213E2,6.5288617E2,1.2416111E3,5.994721E2,7.5027374E2],"tree_param":{"num_deleted":"0","num_feature":"106","num_nodes":"15","size_leaf_vector":"1"}},{"base_weights":[1.4187129E-1,3.4346843E-1,-5.3037256E-2,1.9276059E-1,4.984935E-1,9.56023E-2,-2.615834E-1,2.7202095E-3,2.3283776E-5,4.0734527E-3,6.3865026E-3,-1.5189026E-3,2.2576079E-3,-1.4160126E-3,-3.571336E-3],"categories":[],"categories_nodes":[],"categories_segments":[],"categories_sizes":[],"default_left":[0,0,0,0,0,0,0,0,0,0,0,0,0,0,0],"id":13,"left_children":[1,3,5,7,9,11,13,-1,-1,-1,-1,-1,-1,-1,-1],"loss_changes":[2.5075131E2,7.319211E1,1.0062172E2,2.4031792E1,1.9485626E1,6.109443E1,1.5434807E1,0E0,0E0,0E0,0E0,0E0,0E0,0E0,0E0],"parents":[2147483647,0,0,1,1,2,2,3,3,4,4,5,5,6,6],"right_children":[2,4,6,8,10,12,14,-1,-1,-1,-1,-1,-1,-1,-1],"split_conditions":[1.5E1,1.3E1,5.45E-1,6E0,2.3E1,-4.8E0,2E1,2.7202095E-3,2.3283776E-5,4.0734527E-3,6.3865026E-3,-1.5189026E-3,2.2576079E-3,-1.4160126E-3,-3.571336E-3],"split_indices":[51,80,55,77,80,25,28,0,0,0,0,0,0,0,0],"split_type":[0,0,0,0,0,0,0,0,0,0,0,0,0,0,0],"sum_hessian":[6.3801113E3,3.1358684E3,3.244243E3,1.5912124E3,1.544656E3,1.8944972E3,1.3497458E3,1.1232659E3,4.6794647E2,9.383348E2,6.063213E2,6.528862E2,1.2416111E3,5.994721E2,7.502737E2],"tree_param":{"num_deleted":"0","num_feature":"106","num_nodes":"15","size_leaf_vector":"1"}},{"base_weights":[-1.4047137E-1,1.0469214E-1,-2.978107E-1,-1.3558288E-1,2.14636E-1,-8.787148E-2,-4.2488688E-1,6.350856E-4,-2.854855E-3,7.9645286E-4,3.2268886E-3,-1.6527205E-3,1.8782198E-3,-3.485313E-3,-5.889392E-3],"categories":[],"categories_nodes":[],"categories_segments":[],"categories_sizes":[],"default_left":[0,0,0,0,0,0,0,0,0,0,0,0,0,0,0],"id":14,"left_children":[1,3,5,7,9,11,13,-1,-1,-1,-1,-1,-1,-1,-1],"loss_changes":[2.461452E2,6.593434E1,1.0364789E2,2.341045E1,2.4945984E1,3.1329113E1,3.0118256E1,0E0,0E0,0E0,0E0,0E0,0E0,0E0,0E0],"parents":[2147483647,0,0,1,1,2,2,3,3,4,4,5,5,6,6],"right_children":[2,4,6,8,10,12,14,-1,-1,-1,-1,-1,-1,-1,-1],"split_conditions":[4.7E-1,-2E0,1.1E1,-4.8E0,2.4E1,1.5E1,2.3E1,6.350856E-4,-2.854855E-3,7.9645286E-4,3.2268886E-3,-1.6527205E-3,1.8782198E-3,-3.485313E-3,-5.889392E-3],"split_indices":[3,77,103,25,51,51,80,0,0,0,0,0,0,0,0],"split_type":[0,0,0,0,0,0,0,0,0,0,0,0,0,0,0],"sum_hessian":[6.3793306E3,2.4938264E3,3.885504E3,7.828112E2,1.7110153E3,1.4657194E3,2.4197847E3,3.3648663E2,4.463246E2,7.6145935E2,9.495559E2,1.1447366E3,3.2098276E2,1.6533727E3,7.66412E2],"tree_param":{"num_deleted":"0","num_feature":"106","num_nodes":"15","size_leaf_vector":"1"}},{"base_weights":[1.4047137E-1,-1.0469211E-1,2.978107E-1,1.3558298E-1,-2.14636E-1,8.787147E-2,4.2488688E-1,-6.350847E-4,2.854856E-3,-7.9645286E-4,-3.2268886E-3,1.6527205E-3,-1.8782206E-3,3.4853134E-3,5.889391E-3],"categories":[],"categories_nodes":[],"categories_segments":[],"categories_sizes":[],"default_left":[0,0,0,0,0,0,0,0,0,0,0,0,0,0,0],"id":15,"left_children":[1,3,5,7,9,11,13,-1,-1,-1,-1,-1,-1,-1,-1],"loss_changes":[2.4614513E2,6.593438E1,1.0364792E2,2.3410454E1,2.4945984E1,3.1329132E1,3.0118195E1,0E0,0E0,0E0,0E0,0E0,0E0,0E0,0E0],"parents":[2147483647,0,0,1,1,2,2,3,3,4,4,5,5,6,6],"right_children":[2,4,6,8,10,12,14,-1,-1,-1,-1,-1,-1,-1,-1],"split_conditions":[4.7E-1,-2E0,1.1E1,-4.8E0,2.4E1,1.5E1,2.3E1,-6.350847E-4,2.854856E-3,-7.9645286E-4,-3.2268886E-3,1.6527205E-3,-1.8782206E-3,3.4853134E-3,5.889391E-3],"split_indices":[3,77,103,25,51,51,80,0,0,0,0,0,0,0,0],"split_type":[0,0,0,0,0,0,0,0,0,0,0,0,0,0,0],"sum_hessian":[6.3793306E3,2.4938264E3,3.885504E3,7.828112E2,1.7110153E3,1.4657192E3,2.4197847E3,3.3648663E2,4.463246E2,7.6145935E2,9.495559E2,1.1447366E3,3.2098273E2,1.6533727E3,7.66412E2],"tree_param":{"num_deleted":"0","num_feature":"106","num_nodes":"15","size_leaf_vector":"1"}},{"base_weights":[-1.3908806E-1,-3.3703378E-1,5.224864E-2,-1.7859511E-1,-4.7984946E-1,-9.3872644E-2,2.5725922E-1,-2.7423587E-3,-2.9180938E-4,-3.9370405E-3,-6.2711844E-3,-2.1475216E-3,1.6281485E-3,4.377522E-3,1.9567667E-3],"categories":[],"categories_nodes":[],"categories_segments":[],"categories_sizes":[],"default_left":[0,0,0,0,0,0,0,0,0,0,0,0,0,0,0],"id":16,"left_children":[1,3,5,7,9,11,13,-1,-1,-1,-1,-1,-1,-1,-1],"loss_changes":[2.4163327E2,7.086716E1,9.722445E1,2.125748E1,2.0667572E1,5.8839287E1,1.4925865E1,0E0,0E0,0E0,0E0,0E0,0E0,0E0,0E0],"parents":[2147483647,0,0,1,1,2,2,3,3,4,4,5,5,6,6],"right_children":[2,4,6,8,10,12,14,-1,-1,-1,-1,-1,-1,-1,-1],"split_conditions":[1.5E1,1.2E1,5.45E-1,5.1E0,2.3E1,2.6E1,-6E0,-2.7423587E-3,-2.9180938E-4,-3.9370405E-3,-6.2711844E-3,-2.1475216E-3,1.6281485E-3,4.377522E-3,1.9567667E-3],"split_indices":[51,80,55,77,80,51,25,0,0,0,0,0,0,0,0],"split_type":[0,0,0,0,0,0,0,0,0,0,0,0,0,0,0],"sum_hessian":[6.378412E3,3.1346873E3,3.2437249E3,1.4871283E3,1.647559E3,1.8941859E3,1.349539E3,9.06218E2,5.809103E2,1.0418182E3,6.057408E2,1.2878662E3,6.0631976E2,3.4176044E2,1.0077785E3],"tree_param":{"num_deleted":"0","num_feature":"106","num_nodes":"15","size_leaf_vector":"1"}},{"base_weights":[1.3908803E-1,3.3703378E-1,-5.224867E-2,1.7859514E-1,4.798494E-1,9.387261E-2,-2.5725922E-1,2.7423592E-3,2.9180932E-4,3.9370395E-3,6.2711844E-3,2.1475211E-3,-1.6281485E-3,-4.377522E-3,-1.9567672E-3],"categories":[],"categories_nodes":[],"categories_segments":[],"categories_sizes":[],"default_left":[0,0,0,0,0,0,0,0,0,0,0,0,0,0,0],"id":17,"left_children":[1,3,5,7,9,11,13,-1,-1,-1,-1,-1,-1,-1,-1],"loss_changes":[2.4163327E2,7.0867096E1,9.722444E1,2.1257496E1,2.0667603E1,5.8839275E1,1.4925865E1,0E0,0E0,0E0,0E0,0E0,0E0,0E0,0E0],"parents":[2147483647,0,0,1,1,2,2,3,3,4,4,5,5,6,6],"right_children":[2,4,6,8,10,12,14,-1,-1,-1,-1,-1,-1,-1,-1],"split_conditions":[1.5E1,1.2E1,5.45E-1,5.1E0,2.3E1,2.6E1,-6E0,2.7423592E-3,2.9180932E-4,3.9370395E-3,6.2711844E-3,2.1475211E-3,-1.6281485E-3,-4.377522E-3,-1.9567672E-3],"split_indices":[51,80,55,77,80,51,25,0,0,0,0,0,0,0,0],"split_type":[0,0,0,0,0,0,0,0,0,0,0,0,0,0,0],"sum_hessian":[6.378412E3,3.1346873E3,3.2437249E3,1.4871283E3,1.647559E3,1.8941859E3,1.349539E3,9.06218E2,5.809103E2,1.0418182E3,6.057408E2,1.2878661E3,6.0631976E2,3.4176044E2,1.0077785E3],"tree_param":{"num_deleted":"0","num_feature":"106","num_nodes":"15","size_leaf_vector":"1"}},{"base_weights":[-1.3772027E-1,1.0302662E-1,-2.9226023E-1,-1.3347249E-1,2.1124546E-1,-1.2169582E-1,-4.434681E-1,6.1721215E-4,-2.8046884E-3,7.878569E-4,3.1729748E-3,-2.3825513E-3,2.1435323E-4,-5.701476E-3,-3.5408363E-3],"categories":[],"categories_nodes":[],"categories_segments":[],"categories_sizes":[],"default_left":[0,0,0,0,0,0,0,0,0,0,0,0,0,0,0],"id":18,"left_children":[1,3,5,7,9,11,13,-1,-1,-1,-1,-1,-1,-1,-1],"loss_changes":[2.3733887E2,6.3869514E1,1.0014255E2,2.2503738E1,2.4020638E1,3.0485771E1,2.3112183E1,0E0,0E0,0E0,0E0,0E0,0E0,0E0,0E0],"parents":[2147483647,0,0,1,1,2,2,3,3,4,4,5,5,6,6],"right_children":[2,4,6,8,10,12,14,-1,-1,-1,-1,-1,-1,-1,-1],"split_conditions":[4.7E-1,-2E0,1.2E1,-4.8E0,2.4E1,1E1,8E0,6.1721215E-4,-2.8046884E-3,7.878569E-4,3.1729748E-3,-2.3825513E-3,2.1435323E-4,-5.701476E-3,-3.5408363E-3],"split_indices":[3,77,80,25,51,51,51,0,0,0,0,0,0,0,0],"split_type":[0,0,0,0,0,0,0,0,0,0,0,0,0,0,0],"sum_hessian":[6.3774077E3,2.4934192E3,3.8839885E3,7.826969E2,1.7107223E3,1.8260198E3,2.0579688E3,3.3647635E2,4.4622055E2,7.614315E2,9.492908E2,1.0060637E3,8.19956E2,8.4914514E2,1.2088237E3],"tree_param":{"num_deleted":"0","num_feature":"106","num_nodes":"15","size_leaf_vector":"1"}},{"base_weights":[1.3772027E-1,-1.03026636E-1,2.9226023E-1,1.3347244E-1,-2.1124546E-1,1.2169585E-1,4.434681E-1,-6.1721215E-4,2.8046875E-3,-7.878564E-4,-3.172975E-3,2.3825513E-3,-2.143527E-4,5.701476E-3,3.5408363E-3],"categories":[],"categories_nodes":[],"categories_segments":[],"categories_sizes":[],"default_left":[0,0,0,0,0,0,0,0,0,0,0,0,0,0,0],"id":19,"left_children":[1,3,5,7,9,11,13,-1,-1,-1,-1,-1,-1,-1,-1],"loss_changes":[2.373389E2,6.3869484E1,1.0014255E2,2.2503727E1,2.402066E1,3.0485758E1,2.3112183E1,0E0,0E0,0E0,0E0,0E0,0E0,0E0,0E0],"parents":[2147483647,0,0,1,1,2,2,3,3,4,4,5,5,6,6],"right_children":[2,4,6,8,10,12,14,-1,-1,-1,-1,-1,-1,-1,-1],"split_conditions":[4.7E-1,-2E0,1.2E1,-4.8E0,2.4E1,1E1,8E0,-6.1721215E-4,2.8046875E-3,-7.878564E-4,-3.172975E-3,2.3825513E-3,-2.143527E-4,5.701476E-3,3.5408363E-3],"split_indices":[3,77,80,25,51,51,51,0,0,0,0,0,0,0,0],"split_type":[0,0,0,0,0,0,0,0,0,0,0,0,0,0,0],"sum_hessian":[6.3774077E3,2.4934192E3,3.8839885E3,7.826969E2,1.7107223E3,1.8260198E3,2.0579688E3,3.3647635E2,4.4622052E2,7.6143146E2,9.492908E2,1.0060637E3,8.19956E2,8.491451E2,1.2088237E3],"tree_param":{"num_deleted":"0","num_feature":"106","num_nodes":"15","size_leaf_vector":"1"}},{"base_weights":[-1.3636951E-1,-3.3072013E-1,5.143498E-2,-1.851575E-1,-4.8063225E-1,-9.2362076E-2,2.5318518E-1,-2.6268847E-3,1.062342E-5,-3.9205817E-3,-6.1696903E-3,-2.1095183E-3,1.5944578E-3,1.3667042E-3,3.4601649E-3],"categories":[],"categories_nodes":[],"categories_segments":[],"categories_sizes":[],"default_left":[0,0,0,0,0,0,0,0,0,0,0,0,0,0,0],"id":20,"left_children":[1,3,5,7,9,11,13,-1,-1,-1,-1,-1,-1,-1,-1],"loss_changes":[2.3278629E2,6.830301E1,9.413861E1,2.2981895E1,1.8395813E1,5.661675E1,1.4557648E1,0E0,0E0,0E0,0E0,0E0,0E0,0E0,0E0],"parents":[2147483647,0,0,1,1,2,2,3,3,4,4,5,5,6,6],"right_children":[2,4,6,8,10,12,14,-1,-1,-1,-1,-1,-1,-1,-1],"split_conditions":[1.5E1,1.3E1,5.45E-1,6E0,2.3E1,2.6E1,2E1,-2.6268847E-3,1.062342E-5,-3.9205817E-3,-6.1696903E-3,-2.1095183E-3,1.5944578E-3,1.3667042E-3,3.4601649E-3],"split_indices":[51,80,55,77,80,51,28,0,0,0,0,0,0,0,0],"split_type":[0,0,0,0,0,0,0,0,0,0,0,0,0,0,0],"sum_hessian":[6.3762554E3,3.1331428E3,3.2431125E3,1.590766E3,1.5423768E3,1.8938306E3,1.3492819E3,1.1228616E3,4.6790433E2,9.373096E2,6.050672E2,1.2875955E3,6.0623517E2,5.994148E2,7.498671E2],"tree_param":{"num_deleted":"0","num_feature":"106","num_nodes":"15","size_leaf_vector":"1"}},{"base_weights":[1.3636951E-1,3.3072013E-1,-5.143498E-2,1.851575E-1,4.8063225E-1,9.236209E-2,-2.5318518E-1,2.6268847E-3,-1.0623036E-5,3.9205817E-3,6.1696903E-3,2.1095183E-3,-1.5944574E-3,-1.3667047E-3,-3.4601649E-3],"categories":[],"categories_nodes":[],"categories_segments":[],"categories_sizes":[],"default_left":[0,0,0,0,0,0,0,0,0,0,0,0,0,0,0],"id":21,"left_children":[1,3,5,7,9,11,13,-1,-1,-1,-1,-1,-1,-1,-1],"loss_changes":[2.3278629E2,6.830304E1,9.4138626E1,2.2981884E1,1.8395782E1,5.6616737E1,1.4557648E1,0E0,0E0,0E0,0E0,0E0,0E0,0E0,0E0],"parents":[2147483647,0,0,1,1,2,2,3,3,4,4,5,5,6,6],"right_children":[2,4,6,8,10,12,14,-1,-1,-1,-1,-1,-1,-1,-1],"split_conditions":[1.5E1,1.3E1,5.45E-1,6E0,2.3E1,2.6E1,2E1,2.6268847E-3,-1.0623036E-5,3.9205817E-3,6.1696903E-3,2.1095183E-3,-1.5944574E-3,-1.3667047E-3,-3.4601649E-3],"split_indices":[51,80,55,77,80,51,28,0,0,0,0,0,0,0,0],"split_type":[0,0,0,0,0,0,0,0,0,0,0,0,0,0,0],"sum_hessian":[6.3762554E3,3.1331428E3,3.2431125E3,1.5907659E3,1.5423768E3,1.8938307E3,1.3492819E3,1.1228616E3,4.6790433E2,9.3730963E2,6.050672E2,1.2875955E3,6.0623517E2,5.994148E2,7.498671E2],"tree_param":{"num_deleted":"0","num_feature":"106","num_nodes":"15","size_leaf_vector":"1"}},{"base_weights":[-1.3503316E-1,1.01305E-1,-2.8678522E-1,-1.3139819E-1,2.077907E-1,-8.3621345E-2,-4.098871E-1,5.998206E-4,-2.7555646E-3,7.760425E-4,3.120512E-3,-2.1674829E-3,6.8391714E-4,-3.3573748E-3,-5.6938445E-3],"categories":[],"categories_nodes":[],"categories_segments":[],"categories_sizes":[],"default_left":[0,0,0,0,0,0,0,0,0,0,0,0,0,0,0],"id":22,"left_children":[1,3,5,7,9,11,13,-1,-1,-1,-1,-1,-1,-1,-1],"loss_changes":[2.287045E2,6.1825424E1,9.708212E1,2.163414E1,2.3204552E1,2.9690023E1,2.840268E1,0E0,0E0,0E0,0E0,0E0,0E0,0E0,0E0],"parents":[2147483647,0,0,1,1,2,2,3,3,4,4,5,5,6,6],"right_children":[2,4,6,8,10,12,14,-1,-1,-1,-1,-1,-1,-1,-1],"split_conditions":[4.7E-1,-2E0,1.1E1,-4.8E0,2.4E1,1E1,2.3E1,5.998206E-4,-2.7555646E-3,7.760425E-4,3.120512E-3,-2.1674829E-3,6.8391714E-4,-3.3573748E-3,-5.6938445E-3],"split_indices":[3,77,103,25,51,51,80,0,0,0,0,0,0,0,0],"split_type":[0,0,0,0,0,0,0,0,0,0,0,0,0,0,0],"sum_hessian":[6.3750405E3,2.492915E3,3.8821252E3,7.825577E2,1.7103573E3,1.4653811E3,2.4167441E3,3.3646313E2,4.4609454E2,7.6138574E2,9.489715E2,7.8099304E2,6.843881E2,1.651892E3,7.648523E2],"tree_param":{"num_deleted":"0","num_feature":"106","num_nodes":"15","size_leaf_vector":"1"}},{"base_weights":[1.3503316E-1,-1.0130499E-1,2.8678522E-1,1.3139825E-1,-2.0779072E-1,8.3621316E-2,4.098871E-1,-5.9981976E-4,2.7555649E-3,-7.7604264E-4,-3.120512E-3,2.167482E-3,-6.8391714E-4,3.3573748E-3,5.6938445E-3],"categories":[],"categories_nodes":[],"categories_segments":[],"categories_sizes":[],"default_left":[0,0,0,0,0,0,0,0,0,0,0,0,0,0,0],"id":23,"left_children":[1,3,5,7,9,11,13,-1,-1,-1,-1,-1,-1,-1,-1],"loss_changes":[2.2870447E2,6.1825447E1,9.708215E1,2.1634132E1,2.3204552E1,2.9690012E1,2.840271E1,0E0,0E0,0E0,0E0,0E0,0E0,0E0,0E0],"parents":[2147483647,0,0,1,1,2,2,3,3,4,4,5,5,6,6],"right_children":[2,4,6,8,10,12,14,-1,-1,-1,-1,-1,-1,-1,-1],"split_conditions":[4.7E-1,-2E0,1.1E1,-4.8E0,2.4E1,1E1,2.3E1,-5.9981976E-4,2.7555649E-3,-7.7604264E-4,-3.120512E-3,2.167482E-3,-6.8391714E-4,3.3573748E-3,5.6938445E-3],"split_indices":[3,77,103,25,51,51,80,0,0,0,0,0,0,0,0],"split_type":[0,0,0,0,0,0,0,0,0,0,0,0,0,0,0],"sum_hessian":[6.3750405E3,2.492915E3,3.8821252E3,7.8255774E2,1.7103573E3,1.4653811E3,2.4167441E3,3.3646317E2,4.4609457E2,7.613858E2,9.489715E2,7.8099304E2,6.843881E2,1.651892E3,7.6485223E2],"tree_param":{"num_deleted":"0","num_feature":"106","num_nodes":"15","size_leaf_vector":"1"}},{"base_weights":[-1.3371252E-1,-3.2470486E-1,5.078478E-2,-1.8156338E-1,-4.7223803E-1,-9.067998E-2,2.4926206E-1,-2.5811237E-3,2.2597207E-5,-3.8532072E-3,-6.0613244E-3,1.4310378E-3,-2.1366705E-3,4.2447257E-3,1.895216E-3],"categories":[],"categories_nodes":[],"categories_segments":[],"categories_sizes":[],"default_left":[0,0,0,0,0,0,0,0,0,0,0,0,0,0,0],"id":24,"left_children":[1,3,5,7,9,11,13,-1,-1,-1,-1,-1,-1,-1,-1],"loss_changes":[2.2464569E2,6.606372E1,9.108795E1,2.239484E1,1.771054E1,5.449865E1,1.4049873E1,0E0,0E0,0E0,0E0,0E0,0E0,0E0,0E0],"parents":[2147483647,0,0,1,1,2,2,3,3,4,4,5,5,6,6],"right_children":[2,4,6,8,10,12,14,-1,-1,-1,-1,-1,-1,-1,-1],"split_conditions":[1.5E1,1.3E1,5.45E-1,6E0,2.3E1,-4.8E0,-6E0,-2.5811237E-3,2.2597207E-5,-3.8532072E-3,-6.0613244E-3,1.4310378E-3,-2.1366705E-3,4.2447257E-3,1.895216E-3],"split_indices":[51,80,55,77,80,25,25,0,0,0,0,0,0,0,0],"split_type":[0,0,0,0,0,0,0,0,0,0,0,0,0,0,0],"sum_hessian":[6.373707E3,3.1313552E3,3.2423518E3,1.5904651E3,1.5408901E3,1.8933844E3,1.3489674E3,1.1225854E3,4.6787955E2,9.367066E2,6.041836E2,6.526366E2,1.2407478E3,3.4144656E2,1.0075208E3],"tree_param":{"num_deleted":"0","num_feature":"106","num_nodes":"15","size_leaf_vector":"1"}},{"base_weights":[1.337125E-1,3.2470486E-1,-5.0784774E-2,1.8156339E-1,4.7223797E-1,9.068E-2,-2.4926206E-1,2.581124E-3,-2.259769E-5,3.8532065E-3,6.061324E-3,-1.4310374E-3,2.1366708E-3,-4.244725E-3,-1.8952164E-3],"categories":[],"categories_nodes":[],"categories_segments":[],"categories_sizes":[],"default_left":[0,0,0,0,0,0,0,0,0,0,0,0,0,0,0],"id":25,"left_children":[1,3,5,7,9,11,13,-1,-1,-1,-1,-1,-1,-1,-1],"loss_changes":[2.2464566E2,6.606363E1,9.108797E1,2.2394852E1,1.7710602E1,5.4498642E1,1.404985E1,0E0,0E0,0E0,0E0,0E0,0E0,0E0,0E0],"parents":[2147483647,0,0,1,1,2,2,3,3,4,4,5,5,6,6],"right_children":[2,4,6,8,10,12,14,-1,-1,-1,-1,-1,-1,-1,-1],"split_conditions":[1.5E1,1.3E1,5.45E-1,6E0,2.3E1,-4.8E0,-6E0,2.581124E-3,-2.259769E-5,3.8532065E-3,6.061324E-3,-1.4310374E-3,2.1366708E-3,-4.244725E-3,-1.8952164E-3],"split_indices":[51,80,55,77,80,25,25,0,0,0,0,0,0,0,0],"split_type":[0,0,0,0,0,0,0,0,0,0,0,0,0,0,0],"sum_hessian":[6.373707E3,3.1313552E3,3.2423518E3,1.590465E3,1.5408903E3,1.8933844E3,1.3489674E3,1.1225854E3,4.6787952E2,9.367066E2,6.041836E2,6.5263666E2,1.2407478E3,3.4144656E2,1.0075208E3],"tree_param":{"num_deleted":"0","num_feature":"106","num_nodes":"15","size_leaf_vector":"1"}},{"base_weights":[-1.3240612E-1,9.9699505E-2,-2.8148863E-1,-1.2941799E-1,2.0454782E-1,-4.1360095E-1,-9.849782E-2,5.79341E-4,-2.7058145E-3,7.676152E-4,3.0691966E-3,-3.3867666E-3,-5.591477E-3,-2.321778E-3,5.9825974E-4],"categories":[],"categories_nodes":[],"categories_segments":[],"categories_sizes":[],"default_left":[0,0,0,0,0,0,0,0,0,0,0,0,0,0,0],"id":26,"left_children":[1,3,5,7,9,11,13,-1,-1,-1,-1,-1,-1,-1,-1],"loss_changes":[2.2056259E2,5.992276E1,9.378293E1,2.0734268E1,2.2358475E1,2.4384888E1,3.448007E1,0E0,0E0,0E0,0E0,0E0,0E0,0E0,0E0],"parents":[2147483647,0,0,1,1,2,2,3,3,4,4,5,5,6,6],"right_children":[2,4,6,8,10,12,14,-1,-1,-1,-1,-1,-1,-1,-1],"split_conditions":[4.7E-1,-2E0,1.6E0,-4.8E0,2.4E1,2.3E1,1E1,5.79341E-4,-2.7058145E-3,7.676152E-4,3.0691966E-3,-3.3867666E-3,-5.591477E-3,-2.321778E-3,5.9825974E-4],"split_indices":[3,77,77,25,51,80,51,0,0,0,0,0,0,0,0],"split_type":[0,0,0,0,0,0,0,0,0,0,0,0,0,0,0],"sum_hessian":[6.3722974E3,2.4923325E3,3.879965E3,7.823924E2,1.7099401E3,2.2524922E3,1.6274729E3,3.3644815E2,4.4594424E2,7.61341E2,9.4859906E2,1.4892076E3,7.6328467E2,8.821592E2,7.453137E2],"tree_param":{"num_deleted":"0","num_feature":"106","num_nodes":"15","size_leaf_vector":"1"}},{"base_weights":[1.324061E-1,-9.9699534E-2,2.8148863E-1,1.2941802E-1,-2.0454788E-1,4.1360095E-1,9.849783E-2,-5.7934184E-4,2.7058157E-3,-7.6761533E-4,-3.0691975E-3,3.3867666E-3,5.5914763E-3,2.321778E-3,-5.982595E-4],"categories":[],"categories_nodes":[],"categories_segments":[],"categories_sizes":[],"default_left":[0,0,0,0,0,0,0,0,0,0,0,0,0,0,0],"id":27,"left_children":[1,3,5,7,9,11,13,-1,-1,-1,-1,-1,-1,-1,-1],"loss_changes":[2.2056265E2,5.99228E1,9.37829E1,2.0734285E1,2.235849E1,2.4384918E1,3.448007E1,0E0,0E0,0E0,0E0,0E0,0E0,0E0,0E0],"parents":[2147483647,0,0,1,1,2,2,3,3,4,4,5,5,6,6],"right_children":[2,4,6,8,10,12,14,-1,-1,-1,-1,-1,-1,-1,-1],"split_conditions":[4.7E-1,-2E0,1.6E0,-4.8E0,2.4E1,2.3E1,1E1,-5.7934184E-4,2.7058157E-3,-7.6761533E-4,-3.0691975E-3,3.3867666E-3,5.5914763E-3,2.321778E-3,-5.982595E-4],"split_indices":[3,77,77,25,51,80,51,0,0,0,0,0,0,0,0],"split_type":[0,0,0,0,0,0,0,0,0,0,0,0,0,0,0],"sum_hessian":[6.3722974E3,2.4923325E3,3.879965E3,7.8239233E2,1.7099401E3,2.2524922E3,1.6274729E3,3.3644812E2,4.4594424E2,7.61341E2,9.4859906E2,1.4892076E3,7.6328467E2,8.821591E2,7.453137E2],"tree_param":{"num_deleted":"0","num_feature":"106","num_nodes":"15","size_leaf_vector":"1"}},{"base_weights":[-1.311153E-1,-3.1880406E-1,5.0119758E-2,-1.7802322E-1,-4.6403414E-1,-8.90328E-2,2.4535246E-1,-2.6719465E-3,-2.3697809E-4,-3.786866E-3,-5.9563634E-3,-2.0317503E-3,1.5327308E-3,1.3248564E-3,3.3533515E-3],"categories":[],"categories_nodes":[],"categories_segments":[],"categories_sizes":[],"default_left":[0,0,0,0,0,0,0,0,0,0,0,0,0,0,0],"id":28,"left_children":[1,3,5,7,9,11,13,-1,-1,-1,-1,-1,-1,-1,-1],"loss_changes":[2.1675668E2,6.391806E1,8.8110725E1,2.1889664E1,1.7073517E1,5.2410652E1,1.3662254E1,0E0,0E0,0E0,0E0,0E0,0E0,0E0,0E0],"parents":[2147483647,0,0,1,1,2,2,3,3,4,4,5,5,6,6],"right_children":[2,4,6,8,10,12,14,-1,-1,-1,-1,-1,-1,-1,-1],"split_conditions":[1.5E1,1.3E1,5.45E-1,5.1E0,2.3E1,2.6E1,2E1,-2.6719465E-3,-2.3697809E-4,-3.786866E-3,-5.9563634E-3,-2.0317503E-3,1.5327308E-3,1.3248564E-3,3.3533515E-3],"split_indices":[51,80,55,77,80,51,28,0,0,0,0,0,0,0,0],"split_type":[0,0,0,0,0,0,0,0,0,0,0,0,0,0,0],"sum_hessian":[6.3707686E3,3.1292883E3,3.2414802E3,1.5901145E3,1.539174E3,1.8928739E3,1.3486062E3,1.0073321E3,5.8278235E2,9.3601855E2,6.0315546E2,1.2868453E3,6.060286E2,5.993295E2,7.4927673E2],"tree_param":{"num_deleted":"0","num_feature":"106","num_nodes":"15","size_leaf_vector":"1"}},{"base_weights":[1.3111527E-1,3.1880406E-1,-5.0119773E-2,1.780232E-1,4.6403414E-1,8.903278E-2,-2.4535248E-1,2.6719465E-3,2.369779E-4,3.786866E-3,5.9563634E-3,2.0317498E-3,-1.5327304E-3,-1.3248567E-3,-3.3533515E-3],"categories":[],"categories_nodes":[],"categories_segments":[],"categories_sizes":[],"default_left":[0,0,0,0,0,0,0,0,0,0,0,0,0,0,0],"id":29,"left_children":[1,3,5,7,9,11,13,-1,-1,-1,-1,-1,-1,-1,-1],"loss_changes":[2.1675668E2,6.391809E1,8.811072E1,2.188966E1,1.7073517E1,5.241062E1,1.3662262E1,0E0,0E0,0E0,0E0,0E0,0E0,0E0,0E0],"parents":[2147483647,0,0,1,1,2,2,3,3,4,4,5,5,6,6],"right_children":[2,4,6,8,10,12,14,-1,-1,-1,-1,-1,-1,-1,-1],"split_conditions":[1.5E1,1.3E1,5.45E-1,5.1E0,2.3E1,2.6E1,2E1,2.6719465E-3,2.369779E-4,3.786866E-3,5.9563634E-3,2.0317498E-3,-1.5327304E-3,-1.3248567E-3,-3.3533515E-3],"split_indices":[51,80,55,77,80,51,28,0,0,0,0,0,0,0,0],"split_type":[0,0,0,0,0,0,0,0,0,0,0,0,0,0,0],"sum_hessian":[6.3707686E3,3.1292886E3,3.2414802E3,1.5901145E3,1.539174E3,1.892874E3,1.3486063E3,1.00733215E3,5.8278235E2,9.3601855E2,6.0315546E2,1.2868455E3,6.060286E2,5.993295E2,7.4927673E2],"tree_param":{"num_deleted":"0","num_feature":"106","num_nodes":"15","size_leaf_vector":"1"}},{"base_weights":[-1.2983848E-1,9.803936E-2,-2.7625886E-1,-1.2741783E-1,2.0121779E-1,-7.989902E-2,-3.954093E-1,5.1402097E-4,-2.6972308E-3,7.5613975E-4,3.0187713E-3,-2.0923768E-3,6.773222E-4,-3.2381844E-3,-5.4968935E-3],"categories":[],"categories_nodes":[],"categories_segments":[],"categories_sizes":[],"default_left":[0,0,0,0,0,0,0,0,0,0,0,0,0,0,0],"id":30,"left_children":[1,3,5,7,9,11,13,-1,-1,-1,-1,-1,-1,-1,-1],"loss_changes":[2.1257384E2,5.8010715E1,9.0711365E1,1.9944176E1,2.1602776E1,2.8005589E1,2.6479828E1,0E0,0E0,0E0,0E0,0E0,0E0,0E0,0E0],"parents":[2147483647,0,0,1,1,2,2,3,3,4,4,5,5,6,6],"right_children":[2,4,6,8,10,12,14,-1,-1,-1,-1,-1,-1,-1,-1],"split_conditions":[4.7E-1,-2E0,1.1E1,-4.6E0,2.4E1,1E1,2.3E1,5.1402097E-4,-2.6972308E-3,7.5613975E-4,3.0187713E-3,-2.0923768E-3,6.773222E-4,-3.2381844E-3,-5.4968935E-3],"split_indices":[3,77,103,25,51,51,80,0,0,0,0,0,0,0,0],"split_type":[0,0,0,0,0,0,0,0,0,0,0,0,0,0,0],"sum_hessian":[6.369168E3,2.4916611E3,3.8775066E3,7.822081E2,1.709453E3,1.4649465E3,2.41256E3,3.4691525E2,4.3529285E2,7.6127594E2,9.481771E2,7.8062726E2,6.843193E2,1.6500045E3,7.625556E2],"tree_param":{"num_deleted":"0","num_feature":"106","num_nodes":"15","size_leaf_vector":"1"}},{"base_weights":[1.2983847E-1,-9.803937E-2,2.7625886E-1,1.274178E-1,-2.0121779E-1,7.989899E-2,3.954093E-1,-5.1402184E-4,2.6972308E-3,-7.5613975E-4,-3.0187713E-3,2.0923764E-3,-6.7732215E-4,3.2381844E-3,5.496894E-3],"categories":[],"categories_nodes":[],"categories_segments":[],"categories_sizes":[],"default_left":[0,0,0,0,0,0,0,0,0,0,0,0,0,0,0],"id":31,"left_children":[1,3,5,7,9,11,13,-1,-1,-1,-1,-1,-1,-1,-1],"loss_changes":[2.1257384E2,5.8010696E1,9.0711334E1,1.9944183E1,2.1602768E1,2.8005575E1,2.6479858E1,0E0,0E0,0E0,0E0,0E0,0E0,0E0,0E0],"parents":[2147483647,0,0,1,1,2,2,3,3,4,4,5,5,6,6],"right_children":[2,4,6,8,10,12,14,-1,-1,-1,-1,-1,-1,-1,-1],"split_conditions":[4.7E-1,-2E0,1.1E1,-4.6E0,2.4E1,1E1,2.3E1,-5.1402184E-4,2.6972308E-3,-7.5613975E-4,-3.0187713E-3,2.0923764E-3,-6.7732215E-4,3.2381844E-3,5.496894E-3],"split_indices":[3,77,103,25,51,51,80,0,0,0,0,0,0,0,0],"split_type":[0,0,0,0,0,0,0,0,0,0,0,0,0,0,0],"sum_hessian":[6.3691675E3,2.4916611E3,3.8775066E3,7.8220807E2,1.709453E3,1.4649465E3,2.41256E3,3.4691525E2,4.3529285E2,7.6127594E2,9.4817706E2,7.8062726E2,6.843193E2,1.6500045E3,7.625556E2],"tree_param":{"num_deleted":"0","num_feature":"106","num_nodes":"15","size_leaf_vector":"1"}},{"base_weights":[-1.2857622E-1,-3.1306055E-1,4.9486466E-2,-1.6506912E-1,-4.4690192E-1,-8.7418206E-2,2.4156648E-1,-2.4221756E-3,3.793483E-5,-3.661358E-3,-5.8545177E-3,1.3747915E-3,-2.0576874E-3,4.11758E-3,1.835899E-3],"categories":[],"categories_nodes":[],"categories_segments":[],"categories_sizes":[],"default_left":[0,0,0,0,0,0,0,0,0,0,0,0,0,0,0],"id":32,"left_children":[1,3,5,7,9,11,13,-1,-1,-1,-1,-1,-1,-1,-1],"loss_changes":[2.0921814E2,6.1883087E1,8.5261635E1,1.9373394E1,1.8158966E1,5.0421867E1,1.3237045E1,0E0,0E0,0E0,0E0,0E0,0E0,0E0,0E0],"parents":[2147483647,0,0,1,1,2,2,3,3,4,4,5,5,6,6],"right_children":[2,4,6,8,10,12,14,-1,-1,-1,-1,-1,-1,-1,-1],"split_conditions":[1.5E1,1.2E1,5.45E-1,6E0,2.3E1,-4.8E0,-6E0,-2.4221756E-3,3.793483E-5,-3.661358E-3,-5.8545177E-3,1.3747915E-3,-2.0576874E-3,4.11758E-3,1.835899E-3],"split_indices":[51,80,55,77,80,25,25,0,0,0,0,0,0,0,0],"split_type":[0,0,0,0,0,0,0,0,0,0,0,0,0,0,0],"sum_hessian":[6.367465E3,3.126968E3,3.240497E3,1.4860463E3,1.6409218E3,1.892305E3,1.348192E3,1.0197277E3,4.663185E2,1.0389312E3,6.019906E2,6.524037E2,1.2399014E3,3.4101947E2,1.00717255E3],"tree_param":{"num_deleted":"0","num_feature":"106","num_nodes":"15","size_leaf_vector":"1"}},{"base_weights":[1.2857622E-1,3.1306055E-1,-4.9486484E-2,1.6506915E-1,4.4690192E-1,8.74182E-2,-2.4156651E-1,2.4221756E-3,-3.7934053E-5,3.661358E-3,5.8545177E-3,-1.3747921E-3,2.0576876E-3,-4.117581E-3,-1.835899E-3],"categories":[],"categories_nodes":[],"categories_segments":[],"categories_sizes":[],"default_left":[0,0,0,0,0,0,0,0,0,0,0,0,0,0,0],"id":33,"left_children":[1,3,5,7,9,11,13,-1,-1,-1,-1,-1,-1,-1,-1],"loss_changes":[2.092182E2,6.1883026E1,8.526165E1,1.9373383E1,1.8158966E1,5.0421886E1,1.3237053E1,0E0,0E0,0E0,0E0,0E0,0E0,0E0,0E0],"parents":[2147483647,0,0,1,1,2,2,3,3,4,4,5,5,6,6],"right_children":[2,4,6,8,10,12,14,-1,-1,-1,-1,-1,-1,-1,-1],"split_conditions":[1.5E1,1.2E1,5.45E-1,6E0,2.3E1,-4.8E0,-6E0,2.4221756E-3,-3.7934053E-5,3.661358E-3,5.8545177E-3,-1.3747921E-3,2.0576876E-3,-4.117581E-3,-1.835899E-3],"split_indices":[51,80,55,77,80,25,25,0,0,0,0,0,0,0,0],"split_type":[0,0,0,0,0,0,0,0,0,0,0,0,0,0,0],"sum_hessian":[6.367465E3,3.126968E3,3.240497E3,1.4860463E3,1.6409218E3,1.8923049E3,1.348192E3,1.0197277E3,4.6631854E2,1.0389312E3,6.019906E2,6.524037E2,1.2399014E3,3.4101947E2,1.00717255E3],"tree_param":{"num_deleted":"0","num_feature":"106","num_nodes":"15","size_leaf_vector":"1"}},{"base_weights":[-1.2732737E-1,-2.4410495E-1,1.4889054E-1,-1.05440624E-1,-4.030169E-1,3.0368453E-1,-8.478386E-3,2.0353959E-4,-2.5422454E-3,-5.4634265E-3,-3.245641E-3,9.235472E-4,3.5904294E-3,1.2529027E-3,-1.5842298E-3],"categories":[],"categories_nodes":[],"categories_segments":[],"categories_sizes":[],"default_left":[0,0,0,0,0,0,0,0,0,0,0,0,0,0,0],"id":34,"left_children":[1,3,5,7,9,11,13,-1,-1,-1,-1,-1,-1,-1,-1],"loss_changes":[2.0540071E2,9.8570984E1,4.6102627E1,4.4759727E1,2.326709E1,1.1128334E1,1.8862251E1,0E0,0E0,0E0,0E0,0E0,0E0,0E0,0E0],"parents":[2147483647,0,0,1,1,2,2,3,3,4,4,5,5,6,6],"right_children":[2,4,6,8,10,12,14,-1,-1,-1,-1,-1,-1,-1,-1],"split_conditions":[2E1,1.4E1,1.6E1,2.9E0,8E0,2.2E1,-4.8E0,2.0353959E-4,-2.5422454E-3,-5.4634265E-3,-3.245641E-3,9.235472E-4,3.5904294E-3,1.2529027E-3,-1.5842298E-3],"split_indices":[28,80,103,25,51,51,25,0,0,0,0,0,0,0,0],"split_type":[0,0,0,0,0,0,0,0,0,0,0,0,0,0,0],"sum_hessian":[6.365692E3,4.474225E3,1.8914669E3,2.390218E3,2.0840068E3,9.5306573E2,9.384011E2,1.2956384E3,1.0945797E3,7.3509503E2,1.3489119E3,1.9838863E2,7.546771E2,4.9603897E2,4.4236215E2],"tree_param":{"num_deleted":"0","num_feature":"106","num_nodes":"15","size_leaf_vector":"1"}},{"base_weights":[1.2732737E-1,2.4410495E-1,-1.4889055E-1,1.05440624E-1,4.0301692E-1,-3.0368456E-1,8.478369E-3,-2.0353963E-4,2.5422454E-3,5.4634274E-3,3.2456405E-3,-9.2354714E-4,-3.5904297E-3,-1.252903E-3,1.5842298E-3],"categories":[],"categories_nodes":[],"categories_segments":[],"categories_sizes":[],"default_left":[0,0,0,0,0,0,0,0,0,0,0,0,0,0,0],"id":35,"left_children":[1,3,5,7,9,11,13,-1,-1,-1,-1,-1,-1,-1,-1],"loss_changes":[2.0540074E2,9.857095E1,4.6102623E1,4.475972E1,2.326715E1,1.1128342E1,1.8862257E1,0E0,0E0,0E0,0E0,0E0,0E0,0E0,0E0],"parents":[2147483647,0,0,1,1,2,2,3,3,4,4,5,5,6,6],"right_children":[2,4,6,8,10,12,14,-1,-1,-1,-1,-1,-1,-1,-1],"split_conditions":[2E1,1.4E1,1.6E1,2.9E0,8E0,2.2E1,-4.8E0,-2.0353963E-4,2.5422454E-3,5.4634274E-3,3.2456405E-3,-9.2354714E-4,-3.5904297E-3,-1.252903E-3,1.5842298E-3],"split_indices":[28,80,103,25,51,51,25,0,0,0,0,0,0,0,0],"split_type":[0,0,0,0,0,0,0,0,0,0,0,0,0,0,0],"sum_hessian":[6.365692E3,4.474225E3,1.8914668E3,2.390218E3,2.0840068E3,9.5306573E2,9.384011E2,1.2956384E3,1.0945797E3,7.35095E2,1.3489119E3,1.9838863E2,7.5467706E2,4.9603894E2,4.4236215E2],"tree_param":{"num_deleted":"0","num_feature":"106","num_nodes":"15","size_leaf_vector":"1"}},{"base_weights":[-1.260911E-1,-3.073314E-1,4.87508E-2,-1.6188902E-1,-4.3901524E-1,-1.8597287E-1,1.579754E-1,-2.524739E-3,-2.051655E-4,-3.5899794E-3,-5.7641757E-3,3.819921E-4,-3.0496018E-3,5.494155E-4,2.9144154E-3],"categories":[],"categories_nodes":[],"categories_segments":[],"categories_sizes":[],"default_left":[0,0,0,0,0,0,0,0,0,0,0,0,0,0,0],"id":36,"left_children":[1,3,5,7,9,11,13,-1,-1,-1,-1,-1,-1,-1,-1],"loss_changes":[2.0170847E2,5.9787872E1,8.310796E1,1.9033817E1,1.7820862E1,2.7472572E1,3.040213E1,0E0,0E0,0E0,0E0,0E0,0E0,0E0,0E0],"parents":[2147483647,0,0,1,1,2,2,3,3,4,4,5,5,6,6],"right_children":[2,4,6,8,10,12,14,-1,-1,-1,-1,-1,-1,-1,-1],"split_conditions":[1.5E1,1.2E1,-1.9E0,5.1E0,2.3E1,-4.8E0,2.4E1,-2.524739E-3,-2.051655E-4,-3.5899794E-3,-5.7641757E-3,3.819921E-4,-3.0496018E-3,5.494155E-4,2.9144154E-3],"split_indices":[51,80,77,77,80,25,51,0,0,0,0,0,0,0,0],"split_type":[0,0,0,0,0,0,0,0,0,0,0,0,0,0,0],"sum_hessian":[6.363899E3,3.124401E3,3.2394978E3,1.4857007E3,1.6387002E3,1.0285155E3,2.2109822E3,9.0502014E2,5.8068054E2,1.0378898E3,6.008104E2,3.568636E2,6.7165186E2,1.2485399E3,9.624423E2],"tree_param":{"num_deleted":"0","num_feature":"106","num_nodes":"15","size_leaf_vector":"1"}},{"base_weights":[1.260911E-1,3.073314E-1,-4.8750803E-2,1.6188899E-1,4.3901524E-1,1.8597285E-1,-1.579754E-1,2.5247387E-3,2.0516514E-4,3.5899791E-3,5.7641757E-3,-3.8199246E-4,3.049602E-3,-5.4941524E-4,-2.914416E-3],"categories":[],"categories_nodes":[],"categories_segments":[],"categories_sizes":[],"default_left":[0,0,0,0,0,0,0,0,0,0,0,0,0,0,0],"id":37,"left_children":[1,3,5,7,9,11,13,-1,-1,-1,-1,-1,-1,-1,-1],"loss_changes":[2.0170847E2,5.9787872E1,8.310796E1,1.9033817E1,1.7820862E1,2.7472588E1,3.0402142E1,0E0,0E0,0E0,0E0,0E0,0E0,0E0,0E0],"parents":[2147483647,0,0,1,1,2,2,3,3,4,4,5,5,6,6],"right_children":[2,4,6,8,10,12,14,-1,-1,-1,-1,-1,-1,-1,-1],"split_conditions":[1.5E1,1.2E1,-1.9E0,5.1E0,2.3E1,-4.8E0,2.4E1,2.5247387E-3,2.0516514E-4,3.5899791E-3,5.7641757E-3,-3.8199246E-4,3.049602E-3,-5.4941524E-4,-2.914416E-3],"split_indices":[51,80,77,77,80,25,51,0,0,0,0,0,0,0,0],"split_type":[0,0,0,0,0,0,0,0,0,0,0,0,0,0,0],"sum_hessian":[6.363899E3,3.1244011E3,3.2394978E3,1.4857007E3,1.6387003E3,1.0285155E3,2.2109822E3,9.0502014E2,5.806806E2,1.0378898E3,6.008105E2,3.5686362E2,6.7165186E2,1.2485399E3,9.624423E2],"tree_param":{"num_deleted":"0","num_feature":"106","num_nodes":"15","size_leaf_vector":"1"}},{"base_weights":[-1.2487038E-1,-2.3961823E-1,1.4646451E-1,-1.03349864E-1,-3.9593747E-1,2.9874846E-1,-8.31062E-3,2.0540759E-4,-2.4993015E-3,-5.3738505E-3,-3.1858578E-3,9.1176055E-4,3.5315293E-3,1.2275496E-3,-1.5524373E-3],"categories":[],"categories_nodes":[],"categories_segments":[],"categories_sizes":[],"default_left":[0,0,0,0,0,0,0,0,0,0,0,0,0,0,0],"id":38,"left_children":[1,3,5,7,9,11,13,-1,-1,-1,-1,-1,-1,-1,-1],"loss_changes":[1.9814658E2,9.5223145E1,4.459084E1,4.3419964E1,2.2613983E1,1.0736473E1,1.8105654E1,0E0,0E0,0E0,0E0,0E0,0E0,0E0,0E0],"parents":[2147483647,0,0,1,1,2,2,3,3,4,4,5,5,6,6],"right_children":[2,4,6,8,10,12,14,-1,-1,-1,-1,-1,-1,-1,-1],"split_conditions":[2E1,1.4E1,1.6E1,2.9E0,8E0,2.2E1,-4.8E0,2.0540759E-4,-2.4993015E-3,-5.3738505E-3,-3.1858578E-3,9.1176055E-4,3.5315293E-3,1.2275496E-3,-1.5524373E-3],"split_indices":[28,80,103,25,51,51,25,0,0,0,0,0,0,0,0],"split_type":[0,0,0,0,0,0,0,0,0,0,0,0,0,0,0],"sum_hessian":[6.361965E3,4.471204E3,1.8907605E3,2.3896946E3,2.0815098E3,9.5258124E2,9.381792E2,1.2955483E3,1.0941461E3,7.3376984E2,1.3477399E3,1.9837726E2,7.54204E2,4.9595114E2,4.4222806E2],"tree_param":{"num_deleted":"0","num_feature":"106","num_nodes":"15","size_leaf_vector":"1"}},{"base_weights":[1.2487039E-1,2.3961823E-1,-1.464645E-1,1.0334988E-1,3.9593747E-1,-2.9874843E-1,8.310629E-3,-2.0540762E-4,2.499302E-3,5.3738495E-3,3.1858578E-3,-9.117603E-4,-3.5315289E-3,-1.2275492E-3,1.5524371E-3],"categories":[],"categories_nodes":[],"categories_segments":[],"categories_sizes":[],"default_left":[0,0,0,0,0,0,0,0,0,0,0,0,0,0,0],"id":39,"left_children":[1,3,5,7,9,11,13,-1,-1,-1,-1,-1,-1,-1,-1],"loss_changes":[1.9814659E2,9.5223145E1,4.459083E1,4.341998E1,2.2613922E1,1.0736473E1,1.8105644E1,0E0,0E0,0E0,0E0,0E0,0E0,0E0,0E0],"parents":[2147483647,0,0,1,1,2,2,3,3,4,4,5,5,6,6],"right_children":[2,4,6,8,10,12,14,-1,-1,-1,-1,-1,-1,-1,-1],"split_conditions":[2E1,1.4E1,1.6E1,2.9E0,8E0,2.2E1,-4.8E0,-2.0540762E-4,2.499302E-3,5.3738495E-3,3.1858578E-3,-9.117603E-4,-3.5315289E-3,-1.2275492E-3,1.5524371E-3],"split_indices":[28,80,103,25,51,51,25,0,0,0,0,0,0,0,0],"split_type":[0,0,0,0,0,0,0,0,0,0,0,0,0,0,0],"sum_hessian":[6.361965E3,4.471204E3,1.8907605E3,2.3896946E3,2.0815098E3,9.5258124E2,9.381792E2,1.2955485E3,1.0941461E3,7.337699E2,1.3477399E3,1.9837724E2,7.54204E2,4.9595114E2,4.4222806E2],"tree_param":{"num_deleted":"0","num_feature":"106","num_nodes":"15","size_leaf_vector":"1"}},{"base_weights":[-1.23661146E-1,9.435971E-2,-2.638933E-1,-1.2227781E-1,1.9351485E-1,-7.465542E-2,-3.7897414E-1,4.771534E-4,-2.57692E-3,7.41145E-4,2.893117E-3,-1.9962676E-3,6.789566E-4,-3.2140487E-3,-5.6033526E-3],"categories":[],"categories_nodes":[],"categories_segments":[],"categories_sizes":[],"default_left":[0,0,0,0,0,0,0,0,0,0,0,0,0,0,0],"id":40,"left_children":[1,3,5,7,9,11,13,-1,-1,-1,-1,-1,-1,-1,-1],"loss_changes":[1.9450348E2,5.3524574E1,8.428085E1,1.8028416E1,1.952642E1,2.6116432E1,2.4952332E1,0E0,0E0,0E0,0E0,0E0,0E0,0E0,0E0],"parents":[2147483647,0,0,1,1,2,2,3,3,4,4,5,5,6,6],"right_children":[2,4,6,8,10,12,14,-1,-1,-1,-1,-1,-1,-1,-1],"split_conditions":[4.7E-1,-2E0,1.1E1,-4.6E0,2.4E1,1E1,2.6E1,4.771534E-4,-2.57692E-3,7.41145E-4,2.893117E-3,-1.9962676E-3,6.789566E-4,-3.2140487E-3,-5.6033526E-3],"split_indices":[3,77,103,25,51,51,103,0,0,0,0,0,0,0,0],"split_type":[0,0,0,0,0,0,0,0,0,0,0,0,0,0,0],"sum_hessian":[6.3600103E3,2.4896477E3,3.8703623E3,7.816465E2,1.7080012E3,1.4642355E3,2.406127E3,3.4686044E2,4.3478604E2,7.611207E2,9.4688043E2,7.8001416E2,6.842213E2,1.8284851E3,5.776418E2],"tree_param":{"num_deleted":"0","num_feature":"106","num_nodes":"15","size_leaf_vector":"1"}},{"base_weights":[1.2366115E-1,-9.43597E-2,2.638933E-1,1.2227781E-1,-1.9351482E-1,7.4655436E-2,3.789741E-1,-4.77154E-4,2.5769204E-3,-7.41145E-4,-2.8931163E-3,1.9962676E-3,-6.789565E-4,3.2140485E-3,5.6033526E-3],"categories":[],"categories_nodes":[],"categories_segments":[],"categories_sizes":[],"default_left":[0,0,0,0,0,0,0,0,0,0,0,0,0,0,0],"id":41,"left_children":[1,3,5,7,9,11,13,-1,-1,-1,-1,-1,-1,-1,-1],"loss_changes":[1.9450345E2,5.352456E1,8.428085E1,1.8028429E1,1.952642E1,2.6116428E1,2.4952362E1,0E0,0E0,0E0,0E0,0E0,0E0,0E0,0E0],"parents":[2147483647,0,0,1,1,2,2,3,3,4,4,5,5,6,6],"right_children":[2,4,6,8,10,12,14,-1,-1,-1,-1,-1,-1,-1,-1],"split_conditions":[4.7E-1,-2E0,1.1E1,-4.6E0,2.4E1,1E1,2.6E1,-4.77154E-4,2.5769204E-3,-7.41145E-4,-2.8931163E-3,1.9962676E-3,-6.789565E-4,3.2140485E-3,5.6033526E-3],"split_indices":[3,77,103,25,51,51,103,0,0,0,0,0,0,0,0],"split_type":[0,0,0,0,0,0,0,0,0,0,0,0,0,0,0],"sum_hessian":[6.3600103E3,2.4896477E3,3.8703623E3,7.816465E2,1.7080012E3,1.4642355E3,2.406127E3,3.4686044E2,4.3478604E2,7.611207E2,9.4688043E2,7.8001416E2,6.8422125E2,1.8284851E3,5.776418E2],"tree_param":{"num_deleted":"0","num_feature":"106","num_nodes":"15","size_leaf_vector":"1"}},{"base_weights":[-1.2246614E-1,-2.991933E-1,4.7887154E-2,-1.5719712E-1,-4.2798477E-1,-8.413706E-2,2.3312543E-1,-2.3283996E-3,8.266175E-5,-3.4916538E-3,-5.635536E-3,-1.9123328E-3,1.4310024E-3,3.967462E-3,1.7746743E-3],"categories":[],"categories_nodes":[],"categories_segments":[],"categories_sizes":[],"default_left":[0,0,0,0,0,0,0,0,0,0,0,0,0,0,0],"id":42,"left_children":[1,3,5,7,9,11,13,-1,-1,-1,-1,-1,-1,-1,-1],"loss_changes":[1.9145703E2,5.7013275E1,7.922561E1,1.8602001E1,1.7286041E1,4.606449E1,1.2205681E1,0E0,0E0,0E0,0E0,0E0,0E0,0E0,0E0],"parents":[2147483647,0,0,1,1,2,2,3,3,4,4,5,5,6,6],"right_children":[2,4,6,8,10,12,14,-1,-1,-1,-1,-1,-1,-1,-1],"split_conditions":[1.5E1,1.2E1,5.45E-1,6E0,2.3E1,2.6E1,-6E0,-2.3283996E-3,8.266175E-5,-3.4916538E-3,-5.635536E-3,-1.9123328E-3,1.4310024E-3,3.967462E-3,1.7746743E-3],"split_indices":[51,80,55,77,80,51,25,0,0,0,0,0,0,0,0],"split_type":[0,0,0,0,0,0,0,0,0,0,0,0,0,0,0],"sum_hessian":[6.357944E3,3.1202214E3,3.2377224E3,1.4850898E3,1.6351317E3,1.8907096E3,1.347013E3,1.0188893E3,4.6620056E2,1.0362396E3,5.9889215E2,1.285171E3,6.055386E2,3.4034735E2,1.0066655E3],"tree_param":{"num_deleted":"0","num_feature":"106","num_nodes":"15","size_leaf_vector":"1"}},{"base_weights":[1.2246614E-1,2.991933E-1,-4.788716E-2,1.5719712E-1,4.279848E-1,8.4137045E-2,-2.3312543E-1,2.3283996E-3,-8.266148E-5,3.491654E-3,5.635536E-3,1.9123327E-3,-1.4310026E-3,-3.9674616E-3,-1.7746745E-3],"categories":[],"categories_nodes":[],"categories_segments":[],"categories_sizes":[],"default_left":[0,0,0,0,0,0,0,0,0,0,0,0,0,0,0],"id":43,"left_children":[1,3,5,7,9,11,13,-1,-1,-1,-1,-1,-1,-1,-1],"loss_changes":[1.9145703E2,5.7013306E1,7.922561E1,1.860199E1,1.7286041E1,4.60645E1,1.2205673E1,0E0,0E0,0E0,0E0,0E0,0E0,0E0,0E0],"parents":[2147483647,0,0,1,1,2,2,3,3,4,4,5,5,6,6],"right_children":[2,4,6,8,10,12,14,-1,-1,-1,-1,-1,-1,-1,-1],"split_conditions":[1.5E1,1.2E1,5.45E-1,6E0,2.3E1,2.6E1,-6E0,2.3283996E-3,-8.266148E-5,3.491654E-3,5.635536E-3,1.9123327E-3,-1.4310026E-3,-3.9674616E-3,-1.7746745E-3],"split_indices":[51,80,55,77,80,51,25,0,0,0,0,0,0,0,0],"split_type":[0,0,0,0,0,0,0,0,0,0,0,0,0,0,0],"sum_hessian":[6.357944E3,3.1202217E3,3.2377224E3,1.4850898E3,1.6351317E3,1.8907096E3,1.347013E3,1.01888934E3,4.6620056E2,1.0362396E3,5.988921E2,1.285171E3,6.0553864E2,3.4034732E2,1.0066656E3],"tree_param":{"num_deleted":"0","num_feature":"106","num_nodes":"15","size_leaf_vector":"1"}},{"base_weights":[-1.21283956E-1,-2.3311514E-1,1.4301467E-1,-1.00305274E-1,-3.857039E-1,2.9197448E-1,-8.311204E-3,2.0687368E-4,-2.4352786E-3,-5.2525275E-3,-3.0949314E-3,8.905915E-4,3.4520414E-3,1.188992E-3,-1.5094212E-3],"categories":[],"categories_nodes":[],"categories_segments":[],"categories_sizes":[],"default_left":[0,0,0,0,0,0,0,0,0,0,0,0,0,0,0],"id":44,"left_children":[1,3,5,7,9,11,13,-1,-1,-1,-1,-1,-1,-1,-1],"loss_changes":[1.8791995E2,9.048973E1,4.261992E1,4.141635E1,2.1941864E1,1.0260445E1,1.7052328E1,0E0,0E0,0E0,0E0,0E0,0E0,0E0,0E0],"parents":[2147483647,0,0,1,1,2,2,3,3,4,4,5,5,6,6],"right_children":[2,4,6,8,10,12,14,-1,-1,-1,-1,-1,-1,-1,-1],"split_conditions":[2E1,1.4E1,1.6E1,2.9E0,8E0,2.2E1,-4.8E0,2.0687368E-4,-2.4352786E-3,-5.2525275E-3,-3.0949314E-3,8.905915E-4,3.4520414E-3,1.188992E-3,-1.5094212E-3],"split_indices":[28,80,103,25,51,51,25,0,0,0,0,0,0,0,0],"split_type":[0,0,0,0,0,0,0,0,0,0,0,0,0,0,0],"sum_hessian":[6.3557925E3,4.4661665E3,1.8896259E3,2.3887283E3,2.0774385E3,9.51789E2,9.378368E2,1.2953165E3,1.0934116E3,7.3171277E2,1.3457257E3,1.983474E2,7.534416E2,4.9580344E2,4.4203336E2],"tree_param":{"num_deleted":"0","num_feature":"106","num_nodes":"15","size_leaf_vector":"1"}},{"base_weights":[1.2128396E-1,2.3311515E-1,-1.4301467E-1,1.00305274E-1,3.8570392E-1,-2.9197446E-1,8.311184E-3,-2.0687371E-4,2.4352786E-3,5.2525275E-3,3.0949318E-3,-8.905917E-4,-3.4520412E-3,-1.1889924E-3,1.5094213E-3],"categories":[],"categories_nodes":[],"categories_segments":[],"categories_sizes":[],"default_left":[0,0,0,0,0,0,0,0,0,0,0,0,0,0,0],"id":45,"left_children":[1,3,5,7,9,11,13,-1,-1,-1,-1,-1,-1,-1,-1],"loss_changes":[1.8791995E2,9.048976E1,4.2619907E1,4.141635E1,2.1941864E1,1.0260437E1,1.7052336E1,0E0,0E0,0E0,0E0,0E0,0E0,0E0,0E0],"parents":[2147483647,0,0,1,1,2,2,3,3,4,4,5,5,6,6],"right_children":[2,4,6,8,10,12,14,-1,-1,-1,-1,-1,-1,-1,-1],"split_conditions":[2E1,1.4E1,1.6E1,2.9E0,8E0,2.2E1,-4.8E0,-2.0687371E-4,2.4352786E-3,5.2525275E-3,3.0949318E-3,-8.905917E-4,-3.4520412E-3,-1.1889924E-3,1.5094213E-3],"split_indices":[28,80,103,25,51,51,25,0,0,0,0,0,0,0,0],"split_type":[0,0,0,0,0,0,0,0,0,0,0,0,0,0,0],"sum_hessian":[6.3557925E3,4.4661665E3,1.8896259E3,2.3887283E3,2.0774385E3,9.51789E2,9.378368E2,1.2953165E3,1.0934116E3,7.3171277E2,1.3457257E3,1.9834741E2,7.534416E2,4.9580344E2,4.4203336E2],"tree_param":{"num_deleted":"0","num_feature":"106","num_nodes":"15","size_leaf_vector":"1"}},{"base_weights":[-1.2011368E-1,-2.9376706E-1,4.7173053E-2,-1.5417251E-1,-4.2055228E-1,-1.789126E-1,1.5235493E-1,-2.2912435E-3,9.7307384E-5,-3.4241732E-3,-5.5510285E-3,7.3622996E-6,-3.1567826E-3,5.441877E-4,2.7936788E-3],"categories":[],"categories_nodes":[],"categories_segments":[],"categories_sizes":[],"default_left":[0,0,0,0,0,0,0,0,0,0,0,0,0,0,0],"id":46,"left_children":[1,3,5,7,9,11,13,-1,-1,-1,-1,-1,-1,-1,-1],"loss_changes":[1.8461497E2,5.5121246E1,7.7015465E1,1.8253426E1,1.6982574E1,2.526807E1,2.747651E1,0E0,0E0,0E0,0E0,0E0,0E0,0E0,0E0],"parents":[2147483647,0,0,1,1,2,2,3,3,4,4,5,5,6,6],"right_children":[2,4,6,8,10,12,14,-1,-1,-1,-1,-1,-1,-1,-1],"split_conditions":[1.5E1,1.2E1,-1.9E0,6E0,2.3E1,-3.7E0,2.4E1,-2.2912435E-3,9.7307384E-5,-3.4241732E-3,-5.5510285E-3,7.3622996E-6,-3.1567826E-3,5.441877E-4,2.7936788E-3],"split_indices":[51,80,77,77,80,25,51,0,0,0,0,0,0,0,0],"split_type":[0,0,0,0,0,0,0,0,0,0,0,0,0,0,0],"sum_hessian":[6.35362E3,3.117116E3,3.2365042E3,1.484667E3,1.632449E3,1.0274108E3,2.2090933E3,1.018511E3,4.6615604E2,1.0349735E3,5.974754E2,4.445136E2,5.8289716E2,1.2481265E3,9.6096686E2],"tree_param":{"num_deleted":"0","num_feature":"106","num_nodes":"15","size_leaf_vector":"1"}},{"base_weights":[1.2011367E-1,2.9376704E-1,-4.717306E-2,1.541725E-1,4.2055228E-1,1.789126E-1,-1.5235493E-1,2.2912433E-3,-9.730784E-5,3.4241732E-3,5.5510285E-3,-7.361738E-6,3.1567821E-3,-5.441881E-4,-2.7936785E-3],"categories":[],"categories_nodes":[],"categories_segments":[],"categories_sizes":[],"default_left":[0,0,0,0,0,0,0,0,0,0,0,0,0,0,0],"id":47,"left_children":[1,3,5,7,9,11,13,-1,-1,-1,-1,-1,-1,-1,-1],"loss_changes":[1.8461496E2,5.5121246E1,7.701547E1,1.8253433E1,1.6982544E1,2.5268051E1,2.7476498E1,0E0,0E0,0E0,0E0,0E0,0E0,0E0,0E0],"parents":[2147483647,0,0,1,1,2,2,3,3,4,4,5,5,6,6],"right_children":[2,4,6,8,10,12,14,-1,-1,-1,-1,-1,-1,-1,-1],"split_conditions":[1.5E1,1.2E1,-1.9E0,6E0,2.3E1,-3.7E0,2.4E1,2.2912433E-3,-9.730784E-5,3.4241732E-3,5.5510285E-3,-7.361738E-6,3.1567821E-3,-5.441881E-4,-2.7936785E-3],"split_indices":[51,80,77,77,80,25,51,0,0,0,0,0,0,0,0],"split_type":[0,0,0,0,0,0,0,0,0,0,0,0,0,0,0],"sum_hessian":[6.35362E3,3.117116E3,3.2365042E3,1.484667E3,1.632449E3,1.0274108E3,2.2090933E3,1.018511E3,4.6615607E2,1.0349735E3,5.974754E2,4.445136E2,5.8289716E2,1.2481263E3,9.6096686E2],"tree_param":{"num_deleted":"0","num_feature":"106","num_nodes":"15","size_leaf_vector":"1"}},{"base_weights":[-1.1895744E-1,-2.2885746E-1,1.4068207E-1,-9.8324485E-2,-3.7900713E-1,2.8726545E-1,-8.174806E-3,2.0860152E-4,-2.3946294E-3,-5.168501E-3,-3.0381468E-3,8.791589E-4,3.3959607E-3,1.613357E-3,-1.1151582E-3],"categories":[],"categories_nodes":[],"categories_segments":[],"categories_sizes":[],"default_left":[0,0,0,0,0,0,0,0,0,0,0,0,0,0,0],"id":48,"left_children":[1,3,5,7,9,11,13,-1,-1,-1,-1,-1,-1,-1,-1],"loss_changes":[1.8129245E2,8.744612E1,4.1237434E1,4.0193413E1,2.1354462E1,9.903503E0,1.6459734E1,0E0,0E0,0E0,0E0,0E0,0E0,0E0,0E0],"parents":[2147483647,0,0,1,1,2,2,3,3,4,4,5,5,6,6],"right_children":[2,4,6,8,10,12,14,-1,-1,-1,-1,-1,-1,-1,-1],"split_conditions":[2E1,1.4E1,1.6E1,2.9E0,8E0,2.2E1,-6.4E0,2.0860152E-4,-2.3946294E-3,-5.168501E-3,-3.0381468E-3,8.791589E-4,3.3959607E-3,1.613357E-3,-1.1151582E-3],"split_indices":[28,80,103,25,51,51,25,0,0,0,0,0,0,0,0],"split_type":[0,0,0,0,0,0,0,0,0,0,0,0,0,0,0],"sum_hessian":[6.3513438E3,4.462555E3,1.8887886E3,2.3881052E3,2.07445E3,9.511932E2,9.375954E2,1.2952128E3,1.0928926E3,7.301195E2,1.3443306E3,1.9833412E2,7.528591E2,3.5489655E2,5.826988E2],"tree_param":{"num_deleted":"0","num_feature":"106","num_nodes":"15","size_leaf_vector":"1"}},{"base_weights":[1.1895744E-1,2.2885746E-1,-1.4068207E-1,9.832448E-2,3.7900716E-1,-2.8726548E-1,8.174829E-3,-2.0860169E-4,2.3946294E-3,5.168501E-3,3.038147E-3,-8.7915856E-4,-3.3959611E-3,-1.6133568E-3,1.1151584E-3],"categories":[],"categories_nodes":[],"categories_segments":[],"categories_sizes":[],"default_left":[0,0,0,0,0,0,0,0,0,0,0,0,0,0,0],"id":49,"left_children":[1,3,5,7,9,11,13,-1,-1,-1,-1,-1,-1,-1,-1],"loss_changes":[1.8129245E2,8.744612E1,4.1237442E1,4.019342E1,2.1354492E1,9.903503E0,1.6459732E1,0E0,0E0,0E0,0E0,0E0,0E0,0E0,0E0],"parents":[2147483647,0,0,1,1,2,2,3,3,4,4,5,5,6,6],"right_children":[2,4,6,8,10,12,14,-1,-1,-1,-1,-1,-1,-1,-1],"split_conditions":[2E1,1.4E1,1.6E1,2.9E0,8E0,2.2E1,-6.4E0,-2.0860169E-4,2.3946294E-3,5.168501E-3,3.038147E-3,-8.7915856E-4,-3.3959611E-3,-1.6133568E-3,1.1151584E-3],"split_indices":[28,80,103,25,51,51,25,0,0,0,0,0,0,0,0],"split_type":[0,0,0,0,0,0,0,0,0,0,0,0,0,0,0],"sum_hessian":[6.3513438E3,4.462555E3,1.8887886E3,2.3881052E3,2.07445E3,9.511932E2,9.375954E2,1.2952128E3,1.0928926E3,7.301195E2,1.3443304E3,1.9833412E2,7.528591E2,3.5489655E2,5.826988E2],"tree_param":{"num_deleted":"0","num_feature":"106","num_nodes":"15","size_leaf_vector":"1"}},{"base_weights":[-1.1781168E-1,4.2492576E-2,-2.9277092E-1,-1.6361205E-1,1.5947472E-1,-3.5769802E-1,-1.740555E-2,6.0451834E-4,-2.7992046E-3,6.81511E-4,2.8534743E-3,-3.0114395E-3,-5.390572E-3,4.8348866E-4,-1.9688436E-3],"categories":[],"categories_nodes":[],"categories_segments":[],"categories_sizes":[],"default_left":[0,0,0,0,0,0,0,0,0,0,0,0,0,0,0],"id":50,"left_children":[1,3,5,7,9,11,13,-1,-1,-1,-1,-1,-1,-1,-1],"loss_changes":[1.7811057E2,7.9945045E1,5.428006E1,3.1306839E1,2.4293068E1,2.5037964E1,6.8589363E0,0E0,0E0,0E0,0E0,0E0,0E0,0E0,0E0],"parents":[2147483647,0,0,1,1,2,2,3,3,4,4,5,5,6,6],"right_children":[2,4,6,8,10,12,14,-1,-1,-1,-1,-1,-1,-1,-1],"split_conditions":[6E-1,-1.3E0,5.1E0,-4.8E0,2.4E1,2.3E1,5.7E0,6.0451834E-4,-2.7992046E-3,6.81511E-4,2.8534743E-3,-3.0114395E-3,-5.390572E-3,4.8348866E-4,-1.9688436E-3],"split_indices":[25,77,77,25,51,80,20,0,0,0,0,0,0,0,0],"split_type":[0,0,0,0,0,0,0,0,0,0,0,0,0,0,0],"sum_hessian":[6.3490547E3,3.3136868E3,3.035368E3,1.199664E3,2.114023E3,2.455984E3,5.7938403E2,4.1010056E2,7.895634E2,1.2260421E3,8.8798083E2,1.8742029E3,5.8178107E2,4.2456845E2,1.5481558E2],"tree_param":{"num_deleted":"0","num_feature":"106","num_nodes":"15","size_leaf_vector":"1"}},{"base_weights":[1.1781169E-1,-4.249255E-2,2.927709E-1,1.6361208E-1,-1.5947469E-1,3.57698E-1,1.7405558E-2,-6.045182E-4,2.7992048E-3,-6.815108E-4,-2.8534739E-3,3.011439E-3,5.390572E-3,-4.8348858E-4,1.9688436E-3],"categories":[],"categories_nodes":[],"categories_segments":[],"categories_sizes":[],"default_left":[0,0,0,0,0,0,0,0,0,0,0,0,0,0,0],"id":51,"left_children":[1,3,5,7,9,11,13,-1,-1,-1,-1,-1,-1,-1,-1],"loss_changes":[1.7811053E2,7.9945045E1,5.428006E1,3.1306843E1,2.429306E1,2.5037933E1,6.8589363E0,0E0,0E0,0E0,0E0,0E0,0E0,0E0,0E0],"parents":[2147483647,0,0,1,1,2,2,3,3,4,4,5,5,6,6],"right_children":[2,4,6,8,10,12,14,-1,-1,-1,-1,-1,-1,-1,-1],"split_conditions":[6E-1,-1.3E0,5.1E0,-4.8E0,2.4E1,2.3E1,5.7E0,-6.045182E-4,2.7992048E-3,-6.815108E-4,-2.8534739E-3,3.011439E-3,5.390572E-3,-4.8348858E-4,1.9688436E-3],"split_indices":[25,77,77,25,51,80,20,0,0,0,0,0,0,0,0],"split_type":[0,0,0,0,0,0,0,0,0,0,0,0,0,0,0],"sum_hessian":[6.3490547E3,3.3136868E3,3.0353682E3,1.199664E3,2.114023E3,2.455984E3,5.793841E2,4.1010056E2,7.895634E2,1.226042E3,8.8798083E2,1.874203E3,5.81781E2,4.2456848E2,1.548156E2],"tree_param":{"num_deleted":"0","num_feature":"106","num_nodes":"15","size_leaf_vector":"1"}},{"base_weights":[-1.1667926E-1,9.022394E-2,-2.499582E-1,-1.66905E-1,1.6611509E-1,-6.8639375E-2,-3.6057222E-1,4.0414532E-5,-3.0137082E-3,7.8172615E-4,2.9170432E-3,-1.3669317E-3,1.7334819E-3,-3.0477275E-3,-5.369111E-3],"categories":[],"categories_nodes":[],"categories_segments":[],"categories_sizes":[],"default_left":[0,0,0,0,0,0,0,0,0,0,0,0,0,0,0],"id":52,"left_children":[1,3,5,7,9,11,13,-1,-1,-1,-1,-1,-1,-1,-1],"loss_changes":[1.7506491E2,4.8571648E1,7.741307E1,1.3043915E1,2.1196823E1,2.4136019E1,2.3430023E1,0E0,0E0,0E0,0E0,0E0,0E0,0E0,0E0],"parents":[2147483647,0,0,1,1,2,2,3,3,4,4,5,5,6,6],"right_children":[2,4,6,8,10,12,14,-1,-1,-1,-1,-1,-1,-1,-1],"split_conditions":[4.7E-1,3.71E-1,1.1E1,-4.6E0,2.6E1,1.5E1,2.6E1,4.0414532E-5,-3.0137082E-3,7.8172615E-4,2.9170432E-3,-1.3669317E-3,1.7334819E-3,-3.0477275E-3,-5.369111E-3],"split_indices":[3,55,103,25,51,51,103,0,0,0,0,0,0,0,0],"split_type":[0,0,0,0,0,0,0,0,0,0,0,0,0,0,0],"sum_hessian":[6.3466714E3,2.48667E3,3.8600012E3,5.6640796E2,1.920262E3,1.4631772E3,2.396824E3,2.4980312E2,3.1660486E2,1.1303612E3,7.899007E2,1.1423507E3,3.2082645E2,1.8227684E3,5.740556E2],"tree_param":{"num_deleted":"0","num_feature":"106","num_nodes":"15","size_leaf_vector":"1"}},{"base_weights":[1.1667927E-1,-9.022391E-2,2.4995822E-1,1.6690505E-1,-1.6611508E-1,6.8639375E-2,3.6057225E-1,-4.0413983E-5,3.0137086E-3,-7.8172586E-4,-2.917043E-3,1.3669315E-3,-1.7334811E-3,3.047728E-3,5.369112E-3],"categories":[],"categories_nodes":[],"categories_segments":[],"categories_sizes":[],"default_left":[0,0,0,0,0,0,0,0,0,0,0,0,0,0,0],"id":53,"left_children":[1,3,5,7,9,11,13,-1,-1,-1,-1,-1,-1,-1,-1],"loss_changes":[1.7506491E2,4.857166E1,7.7413086E1,1.3043916E1,2.119682E1,2.4136003E1,2.3430023E1,0E0,0E0,0E0,0E0,0E0,0E0,0E0,0E0],"parents":[2147483647,0,0,1,1,2,2,3,3,4,4,5,5,6,6],"right_children":[2,4,6,8,10,12,14,-1,-1,-1,-1,-1,-1,-1,-1],"split_conditions":[4.7E-1,3.71E-1,1.1E1,-4.6E0,2.6E1,1.5E1,2.6E1,-4.0413983E-5,3.0137086E-3,-7.8172586E-4,-2.917043E-3,1.3669315E-3,-1.7334811E-3,3.047728E-3,5.369112E-3],"split_indices":[3,55,103,25,51,51,103,0,0,0,0,0,0,0,0],"split_type":[0,0,0,0,0,0,0,0,0,0,0,0,0,0,0],"sum_hessian":[6.3466714E3,2.48667E3,3.8600012E3,5.6640796E2,1.920262E3,1.4631772E3,2.396824E3,2.4980313E2,3.1660486E2,1.1303613E3,7.8990076E2,1.1423508E3,3.2082648E2,1.8227684E3,5.740556E2],"tree_param":{"num_deleted":"0","num_feature":"106","num_nodes":"15","size_leaf_vector":"1"}},{"base_weights":[-1.1555757E-1,-2.226588E-1,1.3731754E-1,-9.516242E-2,-3.69577E-1,2.8078824E-1,-8.298887E-3,2.1397605E-4,-2.3327773E-3,-5.056761E-3,-2.9545212E-3,8.5925136E-4,3.3199578E-3,1.5690833E-3,-1.090159E-3],"categories":[],"categories_nodes":[],"categories_segments":[],"categories_sizes":[],"default_left":[0,0,0,0,0,0,0,0,0,0,0,0,0,0,0],"id":54,"left_children":[1,3,5,7,9,11,13,-1,-1,-1,-1,-1,-1,-1,-1],"loss_changes":[1.7188147E2,8.346628E1,3.9456017E1,3.8448708E1,2.0741516E1,9.463791E0,1.5628091E1,0E0,0E0,0E0,0E0,0E0,0E0,0E0,0E0],"parents":[2147483647,0,0,1,1,2,2,3,3,4,4,5,5,6,6],"right_children":[2,4,6,8,10,12,14,-1,-1,-1,-1,-1,-1,-1,-1],"split_conditions":[2E1,1.4E1,1.6E1,2.9E0,8E0,2.2E1,-6.4E0,2.1397605E-4,-2.3327773E-3,-5.056761E-3,-2.9545212E-3,8.5925136E-4,3.3199578E-3,1.5690833E-3,-1.090159E-3],"split_indices":[28,80,103,25,51,51,25,0,0,0,0,0,0,0,0],"split_type":[0,0,0,0,0,0,0,0,0,0,0,0,0,0,0],"sum_hessian":[6.3442866E3,4.4567993E3,1.8874872E3,2.3869978E3,2.0698015E3,9.502809E2,9.3720636E2,1.2949729E3,1.0920249E3,7.277578E2,1.3420438E3,1.983117E2,7.519692E2,3.547493E2,5.8245703E2],"tree_param":{"num_deleted":"0","num_feature":"106","num_nodes":"15","size_leaf_vector":"1"}},{"base_weights":[1.15557574E-1,2.2265881E-1,-1.3731754E-1,9.5162444E-2,3.69577E-1,-2.8078827E-1,8.298903E-3,-2.139759E-4,2.3327777E-3,5.056761E-3,2.9545214E-3,-8.592522E-4,-3.3199578E-3,-1.5690833E-3,1.0901593E-3],"categories":[],"categories_nodes":[],"categories_segments":[],"categories_sizes":[],"default_left":[0,0,0,0,0,0,0,0,0,0,0,0,0,0,0],"id":55,"left_children":[1,3,5,7,9,11,13,-1,-1,-1,-1,-1,-1,-1,-1],"loss_changes":[1.718815E2,8.346625E1,3.945603E1,3.8448708E1,2.0741547E1,9.463791E0,1.5628091E1,0E0,0E0,0E0,0E0,0E0,0E0,0E0,0E0],"parents":[2147483647,0,0,1,1,2,2,3,3,4,4,5,5,6,6],"right_children":[2,4,6,8,10,12,14,-1,-1,-1,-1,-1,-1,-1,-1],"split_conditions":[2E1,1.4E1,1.6E1,2.9E0,8E0,2.2E1,-6.4E0,-2.139759E-4,2.3327777E-3,5.056761E-3,2.9545214E-3,-8.592522E-4,-3.3199578E-3,-1.5690833E-3,1.0901593E-3],"split_indices":[28,80,103,25,51,51,25,0,0,0,0,0,0,0,0],"split_type":[0,0,0,0,0,0,0,0,0,0,0,0,0,0,0],"sum_hessian":[6.3442866E3,4.4567993E3,1.8874872E3,2.3869978E3,2.0698018E3,9.502809E2,9.3720636E2,1.2949729E3,1.0920249E3,7.277579E2,1.3420438E3,1.983117E2,7.519692E2,3.5474933E2,5.8245703E2],"tree_param":{"num_deleted":"0","num_feature":"106","num_nodes":"15","size_leaf_vector":"1"}},{"base_weights":[-1.1444793E-1,4.170029E-2,-2.8503928E-1,-1.5958714E-1,1.5592383E-1,-3.489325E-1,-1.45457685E-2,5.838187E-4,-2.7283807E-3,6.7324354E-4,2.7815958E-3,-2.9346219E-3,-5.2727223E-3,5.0466106E-4,-1.9204871E-3],"categories":[],"categories_nodes":[],"categories_segments":[],"categories_sizes":[],"default_left":[0,0,0,0,0,0,0,0,0,0,0,0,0,0,0],"id":56,"left_children":[1,3,5,7,9,11,13,-1,-1,-1,-1,-1,-1,-1,-1],"loss_changes":[1.6896887E2,7.618437E1,5.238481E1,2.9630701E1,2.2873459E1,2.4102661E1,6.7057834E0,0E0,0E0,0E0,0E0,0E0,0E0,0E0,0E0],"parents":[2147483647,0,0,1,1,2,2,3,3,4,4,5,5,6,6],"right_children":[2,4,6,8,10,12,14,-1,-1,-1,-1,-1,-1,-1,-1],"split_conditions":[6E-1,-1.3E0,5.1E0,-4.8E0,2.4E1,2.3E1,5.7E0,5.838187E-4,-2.7283807E-3,6.7324354E-4,2.7815958E-3,-2.9346219E-3,-5.2727223E-3,5.0466106E-4,-1.9204871E-3],"split_indices":[25,77,77,25,51,80,20,0,0,0,0,0,0,0,0],"split_type":[0,0,0,0,0,0,0,0,0,0,0,0,0,0,0],"sum_hessian":[6.341816E3,3.3114688E3,3.0303474E3,1.1986978E3,2.112771E3,2.4510867E3,5.792607E2,4.1002518E2,7.886726E2,1.2258185E3,8.8695245E2,1.871596E3,5.794907E2,4.2449988E2,1.5476079E2],"tree_param":{"num_deleted":"0","num_feature":"106","num_nodes":"15","size_leaf_vector":"1"}},{"base_weights":[1.14447914E-1,-4.1700292E-2,2.8503925E-1,1.5958714E-1,-1.5592383E-1,3.4893247E-1,1.4545757E-2,-5.83819E-4,2.7283812E-3,-6.732436E-4,-2.7815958E-3,2.9346214E-3,5.2727214E-3,-5.046612E-4,1.9204871E-3],"categories":[],"categories_nodes":[],"categories_segments":[],"categories_sizes":[],"default_left":[0,0,0,0,0,0,0,0,0,0,0,0,0,0,0],"id":57,"left_children":[1,3,5,7,9,11,13,-1,-1,-1,-1,-1,-1,-1,-1],"loss_changes":[1.6896887E2,7.618438E1,5.2384766E1,2.9630714E1,2.2873463E1,2.4102661E1,6.705784E0,0E0,0E0,0E0,0E0,0E0,0E0,0E0,0E0],"parents":[2147483647,0,0,1,1,2,2,3,3,4,4,5,5,6,6],"right_children":[2,4,6,8,10,12,14,-1,-1,-1,-1,-1,-1,-1,-1],"split_conditions":[6E-1,-1.3E0,5.1E0,-4.8E0,2.4E1,2.3E1,5.7E0,-5.83819E-4,2.7283812E-3,-6.732436E-4,-2.7815958E-3,2.9346214E-3,5.2727214E-3,-5.046612E-4,1.9204871E-3],"split_indices":[25,77,77,25,51,80,20,0,0,0,0,0,0,0,0],"split_type":[0,0,0,0,0,0,0,0,0,0,0,0,0,0,0],"sum_hessian":[6.341816E3,3.3114688E3,3.0303472E3,1.1986978E3,2.112771E3,2.4510867E3,5.792606E2,4.1002518E2,7.886726E2,1.2258185E3,8.8695245E2,1.871596E3,5.794907E2,4.2449985E2,1.5476079E2],"tree_param":{"num_deleted":"0","num_feature":"106","num_nodes":"15","size_leaf_vector":"1"}},{"base_weights":[-1.1335113E-1,-2.1862467E-1,1.3510807E-1,-7.5938515E-2,-3.459608E-1,2.761736E-1,-8.000255E-3,-1.9953898E-3,3.8391544E-4,-4.904037E-3,-2.6585015E-3,8.4636733E-4,3.2654898E-3,1.542094E-3,-1.0689127E-3],"categories":[],"categories_nodes":[],"categories_segments":[],"categories_sizes":[],"default_left":[0,0,0,0,0,0,0,0,0,0,0,0,0,0,0],"id":58,"left_children":[1,3,5,7,9,11,13,-1,-1,-1,-1,-1,-1,-1,-1],"loss_changes":[1.6586633E2,8.089395E1,3.8106922E1,2.9705238E1,2.7099152E1,9.144218E0,1.5062219E1,0E0,0E0,0E0,0E0,0E0,0E0,0E0,0E0],"parents":[2147483647,0,0,1,1,2,2,3,3,4,4,5,5,6,6],"right_children":[2,4,6,8,10,12,14,-1,-1,-1,-1,-1,-1,-1,-1],"split_conditions":[2E1,1.2E1,1.6E1,1E1,8E0,2.2E1,-6.4E0,-1.9953898E-3,3.8391544E-4,-4.904037E-3,-2.6585015E-3,8.4636733E-4,3.2654898E-3,1.542094E-3,-1.0689127E-3],"split_indices":[28,80,103,51,51,51,25,0,0,0,0,0,0,0,0],"split_type":[0,0,0,0,0,0,0,0,0,0,0,0,0,0,0],"sum_hessian":[6.339253E3,4.4527275E3,1.8865254E3,2.1005537E3,2.3521738E3,9.4957513E2,9.369503E2,1.00899713E3,1.0915566E3,8.373228E2,1.5148511E3,1.9829596E2,7.512792E2,3.5465497E2,5.8229535E2],"tree_param":{"num_deleted":"0","num_feature":"106","num_nodes":"15","size_leaf_vector":"1"}},{"base_weights":[1.13351114E-1,2.1862465E-1,-1.3510805E-1,7.593849E-2,3.4596077E-1,-2.761736E-1,8.000273E-3,1.9953893E-3,-3.8391555E-4,4.9040373E-3,2.6585013E-3,-8.463671E-4,-3.2654898E-3,-1.5420937E-3,1.0689129E-3],"categories":[],"categories_nodes":[],"categories_segments":[],"categories_sizes":[],"default_left":[0,0,0,0,0,0,0,0,0,0,0,0,0,0,0],"id":59,"left_children":[1,3,5,7,9,11,13,-1,-1,-1,-1,-1,-1,-1,-1],"loss_changes":[1.6586633E2,8.0893936E1,3.8106926E1,2.9705235E1,2.7099182E1,9.144218E0,1.5062217E1,0E0,0E0,0E0,0E0,0E0,0E0,0E0,0E0],"parents":[2147483647,0,0,1,1,2,2,3,3,4,4,5,5,6,6],"right_children":[2,4,6,8,10,12,14,-1,-1,-1,-1,-1,-1,-1,-1],"split_conditions":[2E1,1.2E1,1.6E1,1E1,8E0,2.2E1,-6.4E0,1.9953893E-3,-3.8391555E-4,4.9040373E-3,2.6585013E-3,-8.463671E-4,-3.2654898E-3,-1.5420937E-3,1.0689129E-3],"split_indices":[28,80,103,51,51,51,25,0,0,0,0,0,0,0,0],"split_type":[0,0,0,0,0,0,0,0,0,0,0,0,0,0,0],"sum_hessian":[6.339253E3,4.4527275E3,1.8865255E3,2.1005537E3,2.3521738E3,9.4957513E2,9.369503E2,1.00899713E3,1.0915566E3,8.3732275E2,1.5148511E3,1.9829596E2,7.512792E2,3.5465497E2,5.8229535E2],"tree_param":{"num_deleted":"0","num_feature":"106","num_nodes":"15","size_leaf_vector":"1"}},{"base_weights":[-1.122647E-1,-2.75898E-1,4.4998758E-2,-3.370894E-1,-1.3102795E-2,-7.9001464E-2,2.1900351E-1,-2.7822757E-3,-5.278262E-3,1.6196052E-4,-3.4343498E-3,-1.7805069E-3,1.3102569E-3,3.720086E-3,1.6712655E-3],"categories":[],"categories_nodes":[],"categories_segments":[],"categories_sizes":[],"default_left":[0,0,0,0,0,0,0,0,0,0,0,0,0,0,0],"id":60,"left_children":[1,3,5,7,9,11,13,-1,-1,-1,-1,-1,-1,-1,-1],"loss_changes":[1.6310294E2,4.994368E1,6.976577E1,2.813858E1,5.6933775E0,3.9304493E1,1.0616478E1,0E0,0E0,0E0,0E0,0E0,0E0,0E0,0E0],"parents":[2147483647,0,0,1,1,2,2,3,3,4,4,5,5,6,6],"right_children":[2,4,6,8,10,12,14,-1,-1,-1,-1,-1,-1,-1,-1],"split_conditions":[1.5E1,5.1E0,5.45E-1,2.3E1,1.7E1,2.6E1,-6E0,-2.7822757E-3,-5.278262E-3,1.6196052E-4,-3.4343498E-3,-1.7805069E-3,1.3102569E-3,3.720086E-3,1.6712655E-3],"split_indices":[51,77,55,80,102,51,25,0,0,0,0,0,0,0,0],"split_type":[0,0,0,0,0,0,0,0,0,0,0,0,0,0,0],"sum_hessian":[6.336664E3,3.1050706E3,3.2315935E3,2.5183862E3,5.8668427E2,1.8872426E3,1.3443511E3,1.9263646E3,5.9202167E2,5.397611E2,4.6923195E1,1.2825443E3,6.0469824E2,3.388326E2,1.00551843E3],"tree_param":{"num_deleted":"0","num_feature":"106","num_nodes":"15","size_leaf_vector":"1"}},{"base_weights":[1.1226469E-1,2.7589798E-1,-4.499876E-2,3.3708936E-1,1.3102804E-2,7.900146E-2,-2.1900351E-1,2.7822752E-3,5.278262E-3,-1.6196042E-4,3.4343498E-3,1.7805069E-3,-1.3102571E-3,-3.7200865E-3,-1.6712653E-3],"categories":[],"categories_nodes":[],"categories_segments":[],"categories_sizes":[],"default_left":[0,0,0,0,0,0,0,0,0,0,0,0,0,0,0],"id":61,"left_children":[1,3,5,7,9,11,13,-1,-1,-1,-1,-1,-1,-1,-1],"loss_changes":[1.6310292E2,4.994368E1,6.976577E1,2.813855E1,5.693378E0,3.93045E1,1.0616478E1,0E0,0E0,0E0,0E0,0E0,0E0,0E0,0E0],"parents":[2147483647,0,0,1,1,2,2,3,3,4,4,5,5,6,6],"right_children":[2,4,6,8,10,12,14,-1,-1,-1,-1,-1,-1,-1,-1],"split_conditions":[1.5E1,5.1E0,5.45E-1,2.3E1,1.7E1,2.6E1,-6E0,2.7822752E-3,5.278262E-3,-1.6196042E-4,3.4343498E-3,1.7805069E-3,-1.3102571E-3,-3.7200865E-3,-1.6712653E-3],"split_indices":[51,77,55,80,102,51,25,0,0,0,0,0,0,0,0],"split_type":[0,0,0,0,0,0,0,0,0,0,0,0,0,0,0],"sum_hessian":[6.336664E3,3.1050706E3,3.2315935E3,2.5183862E3,5.8668427E2,1.8872426E3,1.3443511E3,1.9263646E3,5.9202167E2,5.397611E2,4.6923195E1,1.2825443E3,6.0469824E2,3.388326E2,1.00551843E3],"tree_param":{"num_deleted":"0","num_feature":"106","num_nodes":"15","size_leaf_vector":"1"}},{"base_weights":[-1.1119016E-1,8.684878E-2,-2.3894306E-1,-1.6183966E-1,1.6025971E-1,-6.3889556E-2,-3.460539E-1,-1.021729E-3,-5.296976E-3,7.63572E-4,2.8024237E-3,-1.8034962E-3,6.870883E-4,-2.9148604E-3,-5.190106E-3],"categories":[],"categories_nodes":[],"categories_segments":[],"categories_sizes":[],"default_left":[0,0,0,0,0,0,0,0,0,0,0,0,0,0,0],"id":62,"left_children":[1,3,5,7,9,11,13,-1,-1,-1,-1,-1,-1,-1,-1],"loss_changes":[1.6029684E2,4.5391098E1,7.218698E1,1.2387328E1,1.9297352E1,2.2606674E1,2.2395752E1,0E0,0E0,0E0,0E0,0E0,0E0,0E0,0E0],"parents":[2147483647,0,0,1,1,2,2,3,3,4,4,5,5,6,6],"right_children":[2,4,6,8,10,12,14,-1,-1,-1,-1,-1,-1,-1,-1],"split_conditions":[4.7E-1,3.71E-1,1.1E1,-1E0,2.6E1,1E1,2.6E1,-1.021729E-3,-5.296976E-3,7.63572E-4,2.8024237E-3,-1.8034962E-3,6.870883E-4,-2.9148604E-3,-5.190106E-3],"split_indices":[3,55,103,25,51,51,103,0,0,0,0,0,0,0,0],"split_type":[0,0,0,0,0,0,0,0,0,0,0,0,0,0,0],"sum_hessian":[6.3340107E3,2.4838838E3,3.8501267E3,5.6583716E2,1.9180466E3,1.4621312E3,2.3879956E3,4.879665E2,7.78707E1,1.129698E3,7.8834863E2,7.78245E2,6.838862E2,1.8173174E3,5.7067816E2],"tree_param":{"num_deleted":"0","num_feature":"106","num_nodes":"15","size_leaf_vector":"1"}},{"base_weights":[1.1119017E-1,-8.684877E-2,2.3894306E-1,1.6183968E-1,-1.6025971E-1,6.3889526E-2,3.4605393E-1,1.0217291E-3,5.296976E-3,-7.63572E-4,-2.8024234E-3,1.8034957E-3,-6.870885E-4,2.9148608E-3,5.1901066E-3],"categories":[],"categories_nodes":[],"categories_segments":[],"categories_sizes":[],"default_left":[0,0,0,0,0,0,0,0,0,0,0,0,0,0,0],"id":63,"left_children":[1,3,5,7,9,11,13,-1,-1,-1,-1,-1,-1,-1,-1],"loss_changes":[1.6029681E2,4.53911E1,7.218703E1,1.2387326E1,1.9297348E1,2.260667E1,2.2395752E1,0E0,0E0,0E0,0E0,0E0,0E0,0E0,0E0],"parents":[2147483647,0,0,1,1,2,2,3,3,4,4,5,5,6,6],"right_children":[2,4,6,8,10,12,14,-1,-1,-1,-1,-1,-1,-1,-1],"split_conditions":[4.7E-1,3.71E-1,1.1E1,-1E0,2.6E1,1E1,2.6E1,1.0217291E-3,5.296976E-3,-7.63572E-4,-2.8024234E-3,1.8034957E-3,-6.870885E-4,2.9148608E-3,5.1901066E-3],"split_indices":[3,55,103,25,51,51,103,0,0,0,0,0,0,0,0],"split_type":[0,0,0,0,0,0,0,0,0,0,0,0,0,0,0],"sum_hessian":[6.3340107E3,2.4838838E3,3.8501267E3,5.6583716E2,1.9180466E3,1.4621312E3,2.3879954E3,4.879665E2,7.78707E1,1.129698E3,7.8834863E2,7.7824506E2,6.838862E2,1.8173173E3,5.7067816E2],"tree_param":{"num_deleted":"0","num_feature":"106","num_nodes":"15","size_leaf_vector":"1"}},{"base_weights":[-1.1012614E-1,4.0671404E-2,-2.7511734E-1,-1.7560175E-1,1.4132762E-1,-3.3740142E-1,-1.2145345E-2,1.4862569E-6,-3.0415668E-3,5.42656E-4,2.5933273E-3,-2.8340113E-3,-5.116883E-3,5.2141835E-4,-1.8772193E-3],"categories":[],"categories_nodes":[],"categories_segments":[],"categories_sizes":[],"default_left":[0,0,0,0,0,0,0,0,0,0,0,0,0,0,0],"id":64,"left_children":[1,3,5,7,9,11,13,-1,-1,-1,-1,-1,-1,-1,-1],"loss_changes":[1.5756299E2,7.206751E1,4.9526184E1,2.375718E1,2.3193142E1,2.2865326E1,6.557721E0,0E0,0E0,0E0,0E0,0E0,0E0,0E0,0E0],"parents":[2147483647,0,0,1,1,2,2,3,3,4,4,5,5,6,6],"right_children":[2,4,6,8,10,12,14,-1,-1,-1,-1,-1,-1,-1,-1],"split_conditions":[6E-1,-1.9E0,5.1E0,-3.7E0,2.4E1,2.3E1,5.7E0,1.4862569E-6,-3.0415668E-3,5.42656E-4,2.5933273E-3,-2.8340113E-3,-5.116883E-3,5.2141835E-4,-1.8772193E-3],"split_indices":[25,77,77,25,51,80,20,0,0,0,0,0,0,0,0],"split_type":[0,0,0,0,0,0,0,0,0,0,0,0,0,0,0],"sum_hessian":[6.331399E3,3.3083809E3,3.0230178E3,1.0504994E3,2.2578813E3,2.443904E3,5.7911383E2,4.442094E2,6.0629004E2,1.3001296E3,9.5775183E2,1.8678146E3,5.760894E2,4.2441705E2,1.5469682E2],"tree_param":{"num_deleted":"0","num_feature":"106","num_nodes":"15","size_leaf_vector":"1"}},{"base_weights":[1.1012614E-1,-4.0671404E-2,2.7511734E-1,1.7560177E-1,-1.4132762E-1,3.3740142E-1,1.214533E-2,-1.4863552E-6,3.0415668E-3,-5.4265605E-4,-2.5933273E-3,2.8340113E-3,5.116883E-3,-5.2141846E-4,1.8772192E-3],"categories":[],"categories_nodes":[],"categories_segments":[],"categories_sizes":[],"default_left":[0,0,0,0,0,0,0,0,0,0,0,0,0,0,0],"id":65,"left_children":[1,3,5,7,9,11,13,-1,-1,-1,-1,-1,-1,-1,-1],"loss_changes":[1.5756297E2,7.206752E1,4.9526215E1,2.3757187E1,2.3193138E1,2.2865295E1,6.55772E0,0E0,0E0,0E0,0E0,0E0,0E0,0E0,0E0],"parents":[2147483647,0,0,1,1,2,2,3,3,4,4,5,5,6,6],"right_children":[2,4,6,8,10,12,14,-1,-1,-1,-1,-1,-1,-1,-1],"split_conditions":[6E-1,-1.9E0,5.1E0,-3.7E0,2.4E1,2.3E1,5.7E0,-1.4863552E-6,3.0415668E-3,-5.4265605E-4,-2.5933273E-3,2.8340113E-3,5.116883E-3,-5.2141846E-4,1.8772192E-3],"split_indices":[25,77,77,25,51,80,20,0,0,0,0,0,0,0,0],"split_type":[0,0,0,0,0,0,0,0,0,0,0,0,0,0,0],"sum_hessian":[6.331399E3,3.3083809E3,3.0230178E3,1.0504994E3,2.2578813E3,2.443904E3,5.7911383E2,4.442094E2,6.0629E2,1.3001296E3,9.5775183E2,1.8678146E3,5.760895E2,4.2441702E2,1.5469682E2],"tree_param":{"num_deleted":"0","num_feature":"106","num_nodes":"15","size_leaf_vector":"1"}},{"base_weights":[-1.090743E-1,-2.109283E-1,1.3108571E-1,-1.2954569E-1,-4.2317343E-1,2.6845196E-1,-8.149483E-3,-1.6896355E-4,-2.6479182E-3,-3.6194264E-3,-5.6071067E-3,8.232964E-4,3.1747806E-3,1.4926019E-3,-1.0411011E-3],"categories":[],"categories_nodes":[],"categories_segments":[],"categories_sizes":[],"default_left":[0,0,0,0,0,0,0,0,0,0,0,0,0,0,0],"id":66,"left_children":[1,3,5,7,9,11,13,-1,-1,-1,-1,-1,-1,-1,-1],"loss_changes":[1.5485884E2,7.6724335E1,3.6067123E1,4.8969204E1,1.0168579E1,8.635292E0,1.41753025E1,0E0,0E0,0E0,0E0,0E0,0E0,0E0,0E0],"parents":[2147483647,0,0,1,1,2,2,3,3,4,4,5,5,6,6],"right_children":[2,4,6,8,10,12,14,-1,-1,-1,-1,-1,-1,-1,-1],"split_conditions":[2E1,2E1,1.6E1,2.9E0,3.7E1,2.2E1,-6.4E0,-1.6896355E-4,-2.6479182E-3,-3.6194264E-3,-5.6071067E-3,8.232964E-4,3.1747806E-3,1.4926019E-3,-1.0411011E-3],"split_indices":[28,80,103,25,54,51,25,0,0,0,0,0,0,0,0],"split_type":[0,0,0,0,0,0,0,0,0,0,0,0,0,0,0],"sum_hessian":[6.32865E3,4.444022E3,1.8846278E3,3.2134695E3,1.2305526E3,9.482137E2,9.3641406E2,1.7538097E3,1.4596599E3,8.5399194E2,3.7656064E2,1.9825165E2,7.4996204E2,3.5444397E2,5.819701E2],"tree_param":{"num_deleted":"0","num_feature":"106","num_nodes":"15","size_leaf_vector":"1"}},{"base_weights":[1.090743E-1,2.109283E-1,-1.310857E-1,1.2954569E-1,4.231734E-1,-2.6845196E-1,8.149493E-3,1.689636E-4,2.6479182E-3,3.6194264E-3,5.607106E-3,-8.232963E-4,-3.1747802E-3,-1.4926017E-3,1.0411012E-3],"categories":[],"categories_nodes":[],"categories_segments":[],"categories_sizes":[],"default_left":[0,0,0,0,0,0,0,0,0,0,0,0,0,0,0],"id":67,"left_children":[1,3,5,7,9,11,13,-1,-1,-1,-1,-1,-1,-1,-1],"loss_changes":[1.5485884E2,7.6724335E1,3.606711E1,4.8969223E1,1.0168579E1,8.6353E0,1.4175301E1,0E0,0E0,0E0,0E0,0E0,0E0,0E0,0E0],"parents":[2147483647,0,0,1,1,2,2,3,3,4,4,5,5,6,6],"right_children":[2,4,6,8,10,12,14,-1,-1,-1,-1,-1,-1,-1,-1],"split_conditions":[2E1,2E1,1.6E1,2.9E0,3.7E1,2.2E1,-6.4E0,1.689636E-4,2.6479182E-3,3.6194264E-3,5.607106E-3,-8.232963E-4,-3.1747802E-3,-1.4926017E-3,1.0411012E-3],"split_indices":[28,80,103,25,54,51,25,0,0,0,0,0,0,0,0],"split_type":[0,0,0,0,0,0,0,0,0,0,0,0,0,0,0],"sum_hessian":[6.32865E3,4.444022E3,1.8846278E3,3.2134695E3,1.2305526E3,9.482137E2,9.364141E2,1.7538097E3,1.4596598E3,8.5399194E2,3.7656064E2,1.9825165E2,7.4996204E2,3.54444E2,5.819701E2],"tree_param":{"num_deleted":"0","num_feature":"106","num_nodes":"15","size_leaf_vector":"1"}},{"base_weights":[-1.08031064E-1,-2.6630345E-1,4.38521E-2,-3.2609907E-1,-1.0190571E-2,-7.683169E-2,2.1321446E-1,-2.6893392E-3,-5.121489E-3,1.885718E-4,-3.3783305E-3,1.1548416E-3,-1.7820849E-3,3.6130967E-3,1.6309374E-3],"categories":[],"categories_nodes":[],"categories_segments":[],"categories_sizes":[],"default_left":[0,0,0,0,0,0,0,0,0,0,0,0,0,0,0],"id":68,"left_children":[1,3,5,7,9,11,13,-1,-1,-1,-1,-1,-1,-1,-1],"loss_changes":[1.521051E2,4.744777E1,6.602528E1,2.6578247E1,5.5978928E0,3.680039E1,9.917213E0,0E0,0E0,0E0,0E0,0E0,0E0,0E0,0E0],"parents":[2147483647,0,0,1,1,2,2,3,3,4,4,5,5,6,6],"right_children":[2,4,6,8,10,12,14,-1,-1,-1,-1,-1,-1,-1,-1],"split_conditions":[1.5E1,5.1E0,5.45E-1,2.3E1,1.7E1,-4.8E0,-6E0,-2.6893392E-3,-5.121489E-3,1.885718E-4,-3.3783305E-3,1.1548416E-3,-1.7820849E-3,3.6130967E-3,1.6309374E-3],"split_indices":[51,77,55,80,102,25,25,0,0,0,0,0,0,0,0],"split_type":[0,0,0,0,0,0,0,0,0,0,0,0,0,0,0],"sum_hessian":[6.3259683E3,3.0974575E3,3.2285107E3,2.5109448E3,5.8651276E2,1.8854956E3,1.3430151E3,1.9226442E3,5.883006E2,5.396147E2,4.6898094E1,6.507872E2,1.2347085E3,3.380237E2,1.0049914E3],"tree_param":{"num_deleted":"0","num_feature":"106","num_nodes":"15","size_leaf_vector":"1"}},{"base_weights":[1.0803106E-1,2.6630345E-1,-4.3852106E-2,3.2609907E-1,1.0190563E-2,7.68317E-2,-2.1321449E-1,2.6893392E-3,5.121489E-3,-1.8857187E-4,3.3783305E-3,-1.1548415E-3,1.7820849E-3,-3.6130967E-3,-1.6309377E-3],"categories":[],"categories_nodes":[],"categories_segments":[],"categories_sizes":[],"default_left":[0,0,0,0,0,0,0,0,0,0,0,0,0,0,0],"id":69,"left_children":[1,3,5,7,9,11,13,-1,-1,-1,-1,-1,-1,-1,-1],"loss_changes":[1.521051E2,4.744774E1,6.60253E1,2.6578278E1,5.5978923E0,3.680039E1,9.91721E0,0E0,0E0,0E0,0E0,0E0,0E0,0E0,0E0],"parents":[2147483647,0,0,1,1,2,2,3,3,4,4,5,5,6,6],"right_children":[2,4,6,8,10,12,14,-1,-1,-1,-1,-1,-1,-1,-1],"split_conditions":[1.5E1,5.1E0,5.45E-1,2.3E1,1.7E1,-4.8E0,-6E0,2.6893392E-3,5.121489E-3,-1.8857187E-4,3.3783305E-3,-1.1548415E-3,1.7820849E-3,-3.6130967E-3,-1.6309377E-3],"split_indices":[51,77,55,80,102,25,25,0,0,0,0,0,0,0,0],"split_type":[0,0,0,0,0,0,0,0,0,0,0,0,0,0,0],"sum_hessian":[6.3259683E3,3.0974575E3,3.2285107E3,2.5109448E3,5.865128E2,1.8854956E3,1.3430151E3,1.9226442E3,5.883006E2,5.396147E2,4.6898094E1,6.507872E2,1.2347084E3,3.380237E2,1.0049914E3],"tree_param":{"num_deleted":"0","num_feature":"106","num_nodes":"15","size_leaf_vector":"1"}},{"base_weights":[-1.07000485E-1,-2.0716846E-1,1.290749E-1,-1.2707503E-1,-4.164216E-1,2.6431096E-1,-7.922289E-3,-1.612327E-4,-2.6037428E-3,-3.5569097E-3,-5.529558E-3,8.1063336E-4,3.126216E-3,1.4650295E-3,-1.0205796E-3],"categories":[],"categories_nodes":[],"categories_segments":[],"categories_sizes":[],"default_left":[0,0,0,0,0,0,0,0,0,0,0,0,0,0,0],"id":70,"left_children":[1,3,5,7,9,11,13,-1,-1,-1,-1,-1,-1,-1,-1],"loss_changes":[1.495745E2,7.4369446E1,3.4917862E1,4.751236E1,9.991745E0,8.37085E0,1.3638538E1,0E0,0E0,0E0,0E0,0E0,0E0,0E0,0E0],"parents":[2147483647,0,0,1,1,2,2,3,3,4,4,5,5,6,6],"right_children":[2,4,6,8,10,12,14,-1,-1,-1,-1,-1,-1,-1,-1],"split_conditions":[2E1,2E1,1.6E1,2.9E0,3.7E1,2.2E1,-6.4E0,-1.612327E-4,-2.6037428E-3,-3.5569097E-3,-5.529558E-3,8.1063336E-4,3.126216E-3,1.4650295E-3,-1.0205796E-3],"split_indices":[28,80,103,25,54,51,25,0,0,0,0,0,0,0,0],"split_type":[0,0,0,0,0,0,0,0,0,0,0,0,0,0,0],"sum_hessian":[6.323122E3,4.43953E3,1.8835923E3,3.2117952E3,1.2277347E3,9.474212E2,9.3617114E2,1.7534392E3,1.458356E3,8.5225543E2,3.754793E2,1.982218E2,7.491994E2,3.5433862E2,5.818325E2],"tree_param":{"num_deleted":"0","num_feature":"106","num_nodes":"15","size_leaf_vector":"1"}},{"base_weights":[1.0700048E-1,2.0716844E-1,-1.2907492E-1,1.2707503E-1,4.1642156E-1,-2.6431096E-1,7.922285E-3,1.612327E-4,2.6037428E-3,3.5569095E-3,5.529558E-3,-8.106326E-4,-3.1262161E-3,-1.4650295E-3,1.0205795E-3],"categories":[],"categories_nodes":[],"categories_segments":[],"categories_sizes":[],"default_left":[0,0,0,0,0,0,0,0,0,0,0,0,0,0,0],"id":71,"left_children":[1,3,5,7,9,11,13,-1,-1,-1,-1,-1,-1,-1,-1],"loss_changes":[1.495745E2,7.436943E1,3.491787E1,4.7512352E1,9.99176E0,8.370857E0,1.3638537E1,0E0,0E0,0E0,0E0,0E0,0E0,0E0,0E0],"parents":[2147483647,0,0,1,1,2,2,3,3,4,4,5,5,6,6],"right_children":[2,4,6,8,10,12,14,-1,-1,-1,-1,-1,-1,-1,-1],"split_conditions":[2E1,2E1,1.6E1,2.9E0,3.7E1,2.2E1,-6.4E0,1.612327E-4,2.6037428E-3,3.5569095E-3,5.529558E-3,-8.106326E-4,-3.1262161E-3,-1.4650295E-3,1.0205795E-3],"split_indices":[28,80,103,25,54,51,25,0,0,0,0,0,0,0,0],"split_type":[0,0,0,0,0,0,0,0,0,0,0,0,0,0,0],"sum_hessian":[6.323122E3,4.43953E3,1.8835924E3,3.2117952E3,1.2277347E3,9.474212E2,9.3617114E2,1.7534392E3,1.4583561E3,8.5225543E2,3.754793E2,1.9822179E2,7.491994E2,3.5433862E2,5.818325E2],"tree_param":{"num_deleted":"0","num_feature":"106","num_nodes":"15","size_leaf_vector":"1"}},{"base_weights":[-1.0597874E-1,3.9663486E-2,-2.6557365E-1,-1.7031437E-1,1.3734816E-1,-3.266373E-1,-8.457363E-3,-6.5792415E-6,-2.9463035E-3,5.3522584E-4,2.5112848E-3,-2.7429326E-3,-4.963465E-3,5.5020594E-4,-1.8189874E-3],"categories":[],"categories_nodes":[],"categories_segments":[],"categories_sizes":[],"default_left":[0,0,0,0,0,0,0,0,0,0,0,0,0,0,0],"id":72,"left_children":[1,3,5,7,9,11,13,-1,-1,-1,-1,-1,-1,-1,-1],"loss_changes":[1.4694232E2,6.783522E1,4.735495E1,2.2148048E1,2.1512127E1,2.1516083E1,6.3946033E0,0E0,0E0,0E0,0E0,0E0,0E0,0E0,0E0],"parents":[2147483647,0,0,1,1,2,2,3,3,4,4,5,5,6,6],"right_children":[2,4,6,8,10,12,14,-1,-1,-1,-1,-1,-1,-1,-1],"split_conditions":[6E-1,-1.9E0,5.1E0,-3.7E0,2.4E1,2.3E1,5.7E0,-6.5792415E-6,-2.9463035E-3,5.3522584E-4,2.5112848E-3,-2.7429326E-3,-4.963465E-3,5.5020594E-4,-1.8189874E-3],"split_indices":[25,77,77,25,51,80,20,0,0,0,0,0,0,0,0],"split_type":[0,0,0,0,0,0,0,0,0,0,0,0,0,0,0],"sum_hessian":[6.320345E3,3.30502E3,3.0153254E3,1.0491272E3,2.2558926E3,2.4364192E3,5.789062E2,4.440833E2,6.0504395E2,1.2997766E3,9.561161E2,1.8640879E3,5.7233124E2,4.2429932E2,1.5460689E2],"tree_param":{"num_deleted":"0","num_feature":"106","num_nodes":"15","size_leaf_vector":"1"}},{"base_weights":[1.0597875E-1,-3.966349E-2,2.6557365E-1,1.7031439E-1,-1.3734816E-1,3.2663733E-1,8.457351E-3,6.579261E-6,2.9463035E-3,-5.352259E-4,-2.5112848E-3,2.7429329E-3,4.9634646E-3,-5.5020576E-4,1.8189865E-3],"categories":[],"categories_nodes":[],"categories_segments":[],"categories_sizes":[],"default_left":[0,0,0,0,0,0,0,0,0,0,0,0,0,0,0],"id":73,"left_children":[1,3,5,7,9,11,13,-1,-1,-1,-1,-1,-1,-1,-1],"loss_changes":[1.4694235E2,6.783522E1,4.735495E1,2.2148052E1,2.1512123E1,2.1516083E1,6.3945985E0,0E0,0E0,0E0,0E0,0E0,0E0,0E0,0E0],"parents":[2147483647,0,0,1,1,2,2,3,3,4,4,5,5,6,6],"right_children":[2,4,6,8,10,12,14,-1,-1,-1,-1,-1,-1,-1,-1],"split_conditions":[6E-1,-1.9E0,5.1E0,-3.7E0,2.4E1,2.3E1,5.7E0,6.579261E-6,2.9463035E-3,-5.352259E-4,-2.5112848E-3,2.7429329E-3,4.9634646E-3,-5.5020576E-4,1.8189865E-3],"split_indices":[25,77,77,25,51,80,20,0,0,0,0,0,0,0,0],"split_type":[0,0,0,0,0,0,0,0,0,0,0,0,0,0,0],"sum_hessian":[6.320345E3,3.30502E3,3.0153254E3,1.0491273E3,2.2558926E3,2.4364192E3,5.789062E2,4.440833E2,6.0504395E2,1.2997766E3,9.561161E2,1.8640879E3,5.7233124E2,4.2429932E2,1.5460689E2],"tree_param":{"num_deleted":"0","num_feature":"106","num_nodes":"15","size_leaf_vector":"1"}},{"base_weights":[-1.04969665E-1,-2.034353E-1,1.2698828E-1,-6.837349E-2,-3.245674E-1,-1.3423409E-1,1.9571985E-1,-1.8413067E-3,3.8493346E-4,-4.6522534E-3,-2.46891E-3,-2.330203E-3,8.2375854E-4,2.934981E-3,9.848544E-4],"categories":[],"categories_nodes":[],"categories_segments":[],"categories_sizes":[],"default_left":[0,0,0,0,0,0,0,0,0,0,0,0,0,0,0],"id":74,"left_children":[1,3,5,7,9,11,13,-1,-1,-1,-1,-1,-1,-1,-1],"loss_changes":[1.443377E2,7.25509E1,3.384292E1,2.5968452E1,2.543283E1,8.427293E0,1.4151913E1,0E0,0E0,0E0,0E0,0E0,0E0,0E0,0E0],"parents":[2147483647,0,0,1,1,2,2,3,3,4,4,5,5,6,6],"right_children":[2,4,6,8,10,12,14,-1,-1,-1,-1,-1,-1,-1,-1],"split_conditions":[2E1,1.2E1,3.61E-1,1E1,8E0,2.7E1,-5.1E0,-1.8413067E-3,3.8493346E-4,-4.6522534E-3,-2.46891E-3,-2.330203E-3,8.2375854E-4,2.934981E-3,9.848544E-4],"split_indices":[28,80,55,51,51,28,25,0,0,0,0,0,0,0,0],"split_type":[0,0,0,0,0,0,0,0,0,0,0,0,0,0,0],"sum_hessian":[6.3174146E3,4.4349224E3,1.8824921E3,2.0976338E3,2.3372888E3,3.9193698E2,1.490555E3,1.006586E3,1.0910477E3,8.297578E2,1.507531E3,2.6912512E2,1.22811844E2,7.4219275E2,7.483623E2],"tree_param":{"num_deleted":"0","num_feature":"106","num_nodes":"15","size_leaf_vector":"1"}},{"base_weights":[1.04969665E-1,2.0343532E-1,-1.2698829E-1,6.83735E-2,3.2456744E-1,1.3423409E-1,-1.9571987E-1,1.8413069E-3,-3.8493343E-4,4.652254E-3,2.46891E-3,2.330203E-3,-8.2375825E-4,-2.934981E-3,-9.848546E-4],"categories":[],"categories_nodes":[],"categories_segments":[],"categories_sizes":[],"default_left":[0,0,0,0,0,0,0,0,0,0,0,0,0,0,0],"id":75,"left_children":[1,3,5,7,9,11,13,-1,-1,-1,-1,-1,-1,-1,-1],"loss_changes":[1.4433774E2,7.25509E1,3.3842915E1,2.596846E1,2.543283E1,8.42729E0,1.415192E1,0E0,0E0,0E0,0E0,0E0,0E0,0E0,0E0],"parents":[2147483647,0,0,1,1,2,2,3,3,4,4,5,5,6,6],"right_children":[2,4,6,8,10,12,14,-1,-1,-1,-1,-1,-1,-1,-1],"split_conditions":[2E1,1.2E1,3.61E-1,1E1,8E0,2.7E1,-5.1E0,1.8413069E-3,-3.8493343E-4,4.652254E-3,2.46891E-3,2.330203E-3,-8.2375825E-4,-2.934981E-3,-9.848546E-4],"split_indices":[28,80,55,51,51,28,25,0,0,0,0,0,0,0,0],"split_type":[0,0,0,0,0,0,0,0,0,0,0,0,0,0,0],"sum_hessian":[6.3174146E3,4.4349224E3,1.882492E3,2.0976338E3,2.3372888E3,3.9193698E2,1.490555E3,1.006586E3,1.0910477E3,8.2975775E2,1.507531E3,2.6912512E2,1.22811844E2,7.4219275E2,7.483623E2],"tree_param":{"num_deleted":"0","num_feature":"106","num_nodes":"15","size_leaf_vector":"1"}},{"base_weights":[-1.0396928E-1,8.2363464E-2,-2.2443663E-1,-1.5398504E-1,1.521447E-1,-3.3698437E-1,-7.068622E-2,-9.631202E-4,-5.10716E-3,7.3448743E-4,2.649351E-3,-2.8260148E-3,-4.947875E-3,-1.846054E-3,6.359113E-4],"categories":[],"categories_nodes":[],"categories_segments":[],"categories_sizes":[],"default_left":[0,0,0,0,0,0,0,0,0,0,0,0,0,0,0],"id":76,"left_children":[1,3,5,7,9,11,13,-1,-1,-1,-1,-1,-1,-1,-1],"loss_changes":[1.4178285E2,4.093461E1,6.6354416E1,1.1594181E1,1.6983974E1,1.8864258E1,2.4830482E1,0E0,0E0,0E0,0E0,0E0,0E0,0E0,0E0],"parents":[2147483647,0,0,1,1,2,2,3,3,4,4,5,5,6,6],"right_children":[2,4,6,8,10,12,14,-1,-1,-1,-1,-1,-1,-1,-1],"split_conditions":[4.7E-1,3.71E-1,1.6E0,-1E0,2.6E1,2.6E1,1E1,-9.631202E-4,-5.10716E-3,7.3448743E-4,2.649351E-3,-2.8260148E-3,-4.947875E-3,-1.846054E-3,6.359113E-4],"split_indices":[3,55,77,25,51,103,51,0,0,0,0,0,0,0,0],"split_type":[0,0,0,0,0,0,0,0,0,0,0,0,0,0,0],"sum_hessian":[6.314512E3,2.4795645E3,3.8349475E3,5.649332E2,1.9146312E3,2.2134646E3,1.6214829E3,4.8740417E2,7.7529076E1,1.1287399E3,7.8589136E2,1.6482333E3,5.652314E2,8.7703925E2,7.444437E2],"tree_param":{"num_deleted":"0","num_feature":"106","num_nodes":"15","size_leaf_vector":"1"}},{"base_weights":[1.03969276E-1,-8.236348E-2,2.2443663E-1,1.5398505E-1,-1.5214472E-1,3.3698437E-1,7.068623E-2,9.631205E-4,5.10716E-3,-7.3448755E-4,-2.6493515E-3,2.8260143E-3,4.947875E-3,1.8460541E-3,-6.359111E-4],"categories":[],"categories_nodes":[],"categories_segments":[],"categories_sizes":[],"default_left":[0,0,0,0,0,0,0,0,0,0,0,0,0,0,0],"id":77,"left_children":[1,3,5,7,9,11,13,-1,-1,-1,-1,-1,-1,-1,-1],"loss_changes":[1.4178287E2,4.0934624E1,6.63544E1,1.159418E1,1.6983974E1,1.8864288E1,2.483048E1,0E0,0E0,0E0,0E0,0E0,0E0,0E0,0E0],"parents":[2147483647,0,0,1,1,2,2,3,3,4,4,5,5,6,6],"right_children":[2,4,6,8,10,12,14,-1,-1,-1,-1,-1,-1,-1,-1],"split_conditions":[4.7E-1,3.71E-1,1.6E0,-1E0,2.6E1,2.6E1,1E1,