{"learner":{"attributes":{},"feature_names":[],"feature_types":[],"gradient_booster":{"model":{"gbtree_model_param":{"num_parallel_tree":"1","num_trees":"1500"},"iteration_indptr":[0,2,4,6,8,10,12,14,16,18,20,22,24,26,28,30,32,34,36,38,40,42,44,46,48,50,52,54,56,58,60,62,64,66,68,70,72,74,76,78,80,82,84,86,88,90,92,94,96,98,100,102,104,106,108,110,112,114,116,118,120,122,124,126,128,130,132,134,136,138,140,142,144,146,148,150,152,154,156,158,160,162,164,166,168,170,172,174,176,178,180,182,184,186,188,190,192,194,196,198,200,202,204,206,208,210,212,214,216,218,220,222,224,226,228,230,232,234,236,238,240,242,244,246,248,250,252,254,256,258,260,262,264,266,268,270,272,274,276,278,280,282,284,286,288,290,292,294,296,298,300,302,304,306,308,310,312,314,316,318,320,322,324,326,328,330,332,334,336,338,340,342,344,346,348,350,352,354,356,358,360,362,364,366,368,370,372,374,376,378,380,382,384,386,388,390,392,394,396,398,400,402,404,406,408,410,412,414,416,418,420,422,424,426,428,430,432,434,436,438,440,442,444,446,448,450,452,454,456,458,460,462,464,466,468,470,472,474,476,478,480,482,484,486,488,490,492,494,496,498,500,502,504,506,508,510,512,514,516,518,520,522,524,526,528,530,532,534,536,538,540,542,544,546,548,550,552,554,556,558,560,562,564,566,568,570,572,574,576,578,580,582,584,586,588,590,592,594,596,598,600,602,604,606,608,610,612,614,616,618,620,622,624,626,628,630,632,634,636,638,640,642,644,646,648,650,652,654,656,658,660,662,664,666,668,670,672,674,676,678,680,682,684,686,688,690,692,694,696,698,700,702,704,706,708,710,712,714,716,718,720,722,724,726,728,730,732,734,736,738,740,742,744,746,748,750,752,754,756,758,760,762,764,766,768,770,772,774,776,778,780,782,784,786,788,790,792,794,796,798,800,802,804,806,808,810,812,814,816,818,820,822,824,826,828,830,832,834,836,838,840,842,844,846,848,850,852,854,856,858,860,862,864,866,868,870,872,874,876,878,880,882,884,886,888,890,892,894,896,898,900,902,904,906,908,910,912,914,916,918,920,922,924,926,928,930,932,934,936,938,940,942,944,946,948,950,952,954,956,958,960,962,964,966,968,970,972,974,976,978,980,982,984,986,988,990,992,994,996,998,1000,1002,1004,1006,1008,1010,1012,1014,1016,1018,1020,1022,1024,1026,1028,1030,1032,1034,1036,1038,1040,1042,1044,1046,1048,1050,1052,1054,1056,1058,1060,1062,1064,1066,1068,1070,1072,1074,1076,1078,1080,1082,1084,1086,1088,1090,1092,1094,1096,1098,1100,1102,1104,1106,1108,1110,1112,1114,1116,1118,1120,1122,1124,1126,1128,1130,1132,1134,1136,1138,1140,1142,1144,1146,1148,1150,1152,1154,1156,1158,1160,1162,1164,1166,1168,1170,1172,1174,1176,1178,1180,1182,1184,1186,1188,1190,1192,1194,1196,1198,1200,1202,1204,1206,1208,1210,1212,1214,1216,1218,1220,1222,1224,1226,1228,1230,1232,1234,1236,1238,1240,1242,1244,1246,1248,1250,1252,1254,1256,1258,1260,1262,1264,1266,1268,1270,1272,1274,1276,1278,1280,1282,1284,1286,1288,1290,1292,1294,1296,1298,1300,1302,1304,1306,1308,1310,1312,1314,1316,1318,1320,1322,1324,1326,1328,1330,1332,1334,1336,1338,1340,1342,1344,1346,1348,1350,1352,1354,1356,1358,1360,1362,1364,1366,1368,1370,1372,1374,1376,1378,1380,1382,1384,1386,1388,1390,1392,1394,1396,1398,1400,1402,1404,1406,1408,1410,1412,1414,1416,1418,1420,1422,1424,1426,1428,1430,1432,1434,1436,1438,1440,1442,1444,1446,1448,1450,1452,1454,1456,1458,1460,1462,1464,1466,1468,1470,1472,1474,1476,1478,1480,1482,1484,1486,1488,1490,1492,1494,1496,1498,1500],"tree_info":[0,1,0,1,0,1,0,1,0,1,0,1,0,1,0,1,0,1,0,1,0,1,0,1,0,1,0,1,0,1,0,1,0,1,0,1,0,1,0,1,0,1,0,1,0,1,0,1,0,1,0,1,0,1,0,1,0,1,0,1,0,1,0,1,0,1,0,1,0,1,0,1,0,1,0,1,0,1,0,1,0,1,0,1,0,1,0,1,0,1,0,1,0,1,0,1,0,1,0,1,0,1,0,1,0,1,0,1,0,1,0,1,0,1,0,1,0,1,0,1,0,1,0,1,0,1,0,1,0,1,0,1,0,1,0,1,0,1,0,1,0,1,0,1,0,1,0,1,0,1,0,1,0,1,0,1,0,1,0,1,0,1,0,1,0,1,0,1,0,1,0,1,0,1,0,1,0,1,0,1,0,1,0,1,0,1,0,1,0,1,0,1,0,1,0,1,0,1,0,1,0,1,0,1,0,1,0,1,0,1,0,1,0,1,0,1,0,1,0,1,0,1,0,1,0,1,0,1,0,1,0,1,0,1,0,1,0,1,0,1,0,1,0,1,0,1,0,1,0,1,0,1,0,1,0,1,0,1,0,1,0,1,0,1,0,1,0,1,0,1,0,1,0,1,0,1,0,1,0,1,0,1,0,1,0,1,0,1,0,1,0,1,0,1,0,1,0,1,0,1,0,1,0,1,0,1,0,1,0,1,0,1,0,1,0,1,0,1,0,1,0,1,0,1,0,1,0,1,0,1,0,1,0,1,0,1,0,1,0,1,0,1,0,1,0,1,0,1,0,1,0,1,0,1,0,1,0,1,0,1,0,1,0,1,0,1,0,1,0,1,0,1,0,1,0,1,0,1,0,1,0,1,0,1,0,1,0,1,0,1,0,1,0,1,0,1,0,1,0,1,0,1,0,1,0,1,0,1,0,1,0,1,0,1,0,1,0,1,0,1,0,1,0,1,0,1,0,1,0,1,0,1,0,1,0,1,0,1,0,1,0,1,0,1,0,1,0,1,0,1,0,1,0,1,0,1,0,1,0,1,0,1,0,1,0,1,0,1,0,1,0,1,0,1,0,1,0,1,0,1,0,1,0,1,0,1,0,1,0,1,0,1,0,1,0,1,0,1,0,1,0,1,0,1,0,1,0,1,0,1,0,1,0,1,0,1,0,1,0,1,0,1,0,1,0,1,0,1,0,1,0,1,0,1,0,1,0,1,0,1,0,1,0,1,0,1,0,1,0,1,0,1,0,1,0,1,0,1,0,1,0,1,0,1,0,1,0,1,0,1,0,1,0,1,0,1,0,1,0,1,0,1,0,1,0,1,0,1,0,1,0,1,0,1,0,1,0,1,0,1,0,1,0,1,0,1,0,1,0,1,0,1,0,1,0,1,0,1,0,1,0,1,0,1,0,1,0,1,0,1,0,1,0,1,0,1,0,1,0,1,0,1,0,1,0,1,0,1,0,1,0,1,0,1,0,1,0,1,0,1,0,1,0,1,0,1,0,1,0,1,0,1,0,1,0,1,0,1,0,1,0,1,0,1,0,1,0,1,0,1,0,1,0,1,0,1,0,1,0,1,0,1,0,1,0,1,0,1,0,1,0,1,0,1,0,1,0,1,0,1,0,1,0,1,0,1,0,1,0,1,0,1,0,1,0,1,0,1,0,1,0,1,0,1,0,1,0,1,0,1,0,1,0,1,0,1,0,1,0,1,0,1,0,1,0,1,0,1,0,1,0,1,0,1,0,1,0,1,0,1,0,1,0,1,0,1,0,1,0,1,0,1,0,1,0,1,0,1,0,1,0,1,0,1,0,1,0,1,0,1,0,1,0,1,0,1,0,1,0,1,0,1,0,1,0,1,0,1,0,1,0,1,0,1,0,1,0,1,0,1,0,1,0,1,0,1,0,1,0,1,0,1,0,1,0,1,0,1,0,1,0,1,0,1,0,1,0,1,0,1,0,1,0,1,0,1,0,1,0,1,0,1,0,1,0,1,0,1,0,1,0,1,0,1,0,1,0,1,0,1,0,1,0,1,0,1,0,1,0,1,0,1,0,1,0,1,0,1,0,1,0,1,0,1,0,1,0,1,0,1,0,1,0,1,0,1,0,1,0,1,0,1,0,1,0,1,0,1,0,1,0,1,0,1,0,1,0,1,0,1,0,1,0,1,0,1,0,1,0,1,0,1,0,1,0,1,0,1,0,1,0,1,0,1,0,1,0,1,0,1,0,1,0,1,0,1,0,1,0,1,0,1,0,1,0,1,0,1,0,1,0,1,0,1,0,1,0,1,0,1,0,1,0,1,0,1,0,1,0,1,0,1,0,1,0,1,0,1,0,1,0,1,0,1,0,1,0,1,0,1,0,1,0,1,0,1,0,1,0,1,0,1,0,1,0,1,0,1,0,1,0,1,0,1,0,1,0,1,0,1,0,1,0,1,0,1,0,1,0,1,0,1,0,1,0,1,0,1,0,1,0,1,0,1,0,1,0,1,0,1,0,1,0,1,0,1,0,1,0,1,0,1,0,1,0,1,0,1,0,1,0,1,0,1,0,1,0,1,0,1,0,1,0,1,0,1,0,1,0,1,0,1,0,1,0,1,0,1,0,1,0,1,0,1,0,1,0,1,0,1,0,1,0,1,0,1,0,1,0,1,0,1,0,1,0,1,0,1,0,1,0,1,0,1,0,1,0,1,0,1,0,1,0,1,0,1,0,1,0,1,0,1,0,1,0,1,0,1,0,1,0,1,0,1,0,1,0,1,0,1,0,1,0,1,0,1,0,1,0,1,0,1,0,1,0,1,0,1,0,1,0,1,0,1,0,1,0,1,0,1,0,1,0,1,0,1,0,1,0,1,0,1,0,1,0,1,0,1,0,1,0,1,0,1,0,1,0,1,0,1,0,1,0,1,0,1,0,1,0,1,0,1,0,1,0,1,0,1,0,1,0,1,0,1,0,1,0,1,0,1,0,1,0,1,0,1,0,1,0,1,0,1,0,1,0,1,0,1,0,1,0,1,0,1,0,1,0,1,0,1,0,1,0,1,0,1,0,1,0,1,0,1,0,1,0,1,0,1,0,1,0,1,0,1,0,1,0,1,0,1,0,1,0,1,0,1,0,1,0,1,0,1,0,1,0,1,0,1,0,1,0,1,0,1,0,1,0,1,0,1,0,1,0,1,0,1,0,1,0,1,0,1,0,1,0,1,0,1,0,1,0,1,0,1,0,1,0,1,0,1,0,1,0,1,0,1,0,1,0,1,0,1,0,1,0,1,0,1,0,1,0,1,0,1,0,1,0,1,0,1,0,1,0,1,0,1,0,1,0,1,0,1,0,1,0,1,0,1,0,1,0,1,0,1,0,1,0,1,0,1],"trees":[{"base_weights":[-1.5252912E-1,-2.8601626E-1,1.6298632E-1,-1.2822647E-1,-4.6692142E-1,-9.375E-2,2.8339767E-1,-2.802768E-3,1.2830793E-4,-3.6704731E-3,-6.07369E-3,5.588235E-4,-2.8252788E-3,4.487705E-3,1.8316832E-3],"categories":[],"categories_nodes":[],"categories_segments":[],"categories_sizes":[],"default_left":[0,0,0,0,0,0,0,0,0,0,0,0,0,0,0],"id":0,"left_children":[1,3,5,7,9,11,13,-1,-1,-1,-1,-1,-1,-1,-1],"loss_changes":[2.6940747E2,1.2823553E2,5.882494E1,5.152123E1,2.9142792E1,1.7190132E1,2.1382698E1,0E0,0E0,0E0,0E0,0E0,0E0,0E0,0E0],"parents":[2147483647,0,0,1,1,2,2,3,3,4,4,5,5,6,6],"right_children":[2,4,6,8,10,12,14,-1,-1,-1,-1,-1,-1,-1,-1],"split_conditions":[2E1,1.4E1,-1.9E0,1E1,2.3E1,-4.3E0,-6.2E0,-2.802768E-3,1.2830793E-4,-3.6704731E-3,-6.07369E-3,5.588235E-4,-2.8252788E-3,4.487705E-3,1.8316832E-3],"split_indices":[28,80,77,51,80,25,25,0,0,0,0,0,0,0,0],"split_type":[0,0,0,0,0,0,0,0,0,0,0,0,0,0,0],"sum_hessian":[6.3945E3,4.4935E3,1.901E3,2.401E3,2.0925E3,6.07E2,1.294E3,1.155E3,1.246E3,1.225E3,8.675E2,3.39E2,2.68E2,4.87E2,8.07E2],"tree_param":{"num_deleted":"0","num_feature":"106","num_nodes":"15","size_leaf_vector":"1"}},{"base_weights":[1.5252912E-1,2.8601626E-1,-1.6298632E-1,1.2822647E-1,4.6692142E-1,9.375E-2,-2.8339767E-1,2.802768E-3,-1.2830793E-4,3.6704731E-3,6.07369E-3,-5.588235E-4,2.8252788E-3,-4.487705E-3,-1.8316832E-3],"categories":[],"categories_nodes":[],"categories_segments":[],"categories_sizes":[],"default_left":[0,0,0,0,0,0,0,0,0,0,0,0,0,0,0],"id":1,"left_children":[1,3,5,7,9,11,13,-1,-1,-1,-1,-1,-1,-1,-1],"loss_changes":[2.6940747E2,1.2823553E2,5.882494E1,5.152123E1,2.9142792E1,1.7190132E1,2.1382698E1,0E0,0E0,0E0,0E0,0E0,0E0,0E0,0E0],"parents":[2147483647,0,0,1,1,2,2,3,3,4,4,5,5,6,6],"right_children":[2,4,6,8,10,12,14,-1,-1,-1,-1,-1,-1,-1,-1],"split_conditions":[2E1,1.4E1,-1.9E0,1E1,2.3E1,-4.3E0,-6.2E0,2.802768E-3,-1.2830793E-4,3.6704731E-3,6.07369E-3,-5.588235E-4,2.8252788E-3,-4.487705E-3,-1.8316832E-3],"split_indices":[28,80,77,51,80,25,25,0,0,0,0,0,0,0,0],"split_type":[0,0,0,0,0,0,0,0,0,0,0,0,0,0,0],"sum_hessian":[6.3945E3,4.4935E3,1.901E3,2.401E3,2.0925E3,6.07E2,1.294E3,1.155E3,1.246E3,1.225E3,8.675E2,3.39E2,2.68E2,4.87E2,8.07E2],"tree_param":{"num_deleted":"0","num_feature":"106","num_nodes":"15","size_leaf_vector":"1"}},{"base_weights":[-1.5100685E-1,-2.831625E-1,1.6135988E-1,-1.2694581E-1,-4.6226764E-1,-9.2816584E-2,2.8057134E-1,-2.774787E-3,1.2702627E-4,-3.6338475E-3,-6.0132453E-3,5.532516E-4,-2.7971533E-3,4.44301E-3,1.8133953E-3],"categories":[],"categories_nodes":[],"categories_segments":[],"categories_sizes":[],"default_left":[0,0,0,0,0,0,0,0,0,0,0,0,0,0,0],"id":2,"left_children":[1,3,5,7,9,11,13,-1,-1,-1,-1,-1,-1,-1,-1],"loss_changes":[2.6405548E2,1.2569229E2,5.7657616E1,5.049741E1,2.856717E1,1.6849417E1,2.0959343E1,0E0,0E0,0E0,0E0,0E0,0E0,0E0,0E0],"parents":[2147483647,0,0,1,1,2,2,3,3,4,4,5,5,6,6],"right_children":[2,4,6,8,10,12,14,-1,-1,-1,-1,-1,-1,-1,-1],"split_conditions":[2E1,1.4E1,-1.9E0,1E1,2.3E1,-4.3E0,-6.2E0,-2.774787E-3,1.2702627E-4,-3.6338475E-3,-6.0132453E-3,5.532516E-4,-2.7971533E-3,4.44301E-3,1.8133953E-3],"split_indices":[28,80,77,51,80,25,25,0,0,0,0,0,0,0,0],"split_type":[0,0,0,0,0,0,0,0,0,0,0,0,0,0,0],"sum_hessian":[6.3944277E3,4.4934424E3,1.9009852E3,2.400991E3,2.0924514E3,6.0699774E2,1.2939875E3,1.154991E3,1.246E3,1.2249835E3,8.67468E2,3.389999E2,2.6799783E2,4.869902E2,8.069973E2],"tree_param":{"num_deleted":"0","num_feature":"106","num_nodes":"15","size_leaf_vector":"1"}},{"base_weights":[1.5100686E-1,2.8316247E-1,-1.6135983E-1,1.2694582E-1,4.6226758E-1,9.281659E-2,-2.8057128E-1,2.774787E-3,-1.2702598E-4,3.6338475E-3,6.0132444E-3,-5.532516E-4,2.7971535E-3,-4.44301E-3,-1.8133944E-3],"categories":[],"categories_nodes":[],"categories_segments":[],"categories_sizes":[],"default_left":[0,0,0,0,0,0,0,0,0,0,0,0,0,0,0],"id":3,"left_children":[1,3,5,7,9,11,13,-1,-1,-1,-1,-1,-1,-1,-1],"loss_changes":[2.6405542E2,1.2569226E2,5.7657604E1,5.0497395E1,2.8567139E1,1.6849419E1,2.0959358E1,0E0,0E0,0E0,0E0,0E0,0E0,0E0,0E0],"parents":[2147483647,0,0,1,1,2,2,3,3,4,4,5,5,6,6],"right_children":[2,4,6,8,10,12,14,-1,-1,-1,-1,-1,-1,-1,-1],"split_conditions":[2E1,1.4E1,-1.9E0,1E1,2.3E1,-4.3E0,-6.2E0,2.774787E-3,-1.2702598E-4,3.6338475E-3,6.0132444E-3,-5.532516E-4,2.7971535E-3,-4.44301E-3,-1.8133944E-3],"split_indices":[28,80,77,51,80,25,25,0,0,0,0,0,0,0,0],"split_type":[0,0,0,0,0,0,0,0,0,0,0,0,0,0,0],"sum_hessian":[6.3944277E3,4.4934424E3,1.9009854E3,2.4009907E3,2.0924514E3,6.0699774E2,1.2939875E3,1.154991E3,1.2459999E3,1.2249835E3,8.67468E2,3.389999E2,2.6799786E2,4.869902E2,8.069974E2],"tree_param":{"num_deleted":"0","num_feature":"106","num_nodes":"15","size_leaf_vector":"1"}},{"base_weights":[-1.4950313E-1,-3.5440233E-1,4.854158E-2,-1.976988E-1,-5.168278E-1,-2.01046E-1,1.7870747E-1,-2.8649347E-3,-4.47783E-4,-4.1768304E-3,-6.7324666E-3,5.9629575E-4,-3.4098914E-3,5.272653E-4,3.4408653E-3],"categories":[],"categories_nodes":[],"categories_segments":[],"categories_sizes":[],"default_left":[0,0,0,0,0,0,0,0,0,0,0,0,0,0,0],"id":4,"left_children":[1,3,5,7,9,11,13,-1,-1,-1,-1,-1,-1,-1,-1],"loss_changes":[2.5952985E2,7.990393E1,1.05714836E2,2.1732716E1,2.3645752E1,4.0711372E1,4.45354E1,0E0,0E0,0E0,0E0,0E0,0E0,0E0,0E0],"parents":[2147483647,0,0,1,1,2,2,3,3,4,4,5,5,6,6],"right_children":[2,4,6,8,10,12,14,-1,-1,-1,-1,-1,-1,-1,-1],"split_conditions":[1.5E1,1.3E1,-1.5E0,5.1E0,2.3E1,-4.8E0,2.4E1,-2.8649347E-3,-4.47783E-4,-4.1768304E-3,-6.7324666E-3,5.9629575E-4,-3.4098914E-3,5.272653E-4,3.4408653E-3],"split_indices":[51,80,77,77,80,25,51,0,0,0,0,0,0,0,0],"split_type":[0,0,0,0,0,0,0,0,0,0,0,0,0,0,0],"sum_hessian":[6.3942134E3,3.1423328E3,3.2518809E3,1.6004657E3,1.541867E3,1.1144417E3,2.1374392E3,1.01197797E3,5.884878E2,9.459528E2,5.959141E2,3.8949448E2,7.2494714E2,1.213982E3,9.2345715E2],"tree_param":{"num_deleted":"0","num_feature":"106","num_nodes":"15","size_leaf_vector":"1"}},{"base_weights":[1.4950313E-1,3.5440233E-1,-4.8541583E-2,1.9769879E-1,5.168278E-1,2.0104599E-1,-1.7870747E-1,2.8649347E-3,4.4778278E-4,4.1768304E-3,6.7324666E-3,-5.9629575E-4,3.4098914E-3,-5.272653E-4,-3.4408653E-3],"categories":[],"categories_nodes":[],"categories_segments":[],"categories_sizes":[],"default_left":[0,0,0,0,0,0,0,0,0,0,0,0,0,0,0],"id":5,"left_children":[1,3,5,7,9,11,13,-1,-1,-1,-1,-1,-1,-1,-1],"loss_changes":[2.5952985E2,7.990393E1,1.0571483E2,2.1732727E1,2.3645752E1,4.0711376E1,4.45354E1,0E0,0E0,0E0,0E0,0E0,0E0,0E0,0E0],"parents":[2147483647,0,0,1,1,2,2,3,3,4,4,5,5,6,6],"right_children":[2,4,6,8,10,12,14,-1,-1,-1,-1,-1,-1,-1,-1],"split_conditions":[1.5E1,1.3E1,-1.5E0,5.1E0,2.3E1,-4.8E0,2.4E1,2.8649347E-3,4.4778278E-4,4.1768304E-3,6.7324666E-3,-5.9629575E-4,3.4098914E-3,-5.272653E-4,-3.4408653E-3],"split_indices":[51,80,77,77,80,25,51,0,0,0,0,0,0,0,0],"split_type":[0,0,0,0,0,0,0,0,0,0,0,0,0,0,0],"sum_hessian":[6.3942134E3,3.1423325E3,3.2518809E3,1.6004657E3,1.541867E3,1.1144417E3,2.1374392E3,1.0119779E3,5.8848773E2,9.459528E2,5.959141E2,3.8949448E2,7.2494714E2,1.213982E3,9.2345715E2],"tree_param":{"num_deleted":"0","num_feature":"106","num_nodes":"15","size_leaf_vector":"1"}},{"base_weights":[-1.4801764E-1,-2.777726E-1,1.586628E-1,-1.2444308E-1,-4.5359325E-1,-9.0504564E-2,2.7552822E-1,-2.7260273E-3,1.2996522E-4,-3.5661694E-3,-5.899927E-3,5.4479623E-4,-2.7343428E-3,4.3663075E-3,1.7789914E-3],"categories":[],"categories_nodes":[],"categories_segments":[],"categories_sizes":[],"default_left":[0,0,0,0,0,0,0,0,0,0,0,0,0,0,0],"id":6,"left_children":[1,3,5,7,9,11,13,-1,-1,-1,-1,-1,-1,-1,-1],"loss_changes":[2.5451804E2,1.2109546E2,5.5405807E1,4.891397E1,2.7475983E1,1.6139595E1,2.028891E1,0E0,0E0,0E0,0E0,0E0,0E0,0E0,0E0],"parents":[2147483647,0,0,1,1,2,2,3,3,4,4,5,5,6,6],"right_children":[2,4,6,8,10,12,14,-1,-1,-1,-1,-1,-1,-1,-1],"split_conditions":[2E1,1.4E1,-1.9E0,1E1,2.3E1,-4.3E0,-6.2E0,-2.7260273E-3,1.2996522E-4,-3.5661694E-3,-5.899927E-3,5.4479623E-4,-2.7343428E-3,4.3663075E-3,1.7789914E-3],"split_indices":[28,80,77,51,80,25,25,0,0,0,0,0,0,0,0],"split_type":[0,0,0,0,0,0,0,0,0,0,0,0,0,0,0],"sum_hessian":[6.3938936E3,4.4930156E3,1.9008779E3,2.4009258E3,2.0920896E3,6.069764E2,1.2939015E3,1.1549299E3,1.245996E3,1.2248611E3,8.672286E2,3.3899896E2,2.6797745E2,4.8692697E2,8.069745E2],"tree_param":{"num_deleted":"0","num_feature":"106","num_nodes":"15","size_leaf_vector":"1"}},{"base_weights":[1.4801763E-1,2.7777258E-1,-1.5866283E-1,1.2444306E-1,4.535932E-1,9.0504564E-2,-2.7552825E-1,2.726028E-3,-1.2996582E-4,3.5661687E-3,5.899927E-3,-5.447962E-4,2.7343428E-3,-4.3663085E-3,-1.7789914E-3],"categories":[],"categories_nodes":[],"categories_segments":[],"categories_sizes":[],"default_left":[0,0,0,0,0,0,0,0,0,0,0,0,0,0,0],"id":7,"left_children":[1,3,5,7,9,11,13,-1,-1,-1,-1,-1,-1,-1,-1],"loss_changes":[2.54518E2,1.2109546E2,5.540582E1,4.8914005E1,2.7475983E1,1.6139595E1,2.0288918E1,0E0,0E0,0E0,0E0,0E0,0E0,0E0,0E0],"parents":[2147483647,0,0,1,1,2,2,3,3,4,4,5,5,6,6],"right_children":[2,4,6,8,10,12,14,-1,-1,-1,-1,-1,-1,-1,-1],"split_conditions":[2E1,1.4E1,-1.9E0,1E1,2.3E1,-4.3E0,-6.2E0,2.726028E-3,-1.2996582E-4,3.5661687E-3,5.899927E-3,-5.447962E-4,2.7343428E-3,-4.3663085E-3,-1.7789914E-3],"split_indices":[28,80,77,51,80,25,25,0,0,0,0,0,0,0,0],"split_type":[0,0,0,0,0,0,0,0,0,0,0,0,0,0,0],"sum_hessian":[6.3938936E3,4.4930156E3,1.9008778E3,2.4009258E3,2.0920896E3,6.069764E2,1.2939015E3,1.1549298E3,1.245996E3,1.2248611E3,8.672286E2,3.3899896E2,2.6797745E2,4.8692694E2,8.069745E2],"tree_param":{"num_deleted":"0","num_feature":"106","num_nodes":"15","size_leaf_vector":"1"}},{"base_weights":[-1.465496E-1,-3.4789258E-1,4.8042443E-2,-1.9393775E-1,-5.07505E-1,-1.9677031E-1,1.7571086E-1,-2.8182406E-3,-4.259008E-4,-4.1024038E-3,-6.6100215E-3,5.8765215E-4,-3.3397612E-3,5.222286E-4,3.3783459E-3],"categories":[],"categories_nodes":[],"categories_segments":[],"categories_sizes":[],"default_left":[0,0,0,0,0,0,0,0,0,0,0,0,0,0,0],"id":8,"left_children":[1,3,5,7,9,11,13,-1,-1,-1,-1,-1,-1,-1,-1],"loss_changes":[2.5054861E2,7.713043E1,1.01694275E2,2.1288582E1,2.2757172E1,3.9123337E1,4.27918E1,0E0,0E0,0E0,0E0,0E0,0E0,0E0,0E0],"parents":[2147483647,0,0,1,1,2,2,3,3,4,4,5,5,6,6],"right_children":[2,4,6,8,10,12,14,-1,-1,-1,-1,-1,-1,-1,-1],"split_conditions":[1.5E1,1.3E1,-1.5E0,5.1E0,2.3E1,-4.8E0,2.4E1,-2.8182406E-3,-4.259008E-4,-4.1024038E-3,-6.6100215E-3,5.8765215E-4,-3.3397612E-3,5.222286E-4,3.3783459E-3],"split_indices":[51,80,77,77,80,25,51,0,0,0,0,0,0,0,0],"split_type":[0,0,0,0,0,0,0,0,0,0,0,0,0,0,0],"sum_hessian":[6.3934243E3,3.1418188E3,3.2516052E3,1.6003804E3,1.5414385E3,1.1143065E3,2.1372988E3,1.01191046E3,5.884699E2,9.457985E2,5.9564E2,3.8948727E2,7.2481915E2,1.21396E3,9.233388E2],"tree_param":{"num_deleted":"0","num_feature":"106","num_nodes":"15","size_leaf_vector":"1"}},{"base_weights":[1.465496E-1,3.4789252E-1,-4.8042413E-2,1.9393772E-1,5.0750494E-1,1.9677036E-1,-1.7571083E-1,2.8182399E-3,4.259009E-4,4.102403E-3,6.610021E-3,-5.8765116E-4,3.3397612E-3,-5.222286E-4,-3.3783454E-3],"categories":[],"categories_nodes":[],"categories_segments":[],"categories_sizes":[],"default_left":[0,0,0,0,0,0,0,0,0,0,0,0,0,0,0],"id":9,"left_children":[1,3,5,7,9,11,13,-1,-1,-1,-1,-1,-1,-1,-1],"loss_changes":[2.5054857E2,7.713034E1,1.0169429E2,2.1288567E1,2.2757172E1,3.9123318E1,4.2791794E1,0E0,0E0,0E0,0E0,0E0,0E0,0E0,0E0],"parents":[2147483647,0,0,1,1,2,2,3,3,4,4,5,5,6,6],"right_children":[2,4,6,8,10,12,14,-1,-1,-1,-1,-1,-1,-1,-1],"split_conditions":[1.5E1,1.3E1,-1.5E0,5.1E0,2.3E1,-4.8E0,2.4E1,2.8182399E-3,4.259009E-4,4.102403E-3,6.610021E-3,-5.8765116E-4,3.3397612E-3,-5.222286E-4,-3.3783454E-3],"split_indices":[51,80,77,77,80,25,51,0,0,0,0,0,0,0,0],"split_type":[0,0,0,0,0,0,0,0,0,0,0,0,0,0,0],"sum_hessian":[6.3934243E3,3.1418188E3,3.2516052E3,1.6003804E3,1.5414386E3,1.1143064E3,2.1372988E3,1.01191046E3,5.884699E2,9.457986E2,5.9564E2,3.8948727E2,7.2481915E2,1.21396E3,9.2333875E2],"tree_param":{"num_deleted":"0","num_feature":"106","num_nodes":"15","size_leaf_vector":"1"}},{"base_weights":[-1.4509927E-1,-3.4446287E-1,4.7564782E-2,-1.9200753E-1,-5.0255036E-1,-2.0918861E-1,1.6694734E-1,-2.7902408E-3,-4.2165158E-4,-4.0619713E-3,-6.546447E-3,2.4919002E-4,-3.536262E-3,4.3616744E-4,3.2790105E-3],"categories":[],"categories_nodes":[],"categories_segments":[],"categories_sizes":[],"default_left":[0,0,0,0,0,0,0,0,0,0,0,0,0,0,0],"id":10,"left_children":[1,3,5,7,9,11,13,-1,-1,-1,-1,-1,-1,-1,-1],"loss_changes":[2.4560548E2,7.563971E1,9.972826E1,2.0867485E1,2.23331E1,3.492989E1,4.406767E1,0E0,0E0,0E0,0E0,0E0,0E0,0E0,0E0],"parents":[2147483647,0,0,1,1,2,2,3,3,4,4,5,5,6,6],"right_children":[2,4,6,8,10,12,14,-1,-1,-1,-1,-1,-1,-1,-1],"split_conditions":[1.5E1,1.3E1,-1.9E0,5.1E0,2.3E1,-4.3E0,2.4E1,-2.7902408E-3,-4.2165158E-4,-4.0619713E-3,-6.546447E-3,2.4919002E-4,-3.536262E-3,4.3616744E-4,3.2790105E-3],"split_indices":[51,80,77,77,80,25,51,0,0,0,0,0,0,0,0],"split_type":[0,0,0,0,0,0,0,0,0,0,0,0,0,0,0],"sum_hessian":[6.3928516E3,3.1414133E3,3.2514382E3,1.6003213E3,1.541092E3,1.0317418E3,2.2196965E3,1.0118544E3,5.8846686E2,9.456712E2,5.954209E2,3.9398688E2,6.3775494E2,1.2574489E3,9.6224756E2],"tree_param":{"num_deleted":"0","num_feature":"106","num_nodes":"15","size_leaf_vector":"1"}},{"base_weights":[1.4509925E-1,3.4446287E-1,-4.75648E-2,1.9200753E-1,5.0255036E-1,2.0918855E-1,-1.6694734E-1,2.7902408E-3,4.2165152E-4,4.0619713E-3,6.546447E-3,-2.4919104E-4,3.536262E-3,-4.3616764E-4,-3.2790105E-3],"categories":[],"categories_nodes":[],"categories_segments":[],"categories_sizes":[],"default_left":[0,0,0,0,0,0,0,0,0,0,0,0,0,0,0],"id":11,"left_children":[1,3,5,7,9,11,13,-1,-1,-1,-1,-1,-1,-1,-1],"loss_changes":[2.456055E2,7.563971E1,9.9728226E1,2.0867493E1,2.23331E1,3.4929905E1,4.406767E1,0E0,0E0,0E0,0E0,0E0,0E0,0E0,0E0],"parents":[2147483647,0,0,1,1,2,2,3,3,4,4,5,5,6,6],"right_children":[2,4,6,8,10,12,14,-1,-1,-1,-1,-1,-1,-1,-1],"split_conditions":[1.5E1,1.3E1,-1.9E0,5.1E0,2.3E1,-4.3E0,2.4E1,2.7902408E-3,4.2165152E-4,4.0619713E-3,6.546447E-3,-2.4919104E-4,3.536262E-3,-4.3616764E-4,-3.2790105E-3],"split_indices":[51,80,77,77,80,25,51,0,0,0,0,0,0,0,0],"split_type":[0,0,0,0,0,0,0,0,0,0,0,0,0,0,0],"sum_hessian":[6.3928516E3,3.1414133E3,3.2514385E3,1.6003212E3,1.541092E3,1.0317418E3,2.2196965E3,1.0118543E3,5.884669E2,9.456712E2,5.954209E2,3.9398688E2,6.3775494E2,1.257449E3,9.6224756E2],"tree_param":{"num_deleted":"0","num_feature":"106","num_nodes":"15","size_leaf_vector":"1"}},{"base_weights":[-1.4366631E-1,-2.7002767E-1,1.5495527E-1,-1.2077961E-1,-4.412485E-1,-8.6788595E-2,2.6834747E-1,-2.6578775E-3,1.3716891E-4,-3.470215E-3,-5.7385527E-3,4.6217578E-4,-2.7366348E-3,4.2595933E-3,1.7286183E-3],"categories":[],"categories_nodes":[],"categories_segments":[],"categories_sizes":[],"default_left":[0,0,0,0,0,0,0,0,0,0,0,0,0,0,0],"id":12,"left_children":[1,3,5,7,9,11,13,-1,-1,-1,-1,-1,-1,-1,-1],"loss_changes":[2.4128246E2,1.1475284E2,5.214774E1,4.6844303E1,2.5939667E1,1.5122292E1,1.9410103E1,0E0,0E0,0E0,0E0,0E0,0E0,0E0,0E0],"parents":[2147483647,0,0,1,1,2,2,3,3,4,4,5,5,6,6],"right_children":[2,4,6,8,10,12,14,-1,-1,-1,-1,-1,-1,-1,-1],"split_conditions":[2E1,1.4E1,-1.9E0,1E1,2.3E1,-4.1E0,-6.2E0,-2.6578775E-3,1.3716891E-4,-3.470215E-3,-5.7385527E-3,4.6217578E-4,-2.7366348E-3,4.2595933E-3,1.7286183E-3],"split_indices":[28,80,77,51,80,25,25,0,0,0,0,0,0,0,0],"split_type":[0,0,0,0,0,0,0,0,0,0,0,0,0,0,0],"sum_hessian":[6.392151E3,4.491622E3,1.9005287E3,2.4007048E3,2.0909172E3,6.0689905E2,1.2936296E3,1.1547397E3,1.2459651E3,1.2244625E3,8.664547E2,3.5499084E2,2.519082E2,4.8673956E2,8.0689014E2],"tree_param":{"num_deleted":"0","num_feature":"106","num_nodes":"15","size_leaf_vector":"1"}},{"base_weights":[1.4366631E-1,2.700277E-1,-1.5495528E-1,1.2077962E-1,4.412485E-1,8.678854E-2,-2.6834744E-1,2.6578775E-3,-1.3716877E-4,3.4702155E-3,5.7385527E-3,-4.6217663E-4,2.7366348E-3,-4.2595924E-3,-1.7286188E-3],"categories":[],"categories_nodes":[],"categories_segments":[],"categories_sizes":[],"default_left":[0,0,0,0,0,0,0,0,0,0,0,0,0,0,0],"id":13,"left_children":[1,3,5,7,9,11,13,-1,-1,-1,-1,-1,-1,-1,-1],"loss_changes":[2.4128249E2,1.1475284E2,5.2147724E1,4.68443E1,2.5939636E1,1.5122299E1,1.9410088E1,0E0,0E0,0E0,0E0,0E0,0E0,0E0,0E0],"parents":[2147483647,0,0,1,1,2,2,3,3,4,4,5,5,6,6],"right_children":[2,4,6,8,10,12,14,-1,-1,-1,-1,-1,-1,-1,-1],"split_conditions":[2E1,1.4E1,-1.9E0,1E1,2.3E1,-4.1E0,-6.2E0,2.6578775E-3,-1.3716877E-4,3.4702155E-3,5.7385527E-3,-4.6217663E-4,2.7366348E-3,-4.2595924E-3,-1.7286188E-3],"split_indices":[28,80,77,51,80,25,25,0,0,0,0,0,0,0,0],"split_type":[0,0,0,0,0,0,0,0,0,0,0,0,0,0,0],"sum_hessian":[6.392151E3,4.491622E3,1.9005287E3,2.4007048E3,2.0909172E3,6.0689905E2,1.2936296E3,1.1547397E3,1.2459651E3,1.2244625E3,8.6645465E2,3.5499084E2,2.519082E2,4.867396E2,8.068901E2],"tree_param":{"num_deleted":"0","num_feature":"106","num_nodes":"15","size_leaf_vector":"1"}},{"base_weights":[-1.4224924E-1,-3.3818763E-1,4.707239E-2,-1.8836038E-1,-4.9362028E-1,-1.9083804E-1,1.7112514E-1,-2.744967E-3,-4.0050378E-4,-3.9902325E-3,-6.430288E-3,5.749763E-4,-3.2423087E-3,5.128333E-4,3.2851046E-3],"categories":[],"categories_nodes":[],"categories_segments":[],"categories_sizes":[],"default_left":[0,0,0,0,0,0,0,0,0,0,0,0,0,0,0],"id":14,"left_children":[1,3,5,7,9,11,13,-1,-1,-1,-1,-1,-1,-1,-1],"loss_changes":[2.3714197E2,7.3063965E1,9.6008545E1,2.044358E1,2.1526672E1,3.6953823E1,4.0307846E1,0E0,0E0,0E0,0E0,0E0,0E0,0E0,0E0],"parents":[2147483647,0,0,1,1,2,2,3,3,4,4,5,5,6,6],"right_children":[2,4,6,8,10,12,14,-1,-1,-1,-1,-1,-1,-1,-1],"split_conditions":[1.5E1,1.3E1,-1.5E0,5.1E0,2.3E1,-4.8E0,2.4E1,-2.744967E-3,-4.0050378E-4,-3.9902325E-3,-6.430288E-3,5.749763E-4,-3.2423087E-3,5.128333E-4,3.2851046E-3],"split_indices":[51,80,77,77,80,25,51,0,0,0,0,0,0,0,0],"split_type":[0,0,0,0,0,0,0,0,0,0,0,0,0,0,0],"sum_hessian":[6.391334E3,3.1403958E3,3.250938E3,1.6001571E3,1.5402386E3,1.1139836E3,2.1369546E3,1.0117161E3,5.88441E2,9.4536066E2,5.948779E2,3.89474E2,7.245096E2,1.2139285E3,9.23026E2],"tree_param":{"num_deleted":"0","num_feature":"106","num_nodes":"15","size_leaf_vector":"1"}},{"base_weights":[1.4224929E-1,3.3818766E-1,-4.707235E-2,1.883604E-1,4.936203E-1,1.908381E-1,-1.7112511E-1,2.7449667E-3,4.0050427E-4,3.990233E-3,6.4302883E-3,-5.749754E-4,3.2423092E-3,-5.1283283E-4,-3.2851042E-3],"categories":[],"categories_nodes":[],"categories_segments":[],"categories_sizes":[],"default_left":[0,0,0,0,0,0,0,0,0,0,0,0,0,0,0],"id":15,"left_children":[1,3,5,7,9,11,13,-1,-1,-1,-1,-1,-1,-1,-1],"loss_changes":[2.371419E2,7.3063995E1,9.600857E1,2.0443588E1,2.1526703E1,3.69538E1,4.0307854E1,0E0,0E0,0E0,0E0,0E0,0E0,0E0,0E0],"parents":[2147483647,0,0,1,1,2,2,3,3,4,4,5,5,6,6],"right_children":[2,4,6,8,10,12,14,-1,-1,-1,-1,-1,-1,-1,-1],"split_conditions":[1.5E1,1.3E1,-1.5E0,5.1E0,2.3E1,-4.8E0,2.4E1,2.7449667E-3,4.0050427E-4,3.990233E-3,6.4302883E-3,-5.749754E-4,3.2423092E-3,-5.1283283E-4,-3.2851042E-3],"split_indices":[51,80,77,77,80,25,51,0,0,0,0,0,0,0,0],"split_type":[0,0,0,0,0,0,0,0,0,0,0,0,0,0,0],"sum_hessian":[6.391334E3,3.1403958E3,3.250938E3,1.6001571E3,1.5402386E3,1.1139835E3,2.1369546E3,1.01171606E3,5.88441E2,9.4536066E2,5.948779E2,3.89474E2,7.245096E2,1.2139285E3,9.23026E2],"tree_param":{"num_deleted":"0","num_feature":"106","num_nodes":"15","size_leaf_vector":"1"}},{"base_weights":[-1.4084952E-1,-2.649477E-1,1.5238619E-1,-1.1840733E-1,-4.3314162E-1,-8.4616356E-2,2.6356438E-1,-2.6115752E-3,1.3975063E-4,-3.4063952E-3,-5.6339484E-3,4.562894E-4,-2.6766055E-3,4.1873204E-3,1.6958799E-3],"categories":[],"categories_nodes":[],"categories_segments":[],"categories_sizes":[],"default_left":[0,0,0,0,0,0,0,0,0,0,0,0,0,0,0],"id":16,"left_children":[1,3,5,7,9,11,13,-1,-1,-1,-1,-1,-1,-1,-1],"loss_changes":[2.3262364E2,1.10644775E2,5.011743E1,4.5385963E1,2.4998749E1,1.450317E1,1.8803383E1,0E0,0E0,0E0,0E0,0E0,0E0,0E0,0E0],"parents":[2147483647,0,0,1,1,2,2,3,3,4,4,5,5,6,6],"right_children":[2,4,6,8,10,12,14,-1,-1,-1,-1,-1,-1,-1,-1],"split_conditions":[2E1,1.4E1,-1.9E0,1E1,2.3E1,-4.1E0,-6.2E0,-2.6115752E-3,1.3975063E-4,-3.4063952E-3,-5.6339484E-3,4.562894E-4,-2.6766055E-3,4.1873204E-3,1.6958799E-3],"split_indices":[28,80,77,51,80,25,25,0,0,0,0,0,0,0,0],"split_type":[0,0,0,0,0,0,0,0,0,0,0,0,0,0,0],"sum_hessian":[6.3904014E3,4.4902227E3,1.900179E3,2.4004841E3,2.0897385E3,6.068257E2,1.2933533E3,1.1545454E3,1.2459387E3,1.2240609E3,8.656776E2,3.5498584E2,2.5183983E2,4.865454E2,8.0680786E2],"tree_param":{"num_deleted":"0","num_feature":"106","num_nodes":"15","size_leaf_vector":"1"}},{"base_weights":[1.4084953E-1,2.6494774E-1,-1.523862E-1,1.1840739E-1,4.331416E-1,8.461639E-2,-2.635644E-1,2.6115759E-3,-1.3975019E-4,3.4063952E-3,5.633948E-3,-4.562893E-4,2.6766064E-3,-4.1873204E-3,-1.6958805E-3],"categories":[],"categories_nodes":[],"categories_segments":[],"categories_sizes":[],"default_left":[0,0,0,0,0,0,0,0,0,0,0,0,0,0,0],"id":17,"left_children":[1,3,5,7,9,11,13,-1,-1,-1,-1,-1,-1,-1,-1],"loss_changes":[2.3262372E2,1.10644714E2,5.0117455E1,4.5385975E1,2.4998749E1,1.4503176E1,1.8803368E1,0E0,0E0,0E0,0E0,0E0,0E0,0E0,0E0],"parents":[2147483647,0,0,1,1,2,2,3,3,4,4,5,5,6,6],"right_children":[2,4,6,8,10,12,14,-1,-1,-1,-1,-1,-1,-1,-1],"split_conditions":[2E1,1.4E1,-1.9E0,1E1,2.3E1,-4.1E0,-6.2E0,2.6115759E-3,-1.3975019E-4,3.4063952E-3,5.633948E-3,-4.562893E-4,2.6766064E-3,-4.1873204E-3,-1.6958805E-3],"split_indices":[28,80,77,51,80,25,25,0,0,0,0,0,0,0,0],"split_type":[0,0,0,0,0,0,0,0,0,0,0,0,0,0,0],"sum_hessian":[6.390402E3,4.4902227E3,1.900179E3,2.4004841E3,2.0897385E3,6.068256E2,1.2933533E3,1.1545454E3,1.2459387E3,1.2240609E3,8.656777E2,3.5498584E2,2.5183981E2,4.865454E2,8.0680786E2],"tree_param":{"num_deleted":"0","num_feature":"106","num_nodes":"15","size_leaf_vector":"1"}},{"base_weights":[-1.3946514E-1,-3.320603E-1,4.658468E-2,-1.847871E-1,-4.8493332E-1,-1.868084E-1,1.6826698E-1,-2.7005782E-3,-3.7988333E-4,-3.9201784E-3,-6.317967E-3,5.671754E-4,-3.176673E-3,5.078651E-4,3.2259526E-3],"categories":[],"categories_nodes":[],"categories_segments":[],"categories_sizes":[],"default_left":[0,0,0,0,0,0,0,0,0,0,0,0,0,0,0],"id":18,"left_children":[1,3,5,7,9,11,13,-1,-1,-1,-1,-1,-1,-1,-1],"loss_changes":[2.2899689E2,7.060629E1,9.23675E1,2.0029774E1,2.0768738E1,3.55399E1,3.873984E1,0E0,0E0,0E0,0E0,0E0,0E0,0E0,0E0],"parents":[2147483647,0,0,1,1,2,2,3,3,4,4,5,5,6,6],"right_children":[2,4,6,8,10,12,14,-1,-1,-1,-1,-1,-1,-1,-1],"split_conditions":[1.5E1,1.3E1,-1.5E0,5.1E0,2.3E1,-4.8E0,2.4E1,-2.7005782E-3,-3.7988333E-4,-3.9201784E-3,-6.317967E-3,5.671754E-4,-3.176673E-3,5.078651E-4,3.2259526E-3],"split_indices":[51,80,77,77,80,25,51,0,0,0,0,0,0,0,0],"split_type":[0,0,0,0,0,0,0,0,0,0,0,0,0,0,0],"sum_hessian":[6.3893643E3,3.1390723E3,3.250292E3,1.5999438E3,1.5391285E3,1.113673E3,2.136619E3,1.01153546E3,5.884084E2,9.4495624E2,5.941723E2,3.894606E2,7.242124E2,1.2138898E3,9.2272925E2],"tree_param":{"num_deleted":"0","num_feature":"106","num_nodes":"15","size_leaf_vector":"1"}},{"base_weights":[1.3946512E-1,3.320603E-1,-4.658469E-2,1.8478706E-1,4.8493338E-1,1.8680844E-1,-1.6826701E-1,2.7005777E-3,3.798836E-4,3.9201793E-3,6.317967E-3,-5.6717516E-4,3.1766733E-3,-5.0786516E-4,-3.2259533E-3],"categories":[],"categories_nodes":[],"categories_segments":[],"categories_sizes":[],"default_left":[0,0,0,0,0,0,0,0,0,0,0,0,0,0,0],"id":19,"left_children":[1,3,5,7,9,11,13,-1,-1,-1,-1,-1,-1,-1,-1],"loss_changes":[2.2899692E2,7.060632E1,9.236754E1,2.0029766E1,2.0768738E1,3.5539898E1,3.873986E1,0E0,0E0,0E0,0E0,0E0,0E0,0E0,0E0],"parents":[2147483647,0,0,1,1,2,2,3,3,4,4,5,5,6,6],"right_children":[2,4,6,8,10,12,14,-1,-1,-1,-1,-1,-1,-1,-1],"split_conditions":[1.5E1,1.3E1,-1.5E0,5.1E0,2.3E1,-4.8E0,2.4E1,2.7005777E-3,3.798836E-4,3.9201793E-3,6.317967E-3,-5.6717516E-4,3.1766733E-3,-5.0786516E-4,-3.2259533E-3],"split_indices":[51,80,77,77,80,25,51,0,0,0,0,0,0,0,0],"split_type":[0,0,0,0,0,0,0,0,0,0,0,0,0,0,0],"sum_hessian":[6.3893643E3,3.1390725E3,3.250292E3,1.599944E3,1.5391285E3,1.113673E3,2.136619E3,1.0115355E3,5.884084E2,9.449562E2,5.941723E2,3.894606E2,7.242124E2,1.2138898E3,9.2272925E2],"tree_param":{"num_deleted":"0","num_feature":"106","num_nodes":"15","size_leaf_vector":"1"}},{"base_weights":[-1.3809754E-1,-3.2883048E-1,4.6123866E-2,-1.8295528E-1,-4.8030934E-1,-1.0867445E-1,2.266001E-1,-2.6739128E-3,-3.7609326E-4,-3.8820845E-3,-6.2595317E-3,1.228029E-3,-2.338824E-3,1.2538648E-3,3.6397304E-3],"categories":[],"categories_nodes":[],"categories_segments":[],"categories_sizes":[],"default_left":[0,0,0,0,0,0,0,0,0,0,0,0,0,0,0],"id":20,"left_children":[1,3,5,7,9,11,13,-1,-1,-1,-1,-1,-1,-1,-1],"loss_changes":[2.2451364E2,6.928018E1,9.084813E1,1.9635902E1,2.0406769E1,5.076745E1,2.0828651E1,0E0,0E0,0E0,0E0,0E0,0E0,0E0,0E0],"parents":[2147483647,0,0,1,1,2,2,3,3,4,4,5,5,6,6],"right_children":[2,4,6,8,10,12,14,-1,-1,-1,-1,-1,-1,-1,-1],"split_conditions":[1.5E1,1.3E1,5.23E-1,5.1E0,2.3E1,-4.7E0,2.4E1,-2.6739128E-3,-3.7609326E-4,-3.8820845E-3,-6.2595317E-3,1.228029E-3,-2.338824E-3,1.2538648E-3,3.6397304E-3],"split_indices":[51,80,55,77,80,25,51,0,0,0,0,0,0,0,0],"split_type":[0,0,0,0,0,0,0,0,0,0,0,0,0,0,0],"sum_hessian":[6.388215E3,3.138252E3,3.249963E3,1.5998208E3,1.5384312E3,1.7496492E3,1.5003136E3,1.0114172E3,5.884037E2,9.446977E2,5.937335E2,6.1418964E2,1.1354596E3,8.649493E2,6.353643E2],"tree_param":{"num_deleted":"0","num_feature":"106","num_nodes":"15","size_leaf_vector":"1"}},{"base_weights":[1.3809755E-1,3.2883054E-1,-4.6123862E-2,1.8295531E-1,4.8030937E-1,1.08674444E-1,-2.266001E-1,2.6739128E-3,3.7609407E-4,3.8820852E-3,6.2595312E-3,-1.2280289E-3,2.3388239E-3,-1.2538647E-3,-3.6397304E-3],"categories":[],"categories_nodes":[],"categories_segments":[],"categories_sizes":[],"default_left":[0,0,0,0,0,0,0,0,0,0,0,0,0,0,0],"id":21,"left_children":[1,3,5,7,9,11,13,-1,-1,-1,-1,-1,-1,-1,-1],"loss_changes":[2.2451366E2,6.928021E1,9.084812E1,1.9635895E1,2.04068E1,5.0767445E1,2.0828644E1,0E0,0E0,0E0,0E0,0E0,0E0,0E0,0E0],"parents":[2147483647,0,0,1,1,2,2,3,3,4,4,5,5,6,6],"right_children":[2,4,6,8,10,12,14,-1,-1,-1,-1,-1,-1,-1,-1],"split_conditions":[1.5E1,1.3E1,5.23E-1,5.1E0,2.3E1,-4.7E0,2.4E1,2.6739128E-3,3.7609407E-4,3.8820852E-3,6.2595312E-3,-1.2280289E-3,2.3388239E-3,-1.2538647E-3,-3.6397304E-3],"split_indices":[51,80,55,77,80,25,51,0,0,0,0,0,0,0,0],"split_type":[0,0,0,0,0,0,0,0,0,0,0,0,0,0,0],"sum_hessian":[6.388215E3,3.138252E3,3.249963E3,1.5998208E3,1.5384312E3,1.7496492E3,1.5003136E3,1.0114172E3,5.884037E2,9.4469763E2,5.9373346E2,6.1418964E2,1.1354596E3,8.649492E2,6.353644E2],"tree_param":{"num_deleted":"0","num_feature":"106","num_nodes":"15","size_leaf_vector":"1"}},{"base_weights":[-1.3674423E-1,-2.5766554E-1,1.4890656E-1,-1.1508555E-1,-4.2146364E-1,-1.6266455E-1,2.2966252E-1,-2.546891E-3,1.4344163E-4,-3.3121812E-3,-5.4867766E-3,-2.6673079E-3,7.388835E-4,3.8410255E-3,1.3446214E-3],"categories":[],"categories_nodes":[],"categories_segments":[],"categories_sizes":[],"default_left":[0,0,0,0,0,0,0,0,0,0,0,0,0,0,0],"id":22,"left_children":[1,3,5,7,9,11,13,-1,-1,-1,-1,-1,-1,-1,-1],"loss_changes":[2.2068823E2,1.04776764E2,4.7857105E1,4.3387596E1,2.3794586E1,9.664423E0,2.214576E1,0E0,0E0,0E0,0E0,0E0,0E0,0E0,0E0],"parents":[2147483647,0,0,1,1,2,2,3,3,4,4,5,5,6,6],"right_children":[2,4,6,8,10,12,14,-1,-1,-1,-1,-1,-1,-1,-1],"split_conditions":[2E1,1.4E1,3.59E-1,1E1,2.3E1,2.7E1,-6.2E0,-2.546891E-3,1.4344163E-4,-3.3121812E-3,-5.4867766E-3,-2.6673079E-3,7.388835E-4,3.8410255E-3,1.3446214E-3],"split_indices":[28,80,55,51,80,28,25,0,0,0,0,0,0,0,0],"split_type":[0,0,0,0,0,0,0,0,0,0,0,0,0,0,0],"sum_hessian":[6.3870063E3,4.487473E3,1.8995333E3,2.4000356E3,2.0874373E3,3.907881E2,1.5087452E3,1.154172E3,1.2458638E3,1.2232607E3,8.641765E2,2.713056E2,1.194825E2,5.742028E2,9.345424E2],"tree_param":{"num_deleted":"0","num_feature":"106","num_nodes":"15","size_leaf_vector":"1"}},{"base_weights":[1.367442E-1,2.5766551E-1,-1.4890654E-1,1.1508549E-1,4.214636E-1,1.6266456E-1,-2.2966252E-1,2.54689E-3,-1.4344181E-4,3.3121803E-3,5.4867766E-3,2.6673079E-3,-7.388827E-4,-3.8410248E-3,-1.3446218E-3],"categories":[],"categories_nodes":[],"categories_segments":[],"categories_sizes":[],"default_left":[0,0,0,0,0,0,0,0,0,0,0,0,0,0,0],"id":23,"left_children":[1,3,5,7,9,11,13,-1,-1,-1,-1,-1,-1,-1,-1],"loss_changes":[2.2068817E2,1.04776825E2,4.7857113E1,4.3387577E1,2.3794556E1,9.664421E0,2.2145737E1,0E0,0E0,0E0,0E0,0E0,0E0,0E0,0E0],"parents":[2147483647,0,0,1,1,2,2,3,3,4,4,5,5,6,6],"right_children":[2,4,6,8,10,12,14,-1,-1,-1,-1,-1,-1,-1,-1],"split_conditions":[2E1,1.4E1,3.59E-1,1E1,2.3E1,2.7E1,-6.2E0,2.54689E-3,-1.4344181E-4,3.3121803E-3,5.4867766E-3,2.6673079E-3,-7.388827E-4,-3.8410248E-3,-1.3446218E-3],"split_indices":[28,80,55,51,80,28,25,0,0,0,0,0,0,0,0],"split_type":[0,0,0,0,0,0,0,0,0,0,0,0,0,0,0],"sum_hessian":[6.3870063E3,4.487473E3,1.8995333E3,2.400036E3,2.0874373E3,3.9078812E2,1.5087452E3,1.154172E3,1.2458638E3,1.2232609E3,8.641766E2,2.713056E2,1.19482506E2,5.742028E2,9.345424E2],"tree_param":{"num_deleted":"0","num_feature":"106","num_nodes":"15","size_leaf_vector":"1"}},{"base_weights":[-1.354057E-1,-3.2291785E-1,4.5644816E-2,-1.6955936E-1,-4.6242422E-1,-1.9581713E-1,1.5787111E-1,-2.5575229E-3,-3.576746E-4,-3.7551364E-3,-6.15265E-3,2.3232283E-4,-3.311486E-3,4.2665965E-4,3.0836323E-3],"categories":[],"categories_nodes":[],"categories_segments":[],"categories_sizes":[],"default_left":[0,0,0,0,0,0,0,0,0,0,0,0,0,0,0],"id":24,"left_children":[1,3,5,7,9,11,13,-1,-1,-1,-1,-1,-1,-1,-1],"loss_changes":[2.1683841E2,6.704672E1,8.810658E1,1.7244068E1,2.1585297E1,3.0593185E1,3.846681E1,0E0,0E0,0E0,0E0,0E0,0E0,0E0,0E0],"parents":[2147483647,0,0,1,1,2,2,3,3,4,4,5,5,6,6],"right_children":[2,4,6,8,10,12,14,-1,-1,-1,-1,-1,-1,-1,-1],"split_conditions":[1.5E1,1.2E1,-1.9E0,5.1E0,2.3E1,-4.3E0,2.4E1,-2.5575229E-3,-3.576746E-4,-3.7551364E-3,-6.15265E-3,2.3232283E-4,-3.311486E-3,4.2665965E-4,3.0836323E-3],"split_indices":[51,80,77,77,80,25,51,0,0,0,0,0,0,0,0],"split_type":[0,0,0,0,0,0,0,0,0,0,0,0,0,0,0],"sum_hessian":[6.385715E3,3.1364956E3,3.249219E3,1.4951272E3,1.6413684E3,1.0307502E3,2.218469E3,9.087624E2,5.863648E2,1.0485713E3,5.927972E2,3.9394067E2,6.368096E2,1.2572776E3,9.611913E2],"tree_param":{"num_deleted":"0","num_feature":"106","num_nodes":"15","size_leaf_vector":"1"}},{"base_weights":[1.3540572E-1,3.2291788E-1,-4.5644812E-2,1.6955939E-1,4.6242425E-1,1.9581713E-1,-1.578711E-1,2.557523E-3,3.5767487E-4,3.7551364E-3,6.1526513E-3,-2.3232294E-4,3.311486E-3,-4.2665948E-4,-3.0836323E-3],"categories":[],"categories_nodes":[],"categories_segments":[],"categories_sizes":[],"default_left":[0,0,0,0,0,0,0,0,0,0,0,0,0,0,0],"id":25,"left_children":[1,3,5,7,9,11,13,-1,-1,-1,-1,-1,-1,-1,-1],"loss_changes":[2.1683844E2,6.704669E1,8.8106575E1,1.724406E1,2.1585327E1,3.0593197E1,3.8466816E1,0E0,0E0,0E0,0E0,0E0,0E0,0E0,0E0],"parents":[2147483647,0,0,1,1,2,2,3,3,4,4,5,5,6,6],"right_children":[2,4,6,8,10,12,14,-1,-1,-1,-1,-1,-1,-1,-1],"split_conditions":[1.5E1,1.2E1,-1.9E0,5.1E0,2.3E1,-4.3E0,2.4E1,2.557523E-3,3.5767487E-4,3.7551364E-3,6.1526513E-3,-2.3232294E-4,3.311486E-3,-4.2665948E-4,-3.0836323E-3],"split_indices":[51,80,77,77,80,25,51,0,0,0,0,0,0,0,0],"split_type":[0,0,0,0,0,0,0,0,0,0,0,0,0,0,0],"sum_hessian":[6.385715E3,3.1364956E3,3.2492192E3,1.4951271E3,1.6413684E3,1.0307502E3,2.218469E3,9.087624E2,5.8636475E2,1.0485713E3,5.927971E2,3.939407E2,6.368095E2,1.2572777E3,9.611913E2],"tree_param":{"num_deleted":"0","num_feature":"106","num_nodes":"15","size_leaf_vector":"1"}},{"base_weights":[-1.3408433E-1,-2.528643E-1,1.4644295E-1,-1.1279761E-1,-4.1389567E-1,-1.9674741E-3,3.115656E-1,-2.5025404E-3,1.4611226E-4,-3.2527708E-3,-5.3893034E-3,1.4019494E-3,-1.6079904E-3,4.618764E-3,2.2540512E-3],"categories":[],"categories_nodes":[],"categories_segments":[],"categories_sizes":[],"default_left":[0,0,0,0,0,0,0,0,0,0,0,0,0,0,0],"id":26,"left_children":[1,3,5,7,9,11,13,-1,-1,-1,-1,-1,-1,-1,-1],"loss_changes":[2.1280078E2,1.0114108E2,4.6562557E1,4.2047115E1,2.2944641E1,2.2639597E1,1.1543648E1,0E0,0E0,0E0,0E0,0E0,0E0,0E0,0E0],"parents":[2147483647,0,0,1,1,2,2,3,3,4,4,5,5,6,6],"right_children":[2,4,6,8,10,12,14,-1,-1,-1,-1,-1,-1,-1,-1],"split_conditions":[2E1,1.4E1,5.14E-1,1E1,2.3E1,-4.7E0,-6.2E0,-2.5025404E-3,1.4611226E-4,-3.2527708E-3,-5.3893034E-3,1.4019494E-3,-1.6079904E-3,4.618764E-3,2.2540512E-3],"split_indices":[28,80,55,51,80,25,25,0,0,0,0,0,0,0,0],"split_type":[0,0,0,0,0,0,0,0,0,0,0,0,0,0,0],"sum_hessian":[6.3842695E3,4.485241E3,1.8990281E3,2.3996775E3,2.0855635E3,1.0006463E3,8.9838184E2,1.1538594E3,1.2458182E3,1.2226265E3,8.629371E2,5.280931E2,4.725532E2,3.257448E2,5.72637E2],"tree_param":{"num_deleted":"0","num_feature":"106","num_nodes":"15","size_leaf_vector":"1"}},{"base_weights":[1.3408433E-1,2.528643E-1,-1.4644295E-1,1.12797625E-1,4.1389564E-1,1.9674764E-3,-3.1156558E-1,2.5025408E-3,-1.4611238E-4,3.2527698E-3,5.389304E-3,-1.4019498E-3,1.6079907E-3,-4.618763E-3,-2.2540516E-3],"categories":[],"categories_nodes":[],"categories_segments":[],"categories_sizes":[],"default_left":[0,0,0,0,0,0,0,0,0,0,0,0,0,0,0],"id":27,"left_children":[1,3,5,7,9,11,13,-1,-1,-1,-1,-1,-1,-1,-1],"loss_changes":[2.1280075E2,1.0114105E2,4.6562553E1,4.204714E1,2.2944672E1,2.2639606E1,1.15436325E1,0E0,0E0,0E0,0E0,0E0,0E0,0E0,0E0],"parents":[2147483647,0,0,1,1,2,2,3,3,4,4,5,5,6,6],"right_children":[2,4,6,8,10,12,14,-1,-1,-1,-1,-1,-1,-1,-1],"split_conditions":[2E1,1.4E1,5.14E-1,1E1,2.3E1,-4.7E0,-6.2E0,2.5025408E-3,-1.4611238E-4,3.2527698E-3,5.389304E-3,-1.4019498E-3,1.6079907E-3,-4.618763E-3,-2.2540516E-3],"split_indices":[28,80,55,51,80,25,25,0,0,0,0,0,0,0,0],"split_type":[0,0,0,0,0,0,0,0,0,0,0,0,0,0,0],"sum_hessian":[6.384269E3,4.485241E3,1.8990281E3,2.3996775E3,2.0855635E3,1.0006463E3,8.9838184E2,1.1538594E3,1.2458182E3,1.2226265E3,8.629371E2,5.280931E2,4.725532E2,3.257448E2,5.72637E2],"tree_param":{"num_deleted":"0","num_feature":"106","num_nodes":"15","size_leaf_vector":"1"}},{"base_weights":[-1.327755E-1,-3.17132E-1,4.5163747E-2,-1.662742E-1,-4.5448175E-1,-1.9215864E-1,1.5544482E-1,-2.5161817E-3,-3.3828325E-4,-3.690437E-3,-6.0491147E-3,2.236379E-4,-3.2476995E-3,4.2448821E-4,3.0310925E-3],"categories":[],"categories_nodes":[],"categories_segments":[],"categories_sizes":[],"default_left":[0,0,0,0,0,0,0,0,0,0,0,0,0,0,0],"id":28,"left_children":[1,3,5,7,9,11,13,-1,-1,-1,-1,-1,-1,-1,-1],"loss_changes":[2.0942947E2,6.4892395E1,8.5071144E1,1.689962E1,2.0862976E1,2.9346493E1,3.701186E1,0E0,0E0,0E0,0E0,0E0,0E0,0E0,0E0],"parents":[2147483647,0,0,1,1,2,2,3,3,4,4,5,5,6,6],"right_children":[2,4,6,8,10,12,14,-1,-1,-1,-1,-1,-1,-1,-1],"split_conditions":[1.5E1,1.2E1,-1.9E0,5.1E0,2.3E1,-4.3E0,2.4E1,-2.5161817E-3,-3.3828325E-4,-3.690437E-3,-6.0491147E-3,2.236379E-4,-3.2476995E-3,4.2448821E-4,3.0310925E-3],"split_indices":[51,80,77,77,80,25,51,0,0,0,0,0,0,0,0],"split_type":[0,0,0,0,0,0,0,0,0,0,0,0,0,0,0],"sum_hessian":[6.38278E3,3.1344775E3,3.2483022E3,1.494837E3,1.6396404E3,1.0303246E3,2.2179775E3,9.085172E2,5.863198E2,1.0479185E3,5.917219E2,3.9392004E2,6.364045E2,1.2572162E3,9.607614E2],"tree_param":{"num_deleted":"0","num_feature":"106","num_nodes":"15","size_leaf_vector":"1"}},{"base_weights":[1.3277549E-1,3.1713197E-1,-4.516375E-2,1.6627418E-1,4.5448172E-1,1.9215862E-1,-1.5544482E-1,2.5161817E-3,3.3828258E-4,3.6904367E-3,6.0491147E-3,-2.2363795E-4,3.247699E-3,-4.2448845E-4,-3.0310922E-3],"categories":[],"categories_nodes":[],"categories_segments":[],"categories_sizes":[],"default_left":[0,0,0,0,0,0,0,0,0,0,0,0,0,0,0],"id":29,"left_children":[1,3,5,7,9,11,13,-1,-1,-1,-1,-1,-1,-1,-1],"loss_changes":[2.0942944E2,6.4892395E1,8.5071144E1,1.6899632E1,2.0862946E1,2.9346489E1,3.7011856E1,0E0,0E0,0E0,0E0,0E0,0E0,0E0,0E0],"parents":[2147483647,0,0,1,1,2,2,3,3,4,4,5,5,6,6],"right_children":[2,4,6,8,10,12,14,-1,-1,-1,-1,-1,-1,-1,-1],"split_conditions":[1.5E1,1.2E1,-1.9E0,5.1E0,2.3E1,-4.3E0,2.4E1,2.5161817E-3,3.3828258E-4,3.6904367E-3,6.0491147E-3,-2.2363795E-4,3.247699E-3,-4.2448845E-4,-3.0310922E-3],"split_indices":[51,80,77,77,80,25,51,0,0,0,0,0,0,0,0],"split_type":[0,0,0,0,0,0,0,0,0,0,0,0,0,0,0],"sum_hessian":[6.38278E3,3.1344773E3,3.2483022E3,1.494837E3,1.6396404E3,1.0303246E3,2.2179775E3,9.085172E2,5.863198E2,1.0479185E3,5.917219E2,3.9392004E2,6.364045E2,1.2572162E3,9.607614E2],"tree_param":{"num_deleted":"0","num_feature":"106","num_nodes":"15","size_leaf_vector":"1"}},{"base_weights":[-1.3148364E-1,-3.1408328E-1,4.47185E-2,-1.6463059E-1,-4.5022428E-1,-1.0425154E-1,2.1837015E-1,-2.4914597E-3,-3.3490892E-4,-3.6549426E-3,-5.9951013E-3,1.1659508E-3,-2.2376413E-3,1.2216265E-3,3.4909442E-3],"categories":[],"categories_nodes":[],"categories_segments":[],"categories_sizes":[],"default_left":[0,0,0,0,0,0,0,0,0,0,0,0,0,0,0],"id":30,"left_children":[1,3,5,7,9,11,13,-1,-1,-1,-1,-1,-1,-1,-1],"loss_changes":[2.0535622E2,6.3698395E1,8.406686E1,1.6568775E1,2.0520416E1,4.6198997E1,1.8828293E1,0E0,0E0,0E0,0E0,0E0,0E0,0E0,0E0],"parents":[2147483647,0,0,1,1,2,2,3,3,4,4,5,5,6,6],"right_children":[2,4,6,8,10,12,14,-1,-1,-1,-1,-1,-1,-1,-1],"split_conditions":[1.5E1,1.2E1,5.23E-1,5.1E0,2.3E1,-4.7E0,2.4E1,-2.4914597E-3,-3.3490892E-4,-3.6549426E-3,-5.9951013E-3,1.1659508E-3,-2.2376413E-3,1.2216265E-3,3.4909442E-3],"split_indices":[51,80,55,77,80,25,51,0,0,0,0,0,0,0,0],"split_type":[0,0,0,0,0,0,0,0,0,0,0,0,0,0,0],"sum_hessian":[6.38115E3,3.133302E3,3.2478477E3,1.4946815E3,1.6386206E3,1.7483744E3,1.4994733E3,9.0836755E2,5.8631396E2,1.0475259E3,5.910947E2,6.139269E2,1.1344475E3,8.648873E2,6.345859E2],"tree_param":{"num_deleted":"0","num_feature":"106","num_nodes":"15","size_leaf_vector":"1"}},{"base_weights":[1.3148364E-1,3.140833E-1,-4.4718523E-2,1.646306E-1,4.502243E-1,1.0425156E-1,-2.1837024E-1,2.4914597E-3,3.3490948E-4,3.6549426E-3,5.995102E-3,-1.1659509E-3,2.2376417E-3,-1.2216275E-3,-3.4909446E-3],"categories":[],"categories_nodes":[],"categories_segments":[],"categories_sizes":[],"default_left":[0,0,0,0,0,0,0,0,0,0,0,0,0,0,0],"id":31,"left_children":[1,3,5,7,9,11,13,-1,-1,-1,-1,-1,-1,-1,-1],"loss_changes":[2.0535626E2,6.3698364E1,8.4066925E1,1.6568764E1,2.0520477E1,4.619901E1,1.882827E1,0E0,0E0,0E0,0E0,0E0,0E0,0E0,0E0],"parents":[2147483647,0,0,1,1,2,2,3,3,4,4,5,5,6,6],"right_children":[2,4,6,8,10,12,14,-1,-1,-1,-1,-1,-1,-1,-1],"split_conditions":[1.5E1,1.2E1,5.23E-1,5.1E0,2.3E1,-4.7E0,2.4E1,2.4914597E-3,3.3490948E-4,3.6549426E-3,5.995102E-3,-1.1659509E-3,2.2376417E-3,-1.2216275E-3,-3.4909446E-3],"split_indices":[51,80,55,77,80,25,51,0,0,0,0,0,0,0,0],"split_type":[0,0,0,0,0,0,0,0,0,0,0,0,0,0,0],"sum_hessian":[6.38115E3,3.133302E3,3.2478477E3,1.4946814E3,1.6386206E3,1.7483744E3,1.4994731E3,9.083675E2,5.863139E2,1.0475259E3,5.910947E2,6.139269E2,1.1344475E3,8.648873E2,6.345859E2],"tree_param":{"num_deleted":"0","num_feature":"106","num_nodes":"15","size_leaf_vector":"1"}},{"base_weights":[-1.3020474E-1,-2.4597968E-1,1.4311323E-1,-9.0507455E-2,-3.8384238E-1,-1.579293E-1,2.2116253E-1,-2.2140138E-3,3.0947835E-4,-5.4756287E-3,-3.1094986E-3,-2.5863743E-3,7.0870266E-4,3.6999993E-3,1.2949792E-3],"categories":[],"categories_nodes":[],"categories_segments":[],"categories_sizes":[],"default_left":[0,0,0,0,0,0,0,0,0,0,0,0,0,0,0],"id":32,"left_children":[1,3,5,7,9,11,13,-1,-1,-1,-1,-1,-1,-1,-1],"loss_changes":[2.0193497E2,9.60387E1,4.465762E1,3.3518223E1,2.8177734E1,9.041328E0,2.0533531E1,0E0,0E0,0E0,0E0,0E0,0E0,0E0,0E0],"parents":[2147483647,0,0,1,1,2,2,3,3,4,4,5,5,6,6],"right_children":[2,4,6,8,10,12,14,-1,-1,-1,-1,-1,-1,-1,-1],"split_conditions":[2E1,1.2E1,3.59E-1,1E1,7E0,2.7E1,-6.2E0,-2.2140138E-3,3.0947835E-4,-5.4756287E-3,-3.1094986E-3,-2.5863743E-3,7.0870266E-4,3.6999993E-3,1.2949792E-3],"split_indices":[28,80,55,51,51,28,25,0,0,0,0,0,0,0,0],"split_type":[0,0,0,0,0,0,0,0,0,0,0,0,0,0,0],"sum_hessian":[6.379476E3,4.4813276E3,1.8981484E3,2.1069304E3,2.374397E3,3.905895E2,1.507559E3,1.0136664E3,1.0932642E3,7.2946576E2,1.6449313E3,2.7112225E2,1.19467255E2,5.734316E2,9.3412744E2],"tree_param":{"num_deleted":"0","num_feature":"106","num_nodes":"15","size_leaf_vector":"1"}},{"base_weights":[1.3020477E-1,2.459797E-1,-1.4311318E-1,9.0507455E-2,3.8384244E-1,1.5792936E-1,-2.211625E-1,2.2140143E-3,-3.0947875E-4,5.4756296E-3,3.109499E-3,2.5863752E-3,-7.087019E-4,-3.6999988E-3,-1.2949792E-3],"categories":[],"categories_nodes":[],"categories_segments":[],"categories_sizes":[],"default_left":[0,0,0,0,0,0,0,0,0,0,0,0,0,0,0],"id":33,"left_children":[1,3,5,7,9,11,13,-1,-1,-1,-1,-1,-1,-1,-1],"loss_changes":[2.0193494E2,9.60387E1,4.4657627E1,3.351824E1,2.8177734E1,9.041327E0,2.0533531E1,0E0,0E0,0E0,0E0,0E0,0E0,0E0,0E0],"parents":[2147483647,0,0,1,1,2,2,3,3,4,4,5,5,6,6],"right_children":[2,4,6,8,10,12,14,-1,-1,-1,-1,-1,-1,-1,-1],"split_conditions":[2E1,1.2E1,3.59E-1,1E1,7E0,2.7E1,-6.2E0,2.2140143E-3,-3.0947875E-4,5.4756296E-3,3.109499E-3,2.5863752E-3,-7.087019E-4,-3.6999988E-3,-1.2949792E-3],"split_indices":[28,80,55,51,51,28,25,0,0,0,0,0,0,0,0],"split_type":[0,0,0,0,0,0,0,0,0,0,0,0,0,0,0],"sum_hessian":[6.379476E3,4.4813276E3,1.8981486E3,2.1069304E3,2.374397E3,3.905895E2,1.507559E3,1.0136664E3,1.0932642E3,7.2946576E2,1.6449313E3,2.7112225E2,1.1946726E2,5.734316E2,9.3412744E2],"tree_param":{"num_deleted":"0","num_feature":"106","num_nodes":"15","size_leaf_vector":"1"}},{"base_weights":[-1.2893757E-1,-3.083724E-1,4.4127792E-2,-1.7097981E-1,-4.5151088E-1,-1.7518306E-1,1.5841158E-1,-2.5201296E-3,-3.1610683E-4,-3.6392712E-3,-5.9055537E-3,5.086114E-4,-2.968583E-3,4.94912E-4,3.0172064E-3],"categories":[],"categories_nodes":[],"categories_segments":[],"categories_sizes":[],"default_left":[0,0,0,0,0,0,0,0,0,0,0,0,0,0,0],"id":34,"left_children":[1,3,5,7,9,11,13,-1,-1,-1,-1,-1,-1,-1,-1],"loss_changes":[1.9810141E2,6.151541E1,8.143253E1,1.8057571E1,1.8457306E1,3.063132E1,3.3322784E1,0E0,0E0,0E0,0E0,0E0,0E0,0E0,0E0],"parents":[2147483647,0,0,1,1,2,2,3,3,4,4,5,5,6,6],"right_children":[2,4,6,8,10,12,14,-1,-1,-1,-1,-1,-1,-1,-1],"split_conditions":[1.5E1,1.3E1,-1.5E0,5.1E0,2.3E1,-4.8E0,2.4E1,-2.5201296E-3,-3.1610683E-4,-3.6392712E-3,-5.9055537E-3,5.086114E-4,-2.968583E-3,4.94912E-4,3.0172064E-3],"split_indices":[51,80,77,77,80,25,51,0,0,0,0,0,0,0,0],"split_type":[0,0,0,0,0,0,0,0,0,0,0,0,0,0,0],"sum_hessian":[6.3778267E3,3.1309075E3,3.246919E3,1.5986372E3,1.5322703E3,1.112156E3,2.134763E3,1.0103708E3,5.882665E2,9.4232166E2,5.899486E2,3.893733E2,7.227827E2,1.2136715E3,9.2109143E2],"tree_param":{"num_deleted":"0","num_feature":"106","num_nodes":"15","size_leaf_vector":"1"}},{"base_weights":[1.2893756E-1,3.083724E-1,-4.412781E-2,1.7097975E-1,4.515109E-1,1.7518303E-1,-1.5841158E-1,2.5201286E-3,3.1610683E-4,3.6392712E-3,5.9055537E-3,-5.0861127E-4,2.9685826E-3,-4.94912E-4,-3.0172067E-3],"categories":[],"categories_nodes":[],"categories_segments":[],"categories_sizes":[],"default_left":[0,0,0,0,0,0,0,0,0,0,0,0,0,0,0],"id":35,"left_children":[1,3,5,7,9,11,13,-1,-1,-1,-1,-1,-1,-1,-1],"loss_changes":[1.9810141E2,6.1515472E1,8.1432526E1,1.8057556E1,1.8457275E1,3.0631317E1,3.3322784E1,0E0,0E0,0E0,0E0,0E0,0E0,0E0,0E0],"parents":[2147483647,0,0,1,1,2,2,3,3,4,4,5,5,6,6],"right_children":[2,4,6,8,10,12,14,-1,-1,-1,-1,-1,-1,-1,-1],"split_conditions":[1.5E1,1.3E1,-1.5E0,5.1E0,2.3E1,-4.8E0,2.4E1,2.5201286E-3,3.1610683E-4,3.6392712E-3,5.9055537E-3,-5.0861127E-4,2.9685826E-3,-4.94912E-4,-3.0172067E-3],"split_indices":[51,80,77,77,80,25,51,0,0,0,0,0,0,0,0],"split_type":[0,0,0,0,0,0,0,0,0,0,0,0,0,0,0],"sum_hessian":[6.3778267E3,3.1309077E3,3.2469192E3,1.5986373E3,1.5322704E3,1.112156E3,2.134763E3,1.01037085E3,5.882665E2,9.423217E2,5.8994867E2,3.8937332E2,7.227827E2,1.2136716E3,9.2109143E2],"tree_param":{"num_deleted":"0","num_feature":"106","num_nodes":"15","size_leaf_vector":"1"}},{"base_weights":[-1.2768826E-1,-2.4143657E-1,1.4076726E-1,-1.0729161E-1,-3.9600292E-1,-2.266839E-3,2.9999363E-1,-2.3978383E-3,1.543024E-4,-3.1014693E-3,-5.174373E-3,-2.7900045E-3,7.293655E-4,4.4525266E-3,2.1684726E-3],"categories":[],"categories_nodes":[],"categories_segments":[],"categories_sizes":[],"default_left":[0,0,0,0,0,0,0,0,0,0,0,0,0,0,0],"id":36,"left_children":[1,3,5,7,9,11,13,-1,-1,-1,-1,-1,-1,-1,-1],"loss_changes":[1.9476245E2,9.2835846E1,4.323824E1,3.9019173E1,2.1535065E1,2.085424E1,1.0754074E1,0E0,0E0,0E0,0E0,0E0,0E0,0E0,0E0],"parents":[2147483647,0,0,1,1,2,2,3,3,4,4,5,5,6,6],"right_children":[2,4,6,8,10,12,14,-1,-1,-1,-1,-1,-1,-1,-1],"split_conditions":[2E1,1.4E1,5.14E-1,1E1,2.3E1,2.2E1,-6.2E0,-2.3978383E-3,1.543024E-4,-3.1014693E-3,-5.174373E-3,-2.7900045E-3,7.293655E-4,4.4525266E-3,2.1684726E-3],"split_indices":[28,80,55,51,80,51,25,0,0,0,0,0,0,0,0],"split_type":[0,0,0,0,0,0,0,0,0,0,0,0,0,0,0],"sum_hessian":[6.375937E3,4.4784546E3,1.8974824E3,2.3985212E3,2.0799333E3,1.0000852E3,8.973973E2,1.1528906E3,1.2456306E3,1.220544E3,8.5938934E2,2.1312337E2,7.869618E2,3.2509393E2,5.7230334E2],"tree_param":{"num_deleted":"0","num_feature":"106","num_nodes":"15","size_leaf_vector":"1"}},{"base_weights":[1.2768824E-1,2.4143656E-1,-1.4076728E-1,1.0729162E-1,3.960029E-1,2.2668706E-3,-2.999937E-1,2.3978383E-3,-1.5430241E-4,3.1014693E-3,5.174372E-3,2.7900054E-3,-7.2936533E-4,-4.4525275E-3,-2.168473E-3],"categories":[],"categories_nodes":[],"categories_segments":[],"categories_sizes":[],"default_left":[0,0,0,0,0,0,0,0,0,0,0,0,0,0,0],"id":37,"left_children":[1,3,5,7,9,11,13,-1,-1,-1,-1,-1,-1,-1,-1],"loss_changes":[1.9476242E2,9.2835846E1,4.3238262E1,3.9019176E1,2.1535034E1,2.085425E1,1.0754089E1,0E0,0E0,0E0,0E0,0E0,0E0,0E0,0E0],"parents":[2147483647,0,0,1,1,2,2,3,3,4,4,5,5,6,6],"right_children":[2,4,6,8,10,12,14,-1,-1,-1,-1,-1,-1,-1,-1],"split_conditions":[2E1,1.4E1,5.14E-1,1E1,2.3E1,2.2E1,-6.2E0,2.3978383E-3,-1.5430241E-4,3.1014693E-3,5.174372E-3,2.7900054E-3,-7.2936533E-4,-4.4525275E-3,-2.168473E-3],"split_indices":[28,80,55,51,80,51,25,0,0,0,0,0,0,0,0],"split_type":[0,0,0,0,0,0,0,0,0,0,0,0,0,0,0],"sum_hessian":[6.375937E3,4.4784546E3,1.8974824E3,2.3985212E3,2.0799333E3,1.0000852E3,8.973973E2,1.1528906E3,1.2456306E3,1.2205441E3,8.5938934E2,2.1312337E2,7.8696185E2,3.2509396E2,5.723033E2],"tree_param":{"num_deleted":"0","num_feature":"106","num_nodes":"15","size_leaf_vector":"1"}},{"base_weights":[-1.2644999E-1,-3.0289367E-1,4.364804E-2,-1.6775379E-1,-4.4385064E-1,-1.0065732E-1,2.1184987E-1,-2.4799532E-3,-2.9785789E-4,-3.5764729E-3,-5.809059E-3,1.1242129E-3,-2.1601922E-3,1.1937729E-3,3.3764835E-3],"categories":[],"categories_nodes":[],"categories_segments":[],"categories_sizes":[],"default_left":[0,0,0,0,0,0,0,0,0,0,0,0,0,0,0],"id":38,"left_children":[1,3,5,7,9,11,13,-1,-1,-1,-1,-1,-1,-1,-1],"loss_changes":[1.913461E2,5.9535034E1,7.882835E1,1.7697163E1,1.7881287E1,4.299704E1,1.7404083E1,0E0,0E0,0E0,0E0,0E0,0E0,0E0,0E0],"parents":[2147483647,0,0,1,1,2,2,3,3,4,4,5,5,6,6],"right_children":[2,4,6,8,10,12,14,-1,-1,-1,-1,-1,-1,-1,-1],"split_conditions":[1.5E1,1.3E1,5.23E-1,5.1E0,2.3E1,-4.7E0,2.4E1,-2.4799532E-3,-2.9785789E-4,-3.5764729E-3,-5.809059E-3,1.1242129E-3,-2.1601922E-3,1.1937729E-3,3.3764835E-3],"split_indices":[51,80,55,77,80,25,51,0,0,0,0,0,0,0,0],"split_type":[0,0,0,0,0,0,0,0,0,0,0,0,0,0,0],"sum_hessian":[6.374059E3,3.128287E3,3.2457717E3,1.5982166E3,1.5300707E3,1.7471991E3,1.4985726E3,1.01000494E3,5.8821155E2,9.415044E2,5.885662E2,6.1369763E2,1.1335015E3,8.648116E2,6.3376105E2],"tree_param":{"num_deleted":"0","num_feature":"106","num_nodes":"15","size_leaf_vector":"1"}},{"base_weights":[1.2644996E-1,3.0289364E-1,-4.3648046E-2,1.677537E-1,4.4385064E-1,1.0065731E-1,-2.1184987E-1,2.479952E-3,2.978573E-4,3.576473E-3,5.809059E-3,-1.1242128E-3,2.160192E-3,-1.1937724E-3,-3.3764842E-3],"categories":[],"categories_nodes":[],"categories_segments":[],"categories_sizes":[],"default_left":[0,0,0,0,0,0,0,0,0,0,0,0,0,0,0],"id":39,"left_children":[1,3,5,7,9,11,13,-1,-1,-1,-1,-1,-1,-1,-1],"loss_changes":[1.913461E2,5.9535065E1,7.882834E1,1.7697155E1,1.7881256E1,4.299703E1,1.7404106E1,0E0,0E0,0E0,0E0,0E0,0E0,0E0,0E0],"parents":[2147483647,0,0,1,1,2,2,3,3,4,4,5,5,6,6],"right_children":[2,4,6,8,10,12,14,-1,-1,-1,-1,-1,-1,-1,-1],"split_conditions":[1.5E1,1.3E1,5.23E-1,5.1E0,2.3E1,-4.7E0,2.4E1,2.479952E-3,2.978573E-4,3.576473E-3,5.809059E-3,-1.1242128E-3,2.160192E-3,-1.1937724E-3,-3.3764842E-3],"split_indices":[51,80,55,77,80,25,51,0,0,0,0,0,0,0,0],"split_type":[0,0,0,0,0,0,0,0,0,0,0,0,0,0,0],"sum_hessian":[6.374059E3,3.128287E3,3.2457717E3,1.5982166E3,1.5300707E3,1.7471991E3,1.4985726E3,1.01000494E3,5.882116E2,9.415044E2,5.885663E2,6.1369763E2,1.1335015E3,8.648116E2,6.33761E2],"tree_param":{"num_deleted":"0","num_feature":"106","num_nodes":"15","size_leaf_vector":"1"}},{"base_weights":[-1.2522656E-1,-2.3701313E-1,1.385055E-1,-8.686126E-2,-3.7040567E-1,-1.5461734E-1,2.1452731E-1,-2.1362593E-3,3.0696017E-4,-5.3133806E-3,-2.988394E-3,-2.5281429E-3,6.837337E-4,3.5912173E-3,1.2555973E-3],"categories":[],"categories_nodes":[],"categories_segments":[],"categories_sizes":[],"default_left":[0,0,0,0,0,0,0,0,0,0,0,0,0,0,0],"id":40,"left_children":[1,3,5,7,9,11,13,-1,-1,-1,-1,-1,-1,-1,-1],"loss_changes":[1.8792157E2,8.962349E1,4.232326E1,3.1407513E1,2.713858E1,8.588108E0,1.934626E1,0E0,0E0,0E0,0E0,0E0,0E0,0E0,0E0],"parents":[2147483647,0,0,1,1,2,2,3,3,4,4,5,5,6,6],"right_children":[2,4,6,8,10,12,14,-1,-1,-1,-1,-1,-1,-1,-1],"split_conditions":[2E1,1.2E1,3.59E-1,1E1,7E0,2.7E1,-6.2E0,-2.1362593E-3,3.0696017E-4,-5.3133806E-3,-2.988394E-3,-2.5281429E-3,6.837337E-4,3.5912173E-3,1.2555973E-3],"split_indices":[28,80,55,51,51,28,25,0,0,0,0,0,0,0,0],"split_type":[0,0,0,0,0,0,0,0,0,0,0,0,0,0,0],"sum_hessian":[6.3720615E3,4.4752603E3,1.8968014E3,2.1061484E3,2.3691118E3,3.9041522E2,1.5063862E3,1.01299536E3,1.0931531E3,7.272676E2,1.6418442E3,2.7096042E2,1.1945479E2,5.726504E2,9.3373584E2],"tree_param":{"num_deleted":"0","num_feature":"106","num_nodes":"15","size_leaf_vector":"1"}},{"base_weights":[1.2522656E-1,2.3701313E-1,-1.385055E-1,8.686126E-2,3.7040567E-1,1.5461734E-1,-2.1452732E-1,2.1362598E-3,-3.0696054E-4,5.3133806E-3,2.988394E-3,2.5281429E-3,-6.8373367E-4,-3.5912176E-3,-1.2555975E-3],"categories":[],"categories_nodes":[],"categories_segments":[],"categories_sizes":[],"default_left":[0,0,0,0,0,0,0,0,0,0,0,0,0,0,0],"id":41,"left_children":[1,3,5,7,9,11,13,-1,-1,-1,-1,-1,-1,-1,-1],"loss_changes":[1.8792157E2,8.962349E1,4.2323257E1,3.1407536E1,2.713858E1,8.588108E0,1.934626E1,0E0,0E0,0E0,0E0,0E0,0E0,0E0,0E0],"parents":[2147483647,0,0,1,1,2,2,3,3,4,4,5,5,6,6],"right_children":[2,4,6,8,10,12,14,-1,-1,-1,-1,-1,-1,-1,-1],"split_conditions":[2E1,1.2E1,3.59E-1,1E1,7E0,2.7E1,-6.2E0,2.1362598E-3,-3.0696054E-4,5.3133806E-3,2.988394E-3,2.5281429E-3,-6.8373367E-4,-3.5912176E-3,-1.2555975E-3],"split_indices":[28,80,55,51,51,28,25,0,0,0,0,0,0,0,0],"split_type":[0,0,0,0,0,0,0,0,0,0,0,0,0,0,0],"sum_hessian":[6.3720615E3,4.4752603E3,1.8968014E3,2.1061484E3,2.3691118E3,3.9041522E2,1.5063862E3,1.01299536E3,1.0931531E3,7.272676E2,1.6418442E3,2.7096042E2,1.1945479E2,5.726503E2,9.3373584E2],"tree_param":{"num_deleted":"0","num_feature":"106","num_nodes":"15","size_leaf_vector":"1"}},{"base_weights":[-1.2401373E-1,-2.9742754E-1,4.306845E-2,-1.6460781E-1,-4.361404E-1,-1.8255225E-1,1.4786401E-1,-2.3183306E-3,-3.0182397E-5,-3.5051873E-3,-5.724395E-3,1.9457025E-4,-3.0766549E-3,4.2093138E-4,2.8631066E-3],"categories":[],"categories_nodes":[],"categories_segments":[],"categories_sizes":[],"default_left":[0,0,0,0,0,0,0,0,0,0,0,0,0,0,0],"id":42,"left_children":[1,3,5,7,9,11,13,-1,-1,-1,-1,-1,-1,-1,-1],"loss_changes":[1.846117E2,5.7529236E1,7.67677E1,1.7366436E1,1.7639435E1,2.6034458E1,3.245017E1,0E0,0E0,0E0,0E0,0E0,0E0,0E0,0E0],"parents":[2147483647,0,0,1,1,2,2,3,3,4,4,5,5,6,6],"right_children":[2,4,6,8,10,12,14,-1,-1,-1,-1,-1,-1,-1,-1],"split_conditions":[1.5E1,1.3E1,-1.9E0,6E0,2.3E1,-4.3E0,2.4E1,-2.3183306E-3,-3.0182397E-5,-3.5051873E-3,-5.724395E-3,1.9457025E-4,-3.0766549E-3,4.2093138E-4,2.8631066E-3],"split_indices":[51,80,77,77,80,25,51,0,0,0,0,0,0,0,0],"split_type":[0,0,0,0,0,0,0,0,0,0,0,0,0,0,0],"sum_hessian":[6.3701133E3,3.125447E3,3.2446665E3,1.5977567E3,1.5276902E3,1.0288505E3,2.2158162E3,1.1280326E3,4.6972415E2,9.4046936E2,5.872208E2,3.938233E2,6.3502716E2,1.2568829E3,9.5893317E2],"tree_param":{"num_deleted":"0","num_feature":"106","num_nodes":"15","size_leaf_vector":"1"}},{"base_weights":[1.2401374E-1,2.9742756E-1,-4.306846E-2,1.6460782E-1,4.3614045E-1,1.8255223E-1,-1.4786403E-1,2.3183306E-3,3.0182695E-5,3.5051876E-3,5.7243966E-3,-1.9456986E-4,3.0766544E-3,-4.2093123E-4,-2.863107E-3],"categories":[],"categories_nodes":[],"categories_segments":[],"categories_sizes":[],"default_left":[0,0,0,0,0,0,0,0,0,0,0,0,0,0,0],"id":43,"left_children":[1,3,5,7,9,11,13,-1,-1,-1,-1,-1,-1,-1,-1],"loss_changes":[1.8461176E2,5.7529266E1,7.676769E1,1.7366428E1,1.7639404E1,2.603445E1,3.245019E1,0E0,0E0,0E0,0E0,0E0,0E0,0E0,0E0],"parents":[2147483647,0,0,1,1,2,2,3,3,4,4,5,5,6,6],"right_children":[2,4,6,8,10,12,14,-1,-1,-1,-1,-1,-1,-1,-1],"split_conditions":[1.5E1,1.3E1,-1.9E0,6E0,2.3E1,-4.3E0,2.4E1,2.3183306E-3,3.0182695E-5,3.5051876E-3,5.7243966E-3,-1.9456986E-4,3.0766544E-3,-4.2093123E-4,-2.863107E-3],"split_indices":[51,80,77,77,80,25,51,0,0,0,0,0,0,0,0],"split_type":[0,0,0,0,0,0,0,0,0,0,0,0,0,0,0],"sum_hessian":[6.3701133E3,3.125447E3,3.2446665E3,1.5977567E3,1.5276902E3,1.0288505E3,2.2158162E3,1.1280326E3,4.6972415E2,9.404694E2,5.872208E2,3.938233E2,6.3502716E2,1.2568829E3,9.5893317E2],"tree_param":{"num_deleted":"0","num_feature":"106","num_nodes":"15","size_leaf_vector":"1"}},{"base_weights":[-1.2281785E-1,-2.3265891E-1,1.3623573E-1,-4.3287677E-1,-1.3513878E-1,-1.5191622E-1,2.1097867E-1,-3.3474152E-3,-5.5217654E-3,-3.036269E-3,-3.5126528E-4,-2.4860634E-3,6.7571935E-4,3.5342558E-3,1.2338422E-3],"categories":[],"categories_nodes":[],"categories_segments":[],"categories_sizes":[],"default_left":[0,0,0,0,0,0,0,0,0,0,0,0,0,0,0],"id":44,"left_children":[1,3,5,7,9,11,13,-1,-1,-1,-1,-1,-1,-1,-1],"loss_changes":[1.8125798E2,8.7276276E1,4.0888947E1,1.6961823E1,5.0699028E1,8.321079E0,1.8756683E1,0E0,0E0,0E0,0E0,0E0,0E0,0E0,0E0],"parents":[2147483647,0,0,1,1,2,2,3,3,4,4,5,5,6,6],"right_children":[2,4,6,8,10,12,14,-1,-1,-1,-1,-1,-1,-1,-1],"split_conditions":[2E1,-1.4E0,3.59E-1,2.3E1,8E0,2.7E1,-6.2E0,-3.3474152E-3,-5.5217654E-3,-3.036269E-3,-3.5126528E-4,-2.4860634E-3,6.7571935E-4,3.5342558E-3,1.2338422E-3],"split_indices":[28,77,55,1,51,28,25,0,0,0,0,0,0,0,0],"split_type":[0,0,0,0,0,0,0,0,0,0,0,0,0,0,0],"sum_hessian":[6.3679365E3,4.471909E3,1.8960277E3,1.463588E3,3.008321E3,3.9029895E2,1.5057288E3,8.051128E2,6.5847516E2,1.1197949E3,1.888526E3,2.7084998E2,1.19448975E2,5.7219116E2,9.335376E2],"tree_param":{"num_deleted":"0","num_feature":"106","num_nodes":"15","size_leaf_vector":"1"}},{"base_weights":[1.2281785E-1,2.326589E-1,-1.3623571E-1,4.3287677E-1,1.3513876E-1,1.5191627E-1,-2.1097866E-1,3.347415E-3,5.5217645E-3,3.0362683E-3,3.5126525E-4,2.4860639E-3,-6.7571906E-4,-3.5342558E-3,-1.2338421E-3],"categories":[],"categories_nodes":[],"categories_segments":[],"categories_sizes":[],"default_left":[0,0,0,0,0,0,0,0,0,0,0,0,0,0,0],"id":45,"left_children":[1,3,5,7,9,11,13,-1,-1,-1,-1,-1,-1,-1,-1],"loss_changes":[1.8125797E2,8.7276276E1,4.088896E1,1.6961853E1,5.0699013E1,8.321077E0,1.8756691E1,0E0,0E0,0E0,0E0,0E0,0E0,0E0,0E0],"parents":[2147483647,0,0,1,1,2,2,3,3,4,4,5,5,6,6],"right_children":[2,4,6,8,10,12,14,-1,-1,-1,-1,-1,-1,-1,-1],"split_conditions":[2E1,-1.4E0,3.59E-1,2.3E1,8E0,2.7E1,-6.2E0,3.347415E-3,5.5217645E-3,3.0362683E-3,3.5126525E-4,2.4860639E-3,-6.7571906E-4,-3.5342558E-3,-1.2338421E-3],"split_indices":[28,77,55,1,51,28,25,0,0,0,0,0,0,0,0],"split_type":[0,0,0,0,0,0,0,0,0,0,0,0,0,0,0],"sum_hessian":[6.3679365E3,4.471909E3,1.8960276E3,1.463588E3,3.008321E3,3.9029895E2,1.5057286E3,8.051128E2,6.584752E2,1.1197949E3,1.888526E3,2.7084998E2,1.1944897E2,5.721911E2,9.3353754E2],"tree_param":{"num_deleted":"0","num_feature":"106","num_nodes":"15","size_leaf_vector":"1"}},{"base_weights":[-1.2163094E-1,-2.9215056E-1,4.2570632E-2,-1.6121472E-1,-4.2907277E-1,-8.80346E-2,2.1900454E-1,-2.2778485E-3,-1.252765E-5,-3.4460393E-3,-5.6374827E-3,1.208162E-3,-2.0056576E-3,1.318341E-3,3.3832085E-3],"categories":[],"categories_nodes":[],"categories_segments":[],"categories_sizes":[],"default_left":[0,0,0,0,0,0,0,0,0,0,0,0,0,0,0],"id":46,"left_children":[1,3,5,7,9,11,13,-1,-1,-1,-1,-1,-1,-1,-1],"loss_changes":[1.7828241E2,5.592862E1,7.478063E1,1.7018913E1,1.7167969E1,4.3856903E1,1.4312294E1,0E0,0E0,0E0,0E0,0E0,0E0,0E0,0E0],"parents":[2147483647,0,0,1,1,2,2,3,3,4,4,5,5,6,6],"right_children":[2,4,6,8,10,12,14,-1,-1,-1,-1,-1,-1,-1,-1],"split_conditions":[1.5E1,1.3E1,5.41E-1,6E0,2.3E1,-4.7E0,2.4E1,-2.2778485E-3,-1.252765E-5,-3.4460393E-3,-5.6374827E-3,1.208162E-3,-2.0056576E-3,1.318341E-3,3.3832085E-3],"split_indices":[51,80,55,77,80,25,51,0,0,0,0,0,0,0,0],"split_type":[0,0,0,0,0,0,0,0,0,0,0,0,0,0,0],"sum_hessian":[6.365878E3,3.122477E3,3.2434011E3,1.5972438E3,1.5252332E3,1.8640435E3,1.3793575E3,1.1275685E3,4.6967535E2,9.395215E2,5.857117E2,6.526648E2,1.2113787E3,7.9826434E2,5.810932E2],"tree_param":{"num_deleted":"0","num_feature":"106","num_nodes":"15","size_leaf_vector":"1"}},{"base_weights":[1.2163094E-1,2.9215053E-1,-4.2570617E-2,1.6121471E-1,4.2907274E-1,8.80346E-2,-2.190045E-1,2.2778483E-3,1.2527528E-5,3.4460388E-3,5.6374823E-3,-1.2081623E-3,2.0056576E-3,-1.3183408E-3,-3.3832078E-3],"categories":[],"categories_nodes":[],"categories_segments":[],"categories_sizes":[],"default_left":[0,0,0,0,0,0,0,0,0,0,0,0,0,0,0],"id":47,"left_children":[1,3,5,7,9,11,13,-1,-1,-1,-1,-1,-1,-1,-1],"loss_changes":[1.782824E2,5.592856E1,7.478062E1,1.7018913E1,1.7168E1,4.3856915E1,1.4312294E1,0E0,0E0,0E0,0E0,0E0,0E0,0E0,0E0],"parents":[2147483647,0,0,1,1,2,2,3,3,4,4,5,5,6,6],"right_children":[2,4,6,8,10,12,14,-1,-1,-1,-1,-1,-1,-1,-1],"split_conditions":[1.5E1,1.3E1,5.41E-1,6E0,2.3E1,-4.7E0,2.4E1,2.2778483E-3,1.2527528E-5,3.4460388E-3,5.6374823E-3,-1.2081623E-3,2.0056576E-3,-1.3183408E-3,-3.3832078E-3],"split_indices":[51,80,55,77,80,25,51,0,0,0,0,0,0,0,0],"split_type":[0,0,0,0,0,0,0,0,0,0,0,0,0,0,0],"sum_hessian":[6.365878E3,3.1224768E3,3.2434011E3,1.5972438E3,1.5252332E3,1.8640435E3,1.3793575E3,1.1275684E3,4.6967535E2,9.395215E2,5.857117E2,6.5266473E2,1.2113787E3,7.9826434E2,5.810932E2],"tree_param":{"num_deleted":"0","num_feature":"106","num_nodes":"15","size_leaf_vector":"1"}},{"base_weights":[-1.2045899E-1,-2.2841454E-1,1.3405071E-1,-4.2564648E-1,-1.324756E-1,-1.5000713E-1,2.077438E-1,-3.2862874E-3,-5.436938E-3,-2.986778E-3,-3.386931E-4,-2.4518587E-3,6.598775E-4,3.4789497E-3,1.2161625E-3],"categories":[],"categories_nodes":[],"categories_segments":[],"categories_sizes":[],"default_left":[0,0,0,0,0,0,0,0,0,0,0,0,0,0,0],"id":48,"left_children":[1,3,5,7,9,11,13,-1,-1,-1,-1,-1,-1,-1,-1],"loss_changes":[1.7490334E2,8.4514084E1,3.9725567E1,1.656665E1,4.929069E1,8.058295E0,1.8137177E1,0E0,0E0,0E0,0E0,0E0,0E0,0E0,0E0],"parents":[2147483647,0,0,1,1,2,2,3,3,4,4,5,5,6,6],"right_children":[2,4,6,8,10,12,14,-1,-1,-1,-1,-1,-1,-1,-1],"split_conditions":[2E1,-1.4E0,3.59E-1,2.3E1,8E0,2.7E1,-6.2E0,-3.2862874E-3,-5.436938E-3,-2.986778E-3,-3.386931E-4,-2.4518587E-3,6.598775E-4,3.4789497E-3,1.2161625E-3],"split_indices":[28,77,55,1,51,28,25,0,0,0,0,0,0,0,0],"split_type":[0,0,0,0,0,0,0,0,0,0,0,0,0,0,0],"sum_hessian":[6.363624E3,4.4683735E3,1.8952505E3,1.461132E3,3.0072417E3,3.901892E2,1.5050613E3,8.0407947E2,6.570525E2,1.1190459E3,1.8881958E3,2.7074814E2,1.1944106E2,5.717085E2,9.333528E2],"tree_param":{"num_deleted":"0","num_feature":"106","num_nodes":"15","size_leaf_vector":"1"}},{"base_weights":[1.2045897E-1,2.2841452E-1,-1.3405074E-1,4.2564648E-1,1.3247555E-1,1.5000714E-1,-2.0774384E-1,3.2862874E-3,5.436938E-3,2.9867773E-3,3.3869283E-4,2.451859E-3,-6.598775E-4,-3.4789497E-3,-1.216163E-3],"categories":[],"categories_nodes":[],"categories_segments":[],"categories_sizes":[],"default_left":[0,0,0,0,0,0,0,0,0,0,0,0,0,0,0],"id":49,"left_children":[1,3,5,7,9,11,13,-1,-1,-1,-1,-1,-1,-1,-1],"loss_changes":[1.7490334E2,8.451413E1,3.9725582E1,1.656668E1,4.929069E1,8.058297E0,1.8137161E1,0E0,0E0,0E0,0E0,0E0,0E0,0E0,0E0],"parents":[2147483647,0,0,1,1,2,2,3,3,4,4,5,5,6,6],"right_children":[2,4,6,8,10,12,14,-1,-1,-1,-1,-1,-1,-1,-1],"split_conditions":[2E1,-1.4E0,3.59E-1,2.3E1,8E0,2.7E1,-6.2E0,3.2862874E-3,5.436938E-3,2.9867773E-3,3.3869283E-4,2.451859E-3,-6.598775E-4,-3.4789497E-3,-1.216163E-3],"split_indices":[28,77,55,1,51,28,25,0,0,0,0,0,0,0,0],"split_type":[0,0,0,0,0,0,0,0,0,0,0,0,0,0,0],"sum_hessian":[6.363624E3,4.4683735E3,1.8952505E3,1.461132E3,3.0072417E3,3.901892E2,1.5050613E3,8.0407947E2,6.570525E2,1.1190459E3,1.8881958E3,2.7074814E2,1.1944106E2,5.7170856E2,9.333527E2],"tree_param":{"num_deleted":"0","num_feature":"106","num_nodes":"15","size_leaf_vector":"1"}},{"base_weights":[-1.1929739E-1,-2.8698477E-1,4.2077594E-2,-1.48949E-1,-4.1347823E-1,-8.660483E-2,2.159107E-1,-2.2954138E-3,-2.4083158E-4,-3.3357285E-3,-5.552843E-3,1.1844253E-3,-1.9710604E-3,1.3039032E-3,3.330578E-3],"categories":[],"categories_nodes":[],"categories_segments":[],"categories_sizes":[],"default_left":[0,0,0,0,0,0,0,0,0,0,0,0,0,0,0],"id":50,"left_children":[1,3,5,7,9,11,13,-1,-1,-1,-1,-1,-1,-1,-1],"loss_changes":[1.7218298E2,5.4421112E1,7.256477E1,1.5025398E1,1.8258026E1,4.2264378E1,1.3780304E1,0E0,0E0,0E0,0E0,0E0,0E0,0E0,0E0],"parents":[2147483647,0,0,1,1,2,2,3,3,4,4,5,5,6,6],"right_children":[2,4,6,8,10,12,14,-1,-1,-1,-1,-1,-1,-1,-1],"split_conditions":[1.5E1,1.2E1,5.41E-1,5.1E0,2.3E1,-4.7E0,2.4E1,-2.2954138E-3,-2.4083158E-4,-3.3357285E-3,-5.552843E-3,1.1844253E-3,-1.9710604E-3,1.3039032E-3,3.330578E-3],"split_indices":[51,80,55,77,80,25,51,0,0,0,0,0,0,0,0],"split_type":[0,0,0,0,0,0,0,0,0,0,0,0,0,0,0],"sum_hessian":[6.361433E3,3.1193193E3,3.2421135E3,1.4926477E3,1.6266716E3,1.8632892E3,1.3788245E3,9.066371E2,5.860106E2,1.0425593E3,5.841123E2,6.5247565E2,1.2108135E3,7.9821796E2,5.8060645E2],"tree_param":{"num_deleted":"0","num_feature":"106","num_nodes":"15","size_leaf_vector":"1"}},{"base_weights":[1.1929741E-1,2.869848E-1,-4.2077597E-2,1.4894906E-1,4.1347823E-1,8.6604826E-2,-2.159107E-1,2.2954145E-3,2.4083168E-4,3.3357285E-3,5.552843E-3,-1.1844251E-3,1.9710602E-3,-1.303903E-3,-3.330578E-3],"categories":[],"categories_nodes":[],"categories_segments":[],"categories_sizes":[],"default_left":[0,0,0,0,0,0,0,0,0,0,0,0,0,0,0],"id":51,"left_children":[1,3,5,7,9,11,13,-1,-1,-1,-1,-1,-1,-1,-1],"loss_changes":[1.7218304E2,5.442108E1,7.2564766E1,1.502541E1,1.8258026E1,4.2264362E1,1.3780296E1,0E0,0E0,0E0,0E0,0E0,0E0,0E0,0E0],"parents":[2147483647,0,0,1,1,2,2,3,3,4,4,5,5,6,6],"right_children":[2,4,6,8,10,12,14,-1,-1,-1,-1,-1,-1,-1,-1],"split_conditions":[1.5E1,1.2E1,5.41E-1,5.1E0,2.3E1,-4.7E0,2.4E1,2.2954145E-3,2.4083168E-4,3.3357285E-3,5.552843E-3,-1.1844251E-3,1.9710602E-3,-1.303903E-3,-3.330578E-3],"split_indices":[51,80,55,77,80,25,51,0,0,0,0,0,0,0,0],"split_type":[0,0,0,0,0,0,0,0,0,0,0,0,0,0,0],"sum_hessian":[6.361433E3,3.1193193E3,3.2421135E3,1.4926477E3,1.6266716E3,1.8632892E3,1.3788245E3,9.066371E2,5.860106E2,1.0425593E3,5.841123E2,6.5247565E2,1.2108135E3,7.9821796E2,5.806065E2],"tree_param":{"num_deleted":"0","num_feature":"106","num_nodes":"15","size_leaf_vector":"1"}},{"base_weights":[-1.1815048E-1,-2.8428185E-1,4.1665897E-2,-1.4748475E-1,-4.0973926E-1,-1.7582184E-1,1.4263411E-1,-2.273063E-3,-2.384303E-4,-3.3043437E-3,-5.5062263E-3,1.7186455E-4,-2.955623E-3,4.1493768E-4,2.7521327E-3],"categories":[],"categories_nodes":[],"categories_segments":[],"categories_sizes":[],"default_left":[0,0,0,0,0,0,0,0,0,0,0,0,0,0,0],"id":52,"left_children":[1,3,5,7,9,11,13,-1,-1,-1,-1,-1,-1,-1,-1],"loss_changes":[1.6887439E2,5.3460632E1,7.122841E1,1.4733463E1,1.798639E1,2.3774702E1,2.9689793E1,0E0,0E0,0E0,0E0,0E0,0E0,0E0,0E0],"parents":[2147483647,0,0,1,1,2,2,3,3,4,4,5,5,6,6],"right_children":[2,4,6,8,10,12,14,-1,-1,-1,-1,-1,-1,-1,-1],"split_conditions":[1.5E1,1.2E1,-1.9E0,5.1E0,2.3E1,-4.3E0,2.4E1,-2.273063E-3,-2.384303E-4,-3.3043437E-3,-5.5062263E-3,1.7186455E-4,-2.955623E-3,4.1493768E-4,2.7521327E-3],"split_indices":[51,80,77,77,80,25,51,0,0,0,0,0,0,0,0],"split_type":[0,0,0,0,0,0,0,0,0,0,0,0,0,0,0],"sum_hessian":[6.359048E3,3.117541E3,3.2415066E3,1.4924113E3,1.6251298E3,1.0275026E3,2.2140042E3,9.0640753E2,5.8600366E2,1.0419497E3,5.831801E2,3.9372238E2,6.3378015E2,1.2566554E3,9.573487E2],"tree_param":{"num_deleted":"0","num_feature":"106","num_nodes":"15","size_leaf_vector":"1"}},{"base_weights":[1.1815046E-1,2.8428182E-1,-4.16659E-2,1.4748475E-1,4.097392E-1,1.7582186E-1,-1.4263412E-1,2.273063E-3,2.3843024E-4,3.3043434E-3,5.506225E-3,-1.718643E-4,2.9556232E-3,-4.149378E-4,-2.7521327E-3],"categories":[],"categories_nodes":[],"categories_segments":[],"categories_sizes":[],"default_left":[0,0,0,0,0,0,0,0,0,0,0,0,0,0,0],"id":53,"left_children":[1,3,5,7,9,11,13,-1,-1,-1,-1,-1,-1,-1,-1],"loss_changes":[1.6887436E2,5.34606E1,7.1228424E1,1.4733456E1,1.798639E1,2.3774694E1,2.9689793E1,0E0,0E0,0E0,0E0,0E0,0E0,0E0,0E0],"parents":[2147483647,0,0,1,1,2,2,3,3,4,4,5,5,6,6],"right_children":[2,4,6,8,10,12,14,-1,-1,-1,-1,-1,-1,-1,-1],"split_conditions":[1.5E1,1.2E1,-1.9E0,5.1E0,2.3E1,-4.3E0,2.4E1,2.273063E-3,2.3843024E-4,3.3043434E-3,5.506225E-3,-1.718643E-4,2.9556232E-3,-4.149378E-4,-2.7521327E-3],"split_indices":[51,80,77,77,80,25,51,0,0,0,0,0,0,0,0],"split_type":[0,0,0,0,0,0,0,0,0,0,0,0,0,0,0],"sum_hessian":[6.359048E3,3.117541E3,3.2415066E3,1.4924111E3,1.6251298E3,1.0275026E3,2.2140042E3,9.0640753E2,5.8600366E2,1.0419496E3,5.831801E2,3.9372238E2,6.3378015E2,1.2566555E3,9.573487E2],"tree_param":{"num_deleted":"0","num_feature":"106","num_nodes":"15","size_leaf_vector":"1"}},{"base_weights":[-1.1701738E-1,-2.2229582E-1,1.3103044E-1,-4.1521987E-1,-1.2865146E-1,-3.3072778E-3,2.8078777E-1,-3.1948937E-3,-5.318553E-3,-2.918187E-3,-3.1917376E-4,-2.6475638E-3,6.770265E-4,4.1740886E-3,2.0285747E-3],"categories":[],"categories_nodes":[],"categories_segments":[],"categories_sizes":[],"default_left":[0,0,0,0,0,0,0,0,0,0,0,0,0,0,0],"id":54,"left_children":[1,3,5,7,9,11,13,-1,-1,-1,-1,-1,-1,-1,-1],"loss_changes":[1.6605057E2,8.0587006E1,3.812359E1,1.6111237E1,4.7443794E1,1.858131E1,9.455597E0,0E0,0E0,0E0,0E0,0E0,0E0,0E0,0E0],"parents":[2147483647,0,0,1,1,2,2,3,3,4,4,5,5,6,6],"right_children":[2,4,6,8,10,12,14,-1,-1,-1,-1,-1,-1,-1,-1],"split_conditions":[2E1,-1.4E0,5.14E-1,2.3E1,8E0,2.2E1,-6.2E0,-3.1948937E-3,-5.318553E-3,-2.918187E-3,-3.1917376E-4,-2.6475638E-3,6.770265E-4,4.1740886E-3,2.0285747E-3],"split_indices":[28,77,55,1,51,51,25,0,0,0,0,0,0,0,0],"split_type":[0,0,0,0,0,0,0,0,0,0,0,0,0,0,0],"sum_hessian":[6.356543E3,4.4625957E3,1.8939469E3,1.4571577E3,3.005438E3,9.988871E2,8.9505975E2,8.023527E2,6.5480505E2,1.1178596E3,1.8875785E3,2.1276955E2,7.8611755E2,3.2352524E2,5.7153455E2],"tree_param":{"num_deleted":"0","num_feature":"106","num_nodes":"15","size_leaf_vector":"1"}},{"base_weights":[1.17017366E-1,2.222958E-1,-1.3103046E-1,4.1521984E-1,1.2865146E-1,3.3072643E-3,-2.807878E-1,3.1948935E-3,5.318553E-3,2.9181873E-3,3.1917373E-4,2.6475633E-3,-6.770266E-4,-4.1740886E-3,-2.028575E-3],"categories":[],"categories_nodes":[],"categories_segments":[],"categories_sizes":[],"default_left":[0,0,0,0,0,0,0,0,0,0,0,0,0,0,0],"id":55,"left_children":[1,3,5,7,9,11,13,-1,-1,-1,-1,-1,-1,-1,-1],"loss_changes":[1.6605057E2,8.058699E1,3.812359E1,1.6111252E1,4.744381E1,1.8581308E1,9.455597E0,0E0,0E0,0E0,0E0,0E0,0E0,0E0,0E0],"parents":[2147483647,0,0,1,1,2,2,3,3,4,4,5,5,6,6],"right_children":[2,4,6,8,10,12,14,-1,-1,-1,-1,-1,-1,-1,-1],"split_conditions":[2E1,-1.4E0,5.14E-1,2.3E1,8E0,2.2E1,-6.2E0,3.1948935E-3,5.318553E-3,2.9181873E-3,3.1917373E-4,2.6475633E-3,-6.770266E-4,-4.1740886E-3,-2.028575E-3],"split_indices":[28,77,55,1,51,51,25,0,0,0,0,0,0,0,0],"split_type":[0,0,0,0,0,0,0,0,0,0,0,0,0,0,0],"sum_hessian":[6.356543E3,4.4625957E3,1.8939469E3,1.4571577E3,3.0054382E3,9.988871E2,8.9505975E2,8.023527E2,6.54805E2,1.1178596E3,1.8875785E3,2.1276953E2,7.8611755E2,3.2352524E2,5.7153455E2],"tree_param":{"num_deleted":"0","num_feature":"106","num_nodes":"15","size_leaf_vector":"1"}},{"base_weights":[-1.1589204E-1,-2.792605E-1,4.1163117E-2,-1.5306154E-1,-4.117119E-1,-8.4625915E-2,2.1109812E-1,-2.1791009E-3,2.6119582E-5,-3.3006603E-3,-5.4247146E-3,1.1541415E-3,-1.9247027E-3,1.2831135E-3,3.246507E-3],"categories":[],"categories_nodes":[],"categories_segments":[],"categories_sizes":[],"default_left":[0,0,0,0,0,0,0,0,0,0,0,0,0,0,0],"id":56,"left_children":[1,3,5,7,9,11,13,-1,-1,-1,-1,-1,-1,-1,-1],"loss_changes":[1.6307169E2,5.200676E1,6.929879E1,1.612056E1,1.6041077E1,4.021657E1,1.2920952E1,0E0,0E0,0E0,0E0,0E0,0E0,0E0,0E0],"parents":[2147483647,0,0,1,1,2,2,3,3,4,4,5,5,6,6],"right_children":[2,4,6,8,10,12,14,-1,-1,-1,-1,-1,-1,-1,-1],"split_conditions":[1.5E1,1.3E1,5.41E-1,6E0,2.3E1,-4.7E0,2.4E1,-2.1791009E-3,2.6119582E-5,-3.3006603E-3,-5.4247146E-3,1.1541415E-3,-1.9247027E-3,1.2831135E-3,3.246507E-3],"split_indices":[51,80,55,77,80,25,51,0,0,0,0,0,0,0,0],"split_type":[0,0,0,0,0,0,0,0,0,0,0,0,0,0,0],"sum_hessian":[6.354176E3,3.1141084E3,3.2400674E3,1.5957975E3,1.5183109E3,1.8621622E3,1.377905E3,1.1262418E3,4.6955566E2,9.368616E2,5.814494E2,6.522451E2,1.2099171E3,7.981413E2,5.797637E2],"tree_param":{"num_deleted":"0","num_feature":"106","num_nodes":"15","size_leaf_vector":"1"}},{"base_weights":[1.15892045E-1,2.792605E-1,-4.1163113E-2,1.5306155E-1,4.1171193E-1,8.462594E-2,-2.1109813E-1,2.1791009E-3,-2.6119662E-5,3.3006603E-3,5.4247146E-3,-1.1541414E-3,1.9247029E-3,-1.2831141E-3,-3.2465067E-3],"categories":[],"categories_nodes":[],"categories_segments":[],"categories_sizes":[],"default_left":[0,0,0,0,0,0,0,0,0,0,0,0,0,0,0],"id":57,"left_children":[1,3,5,7,9,11,13,-1,-1,-1,-1,-1,-1,-1,-1],"loss_changes":[1.6307169E2,5.200676E1,6.92988E1,1.6120567E1,1.6041046E1,4.021657E1,1.2920944E1,0E0,0E0,0E0,0E0,0E0,0E0,0E0,0E0],"parents":[2147483647,0,0,1,1,2,2,3,3,4,4,5,5,6,6],"right_children":[2,4,6,8,10,12,14,-1,-1,-1,-1,-1,-1,-1,-1],"split_conditions":[1.5E1,1.3E1,5.41E-1,6E0,2.3E1,-4.7E0,2.4E1,2.1791009E-3,-2.6119662E-5,3.3006603E-3,5.4247146E-3,-1.1541414E-3,1.9247029E-3,-1.2831141E-3,-3.2465067E-3],"split_indices":[51,80,55,77,80,25,51,0,0,0,0,0,0,0,0],"split_type":[0,0,0,0,0,0,0,0,0,0,0,0,0,0,0],"sum_hessian":[6.354176E3,3.1141084E3,3.2400671E3,1.5957975E3,1.5183109E3,1.8621622E3,1.377905E3,1.1262418E3,4.6955566E2,9.368616E2,5.814494E2,6.522451E2,1.2099171E3,7.981413E2,5.797637E2],"tree_param":{"num_deleted":"0","num_feature":"106","num_nodes":"15","size_leaf_vector":"1"}},{"base_weights":[-1.14781074E-1,-2.1826777E-1,1.2894005E-1,-7.813165E-2,-3.433883E-1,-1.4653388E-1,2.004443E-1,-1.9697598E-3,3.1906288E-4,-4.9823667E-3,-2.7476698E-3,-2.388602E-3,6.2830077E-4,3.3576097E-3,1.1741319E-3],"categories":[],"categories_nodes":[],"categories_segments":[],"categories_sizes":[],"default_left":[0,0,0,0,0,0,0,0,0,0,0,0,0,0,0],"id":58,"left_children":[1,3,5,7,9,11,13,-1,-1,-1,-1,-1,-1,-1,-1],"loss_changes":[1.602531E2,7.816673E1,3.7337547E1,2.7532265E1,2.4894623E1,7.5709925E0,1.6860485E1,0E0,0E0,0E0,0E0,0E0,0E0,0E0,0E0],"parents":[2147483647,0,0,1,1,2,2,3,3,4,4,5,5,6,6],"right_children":[2,4,6,8,10,12,14,-1,-1,-1,-1,-1,-1,-1,-1],"split_conditions":[2E1,1.2E1,3.59E-1,1E1,7E0,2.7E1,-6.2E0,-1.9697598E-3,3.1906288E-4,-4.9823667E-3,-2.7476698E-3,-2.388602E-3,6.2830077E-4,3.3576097E-3,1.1741319E-3],"split_indices":[28,80,55,51,51,28,25,0,0,0,0,0,0,0,0],"split_type":[0,0,0,0,0,0,0,0,0,0,0,0,0,0,0],"sum_hessian":[6.351615E3,4.458564E3,1.8930513E3,2.1038535E3,2.3547104E3,3.8989822E2,1.5031531E3,1.0110733E3,1.09278E3,7.2114325E2,1.6335671E3,2.7047983E2,1.1941838E2,5.704465E2,9.327066E2],"tree_param":{"num_deleted":"0","num_feature":"106","num_nodes":"15","size_leaf_vector":"1"}},{"base_weights":[1.14781074E-1,2.1826777E-1,-1.2894006E-1,7.8131646E-2,3.433883E-1,1.4653385E-1,-2.004443E-1,1.9697594E-3,-3.1906264E-4,4.9823667E-3,2.74767E-3,2.3886017E-3,-6.2830094E-4,-3.3576095E-3,-1.1741321E-3],"categories":[],"categories_nodes":[],"categories_segments":[],"categories_sizes":[],"default_left":[0,0,0,0,0,0,0,0,0,0,0,0,0,0,0],"id":59,"left_children":[1,3,5,7,9,11,13,-1,-1,-1,-1,-1,-1,-1,-1],"loss_changes":[1.6025314E2,7.816673E1,3.733754E1,2.753225E1,2.4894623E1,7.5709934E0,1.686047E1,0E0,0E0,0E0,0E0,0E0,0E0,0E0,0E0],"parents":[2147483647,0,0,1,1,2,2,3,3,4,4,5,5,6,6],"right_children":[2,4,6,8,10,12,14,-1,-1,-1,-1,-1,-1,-1,-1],"split_conditions":[2E1,1.2E1,3.59E-1,1E1,7E0,2.7E1,-6.2E0,1.9697594E-3,-3.1906264E-4,4.9823667E-3,2.74767E-3,2.3886017E-3,-6.2830094E-4,-3.3576095E-3,-1.1741321E-3],"split_indices":[28,80,55,51,51,28,25,0,0,0,0,0,0,0,0],"split_type":[0,0,0,0,0,0,0,0,0,0,0,0,0,0,0],"sum_hessian":[6.351615E3,4.458564E3,1.8930513E3,2.1038535E3,2.3547104E3,3.8989822E2,1.5031531E3,1.01107336E3,1.09278E3,7.2114325E2,1.6335673E3,2.7047986E2,1.1941839E2,5.704465E2,9.3270654E2],"tree_param":{"num_deleted":"0","num_feature":"106","num_nodes":"15","size_leaf_vector":"1"}},{"base_weights":[-1.1367927E-1,-2.7428567E-1,4.0607344E-2,-8.72012E-2,-3.6077553E-1,-1.7068708E-1,1.3866353E-1,-1.2802136E-4,-2.277568E-3,-2.9519482E-3,-5.349332E-3,1.5715952E-4,-2.8650197E-3,4.119876E-4,2.66592E-3],"categories":[],"categories_nodes":[],"categories_segments":[],"categories_sizes":[],"default_left":[0,0,0,0,0,0,0,0,0,0,0,0,0,0,0],"id":60,"left_children":[1,3,5,7,9,11,13,-1,-1,-1,-1,-1,-1,-1,-1],"loss_changes":[1.5736366E2,5.0314987E1,6.714526E1,1.0297462E1,2.4140747E1,2.2182901E1,2.7585865E1,0E0,0E0,0E0,0E0,0E0,0E0,0E0,0E0],"parents":[2147483647,0,0,1,1,2,2,3,3,4,4,5,5,6,6],"right_children":[2,4,6,8,10,12,14,-1,-1,-1,-1,-1,-1,-1,-1],"split_conditions":[1.5E1,9E0,-1.9E0,6.71E-1,2.3E1,-4.3E0,2.4E1,-1.2802136E-4,-2.277568E-3,-2.9519482E-3,-5.349332E-3,1.5715952E-4,-2.8650197E-3,4.119876E-4,2.66592E-3],"split_indices":[51,103,77,3,80,25,51,0,0,0,0,0,0,0,0],"split_type":[0,0,0,0,0,0,0,0,0,0,0,0,0,0,0],"sum_hessian":[6.34913E3,3.1104717E3,3.2386584E3,9.8400305E2,2.1264685E3,1.0263367E3,2.2123218E3,6.441381E2,3.398649E2,1.5467284E3,5.797401E2,3.9364038E2,6.326963E2,1.2564177E3,9.5590405E2],"tree_param":{"num_deleted":"0","num_feature":"106","num_nodes":"15","size_leaf_vector":"1"}},{"base_weights":[1.13679275E-1,2.7428567E-1,-4.0607337E-2,8.7201215E-2,3.6077553E-1,1.7068708E-1,-1.3866353E-1,1.280216E-4,2.277568E-3,2.9519482E-3,5.3493325E-3,-1.5715945E-4,2.8650197E-3,-4.1198742E-4,-2.66592E-3],"categories":[],"categories_nodes":[],"categories_segments":[],"categories_sizes":[],"default_left":[0,0,0,0,0,0,0,0,0,0,0,0,0,0,0],"id":61,"left_children":[1,3,5,7,9,11,13,-1,-1,-1,-1,-1,-1,-1,-1],"loss_changes":[1.5736366E2,5.0314972E1,6.7145256E1,1.0297461E1,2.4140747E1,2.2182901E1,2.7585865E1,0E0,0E0,0E0,0E0,0E0,0E0,0E0,0E0],"parents":[2147483647,0,0,1,1,2,2,3,3,4,4,5,5,6,6],"right_children":[2,4,6,8,10,12,14,-1,-1,-1,-1,-1,-1,-1,-1],"split_conditions":[1.5E1,9E0,-1.9E0,6.71E-1,2.3E1,-4.3E0,2.4E1,1.280216E-4,2.277568E-3,2.9519482E-3,5.3493325E-3,-1.5715945E-4,2.8650197E-3,-4.1198742E-4,-2.66592E-3],"split_indices":[51,103,77,3,80,25,51,0,0,0,0,0,0,0,0],"split_type":[0,0,0,0,0,0,0,0,0,0,0,0,0,0,0],"sum_hessian":[6.34913E3,3.1104714E3,3.2386584E3,9.84003E2,2.1264685E3,1.0263367E3,2.2123218E3,6.441381E2,3.398649E2,1.5467284E3,5.797401E2,3.9364038E2,6.326963E2,1.2564177E3,9.5590405E2],"tree_param":{"num_deleted":"0","num_feature":"106","num_nodes":"15","size_leaf_vector":"1"}},{"base_weights":[-1.1259249E-1,-2.1429846E-1,1.2683317E-1,-4.022467E-1,-1.2333292E-1,-1.4399712E-1,1.9714397E-1,-3.0784365E-3,-5.1746983E-3,-2.822374E-3,-2.9238226E-4,-2.3493208E-3,6.211379E-4,3.3052485E-3,1.1536347E-3],"categories":[],"categories_nodes":[],"categories_segments":[],"categories_sizes":[],"default_left":[0,0,0,0,0,0,0,0,0,0,0,0,0,0,0],"id":62,"left_children":[1,3,5,7,9,11,13,-1,-1,-1,-1,-1,-1,-1,-1],"loss_changes":[1.5459375E2,7.612297E1,3.6076813E1,1.5641678E1,4.4903667E1,7.3382797E0,1.6360043E1,0E0,0E0,0E0,0E0,0E0,0E0,0E0,0E0],"parents":[2147483647,0,0,1,1,2,2,3,3,4,4,5,5,6,6],"right_children":[2,4,6,8,10,12,14,-1,-1,-1,-1,-1,-1,-1,-1],"split_conditions":[2E1,-1.4E0,3.59E-1,2.3E1,8E0,2.7E1,-6.2E0,-3.0784365E-3,-5.1746983E-3,-2.822374E-3,-2.9238226E-4,-2.3493208E-3,6.211379E-4,3.3052485E-3,1.1536347E-3],"split_indices":[28,77,55,1,51,28,25,0,0,0,0,0,0,0,0],"split_type":[0,0,0,0,0,0,0,0,0,0,0,0,0,0,0],"sum_hessian":[6.346438E3,4.4543667E3,1.8920717E3,1.4516405E3,3.002726E3,3.8974893E2,1.5023226E3,7.999269E2,6.517136E2,1.1160211E3,1.886705E3,2.7033765E2,1.1941129E2,5.6986035E2,9.324623E2],"tree_param":{"num_deleted":"0","num_feature":"106","num_nodes":"15","size_leaf_vector":"1"}},{"base_weights":[1.1259249E-1,2.1429844E-1,-1.2683319E-1,4.022467E-1,1.2333291E-1,1.4399712E-1,-1.9714399E-1,3.0784365E-3,5.1746983E-3,2.822374E-3,2.9238214E-4,2.3493203E-3,-6.2113686E-4,-3.305249E-3,-1.1536347E-3],"categories":[],"categories_nodes":[],"categories_segments":[],"categories_sizes":[],"default_left":[0,0,0,0,0,0,0,0,0,0,0,0,0,0,0],"id":63,"left_children":[1,3,5,7,9,11,13,-1,-1,-1,-1,-1,-1,-1,-1],"loss_changes":[1.5459373E2,7.6122955E1,3.6076813E1,1.5641678E1,4.4903667E1,7.338272E0,1.6360043E1,0E0,0E0,0E0,0E0,0E0,0E0,0E0,0E0],"parents":[2147483647,0,0,1,1,2,2,3,3,4,4,5,5,6,6],"right_children":[2,4,6,8,10,12,14,-1,-1,-1,-1,-1,-1,-1,-1],"split_conditions":[2E1,-1.4E0,3.59E-1,2.3E1,8E0,2.7E1,-6.2E0,3.0784365E-3,5.1746983E-3,2.822374E-3,2.9238214E-4,2.3493203E-3,-6.2113686E-4,-3.305249E-3,-1.1536347E-3],"split_indices":[28,77,55,1,51,28,25,0,0,0,0,0,0,0,0],"split_type":[0,0,0,0,0,0,0,0,0,0,0,0,0,0,0],"sum_hessian":[6.346438E3,4.4543667E3,1.8920715E3,1.4516405E3,3.002726E3,3.8974896E2,1.5023226E3,7.999269E2,6.517136E2,1.116021E3,1.886705E3,2.7033765E2,1.1941129E2,5.6986035E2,9.324623E2],"tree_param":{"num_deleted":"0","num_feature":"106","num_nodes":"15","size_leaf_vector":"1"}},{"base_weights":[-1.11513756E-1,-2.694798E-1,4.012978E-2,-1.4691061E-1,-3.9853284E-1,-8.243992E-2,2.0569819E-1,-2.1081215E-3,6.373507E-5,-3.1849614E-3,-5.271755E-3,1.1077039E-3,-1.8663721E-3,1.2602953E-3,3.1516147E-3],"categories":[],"categories_nodes":[],"categories_segments":[],"categories_sizes":[],"default_left":[0,0,0,0,0,0,0,0,0,0,0,0,0,0,0],"id":64,"left_children":[1,3,5,7,9,11,13,-1,-1,-1,-1,-1,-1,-1,-1],"loss_changes":[1.5199896E2,4.910002E1,6.5729576E1,1.5629536E1,1.5412842E1,3.749366E1,1.1975082E1,0E0,0E0,0E0,0E0,0E0,0E0,0E0,0E0],"parents":[2147483647,0,0,1,1,2,2,3,3,4,4,5,5,6,6],"right_children":[2,4,6,8,10,12,14,-1,-1,-1,-1,-1,-1,-1,-1],"split_conditions":[1.5E1,1.3E1,5.41E-1,6E0,2.3E1,-4.7E0,2.4E1,-2.1081215E-3,6.373507E-5,-3.1849614E-3,-5.271755E-3,1.1077039E-3,-1.8663721E-3,1.2602953E-3,3.1516147E-3],"split_indices":[51,80,55,77,80,25,51,0,0,0,0,0,0,0,0],"split_type":[0,0,0,0,0,0,0,0,0,0,0,0,0,0,0],"sum_hessian":[6.3438604E3,3.106776E3,3.2370845E3,1.5945127E3,1.5122633E3,1.860365E3,1.3767195E3,1.1251016E3,4.6941113E2,9.3439404E2,5.7786926E2,6.5176013E2,1.2086049E3,7.980445E2,5.786749E2],"tree_param":{"num_deleted":"0","num_feature":"106","num_nodes":"15","size_leaf_vector":"1"}},{"base_weights":[1.1151377E-1,2.694798E-1,-4.0129766E-2,1.4691061E-1,3.9853287E-1,8.2439914E-2,-2.0569816E-1,2.1081215E-3,-6.3735104E-5,3.1849616E-3,5.271756E-3,-1.1077037E-3,1.8663718E-3,-1.2602946E-3,-3.1516147E-3],"categories":[],"categories_nodes":[],"categories_segments":[],"categories_sizes":[],"default_left":[0,0,0,0,0,0,0,0,0,0,0,0,0,0,0],"id":65,"left_children":[1,3,5,7,9,11,13,-1,-1,-1,-1,-1,-1,-1,-1],"loss_changes":[1.5199896E2,4.910002E1,6.572955E1,1.5629536E1,1.5412857E1,3.749365E1,1.1975098E1,0E0,0E0,0E0,0E0,0E0,0E0,0E0,0E0],"parents":[2147483647,0,0,1,1,2,2,3,3,4,4,5,5,6,6],"right_children":[2,4,6,8,10,12,14,-1,-1,-1,-1,-1,-1,-1,-1],"split_conditions":[1.5E1,1.3E1,5.41E-1,6E0,2.3E1,-4.7E0,2.4E1,2.1081215E-3,-6.3735104E-5,3.1849616E-3,5.271756E-3,-1.1077037E-3,1.8663718E-3,-1.2602946E-3,-3.1516147E-3],"split_indices":[51,80,55,77,80,25,51,0,0,0,0,0,0,0,0],"split_type":[0,0,0,0,0,0,0,0,0,0,0,0,0,0,0],"sum_hessian":[6.3438604E3,3.106776E3,3.2370845E3,1.5945127E3,1.5122633E3,1.860365E3,1.3767195E3,1.1251016E3,4.6941113E2,9.3439404E2,5.7786926E2,6.517602E2,1.2086049E3,7.980445E2,5.786749E2],"tree_param":{"num_deleted":"0","num_feature":"106","num_nodes":"15","size_leaf_vector":"1"}},{"base_weights":[-1.1044841E-1,8.855273E-2,-2.2870785E-1,-1.6909347E-1,1.5900454E-1,-3.4345362E-1,-7.1083106E-2,-1.1355696E-3,-5.554809E-3,7.15345E-4,2.750927E-3,-2.781755E-3,-4.7602705E-3,-2.0757525E-3,5.196689E-4],"categories":[],"categories_nodes":[],"categories_segments":[],"categories_sizes":[],"default_left":[0,0,0,0,0,0,0,0,0,0,0,0,0,0,0],"id":66,"left_children":[1,3,5,7,9,11,13,-1,-1,-1,-1,-1,-1,-1,-1],"loss_changes":[1.4927368E2,4.2950966E1,7.1931076E1,1.0843524E1,1.8841679E1,1.9790009E1,2.8181335E1,0E0,0E0,0E0,0E0,0E0,0E0,0E0,0E0],"parents":[2147483647,0,0,1,1,2,2,3,3,4,4,5,5,6,6],"right_children":[2,4,6,8,10,12,14,-1,-1,-1,-1,-1,-1,-1,-1],"split_conditions":[4.6E-1,3.59E-1,1.6E0,-1E0,2.6E1,2.3E1,9E0,-1.1355696E-3,-5.554809E-3,7.15345E-4,2.750927E-3,-2.781755E-3,-4.7602705E-3,-2.0757525E-3,5.196689E-4],"split_indices":[3,55,77,25,51,80,51,0,0,0,0,0,0,0,0],"split_type":[0,0,0,0,0,0,0,0,0,0,0,0,0,0,0],"sum_hessian":[6.3410977E3,2.363749E3,3.9773486E3,5.0726236E2,1.8564867E3,2.3010667E3,1.6762819E3,4.4464606E2,6.2616295E1,1.0596661E3,7.9682043E2,1.5439406E3,7.5712616E2,7.9440643E2,8.818754E2],"tree_param":{"num_deleted":"0","num_feature":"106","num_nodes":"15","size_leaf_vector":"1"}},{"base_weights":[1.10448405E-1,-8.8552706E-2,2.2870784E-1,1.690935E-1,-1.5900454E-1,3.4345362E-1,7.1083084E-2,1.13557E-3,5.554809E-3,-7.153449E-4,-2.750927E-3,2.7817544E-3,4.7602705E-3,2.075752E-3,-5.1966903E-4],"categories":[],"categories_nodes":[],"categories_segments":[],"categories_sizes":[],"default_left":[0,0,0,0,0,0,0,0,0,0,0,0,0,0,0],"id":67,"left_children":[1,3,5,7,9,11,13,-1,-1,-1,-1,-1,-1,-1,-1],"loss_changes":[1.4927365E2,4.2950974E1,7.1931046E1,1.0843521E1,1.8841686E1,1.979004E1,2.8181334E1,0E0,0E0,0E0,0E0,0E0,0E0,0E0,0E0],"parents":[2147483647,0,0,1,1,2,2,3,3,4,4,5,5,6,6],"right_children":[2,4,6,8,10,12,14,-1,-1,-1,-1,-1,-1,-1,-1],"split_conditions":[4.6E-1,3.59E-1,1.6E0,-1E0,2.6E1,2.3E1,9E0,1.13557E-3,5.554809E-3,-7.153449E-4,-2.750927E-3,2.7817544E-3,4.7602705E-3,2.075752E-3,-5.1966903E-4],"split_indices":[3,55,77,25,51,80,51,0,0,0,0,0,0,0,0],"split_type":[0,0,0,0,0,0,0,0,0,0,0,0,0,0,0],"sum_hessian":[6.3410977E3,2.363749E3,3.9773486E3,5.0726236E2,1.8564867E3,2.3010667E3,1.6762819E3,4.4464606E2,6.2616295E1,1.0596661E3,7.9682043E2,1.5439406E3,7.5712616E2,7.9440643E2,8.818754E2],"tree_param":{"num_deleted":"0","num_feature":"106","num_nodes":"15","size_leaf_vector":"1"}},{"base_weights":[-1.0939295E-1,-2.647569E-1,3.963311E-2,-8.2705446E-2,-3.4915584E-1,-8.1038095E-2,2.0263991E-1,1.9141809E-3,-1.2035398E-3,-2.8548925E-3,-5.1904013E-3,1.0860935E-3,-1.8333652E-3,1.2442524E-3,3.1020711E-3],"categories":[],"categories_nodes":[],"categories_segments":[],"categories_sizes":[],"default_left":[0,0,0,0,0,0,0,0,0,0,0,0,0,0,0],"id":68,"left_children":[1,3,5,7,9,11,13,-1,-1,-1,-1,-1,-1,-1,-1],"loss_changes":[1.4678845E2,4.7661392E1,6.3680477E1,1.0183E1,2.2785675E1,3.6114964E1,1.1547073E1,0E0,0E0,0E0,0E0,0E0,0E0,0E0,0E0],"parents":[2147483647,0,0,1,1,2,2,3,3,4,4,5,5,6,6],"right_children":[2,4,6,8,10,12,14,-1,-1,-1,-1,-1,-1,-1,-1],"split_conditions":[1.5E1,9E0,5.41E-1,2E0,2.3E1,-4.7E0,2.4E1,1.9141809E-3,-1.2035398E-3,-2.8548925E-3,-5.1904013E-3,1.0860935E-3,-1.8333652E-3,1.2442524E-3,3.1020711E-3],"split_indices":[51,103,55,85,80,25,51,0,0,0,0,0,0,0,0],"split_type":[0,0,0,0,0,0,0,0,0,0,0,0,0,0,0],"sum_hessian":[6.3384033E3,3.1028337E3,3.2355696E3,9.834592E2,2.1193745E3,1.859509E3,1.3760607E3,1.1826596E2,8.651933E2,1.5435771E3,5.757974E2,6.515541E2,1.207955E3,7.9798425E2,5.7807635E2],"tree_param":{"num_deleted":"0","num_feature":"106","num_nodes":"15","size_leaf_vector":"1"}},{"base_weights":[1.0939293E-1,2.6475686E-1,-3.9633125E-2,8.270544E-2,3.4915584E-1,8.103809E-2,-2.0263992E-1,-1.9141812E-3,1.2035397E-3,2.8548923E-3,5.1904013E-3,-1.0860937E-3,1.8333652E-3,-1.2442528E-3,-3.1020711E-3],"categories":[],"categories_nodes":[],"categories_segments":[],"categories_sizes":[],"default_left":[0,0,0,0,0,0,0,0,0,0,0,0,0,0,0],"id":69,"left_children":[1,3,5,7,9,11,13,-1,-1,-1,-1,-1,-1,-1,-1],"loss_changes":[1.4678845E2,4.766136E1,6.368048E1,1.01830015E1,2.2785706E1,3.611497E1,1.154707E1,0E0,0E0,0E0,0E0,0E0,0E0,0E0,0E0],"parents":[2147483647,0,0,1,1,2,2,3,3,4,4,5,5,6,6],"right_children":[2,4,6,8,10,12,14,-1,-1,-1,-1,-1,-1,-1,-1],"split_conditions":[1.5E1,9E0,5.41E-1,2E0,2.3E1,-4.7E0,2.4E1,-1.9141812E-3,1.2035397E-3,2.8548923E-3,5.1904013E-3,-1.0860937E-3,1.8333652E-3,-1.2442528E-3,-3.1020711E-3],"split_indices":[51,103,55,85,80,25,51,0,0,0,0,0,0,0,0],"split_type":[0,0,0,0,0,0,0,0,0,0,0,0,0,0,0],"sum_hessian":[6.3384033E3,3.1028337E3,3.2355696E3,9.834592E2,2.1193745E3,1.859509E3,1.3760607E3,1.1826596E2,8.651933E2,1.5435773E3,5.757974E2,6.515541E2,1.207955E3,7.9798425E2,5.7807635E2],"tree_param":{"num_deleted":"0","num_feature":"106","num_nodes":"15","size_leaf_vector":"1"}},{"base_weights":[-1.08348474E-1,-2.067291E-1,1.2302259E-1,-3.8970652E-1,-1.1845648E-1,-4.0924195E-3,2.6496655E-1,-2.9666969E-3,-5.034933E-3,-2.7361363E-3,-2.668577E-4,-2.5294775E-3,6.344977E-4,3.9475327E-3,1.9122054E-3],"categories":[],"categories_nodes":[],"categories_segments":[],"categories_sizes":[],"default_left":[0,0,0,0,0,0,0,0,0,0,0,0,0,0,0],"id":70,"left_children":[1,3,5,7,9,11,13,-1,-1,-1,-1,-1,-1,-1,-1],"loss_changes":[1.4426135E2,7.17724E1,3.412314E1,1.516452E1,4.2721912E1,1.6801825E1,8.476105E0,0E0,0E0,0E0,0E0,0E0,0E0,0E0,0E0],"parents":[2147483647,0,0,1,1,2,2,3,3,4,4,5,5,6,6],"right_children":[2,4,6,8,10,12,14,-1,-1,-1,-1,-1,-1,-1,-1],"split_conditions":[2E1,-1.4E0,5.14E-1,2.3E1,8E0,2.2E1,-6.2E0,-2.9666969E-3,-5.034933E-3,-2.7361363E-3,-2.668577E-4,-2.5294775E-3,6.344977E-4,3.9475327E-3,1.9122054E-3],"split_indices":[28,77,55,1,51,51,25,0,0,0,0,0,0,0,0],"split_type":[0,0,0,0,0,0,0,0,0,0,0,0,0,0,0],"sum_hessian":[6.335579E3,4.445449E3,1.89013E3,1.4455665E3,2.9998826E3,9.9766376E2,8.924662E2,7.9728235E2,6.482841E2,1.1141696E3,1.885713E3,2.1238786E2,7.852759E2,3.2179007E2,5.7067615E2],"tree_param":{"num_deleted":"0","num_feature":"106","num_nodes":"15","size_leaf_vector":"1"}},{"base_weights":[1.0834849E-1,2.067291E-1,-1.2302257E-1,3.8970652E-1,1.1845649E-1,4.09243E-3,-2.6496652E-1,2.9666976E-3,5.0349324E-3,2.7361363E-3,2.6685782E-4,2.5294775E-3,-6.344976E-4,-3.947533E-3,-1.9122049E-3],"categories":[],"categories_nodes":[],"categories_segments":[],"categories_sizes":[],"default_left":[0,0,0,0,0,0,0,0,0,0,0,0,0,0,0],"id":71,"left_children":[1,3,5,7,9,11,13,-1,-1,-1,-1,-1,-1,-1,-1],"loss_changes":[1.4426135E2,7.1772415E1,3.4123135E1,1.5164505E1,4.2721912E1,1.680182E1,8.476112E0,0E0,0E0,0E0,0E0,0E0,0E0,0E0,0E0],"parents":[2147483647,0,0,1,1,2,2,3,3,4,4,5,5,6,6],"right_children":[2,4,6,8,10,12,14,-1,-1,-1,-1,-1,-1,-1,-1],"split_conditions":[2E1,-1.4E0,5.14E-1,2.3E1,8E0,2.2E1,-6.2E0,2.9666976E-3,5.0349324E-3,2.7361363E-3,2.6685782E-4,2.5294775E-3,-6.344976E-4,-3.947533E-3,-1.9122049E-3],"split_indices":[28,77,55,1,51,51,25,0,0,0,0,0,0,0,0],"split_type":[0,0,0,0,0,0,0,0,0,0,0,0,0,0,0],"sum_hessian":[6.335579E3,4.445449E3,1.89013E3,1.4455665E3,2.9998826E3,9.9766376E2,8.924662E2,7.9728235E2,6.482841E2,1.1141696E3,1.885713E3,2.1238788E2,7.852759E2,3.2179007E2,5.7067615E2],"tree_param":{"num_deleted":"0","num_feature":"106","num_nodes":"15","size_leaf_vector":"1"}},{"base_weights":[-1.0731341E-1,-2.6012155E-1,3.9147697E-2,-1.4094844E-1,-3.8603175E-1,-7.944723E-2,1.993701E-1,-2.0372248E-3,9.499876E-5,-3.0823743E-3,-5.116305E-3,1.0700239E-3,-1.8005664E-3,1.2279105E-3,3.0480507E-3],"categories":[],"categories_nodes":[],"categories_segments":[],"categories_sizes":[],"default_left":[0,0,0,0,0,0,0,0,0,0,0,0,0,0,0],"id":72,"left_children":[1,3,5,7,9,11,13,-1,-1,-1,-1,-1,-1,-1,-1],"loss_changes":[1.417639E2,4.645955E1,6.148484E1,1.5057194E1,1.4564621E1,3.490416E1,1.1074715E1,0E0,0E0,0E0,0E0,0E0,0E0,0E0,0E0],"parents":[2147483647,0,0,1,1,2,2,3,3,4,4,5,5,6,6],"right_children":[2,4,6,8,10,12,14,-1,-1,-1,-1,-1,-1,-1,-1],"split_conditions":[1.5E1,1.3E1,5.41E-1,6E0,2.3E1,-4.7E0,2.4E1,-2.0372248E-3,9.499876E-5,-3.0823743E-3,-5.116305E-3,1.0700239E-3,-1.8005664E-3,1.2279105E-3,3.0480507E-3],"split_indices":[51,80,55,77,80,25,51,0,0,0,0,0,0,0,0],"split_type":[0,0,0,0,0,0,0,0,0,0,0,0,0,0,0],"sum_hessian":[6.3328193E3,3.0988755E3,3.2339438E3,1.5931191E3,1.5057563E3,1.8586759E3,1.3752681E3,1.1238447E3,4.692744E2,9.319638E2,5.7379254E2,6.5141266E2,1.2072632E3,7.979033E2,5.773648E2],"tree_param":{"num_deleted":"0","num_feature":"106","num_nodes":"15","size_leaf_vector":"1"}},{"base_weights":[1.0731341E-1,2.6012152E-1,-3.9147686E-2,1.4094843E-1,3.8603172E-1,7.944723E-2,-1.9937007E-1,2.0372248E-3,-9.499899E-5,3.0823743E-3,5.116305E-3,-1.0700243E-3,1.8005666E-3,-1.2279102E-3,-3.0480507E-3],"categories":[],"categories_nodes":[],"categories_segments":[],"categories_sizes":[],"default_left":[0,0,0,0,0,0,0,0,0,0,0,0,0,0,0],"id":73,"left_children":[1,3,5,7,9,11,13,-1,-1,-1,-1,-1,-1,-1,-1],"loss_changes":[1.4176387E2,4.645955E1,6.1484825E1,1.5057194E1,1.4564636E1,3.490417E1,1.1074711E1,0E0,0E0,0E0,0E0,0E0,0E0,0E0,0E0],"parents":[2147483647,0,0,1,1,2,2,3,3,4,4,5,5,6,6],"right_children":[2,4,6,8,10,12,14,-1,-1,-1,-1,-1,-1,-1,-1],"split_conditions":[1.5E1,1.3E1,5.41E-1,6E0,2.3E1,-4.7E0,2.4E1,2.0372248E-3,-9.499899E-5,3.0823743E-3,5.116305E-3,-1.0700243E-3,1.8005666E-3,-1.2279102E-3,-3.0480507E-3],"split_indices":[51,80,55,77,80,25,51,0,0,0,0,0,0,0,0],"split_type":[0,0,0,0,0,0,0,0,0,0,0,0,0,0,0],"sum_hessian":[6.3328193E3,3.0988755E3,3.2339438E3,1.5931191E3,1.5057563E3,1.8586759E3,1.3752681E3,1.1238447E3,4.692744E2,9.3196375E2,5.7379254E2,6.5141266E2,1.2072632E3,7.979033E2,5.773648E2],"tree_param":{"num_deleted":"0","num_feature":"106","num_nodes":"15","size_leaf_vector":"1"}},{"base_weights":[-1.06291406E-1,-2.0301524E-1,1.2107107E-1,-1.43579515E-2,-2.867312E-1,-1.3990173E-1,1.88876E-1,9.6873875E-4,-1.5462756E-3,-2.2599983E-3,-4.478942E-3,-2.2800362E-3,5.9571565E-4,3.1675263E-3,1.1064156E-3],"categories":[],"categories_nodes":[],"categories_segments":[],"categories_sizes":[],"default_left":[0,0,0,0,0,0,0,0,0,0,0,0,0,0,0],"id":74,"left_children":[1,3,5,7,9,11,13,-1,-1,-1,-1,-1,-1,-1,-1],"loss_changes":[1.3924911E2,7.0147934E1,3.3471863E1,2.1332153E1,3.0010681E1,6.873975E0,1.4978573E1,0E0,0E0,0E0,0E0,0E0,0E0,0E0,0E0],"parents":[2147483647,0,0,1,1,2,2,3,3,4,4,5,5,6,6],"right_children":[2,4,6,8,10,12,14,-1,-1,-1,-1,-1,-1,-1,-1],"split_conditions":[2E1,9E0,3.59E-1,3.1E0,2.3E1,2.7E1,-6.2E0,9.6873875E-4,-1.5462756E-3,-2.2599983E-3,-4.478942E-3,-2.2800362E-3,5.9571565E-4,3.1675263E-3,1.1064156E-3],"split_indices":[28,103,55,25,80,28,25,0,0,0,0,0,0,0,0],"split_type":[0,0,0,0,0,0,0,0,0,0,0,0,0,0,0],"sum_hessian":[6.329873E3,4.4407925E3,1.8890807E3,1.3652712E3,3.075521E3,3.893722E2,1.4997085E3,7.616237E2,6.036475E2,2.2355115E3,8.4000964E2,2.699844E2,1.19387764E2,5.680934E2,9.316152E2],"tree_param":{"num_deleted":"0","num_feature":"106","num_nodes":"15","size_leaf_vector":"1"}},{"base_weights":[1.062914E-1,2.0301522E-1,-1.2107109E-1,1.4357933E-2,2.867312E-1,1.3990171E-1,-1.8887603E-1,-9.687391E-4,1.5462756E-3,2.2599983E-3,4.4789426E-3,2.2800355E-3,-5.9571466E-4,-3.167526E-3,-1.1064162E-3],"categories":[],"categories_nodes":[],"categories_segments":[],"categories_sizes":[],"default_left":[0,0,0,0,0,0,0,0,0,0,0,0,0,0,0],"id":75,"left_children":[1,3,5,7,9,11,13,-1,-1,-1,-1,-1,-1,-1,-1],"loss_changes":[1.3924915E2,7.014795E1,3.347187E1,2.1332155E1,3.0010681E1,6.8739667E0,1.4978565E1,0E0,0E0,0E0,0E0,0E0,0E0,0E0,0E0],"parents":[2147483647,0,0,1,1,2,2,3,3,4,4,5,5,6,6],"right_children":[2,4,6,8,10,12,14,-1,-1,-1,-1,-1,-1,-1,-1],"split_conditions":[2E1,9E0,3.59E-1,3.1E0,2.3E1,2.7E1,-6.2E0,-9.687391E-4,1.5462756E-3,2.2599983E-3,4.4789426E-3,2.2800355E-3,-5.9571466E-4,-3.167526E-3,-1.1064162E-3],"split_indices":[28,103,55,25,80,28,25,0,0,0,0,0,0,0,0],"split_type":[0,0,0,0,0,0,0,0,0,0,0,0,0,0,0],"sum_hessian":[6.329873E3,4.4407925E3,1.8890807E3,1.3652712E3,3.075521E3,3.893722E2,1.4997085E3,7.616237E2,6.036475E2,2.2355115E3,8.4000964E2,2.699844E2,1.19387764E2,5.680933E2,9.316151E2],"tree_param":{"num_deleted":"0","num_feature":"106","num_nodes":"15","size_leaf_vector":"1"}},{"base_weights":[-1.0527689E-1,-2.5576022E-1,3.8845174E-2,-1.3024616E-1,-3.7198347E-1,-1.6105701E-1,1.3152942E-1,-1.9389985E-3,8.846038E-5,-2.9859294E-3,-5.0401366E-3,1.257186E-4,-2.692923E-3,4.0946028E-4,2.5076324E-3],"categories":[],"categories_nodes":[],"categories_segments":[],"categories_sizes":[],"default_left":[0,0,0,0,0,0,0,0,0,0,0,0,0,0,0],"id":76,"left_children":[1,3,5,7,9,11,13,-1,-1,-1,-1,-1,-1,-1,-1],"loss_changes":[1.3725226E2,4.5112503E1,5.9925354E1,1.3193451E1,1.5419678E1,1.9259415E1,2.3854279E1,0E0,0E0,0E0,0E0,0E0,0E0,0E0,0E0],"parents":[2147483647,0,0,1,1,2,2,3,3,4,4,5,5,6,6],"right_children":[2,4,6,8,10,12,14,-1,-1,-1,-1,-1,-1,-1,-1],"split_conditions":[1.5E1,1.2E1,-1.9E0,6E0,2.3E1,-4.3E0,2.4E1,-1.9389985E-3,8.846038E-5,-2.9859294E-3,-5.0401366E-3,1.257186E-4,-2.692923E-3,4.0946028E-4,2.5076324E-3],"split_indices":[51,80,77,77,80,25,51,0,0,0,0,0,0,0,0],"split_type":[0,0,0,0,0,0,0,0,0,0,0,0,0,0,0],"sum_hessian":[6.3270405E3,3.094833E3,3.2322075E3,1.4889635E3,1.6058694E3,1.0236508E3,2.2085566E3,1.02122125E3,4.677423E2,1.0342378E3,5.716316E2,3.9341934E2,6.302315E2,1.2558302E3,9.527264E2],"tree_param":{"num_deleted":"0","num_feature":"106","num_nodes":"15","size_leaf_vector":"1"}},{"base_weights":[1.0527689E-1,2.5576022E-1,-3.8845178E-2,1.3024616E-1,3.7198347E-1,1.6105701E-1,-1.3152944E-1,1.9389985E-3,-8.846036E-5,2.9859294E-3,5.0401366E-3,-1.2571826E-4,2.692923E-3,-4.0946013E-4,-2.5076326E-3],"categories":[],"categories_nodes":[],"categories_segments":[],"categories_sizes":[],"default_left":[0,0,0,0,0,0,0,0,0,0,0,0,0,0,0],"id":77,"left_children":[1,3,5,7,9,11,13,-1,-1,-1,-1,-1,-1,-1,-1],"loss_changes":[1.3725226E2,4.5112503E1,5.9925358E1,1.3193453E1,1.5419678E1,1.9259409E1,2.385429E1,0E0,0E0,0E0,0E0,0E0,0E0,0E0,0E0],