{"learner":{"attributes":{},"feature_names":[],"feature_types":[],"gradient_booster":{"model":{"gbtree_model_param":{"num_parallel_tree":"1","num_trees":"1500"},"iteration_indptr":[0,2,4,6,8,10,12,14,16,18,20,22,24,26,28,30,32,34,36,38,40,42,44,46,48,50,52,54,56,58,60,62,64,66,68,70,72,74,76,78,80,82,84,86,88,90,92,94,96,98,100,102,104,106,108,110,112,114,116,118,120,122,124,126,128,130,132,134,136,138,140,142,144,146,148,150,152,154,156,158,160,162,164,166,168,170,172,174,176,178,180,182,184,186,188,190,192,194,196,198,200,202,204,206,208,210,212,214,216,218,220,222,224,226,228,230,232,234,236,238,240,242,244,246,248,250,252,254,256,258,260,262,264,266,268,270,272,274,276,278,280,282,284,286,288,290,292,294,296,298,300,302,304,306,308,310,312,314,316,318,320,322,324,326,328,330,332,334,336,338,340,342,344,346,348,350,352,354,356,358,360,362,364,366,368,370,372,374,376,378,380,382,384,386,388,390,392,394,396,398,400,402,404,406,408,410,412,414,416,418,420,422,424,426,428,430,432,434,436,438,440,442,444,446,448,450,452,454,456,458,460,462,464,466,468,470,472,474,476,478,480,482,484,486,488,490,492,494,496,498,500,502,504,506,508,510,512,514,516,518,520,522,524,526,528,530,532,534,536,538,540,542,544,546,548,550,552,554,556,558,560,562,564,566,568,570,572,574,576,578,580,582,584,586,588,590,592,594,596,598,600,602,604,606,608,610,612,614,616,618,620,622,624,626,628,630,632,634,636,638,640,642,644,646,648,650,652,654,656,658,660,662,664,666,668,670,672,674,676,678,680,682,684,686,688,690,692,694,696,698,700,702,704,706,708,710,712,714,716,718,720,722,724,726,728,730,732,734,736,738,740,742,744,746,748,750,752,754,756,758,760,762,764,766,768,770,772,774,776,778,780,782,784,786,788,790,792,794,796,798,800,802,804,806,808,810,812,814,816,818,820,822,824,826,828,830,832,834,836,838,840,842,844,846,848,850,852,854,856,858,860,862,864,866,868,870,872,874,876,878,880,882,884,886,888,890,892,894,896,898,900,902,904,906,908,910,912,914,916,918,920,922,924,926,928,930,932,934,936,938,940,942,944,946,948,950,952,954,956,958,960,962,964,966,968,970,972,974,976,978,980,982,984,986,988,990,992,994,996,998,1000,1002,1004,1006,1008,1010,1012,1014,1016,1018,1020,1022,1024,1026,1028,1030,1032,1034,1036,1038,1040,1042,1044,1046,1048,1050,1052,1054,1056,1058,1060,1062,1064,1066,1068,1070,1072,1074,1076,1078,1080,1082,1084,1086,1088,1090,1092,1094,1096,1098,1100,1102,1104,1106,1108,1110,1112,1114,1116,1118,1120,1122,1124,1126,1128,1130,1132,1134,1136,1138,1140,1142,1144,1146,1148,1150,1152,1154,1156,1158,1160,1162,1164,1166,1168,1170,1172,1174,1176,1178,1180,1182,1184,1186,1188,1190,1192,1194,1196,1198,1200,1202,1204,1206,1208,1210,1212,1214,1216,1218,1220,1222,1224,1226,1228,1230,1232,1234,1236,1238,1240,1242,1244,1246,1248,1250,1252,1254,1256,1258,1260,1262,1264,1266,1268,1270,1272,1274,1276,1278,1280,1282,1284,1286,1288,1290,1292,1294,1296,1298,1300,1302,1304,1306,1308,1310,1312,1314,1316,1318,1320,1322,1324,1326,1328,1330,1332,1334,1336,1338,1340,1342,1344,1346,1348,1350,1352,1354,1356,1358,1360,1362,1364,1366,1368,1370,1372,1374,1376,1378,1380,1382,1384,1386,1388,1390,1392,1394,1396,1398,1400,1402,1404,1406,1408,1410,1412,1414,1416,1418,1420,1422,1424,1426,1428,1430,1432,1434,1436,1438,1440,1442,1444,1446,1448,1450,1452,1454,1456,1458,1460,1462,1464,1466,1468,1470,1472,1474,1476,1478,1480,1482,1484,1486,1488,1490,1492,1494,1496,1498,1500],"tree_info":[0,1,0,1,0,1,0,1,0,1,0,1,0,1,0,1,0,1,0,1,0,1,0,1,0,1,0,1,0,1,0,1,0,1,0,1,0,1,0,1,0,1,0,1,0,1,0,1,0,1,0,1,0,1,0,1,0,1,0,1,0,1,0,1,0,1,0,1,0,1,0,1,0,1,0,1,0,1,0,1,0,1,0,1,0,1,0,1,0,1,0,1,0,1,0,1,0,1,0,1,0,1,0,1,0,1,0,1,0,1,0,1,0,1,0,1,0,1,0,1,0,1,0,1,0,1,0,1,0,1,0,1,0,1,0,1,0,1,0,1,0,1,0,1,0,1,0,1,0,1,0,1,0,1,0,1,0,1,0,1,0,1,0,1,0,1,0,1,0,1,0,1,0,1,0,1,0,1,0,1,0,1,0,1,0,1,0,1,0,1,0,1,0,1,0,1,0,1,0,1,0,1,0,1,0,1,0,1,0,1,0,1,0,1,0,1,0,1,0,1,0,1,0,1,0,1,0,1,0,1,0,1,0,1,0,1,0,1,0,1,0,1,0,1,0,1,0,1,0,1,0,1,0,1,0,1,0,1,0,1,0,1,0,1,0,1,0,1,0,1,0,1,0,1,0,1,0,1,0,1,0,1,0,1,0,1,0,1,0,1,0,1,0,1,0,1,0,1,0,1,0,1,0,1,0,1,0,1,0,1,0,1,0,1,0,1,0,1,0,1,0,1,0,1,0,1,0,1,0,1,0,1,0,1,0,1,0,1,0,1,0,1,0,1,0,1,0,1,0,1,0,1,0,1,0,1,0,1,0,1,0,1,0,1,0,1,0,1,0,1,0,1,0,1,0,1,0,1,0,1,0,1,0,1,0,1,0,1,0,1,0,1,0,1,0,1,0,1,0,1,0,1,0,1,0,1,0,1,0,1,0,1,0,1,0,1,0,1,0,1,0,1,0,1,0,1,0,1,0,1,0,1,0,1,0,1,0,1,0,1,0,1,0,1,0,1,0,1,0,1,0,1,0,1,0,1,0,1,0,1,0,1,0,1,0,1,0,1,0,1,0,1,0,1,0,1,0,1,0,1,0,1,0,1,0,1,0,1,0,1,0,1,0,1,0,1,0,1,0,1,0,1,0,1,0,1,0,1,0,1,0,1,0,1,0,1,0,1,0,1,0,1,0,1,0,1,0,1,0,1,0,1,0,1,0,1,0,1,0,1,0,1,0,1,0,1,0,1,0,1,0,1,0,1,0,1,0,1,0,1,0,1,0,1,0,1,0,1,0,1,0,1,0,1,0,1,0,1,0,1,0,1,0,1,0,1,0,1,0,1,0,1,0,1,0,1,0,1,0,1,0,1,0,1,0,1,0,1,0,1,0,1,0,1,0,1,0,1,0,1,0,1,0,1,0,1,0,1,0,1,0,1,0,1,0,1,0,1,0,1,0,1,0,1,0,1,0,1,0,1,0,1,0,1,0,1,0,1,0,1,0,1,0,1,0,1,0,1,0,1,0,1,0,1,0,1,0,1,0,1,0,1,0,1,0,1,0,1,0,1,0,1,0,1,0,1,0,1,0,1,0,1,0,1,0,1,0,1,0,1,0,1,0,1,0,1,0,1,0,1,0,1,0,1,0,1,0,1,0,1,0,1,0,1,0,1,0,1,0,1,0,1,0,1,0,1,0,1,0,1,0,1,0,1,0,1,0,1,0,1,0,1,0,1,0,1,0,1,0,1,0,1,0,1,0,1,0,1,0,1,0,1,0,1,0,1,0,1,0,1,0,1,0,1,0,1,0,1,0,1,0,1,0,1,0,1,0,1,0,1,0,1,0,1,0,1,0,1,0,1,0,1,0,1,0,1,0,1,0,1,0,1,0,1,0,1,0,1,0,1,0,1,0,1,0,1,0,1,0,1,0,1,0,1,0,1,0,1,0,1,0,1,0,1,0,1,0,1,0,1,0,1,0,1,0,1,0,1,0,1,0,1,0,1,0,1,0,1,0,1,0,1,0,1,0,1,0,1,0,1,0,1,0,1,0,1,0,1,0,1,0,1,0,1,0,1,0,1,0,1,0,1,0,1,0,1,0,1,0,1,0,1,0,1,0,1,0,1,0,1,0,1,0,1,0,1,0,1,0,1,0,1,0,1,0,1,0,1,0,1,0,1,0,1,0,1,0,1,0,1,0,1,0,1,0,1,0,1,0,1,0,1,0,1,0,1,0,1,0,1,0,1,0,1,0,1,0,1,0,1,0,1,0,1,0,1,0,1,0,1,0,1,0,1,0,1,0,1,0,1,0,1,0,1,0,1,0,1,0,1,0,1,0,1,0,1,0,1,0,1,0,1,0,1,0,1,0,1,0,1,0,1,0,1,0,1,0,1,0,1,0,1,0,1,0,1,0,1,0,1,0,1,0,1,0,1,0,1,0,1,0,1,0,1,0,1,0,1,0,1,0,1,0,1,0,1,0,1,0,1,0,1,0,1,0,1,0,1,0,1,0,1,0,1,0,1,0,1,0,1,0,1,0,1,0,1,0,1,0,1,0,1,0,1,0,1,0,1,0,1,0,1,0,1,0,1,0,1,0,1,0,1,0,1,0,1,0,1,0,1,0,1,0,1,0,1,0,1,0,1,0,1,0,1,0,1,0,1,0,1,0,1,0,1,0,1,0,1,0,1,0,1,0,1,0,1,0,1,0,1,0,1,0,1,0,1,0,1,0,1,0,1,0,1,0,1,0,1,0,1,0,1,0,1,0,1,0,1,0,1,0,1,0,1,0,1,0,1,0,1,0,1,0,1,0,1,0,1,0,1,0,1,0,1,0,1,0,1,0,1,0,1,0,1,0,1,0,1,0,1,0,1,0,1,0,1,0,1,0,1,0,1,0,1,0,1,0,1,0,1,0,1,0,1,0,1,0,1,0,1,0,1,0,1,0,1,0,1,0,1,0,1,0,1,0,1,0,1,0,1,0,1,0,1,0,1,0,1,0,1,0,1,0,1,0,1,0,1,0,1,0,1,0,1,0,1,0,1,0,1,0,1,0,1,0,1,0,1,0,1,0,1,0,1,0,1,0,1,0,1,0,1,0,1,0,1,0,1,0,1,0,1,0,1,0,1,0,1,0,1,0,1,0,1,0,1,0,1,0,1,0,1,0,1,0,1,0,1,0,1,0,1,0,1,0,1,0,1,0,1,0,1,0,1,0,1,0,1,0,1,0,1,0,1,0,1,0,1,0,1,0,1,0,1,0,1,0,1,0,1,0,1,0,1,0,1,0,1,0,1,0,1,0,1,0,1,0,1,0,1,0,1,0,1,0,1,0,1,0,1,0,1,0,1,0,1,0,1,0,1,0,1,0,1,0,1,0,1,0,1],"trees":[{"base_weights":[-1.525134E-1,1.21256545E-1,-3.1390467E-1,-4.6251994E-2,3.0630234E-1,-1.5525644E-1,-4.940649E-1,1.4934498E-3,-2.102564E-3,4.6938774E-3,2.2786458E-3,-3.0713943E-3,-1.2589927E-4,-3.9890213E-3,-6.2289983E-3],"categories":[],"categories_nodes":[],"categories_segments":[],"categories_sizes":[],"default_left":[0,0,0,0,0,0,0,0,0,0,0,0,0,0,0],"id":0,"left_children":[1,3,5,7,9,11,13,-1,-1,-1,-1,-1,-1,-1,-1],"loss_changes":[2.843847E2,7.4018906E1,1.1565222E2,4.025817E1,1.4405624E1,4.6681168E1,2.2990906E1,0E0,0E0,0E0,0E0,0E0,0E0,0E0,0E0],"parents":[2147483647,0,0,1,1,2,2,3,3,4,4,5,5,6,6],"right_children":[2,4,6,8,10,12,14,-1,-1,-1,-1,-1,-1,-1,-1],"split_conditions":[4.59E-1,5.14E-1,1.4E1,-4.8E0,-6.2E0,9E0,2.3E1,1.4934498E-3,-2.102564E-3,4.6938774E-3,2.2786458E-3,-3.0713943E-3,-1.2589927E-4,-3.9890213E-3,-6.2289983E-3],"split_indices":[3,55,80,25,25,51,80,0,0,0,0,0,0,0,0],"split_type":[0,0,0,0,0,0,0,0,0,0,0,0,0,0,0],"sum_hessian":[6.4345E3,2.3865E3,4.048E3,1.253E3,1.1335E3,2.1535E3,1.8945E3,5.715E2,6.815E2,3.665E2,7.67E2,1.0425E3,1.111E3,1.092E3,8.025E2],"tree_param":{"num_deleted":"0","num_feature":"106","num_nodes":"15","size_leaf_vector":"1"}},{"base_weights":[1.525134E-1,-1.21256545E-1,3.1390467E-1,4.6251994E-2,-3.0630234E-1,1.5525644E-1,4.940649E-1,-1.4934498E-3,2.102564E-3,-4.6938774E-3,-2.2786458E-3,3.0713943E-3,1.2589927E-4,3.9890213E-3,6.2289983E-3],"categories":[],"categories_nodes":[],"categories_segments":[],"categories_sizes":[],"default_left":[0,0,0,0,0,0,0,0,0,0,0,0,0,0,0],"id":1,"left_children":[1,3,5,7,9,11,13,-1,-1,-1,-1,-1,-1,-1,-1],"loss_changes":[2.843847E2,7.4018906E1,1.1565222E2,4.025817E1,1.4405624E1,4.6681168E1,2.2990906E1,0E0,0E0,0E0,0E0,0E0,0E0,0E0,0E0],"parents":[2147483647,0,0,1,1,2,2,3,3,4,4,5,5,6,6],"right_children":[2,4,6,8,10,12,14,-1,-1,-1,-1,-1,-1,-1,-1],"split_conditions":[4.59E-1,5.14E-1,1.4E1,-4.8E0,-6.2E0,9E0,2.3E1,-1.4934498E-3,2.102564E-3,-4.6938774E-3,-2.2786458E-3,3.0713943E-3,1.2589927E-4,3.9890213E-3,6.2289983E-3],"split_indices":[3,55,80,25,25,51,80,0,0,0,0,0,0,0,0],"split_type":[0,0,0,0,0,0,0,0,0,0,0,0,0,0,0],"sum_hessian":[6.4345E3,2.3865E3,4.048E3,1.253E3,1.1335E3,2.1535E3,1.8945E3,5.715E2,6.815E2,3.665E2,7.67E2,1.0425E3,1.111E3,1.092E3,8.025E2],"tree_param":{"num_deleted":"0","num_feature":"106","num_nodes":"15","size_leaf_vector":"1"}},{"base_weights":[-1.5099113E-1,1.20047495E-1,-3.1077346E-1,-4.579011E-2,3.0324873E-1,-1.537061E-1,-4.891422E-1,1.4785446E-3,-2.0815781E-3,4.647169E-3,2.2559015E-3,-3.0407389E-3,-1.2464185E-4,-3.94923E-3,-6.1670253E-3],"categories":[],"categories_nodes":[],"categories_segments":[],"categories_sizes":[],"default_left":[0,0,0,0,0,0,0,0,0,0,0,0,0,0,0],"id":2,"left_children":[1,3,5,7,9,11,13,-1,-1,-1,-1,-1,-1,-1,-1],"loss_changes":[2.7873743E2,7.254959E1,1.1335962E2,3.9458443E1,1.4120949E1,4.575378E1,2.253717E1,0E0,0E0,0E0,0E0,0E0,0E0,0E0,0E0],"parents":[2147483647,0,0,1,1,2,2,3,3,4,4,5,5,6,6],"right_children":[2,4,6,8,10,12,14,-1,-1,-1,-1,-1,-1,-1,-1],"split_conditions":[4.59E-1,5.14E-1,1.4E1,-4.8E0,-6.2E0,9E0,2.3E1,1.4785446E-3,-2.0815781E-3,4.647169E-3,2.2559015E-3,-3.0407389E-3,-1.2464185E-4,-3.94923E-3,-6.1670253E-3],"split_indices":[3,55,80,25,25,51,80,0,0,0,0,0,0,0,0],"split_type":[0,0,0,0,0,0,0,0,0,0,0,0,0,0,0],"sum_hessian":[6.4344253E3,2.3864836E3,4.0479417E3,1.2529957E3,1.1334879E3,2.1534902E3,1.8944514E3,5.714987E2,6.81497E2,3.664919E2,7.6699603E2,1.0424901E3,1.111E3,1.0919825E3,8.024689E2],"tree_param":{"num_deleted":"0","num_feature":"106","num_nodes":"15","size_leaf_vector":"1"}},{"base_weights":[1.5099114E-1,-1.2004748E-1,3.1077346E-1,4.579009E-2,-3.032487E-1,1.5370606E-1,4.8914227E-1,-1.4785446E-3,2.081578E-3,-4.6471697E-3,-2.2559003E-3,3.040738E-3,1.2464156E-4,3.9492305E-3,6.1670267E-3],"categories":[],"categories_nodes":[],"categories_segments":[],"categories_sizes":[],"default_left":[0,0,0,0,0,0,0,0,0,0,0,0,0,0,0],"id":3,"left_children":[1,3,5,7,9,11,13,-1,-1,-1,-1,-1,-1,-1,-1],"loss_changes":[2.7873743E2,7.254957E1,1.1335962E2,3.9458435E1,1.4120979E1,4.5753754E1,2.2537231E1,0E0,0E0,0E0,0E0,0E0,0E0,0E0,0E0],"parents":[2147483647,0,0,1,1,2,2,3,3,4,4,5,5,6,6],"right_children":[2,4,6,8,10,12,14,-1,-1,-1,-1,-1,-1,-1,-1],"split_conditions":[4.59E-1,5.14E-1,1.4E1,-4.8E0,-6.2E0,9E0,2.3E1,-1.4785446E-3,2.081578E-3,-4.6471697E-3,-2.2559003E-3,3.040738E-3,1.2464156E-4,3.9492305E-3,6.1670267E-3],"split_indices":[3,55,80,25,25,51,80,0,0,0,0,0,0,0,0],"split_type":[0,0,0,0,0,0,0,0,0,0,0,0,0,0,0],"sum_hessian":[6.4344253E3,2.3864836E3,4.0479417E3,1.2529957E3,1.1334879E3,2.1534902E3,1.8944515E3,5.714987E2,6.81497E2,3.6649188E2,7.6699603E2,1.0424902E3,1.111E3,1.0919827E3,8.024689E2],"tree_param":{"num_deleted":"0","num_feature":"106","num_nodes":"15","size_leaf_vector":"1"}},{"base_weights":[-1.494875E-1,1.1885206E-1,-3.076822E-1,-1.3468784E-1,2.371051E-1,-1.5217254E-1,-4.8429295E-1,5.886693E-4,-2.8985578E-3,3.928161E-3,1.4540771E-3,-3.0104446E-3,-1.2339605E-4,-3.9099585E-3,-6.106136E-3],"categories":[],"categories_nodes":[],"categories_segments":[],"categories_sizes":[],"default_left":[0,0,0,0,0,0,0,0,0,0,0,0,0,0,0],"id":4,"left_children":[1,3,5,7,9,11,13,-1,-1,-1,-1,-1,-1,-1,-1],"loss_changes":[2.732103E2,7.1611694E1,1.1112442E2,2.2842186E1,2.319432E1,4.484613E1,2.2098114E1,0E0,0E0,0E0,0E0,0E0,0E0,0E0,0E0],"parents":[2147483647,0,0,1,1,2,2,3,3,4,4,5,5,6,6],"right_children":[2,4,6,8,10,12,14,-1,-1,-1,-1,-1,-1,-1,-1],"split_conditions":[4.59E-1,-2E0,1.4E1,-4.8E0,-5.9E0,9E0,2.3E1,5.886693E-4,-2.8985578E-3,3.928161E-3,1.4540771E-3,-3.0104446E-3,-1.2339605E-4,-3.9099585E-3,-6.106136E-3],"split_indices":[3,77,80,25,25,51,80,0,0,0,0,0,0,0,0],"split_type":[0,0,0,0,0,0,0,0,0,0,0,0,0,0,0],"sum_hessian":[6.434204E3,2.3864353E3,4.047769E3,7.5898914E2,1.6274462E3,2.1534612E3,1.894308E3,3.3799652E2,4.2099258E2,6.0196594E2,1.0254801E3,1.042461E3,1.111E3,1.0919313E3,8.023767E2],"tree_param":{"num_deleted":"0","num_feature":"106","num_nodes":"15","size_leaf_vector":"1"}},{"base_weights":[1.4948751E-1,-1.1885208E-1,3.0768225E-1,1.346878E-1,-2.3710512E-1,1.5217257E-1,4.84293E-1,-5.886693E-4,2.8985569E-3,-3.928161E-3,-1.4540772E-3,3.0104455E-3,1.2339576E-4,3.9099595E-3,6.106136E-3],"categories":[],"categories_nodes":[],"categories_segments":[],"categories_sizes":[],"default_left":[0,0,0,0,0,0,0,0,0,0,0,0,0,0,0],"id":5,"left_children":[1,3,5,7,9,11,13,-1,-1,-1,-1,-1,-1,-1,-1],"loss_changes":[2.732104E2,7.161168E1,1.1112448E2,2.2842182E1,2.319432E1,4.4846157E1,2.2098053E1,0E0,0E0,0E0,0E0,0E0,0E0,0E0,0E0],"parents":[2147483647,0,0,1,1,2,2,3,3,4,4,5,5,6,6],"right_children":[2,4,6,8,10,12,14,-1,-1,-1,-1,-1,-1,-1,-1],"split_conditions":[4.59E-1,-2E0,1.4E1,-4.8E0,-5.9E0,9E0,2.3E1,-5.886693E-4,2.8985569E-3,-3.928161E-3,-1.4540772E-3,3.0104455E-3,1.2339576E-4,3.9099595E-3,6.106136E-3],"split_indices":[3,77,80,25,25,51,80,0,0,0,0,0,0,0,0],"split_type":[0,0,0,0,0,0,0,0,0,0,0,0,0,0,0],"sum_hessian":[6.434204E3,2.3864353E3,4.0477688E3,7.5898914E2,1.6274462E3,2.153461E3,1.8943079E3,3.3799652E2,4.2099258E2,6.0196594E2,1.0254802E3,1.042461E3,1.1109999E3,1.0919312E3,8.023767E2],"tree_param":{"num_deleted":"0","num_feature":"106","num_nodes":"15","size_leaf_vector":"1"}},{"base_weights":[-1.4800231E-1,1.1766807E-1,-3.0463016E-1,-4.5528855E-2,2.979606E-1,-4.4339004E-1,-1.1011468E-1,1.4455342E-3,-2.0490969E-3,4.5628953E-3,2.2182015E-3,-3.601034E-3,-6.0462942E-3,-2.557093E-3,5.452996E-4],"categories":[],"categories_nodes":[],"categories_segments":[],"categories_sizes":[],"default_left":[0,0,0,0,0,0,0,0,0,0,0,0,0,0,0],"id":6,"left_children":[1,3,5,7,9,11,13,-1,-1,-1,-1,-1,-1,-1,-1],"loss_changes":[2.6779907E2,7.0257614E1,1.092236E2,3.8019012E1,1.3574333E1,3.1509277E1,4.0451866E1,0E0,0E0,0E0,0E0,0E0,0E0,0E0,0E0],"parents":[2147483647,0,0,1,1,2,2,3,3,4,4,5,5,6,6],"right_children":[2,4,6,8,10,12,14,-1,-1,-1,-1,-1,-1,-1,-1],"split_conditions":[4.59E-1,5.14E-1,1.6E0,-4.8E0,-6.2E0,2.3E1,1E1,1.4455342E-3,-2.0490969E-3,4.5628953E-3,2.2182015E-3,-3.601034E-3,-6.0462942E-3,-2.557093E-3,5.452996E-4],"split_indices":[3,55,77,25,25,80,51,0,0,0,0,0,0,0,0],"split_type":[0,0,0,0,0,0,0,0,0,0,0,0,0,0,0],"sum_hessian":[6.4338555E3,2.38637E3,4.047485E3,1.2529628E3,1.1334073E3,2.3615598E3,1.6859254E3,5.714854E2,6.8147736E2,3.6643594E2,7.6697144E2,1.5593345E3,8.022254E2,8.9443066E2,7.9149475E2],"tree_param":{"num_deleted":"0","num_feature":"106","num_nodes":"15","size_leaf_vector":"1"}},{"base_weights":[1.4800231E-1,-1.17668055E-1,3.0463016E-1,4.552887E-2,-2.979606E-1,4.4339E-1,1.1011467E-1,-1.4455343E-3,2.0490973E-3,-4.5628943E-3,-2.2182018E-3,3.601034E-3,6.046294E-3,2.5570928E-3,-5.452993E-4],"categories":[],"categories_nodes":[],"categories_segments":[],"categories_sizes":[],"default_left":[0,0,0,0,0,0,0,0,0,0,0,0,0,0,0],"id":7,"left_children":[1,3,5,7,9,11,13,-1,-1,-1,-1,-1,-1,-1,-1],"loss_changes":[2.6779907E2,7.0257614E1,1.092236E2,3.8019024E1,1.3574318E1,3.1509277E1,4.0451855E1,0E0,0E0,0E0,0E0,0E0,0E0,0E0,0E0],"parents":[2147483647,0,0,1,1,2,2,3,3,4,4,5,5,6,6],"right_children":[2,4,6,8,10,12,14,-1,-1,-1,-1,-1,-1,-1,-1],"split_conditions":[4.59E-1,5.14E-1,1.6E0,-4.8E0,-6.2E0,2.3E1,1E1,-1.4455343E-3,2.0490973E-3,-4.5628943E-3,-2.2182018E-3,3.601034E-3,6.046294E-3,2.5570928E-3,-5.452993E-4],"split_indices":[3,55,77,25,25,80,51,0,0,0,0,0,0,0,0],"split_type":[0,0,0,0,0,0,0,0,0,0,0,0,0,0,0],"sum_hessian":[6.4338555E3,2.38637E3,4.047485E3,1.2529628E3,1.1334073E3,2.3615598E3,1.6859254E3,5.714854E2,6.814773E2,3.6643594E2,7.6697144E2,1.5593345E3,8.0222534E2,8.944306E2,7.914948E2],"tree_param":{"num_deleted":"0","num_feature":"106","num_nodes":"15","size_leaf_vector":"1"}},{"base_weights":[-1.4653422E-1,-3.5115966E-1,5.330999E-2,-1.9550008E-1,-5.1272494E-1,-2.0737582E-1,1.7562513E-1,-2.9157922E-3,-3.152127E-4,-4.1589807E-3,-6.6088596E-3,4.1224653E-4,-3.3869906E-3,5.7755905E-4,3.2641527E-3],"categories":[],"categories_nodes":[],"categories_segments":[],"categories_sizes":[],"default_left":[0,0,0,0,0,0,0,0,0,0,0,0,0,0,0],"id":8,"left_children":[1,3,5,7,9,11,13,-1,-1,-1,-1,-1,-1,-1,-1],"loss_changes":[2.6314093E2,7.985623E1,1.0385938E2,2.5527275E1,2.209674E1,3.3977364E1,3.9380836E1,0E0,0E0,0E0,0E0,0E0,0E0,0E0,0E0],"parents":[2147483647,0,0,1,1,2,2,3,3,4,4,5,5,6,6],"right_children":[2,4,6,8,10,12,14,-1,-1,-1,-1,-1,-1,-1,-1],"split_conditions":[1.5E1,1.3E1,-1.9E0,5.1E0,2.3E1,-4.8E0,2.4E1,-2.9157922E-3,-3.152127E-4,-4.1589807E-3,-6.6088596E-3,4.1224653E-4,-3.3869906E-3,5.7755905E-4,3.2641527E-3],"split_indices":[51,80,77,77,80,25,51,0,0,0,0,0,0,0,0],"split_type":[0,0,0,0,0,0,0,0,0,0,0,0,0,0,0],"sum_hessian":[6.433374E3,3.1782886E3,3.2550854E3,1.6198545E3,1.5584341E3,1.0393217E3,2.215764E3,1.02090405E3,5.9895044E2,9.4479474E2,6.1363934E2,3.5948587E2,6.798358E2,1.2444155E3,9.713483E2],"tree_param":{"num_deleted":"0","num_feature":"106","num_nodes":"15","size_leaf_vector":"1"}},{"base_weights":[1.465342E-1,3.5115963E-1,-5.331002E-2,1.9550005E-1,5.1272494E-1,2.0737576E-1,-1.7562516E-1,2.9157917E-3,3.1521244E-4,4.1589807E-3,6.6088596E-3,-4.122474E-4,3.3869902E-3,-5.7755917E-4,-3.2641531E-3],"categories":[],"categories_nodes":[],"categories_segments":[],"categories_sizes":[],"default_left":[0,0,0,0,0,0,0,0,0,0,0,0,0,0,0],"id":9,"left_children":[1,3,5,7,9,11,13,-1,-1,-1,-1,-1,-1,-1,-1],"loss_changes":[2.6314093E2,7.985629E1,1.0385936E2,2.5527287E1,2.209674E1,3.3977375E1,3.9380844E1,0E0,0E0,0E0,0E0,0E0,0E0,0E0,0E0],"parents":[2147483647,0,0,1,1,2,2,3,3,4,4,5,5,6,6],"right_children":[2,4,6,8,10,12,14,-1,-1,-1,-1,-1,-1,-1,-1],"split_conditions":[1.5E1,1.3E1,-1.9E0,5.1E0,2.3E1,-4.8E0,2.4E1,2.9157917E-3,3.1521244E-4,4.1589807E-3,6.6088596E-3,-4.122474E-4,3.3869902E-3,-5.7755917E-4,-3.2641531E-3],"split_indices":[51,80,77,77,80,25,51,0,0,0,0,0,0,0,0],"split_type":[0,0,0,0,0,0,0,0,0,0,0,0,0,0,0],"sum_hessian":[6.433374E3,3.1782886E3,3.2550854E3,1.6198545E3,1.5584341E3,1.0393217E3,2.215764E3,1.020904E3,5.9895044E2,9.4479474E2,6.1363934E2,3.5948584E2,6.798359E2,1.2444155E3,9.7134827E2],"tree_param":{"num_deleted":"0","num_feature":"106","num_nodes":"15","size_leaf_vector":"1"}},{"base_weights":[-1.4508368E-1,1.15721084E-1,-2.9886028E-1,-4.4786654E-2,2.9305467E-1,-4.3520758E-1,-1.0777629E-1,1.415561E-3,-2.0103613E-3,4.487084E-3,2.182156E-3,-3.535968E-3,-5.932645E-3,-2.513549E-3,5.457266E-4],"categories":[],"categories_nodes":[],"categories_segments":[],"categories_sizes":[],"default_left":[0,0,0,0,0,0,0,0,0,0,0,0,0,0,0],"id":10,"left_children":[1,3,5,7,9,11,13,-1,-1,-1,-1,-1,-1,-1,-1],"loss_changes":[2.5806708E2,6.7959625E1,1.0540997E2,3.6536625E1,1.3115105E1,3.0255768E1,3.9333607E1,0E0,0E0,0E0,0E0,0E0,0E0,0E0,0E0],"parents":[2147483647,0,0,1,1,2,2,3,3,4,4,5,5,6,6],"right_children":[2,4,6,8,10,12,14,-1,-1,-1,-1,-1,-1,-1,-1],"split_conditions":[4.59E-1,5.14E-1,1.6E0,-4.8E0,-6.2E0,2.3E1,1E1,1.415561E-3,-2.0103613E-3,4.487084E-3,2.182156E-3,-3.535968E-3,-5.932645E-3,-2.513549E-3,5.457266E-4],"split_indices":[3,55,77,25,25,80,51,0,0,0,0,0,0,0,0],"split_type":[0,0,0,0,0,0,0,0,0,0,0,0,0,0,0],"sum_hessian":[6.432815E3,2.3861526E3,4.046662E3,1.2528885E3,1.133264E3,2.3608257E3,1.6858365E3,5.714603E2,6.8142816E2,3.663391E2,7.669249E2,1.5590607E3,8.01765E2,8.94345E2,7.914915E2],"tree_param":{"num_deleted":"0","num_feature":"106","num_nodes":"15","size_leaf_vector":"1"}},{"base_weights":[1.450837E-1,-1.15721084E-1,2.9886028E-1,4.4786666E-2,-2.9305467E-1,4.352076E-1,1.0777628E-1,-1.4155614E-3,2.010362E-3,-4.487084E-3,-2.182156E-3,3.5359683E-3,5.932645E-3,2.5135486E-3,-5.457267E-4],"categories":[],"categories_nodes":[],"categories_segments":[],"categories_sizes":[],"default_left":[0,0,0,0,0,0,0,0,0,0,0,0,0,0,0],"id":11,"left_children":[1,3,5,7,9,11,13,-1,-1,-1,-1,-1,-1,-1,-1],"loss_changes":[2.5806708E2,6.795964E1,1.05410095E2,3.6536648E1,1.3115112E1,3.0255707E1,3.93336E1,0E0,0E0,0E0,0E0,0E0,0E0,0E0,0E0],"parents":[2147483647,0,0,1,1,2,2,3,3,4,4,5,5,6,6],"right_children":[2,4,6,8,10,12,14,-1,-1,-1,-1,-1,-1,-1,-1],"split_conditions":[4.59E-1,5.14E-1,1.6E0,-4.8E0,-6.2E0,2.3E1,1E1,-1.4155614E-3,2.010362E-3,-4.487084E-3,-2.182156E-3,3.5359683E-3,5.932645E-3,2.5135486E-3,-5.457267E-4],"split_indices":[3,55,77,25,25,80,51,0,0,0,0,0,0,0,0],"split_type":[0,0,0,0,0,0,0,0,0,0,0,0,0,0,0],"sum_hessian":[6.432815E3,2.3861526E3,4.046662E3,1.2528885E3,1.133264E3,2.3608257E3,1.6858364E3,5.714603E2,6.8142816E2,3.6633914E2,7.669249E2,1.5590607E3,8.01765E2,8.94345E2,7.914915E2],"tree_param":{"num_deleted":"0","num_feature":"106","num_nodes":"15","size_leaf_vector":"1"}},{"base_weights":[-1.4365011E-1,-3.446772E-1,5.2650295E-2,-1.9167936E-1,-5.035389E-1,-2.0366196E-1,1.7290422E-1,-2.8654914E-3,-2.9779022E-4,-4.085402E-3,-6.489714E-3,3.9548718E-4,-3.3216586E-3,5.7322707E-4,3.2078777E-3],"categories":[],"categories_nodes":[],"categories_segments":[],"categories_sizes":[],"default_left":[0,0,0,0,0,0,0,0,0,0,0,0,0,0,0],"id":12,"left_children":[1,3,5,7,9,11,13,-1,-1,-1,-1,-1,-1,-1,-1],"loss_changes":[2.5387868E2,7.715637E1,1.00383446E2,2.4884567E1,2.1269836E1,3.2521103E1,3.786802E1,0E0,0E0,0E0,0E0,0E0,0E0,0E0,0E0],"parents":[2147483647,0,0,1,1,2,2,3,3,4,4,5,5,6,6],"right_children":[2,4,6,8,10,12,14,-1,-1,-1,-1,-1,-1,-1,-1],"split_conditions":[1.5E1,1.3E1,-1.9E0,5.1E0,2.3E1,-4.8E0,2.4E1,-2.8654914E-3,-2.9779022E-4,-4.085402E-3,-6.489714E-3,3.9548718E-4,-3.3216586E-3,5.7322707E-4,3.2078777E-3],"split_indices":[51,80,77,77,80,25,51,0,0,0,0,0,0,0,0],"split_type":[0,0,0,0,0,0,0,0,0,0,0,0,0,0,0],"sum_hessian":[6.432087E3,3.1774114E3,3.2546755E3,1.619702E3,1.5577095E3,1.0391377E3,2.2155378E3,1.0207793E3,5.9892267E2,9.4453467E2,6.131748E2,3.5947525E2,6.796624E2,1.2443655E3,9.711724E2],"tree_param":{"num_deleted":"0","num_feature":"106","num_nodes":"15","size_leaf_vector":"1"}},{"base_weights":[1.4365011E-1,3.4467718E-1,-5.2650295E-2,1.9167936E-1,5.0353885E-1,2.0366196E-1,-1.7290422E-1,2.8654912E-3,2.9779057E-4,4.0854015E-3,6.489714E-3,-3.9548794E-4,3.3216588E-3,-5.732272E-4,-3.2078775E-3],"categories":[],"categories_nodes":[],"categories_segments":[],"categories_sizes":[],"default_left":[0,0,0,0,0,0,0,0,0,0,0,0,0,0,0],"id":13,"left_children":[1,3,5,7,9,11,13,-1,-1,-1,-1,-1,-1,-1,-1],"loss_changes":[2.5387868E2,7.715631E1,1.00383446E2,2.4884552E1,2.1269897E1,3.252112E1,3.7868004E1,0E0,0E0,0E0,0E0,0E0,0E0,0E0,0E0],"parents":[2147483647,0,0,1,1,2,2,3,3,4,4,5,5,6,6],"right_children":[2,4,6,8,10,12,14,-1,-1,-1,-1,-1,-1,-1,-1],"split_conditions":[1.5E1,1.3E1,-1.9E0,5.1E0,2.3E1,-4.8E0,2.4E1,2.8654912E-3,2.9779057E-4,4.0854015E-3,6.489714E-3,-3.9548794E-4,3.3216588E-3,-5.732272E-4,-3.2078775E-3],"split_indices":[51,80,77,77,80,25,51,0,0,0,0,0,0,0,0],"split_type":[0,0,0,0,0,0,0,0,0,0,0,0,0,0,0],"sum_hessian":[6.432087E3,3.1774116E3,3.2546755E3,1.619702E3,1.5577095E3,1.0391377E3,2.2155378E3,1.02077936E3,5.9892267E2,9.4453467E2,6.1317487E2,3.5947522E2,6.796624E2,1.2443655E3,9.711725E2],"tree_param":{"num_deleted":"0","num_feature":"106","num_nodes":"15","size_leaf_vector":"1"}},{"base_weights":[-1.4223354E-1,-3.4129837E-1,5.2127477E-2,-1.8977481E-1,-4.986714E-1,-2.0164801E-1,1.7118554E-1,-2.8370991E-3,-2.9481936E-4,-4.0453854E-3,-6.4282482E-3,3.915457E-4,-3.2889757E-3,5.674998E-4,3.1761942E-3],"categories":[],"categories_nodes":[],"categories_segments":[],"categories_sizes":[],"default_left":[0,0,0,0,0,0,0,0,0,0,0,0,0,0,0],"id":14,"left_children":[1,3,5,7,9,11,13,-1,-1,-1,-1,-1,-1,-1,-1],"loss_changes":[2.4888579E2,7.568286E1,9.8395134E1,2.4393436E1,2.0884155E1,3.188168E1,3.7123177E1,0E0,0E0,0E0,0E0,0E0,0E0,0E0,0E0],"parents":[2147483647,0,0,1,1,2,2,3,3,4,4,5,5,6,6],"right_children":[2,4,6,8,10,12,14,-1,-1,-1,-1,-1,-1,-1,-1],"split_conditions":[1.5E1,1.3E1,-1.9E0,5.1E0,2.3E1,-4.8E0,2.4E1,-2.8370991E-3,-2.9481936E-4,-4.0453854E-3,-6.4282482E-3,3.915457E-4,-3.2889757E-3,5.674998E-4,3.1761942E-3],"split_indices":[51,80,77,77,80,25,51,0,0,0,0,0,0,0,0],"split_type":[0,0,0,0,0,0,0,0,0,0,0,0,0,0,0],"sum_hessian":[6.431286E3,3.1768232E3,3.2544631E3,1.6196147E3,1.5572084E3,1.039036E3,2.215427E3,1.02069525E3,5.9891956E2,9.4434985E2,6.128586E2,3.5947342E2,6.7956256E2,1.244365E3,9.710622E2],"tree_param":{"num_deleted":"0","num_feature":"106","num_nodes":"15","size_leaf_vector":"1"}},{"base_weights":[1.4223355E-1,3.4129837E-1,-5.2127447E-2,1.897748E-1,4.9867144E-1,2.0164801E-1,-1.711855E-1,2.8370991E-3,2.9481942E-4,4.0453854E-3,6.428249E-3,-3.9154565E-4,3.2889757E-3,-5.674995E-4,-3.1761937E-3],"categories":[],"categories_nodes":[],"categories_segments":[],"categories_sizes":[],"default_left":[0,0,0,0,0,0,0,0,0,0,0,0,0,0,0],"id":15,"left_children":[1,3,5,7,9,11,13,-1,-1,-1,-1,-1,-1,-1,-1],"loss_changes":[2.4888579E2,7.568289E1,9.839511E1,2.439344E1,2.0884186E1,3.1881683E1,3.712319E1,0E0,0E0,0E0,0E0,0E0,0E0,0E0,0E0],"parents":[2147483647,0,0,1,1,2,2,3,3,4,4,5,5,6,6],"right_children":[2,4,6,8,10,12,14,-1,-1,-1,-1,-1,-1,-1,-1],"split_conditions":[1.5E1,1.3E1,-1.9E0,5.1E0,2.3E1,-4.8E0,2.4E1,2.8370991E-3,2.9481942E-4,4.0453854E-3,6.428249E-3,-3.9154565E-4,3.2889757E-3,-5.674995E-4,-3.1761937E-3],"split_indices":[51,80,77,77,80,25,51,0,0,0,0,0,0,0,0],"split_type":[0,0,0,0,0,0,0,0,0,0,0,0,0,0,0],"sum_hessian":[6.4312866E3,3.1768232E3,3.2544631E3,1.6196149E3,1.5572084E3,1.039036E3,2.2154272E3,1.02069525E3,5.9891956E2,9.4434985E2,6.128586E2,3.5947342E2,6.7956256E2,1.244365E3,9.7106213E2],"tree_param":{"num_deleted":"0","num_feature":"106","num_nodes":"15","size_leaf_vector":"1"}},{"base_weights":[-1.4083375E-1,1.130563E-1,-2.9057264E-1,-4.3780133E-2,2.86354E-1,-4.2357522E-1,-1.0429042E-1,1.3711789E-3,-1.9547723E-3,4.3832213E-3,2.1331713E-3,-3.4440532E-3,-5.770437E-3,-2.4533868E-3,5.5166206E-4],"categories":[],"categories_nodes":[],"categories_segments":[],"categories_sizes":[],"default_left":[0,0,0,0,0,0,0,0,0,0,0,0,0,0,0],"id":16,"left_children":[1,3,5,7,9,11,13,-1,-1,-1,-1,-1,-1,-1,-1],"loss_changes":[2.4453523E2,6.4879845E1,1.0019272E2,3.443011E1,1.2492508E1,2.8476593E1,3.794767E1,0E0,0E0,0E0,0E0,0E0,0E0,0E0,0E0],"parents":[2147483647,0,0,1,1,2,2,3,3,4,4,5,5,6,6],"right_children":[2,4,6,8,10,12,14,-1,-1,-1,-1,-1,-1,-1,-1],"split_conditions":[4.59E-1,5.14E-1,1.6E0,-4.8E0,-6.2E0,2.3E1,1E1,1.3711789E-3,-1.9547723E-3,4.3832213E-3,2.1331713E-3,-3.4440532E-3,-5.770437E-3,-2.4533868E-3,5.5166206E-4],"split_indices":[3,55,77,25,25,80,51,0,0,0,0,0,0,0,0],"split_type":[0,0,0,0,0,0,0,0,0,0,0,0,0,0,0],"sum_hessian":[6.43036E3,2.3856357E3,4.044724E3,1.2526869E3,1.1329489E3,2.3590942E3,1.68563E3,5.7139606E2,6.8129083E2,3.66133E2,7.6681586E2,1.5584036E3,8.006907E2,8.9415845E2,7.9147156E2],"tree_param":{"num_deleted":"0","num_feature":"106","num_nodes":"15","size_leaf_vector":"1"}},{"base_weights":[1.4083374E-1,-1.1305632E-1,2.905726E-1,4.3780096E-2,-2.86354E-1,4.235752E-1,1.04290426E-1,-1.3711795E-3,1.9547718E-3,-4.3832213E-3,-2.1331713E-3,3.4440532E-3,5.770436E-3,2.4533868E-3,-5.5166177E-4],"categories":[],"categories_nodes":[],"categories_segments":[],"categories_sizes":[],"default_left":[0,0,0,0,0,0,0,0,0,0,0,0,0,0,0],"id":17,"left_children":[1,3,5,7,9,11,13,-1,-1,-1,-1,-1,-1,-1,-1],"loss_changes":[2.4453525E2,6.487984E1,1.0019275E2,3.443011E1,1.2492516E1,2.8476593E1,3.7947655E1,0E0,0E0,0E0,0E0,0E0,0E0,0E0,0E0],"parents":[2147483647,0,0,1,1,2,2,3,3,4,4,5,5,6,6],"right_children":[2,4,6,8,10,12,14,-1,-1,-1,-1,-1,-1,-1,-1],"split_conditions":[4.59E-1,5.14E-1,1.6E0,-4.8E0,-6.2E0,2.3E1,1E1,-1.3711795E-3,1.9547718E-3,-4.3832213E-3,-2.1331713E-3,3.4440532E-3,5.770436E-3,2.4533868E-3,-5.5166177E-4],"split_indices":[3,55,77,25,25,80,51,0,0,0,0,0,0,0,0],"split_type":[0,0,0,0,0,0,0,0,0,0,0,0,0,0,0],"sum_hessian":[6.43036E3,2.3856357E3,4.044724E3,1.2526869E3,1.1329489E3,2.359094E3,1.68563E3,5.7139606E2,6.8129083E2,3.66133E2,7.668158E2,1.5584034E3,8.006906E2,8.941585E2,7.9147156E2],"tree_param":{"num_deleted":"0","num_feature":"106","num_nodes":"15","size_leaf_vector":"1"}},{"base_weights":[-1.394495E-1,-3.3504882E-1,5.1480617E-2,-1.8607226E-1,-4.8986733E-1,-1.9805221E-1,1.6853523E-1,-2.7883765E-3,-2.7800555E-4,-3.9744214E-3,-6.315115E-3,3.7539113E-4,-3.2258944E-3,5.631448E-4,3.121675E-3],"categories":[],"categories_nodes":[],"categories_segments":[],"categories_sizes":[],"default_left":[0,0,0,0,0,0,0,0,0,0,0,0,0,0,0],"id":18,"left_children":[1,3,5,7,9,11,13,-1,-1,-1,-1,-1,-1,-1,-1],"loss_changes":[2.4016193E2,7.317136E1,9.510432E1,2.3782818E1,2.0133362E1,3.0518665E1,3.570252E1,0E0,0E0,0E0,0E0,0E0,0E0,0E0,0E0],"parents":[2147483647,0,0,1,1,2,2,3,3,4,4,5,5,6,6],"right_children":[2,4,6,8,10,12,14,-1,-1,-1,-1,-1,-1,-1,-1],"split_conditions":[1.5E1,1.3E1,-1.9E0,5.1E0,2.3E1,-4.8E0,2.4E1,-2.7883765E-3,-2.7800555E-4,-3.9744214E-3,-6.315115E-3,3.7539113E-4,-3.2258944E-3,5.631448E-4,3.121675E-3],"split_indices":[51,80,77,77,80,25,51,0,0,0,0,0,0,0,0],"split_type":[0,0,0,0,0,0,0,0,0,0,0,0,0,0,0],"sum_hessian":[6.429298E3,3.1754436E3,3.2538542E3,1.6193755E3,1.5560681E3,1.0387635E3,2.2150908E3,1.0204897E3,5.9888586E2,9.4393835E2,6.1212976E2,3.594598E2,6.793037E2,1.2443021E3,9.707887E2],"tree_param":{"num_deleted":"0","num_feature":"106","num_nodes":"15","size_leaf_vector":"1"}},{"base_weights":[1.3944948E-1,3.3504882E-1,-5.1480643E-2,1.8607225E-1,4.8986733E-1,1.9805217E-1,-1.6853525E-1,2.788376E-3,2.7800535E-4,3.9744214E-3,6.315115E-3,-3.7539142E-4,3.225894E-3,-5.631451E-4,-3.121675E-3],"categories":[],"categories_nodes":[],"categories_segments":[],"categories_sizes":[],"default_left":[0,0,0,0,0,0,0,0,0,0,0,0,0,0,0],"id":19,"left_children":[1,3,5,7,9,11,13,-1,-1,-1,-1,-1,-1,-1,-1],"loss_changes":[2.4016193E2,7.317139E1,9.51043E1,2.3782822E1,2.0133362E1,3.0518661E1,3.570252E1,0E0,0E0,0E0,0E0,0E0,0E0,0E0,0E0],"parents":[2147483647,0,0,1,1,2,2,3,3,4,4,5,5,6,6],"right_children":[2,4,6,8,10,12,14,-1,-1,-1,-1,-1,-1,-1,-1],"split_conditions":[1.5E1,1.3E1,-1.9E0,5.1E0,2.3E1,-4.8E0,2.4E1,2.788376E-3,2.7800535E-4,3.9744214E-3,6.315115E-3,-3.7539142E-4,3.225894E-3,-5.631451E-4,-3.121675E-3],"split_indices":[51,80,77,77,80,25,51,0,0,0,0,0,0,0,0],"split_type":[0,0,0,0,0,0,0,0,0,0,0,0,0,0,0],"sum_hessian":[6.429298E3,3.1754436E3,3.2538545E3,1.6193755E3,1.5560681E3,1.0387635E3,2.2150908E3,1.0204897E3,5.988858E2,9.4393835E2,6.1212976E2,3.5945984E2,6.793037E2,1.2443021E3,9.7078876E2],"tree_param":{"num_deleted":"0","num_feature":"106","num_nodes":"15","size_leaf_vector":"1"}},{"base_weights":[-1.380819E-1,1.1119858E-1,-2.8513682E-1,-4.307234E-2,2.816821E-1,-1.3999295E-1,-4.5025915E-1,1.342808E-3,-1.9180828E-3,4.3116617E-3,2.0986698E-3,-2.8174892E-3,-6.9182985E-5,-3.6454236E-3,-5.6655193E-3],"categories":[],"categories_nodes":[],"categories_segments":[],"categories_sizes":[],"default_left":[0,0,0,0,0,0,0,0,0,0,0,0,0,0,0],"id":20,"left_children":[1,3,5,7,9,11,13,-1,-1,-1,-1,-1,-1,-1,-1],"loss_changes":[2.3571103E2,6.2769943E1,9.6856995E1,3.3091938E1,1.2079552E1,4.062459E1,1.864679E1,0E0,0E0,0E0,0E0,0E0,0E0,0E0,0E0],"parents":[2147483647,0,0,1,1,2,2,3,3,4,4,5,5,6,6],"right_children":[2,4,6,8,10,12,14,-1,-1,-1,-1,-1,-1,-1,-1],"split_conditions":[4.59E-1,5.14E-1,1.4E1,-4.8E0,-6.2E0,9E0,2.3E1,1.342808E-3,-1.9180828E-3,4.3116617E-3,2.0986698E-3,-2.8174892E-3,-6.9182985E-5,-3.6454236E-3,-5.6655193E-3],"split_indices":[3,55,80,25,25,51,80,0,0,0,0,0,0,0,0],"split_type":[0,0,0,0,0,0,0,0,0,0,0,0,0,0,0],"sum_hessian":[6.428151E3,2.3851694E3,4.0429812E3,1.2525142E3,1.1326554E3,2.1526404E3,1.8903408E3,5.713418E2,6.811723E2,3.6594095E2,7.667145E2,1.0417805E3,1.1108599E3,1.090611E3,7.997298E2],"tree_param":{"num_deleted":"0","num_feature":"106","num_nodes":"15","size_leaf_vector":"1"}},{"base_weights":[1.380819E-1,-1.1119857E-1,2.8513682E-1,4.3072324E-2,-2.8168207E-1,1.3999294E-1,4.5025915E-1,-1.3428082E-3,1.9180828E-3,-4.3116617E-3,-2.098669E-3,2.8174887E-3,6.918326E-5,3.6454233E-3,5.66552E-3],"categories":[],"categories_nodes":[],"categories_segments":[],"categories_sizes":[],"default_left":[0,0,0,0,0,0,0,0,0,0,0,0,0,0,0],"id":21,"left_children":[1,3,5,7,9,11,13,-1,-1,-1,-1,-1,-1,-1,-1],"loss_changes":[2.3571098E2,6.2769924E1,9.6857025E1,3.3091946E1,1.2079559E1,4.0624573E1,1.864685E1,0E0,0E0,0E0,0E0,0E0,0E0,0E0,0E0],"parents":[2147483647,0,0,1,1,2,2,3,3,4,4,5,5,6,6],"right_children":[2,4,6,8,10,12,14,-1,-1,-1,-1,-1,-1,-1,-1],"split_conditions":[4.59E-1,5.14E-1,1.4E1,-4.8E0,-6.2E0,9E0,2.3E1,-1.3428082E-3,1.9180828E-3,-4.3116617E-3,-2.098669E-3,2.8174887E-3,6.918326E-5,3.6454233E-3,5.66552E-3],"split_indices":[3,55,80,25,25,51,80,0,0,0,0,0,0,0,0],"split_type":[0,0,0,0,0,0,0,0,0,0,0,0,0,0,0],"sum_hessian":[6.4281504E3,2.3851694E3,4.0429812E3,1.252514E3,1.1326554E3,2.1526404E3,1.8903407E3,5.713418E2,6.811723E2,3.6594095E2,7.667145E2,1.0417805E3,1.1108599E3,1.090611E3,7.997298E2],"tree_param":{"num_deleted":"0","num_feature":"106","num_nodes":"15","size_leaf_vector":"1"}},{"base_weights":[-1.3672945E-1,-3.289269E-1,5.0822258E-2,-1.8254997E-1,-4.811556E-1,-1.9455907E-1,1.659139E-1,-2.7438481E-3,-2.5893652E-4,-3.902705E-3,-6.2056524E-3,3.5926836E-4,-3.1644697E-3,5.5853726E-4,3.0682068E-3],"categories":[],"categories_nodes":[],"categories_segments":[],"categories_sizes":[],"default_left":[0,0,0,0,0,0,0,0,0,0,0,0,0,0,0],"id":22,"left_children":[1,3,5,7,9,11,13,-1,-1,-1,-1,-1,-1,-1,-1],"loss_changes":[2.3172217E2,7.065451E1,9.19331E1,2.330043E1,1.9468353E1,2.9212688E1,3.4344254E1,0E0,0E0,0E0,0E0,0E0,0E0,0E0,0E0],"parents":[2147483647,0,0,1,1,2,2,3,3,4,4,5,5,6,6],"right_children":[2,4,6,8,10,12,14,-1,-1,-1,-1,-1,-1,-1,-1],"split_conditions":[1.5E1,1.3E1,-1.9E0,5.1E0,2.3E1,-4.8E0,2.4E1,-2.7438481E-3,-2.5893652E-4,-3.902705E-3,-6.2056524E-3,3.5926836E-4,-3.1644697E-3,5.5853726E-4,3.0682068E-3],"split_indices":[51,80,77,77,80,25,51,0,0,0,0,0,0,0,0],"split_type":[0,0,0,0,0,0,0,0,0,0,0,0,0,0,0],"sum_hessian":[6.4268784E3,3.1737546E3,3.2531238E3,1.6190967E3,1.5546581E3,1.0384353E3,2.2146885E3,1.02025354E3,5.9884314E2,9.434171E2,6.1124097E2,3.5944406E2,6.789913E2,1.2442333E3,9.704553E2],"tree_param":{"num_deleted":"0","num_feature":"106","num_nodes":"15","size_leaf_vector":"1"}},{"base_weights":[1.3672942E-1,3.289269E-1,-5.0822288E-2,1.8254995E-1,4.811556E-1,1.9455904E-1,-1.6591392E-1,2.743848E-3,2.589364E-4,3.9027052E-3,6.2056524E-3,-3.592684E-4,3.164469E-3,-5.585378E-4,-3.0682068E-3],"categories":[],"categories_nodes":[],"categories_segments":[],"categories_sizes":[],"default_left":[0,0,0,0,0,0,0,0,0,0,0,0,0,0,0],"id":23,"left_children":[1,3,5,7,9,11,13,-1,-1,-1,-1,-1,-1,-1,-1],"loss_changes":[2.3172221E2,7.065451E1,9.193309E1,2.3300426E1,1.9468353E1,2.9212685E1,3.434423E1,0E0,0E0,0E0,0E0,0E0,0E0,0E0,0E0],"parents":[2147483647,0,0,1,1,2,2,3,3,4,4,5,5,6,6],"right_children":[2,4,6,8,10,12,14,-1,-1,-1,-1,-1,-1,-1,-1],"split_conditions":[1.5E1,1.3E1,-1.9E0,5.1E0,2.3E1,-4.8E0,2.4E1,2.743848E-3,2.589364E-4,3.9027052E-3,6.2056524E-3,-3.592684E-4,3.164469E-3,-5.585378E-4,-3.0682068E-3],"split_indices":[51,80,77,77,80,25,51,0,0,0,0,0,0,0,0],"split_type":[0,0,0,0,0,0,0,0,0,0,0,0,0,0,0],"sum_hessian":[6.4268784E3,3.1737546E3,3.2531238E3,1.6190967E3,1.5546581E3,1.0384354E3,2.2146885E3,1.02025354E3,5.9884314E2,9.434171E2,6.1124097E2,3.5944406E2,6.7899133E2,1.2442332E3,9.704553E2],"tree_param":{"num_deleted":"0","num_feature":"106","num_nodes":"15","size_leaf_vector":"1"}},{"base_weights":[-1.3539298E-1,1.0937512E-1,-2.7982637E-1,-4.2377718E-2,2.7710003E-1,-4.0876138E-1,-9.94561E-2,1.3150524E-3,-1.8821721E-3,4.2417166E-3,2.0647643E-3,-3.3274682E-3,-5.563754E-3,-2.369655E-3,5.5938715E-4],"categories":[],"categories_nodes":[],"categories_segments":[],"categories_sizes":[],"default_left":[0,0,0,0,0,0,0,0,0,0,0,0,0,0,0],"id":24,"left_children":[1,3,5,7,9,11,13,-1,-1,-1,-1,-1,-1,-1,-1],"loss_changes":[2.272255E2,6.073213E1,9.395813E1,3.1807388E1,1.1683762E1,2.6259064E1,3.6044533E1,0E0,0E0,0E0,0E0,0E0,0E0,0E0,0E0],"parents":[2147483647,0,0,1,1,2,2,3,3,4,4,5,5,6,6],"right_children":[2,4,6,8,10,12,14,-1,-1,-1,-1,-1,-1,-1,-1],"split_conditions":[4.59E-1,5.14E-1,1.6E0,-4.8E0,-6.2E0,2.3E1,1E1,1.3150524E-3,-1.8821721E-3,4.2417166E-3,2.0647643E-3,-3.3274682E-3,-5.563754E-3,-2.369655E-3,5.5938715E-4],"split_indices":[3,55,77,25,25,80,51,0,0,0,0,0,0,0,0],"split_type":[0,0,0,0,0,0,0,0,0,0,0,0,0,0,0],"sum_hessian":[6.4255234E3,2.3846138E3,4.0409097E3,1.2523077E3,1.1323059E3,2.3557036E3,1.685206E3,5.712775E2,6.8103015E2,3.6571298E2,7.6659296E2,1.5571144E3,7.9858905E2,8.937758E2,7.914303E2],"tree_param":{"num_deleted":"0","num_feature":"106","num_nodes":"15","size_leaf_vector":"1"}},{"base_weights":[1.3539295E-1,-1.0937513E-1,2.7982634E-1,4.237771E-2,-2.7710003E-1,4.0876135E-1,9.945605E-2,-1.315053E-3,1.8821723E-3,-4.2417157E-3,-2.0647645E-3,3.3274677E-3,5.563755E-3,2.3696546E-3,-5.593875E-4],"categories":[],"categories_nodes":[],"categories_segments":[],"categories_sizes":[],"default_left":[0,0,0,0,0,0,0,0,0,0,0,0,0,0,0],"id":25,"left_children":[1,3,5,7,9,11,13,-1,-1,-1,-1,-1,-1,-1,-1],"loss_changes":[2.2722545E2,6.073212E1,9.395819E1,3.1807404E1,1.1683754E1,2.6259033E1,3.6044525E1,0E0,0E0,0E0,0E0,0E0,0E0,0E0,0E0],"parents":[2147483647,0,0,1,1,2,2,3,3,4,4,5,5,6,6],"right_children":[2,4,6,8,10,12,14,-1,-1,-1,-1,-1,-1,-1,-1],"split_conditions":[4.59E-1,5.14E-1,1.6E0,-4.8E0,-6.2E0,2.3E1,1E1,-1.315053E-3,1.8821723E-3,-4.2417157E-3,-2.0647645E-3,3.3274677E-3,5.563755E-3,2.3696546E-3,-5.593875E-4],"split_indices":[3,55,77,25,25,80,51,0,0,0,0,0,0,0,0],"split_type":[0,0,0,0,0,0,0,0,0,0,0,0,0,0,0],"sum_hessian":[6.4255234E3,2.3846138E3,4.0409094E3,1.2523077E3,1.132306E3,2.3557034E3,1.685206E3,5.712775E2,6.8103015E2,3.65713E2,7.6659296E2,1.5571144E3,7.9858905E2,8.937758E2,7.914303E2],"tree_param":{"num_deleted":"0","num_feature":"106","num_nodes":"15","size_leaf_vector":"1"}},{"base_weights":[-1.3407083E-1,-3.2296512E-1,5.0191496E-2,-1.7899902E-1,-4.7281238E-1,-1.9111061E-1,1.6335246E-1,-2.697049E-3,-2.4304324E-4,-3.8349438E-3,-6.099649E-3,3.4394136E-4,-3.1042083E-3,5.541365E-4,3.0158898E-3],"categories":[],"categories_nodes":[],"categories_segments":[],"categories_sizes":[],"default_left":[0,0,0,0,0,0,0,0,0,0,0,0,0,0,0],"id":26,"left_children":[1,3,5,7,9,11,13,-1,-1,-1,-1,-1,-1,-1,-1],"loss_changes":[2.2364725E2,6.836157E1,8.88649E1,2.2721401E1,1.8803223E1,2.7966454E1,3.3036686E1,0E0,0E0,0E0,0E0,0E0,0E0,0E0,0E0],"parents":[2147483647,0,0,1,1,2,2,3,3,4,4,5,5,6,6],"right_children":[2,4,6,8,10,12,14,-1,-1,-1,-1,-1,-1,-1,-1],"split_conditions":[1.5E1,1.3E1,-1.9E0,5.1E0,2.3E1,-4.8E0,2.4E1,-2.697049E-3,-2.4304324E-4,-3.8349438E-3,-6.099649E-3,3.4394136E-4,-3.1042083E-3,5.541365E-4,3.0158898E-3],"split_indices":[51,80,77,77,80,25,51,0,0,0,0,0,0,0,0],"split_type":[0,0,0,0,0,0,0,0,0,0,0,0,0,0,0],"sum_hessian":[6.4240527E3,3.171784E3,3.2522686E3,1.6187557E3,1.5530283E3,1.0380542E3,2.2142144E3,1.0199565E3,5.9879926E2,9.428264E2,6.102019E2,3.594258E2,6.786284E2,1.2441495E3,9.7006476E2],"tree_param":{"num_deleted":"0","num_feature":"106","num_nodes":"15","size_leaf_vector":"1"}},{"base_weights":[1.3407084E-1,3.2296515E-1,-5.0191496E-2,1.7899899E-1,4.728125E-1,1.9111063E-1,-1.6335247E-1,2.697049E-3,2.4304255E-4,3.8349447E-3,6.09965E-3,-3.4394162E-4,3.104209E-3,-5.5413664E-4,-3.0158898E-3],"categories":[],"categories_nodes":[],"categories_segments":[],"categories_sizes":[],"default_left":[0,0,0,0,0,0,0,0,0,0,0,0,0,0,0],"id":27,"left_children":[1,3,5,7,9,11,13,-1,-1,-1,-1,-1,-1,-1,-1],"loss_changes":[2.2364725E2,6.8361664E1,8.886492E1,2.272142E1,1.8803223E1,2.7966465E1,3.3036686E1,0E0,0E0,0E0,0E0,0E0,0E0,0E0,0E0],"parents":[2147483647,0,0,1,1,2,2,3,3,4,4,5,5,6,6],"right_children":[2,4,6,8,10,12,14,-1,-1,-1,-1,-1,-1,-1,-1],"split_conditions":[1.5E1,1.3E1,-1.9E0,5.1E0,2.3E1,-4.8E0,2.4E1,2.697049E-3,2.4304255E-4,3.8349447E-3,6.09965E-3,-3.4394162E-4,3.104209E-3,-5.5413664E-4,-3.0158898E-3],"split_indices":[51,80,77,77,80,25,51,0,0,0,0,0,0,0,0],"split_type":[0,0,0,0,0,0,0,0,0,0,0,0,0,0,0],"sum_hessian":[6.4240527E3,3.171784E3,3.2522686E3,1.6187557E3,1.5530283E3,1.0380542E3,2.2142144E3,1.0199565E3,5.987992E2,9.428264E2,6.102019E2,3.594258E2,6.786284E2,1.2441495E3,9.7006476E2],"tree_param":{"num_deleted":"0","num_feature":"106","num_nodes":"15","size_leaf_vector":"1"}},{"base_weights":[-1.3276446E-1,-3.1985548E-1,4.9696118E-2,-1.772303E-1,-4.6838313E-1,-1.8923688E-1,1.6173682E-1,-2.6705584E-3,-2.40618E-4,-3.798085E-3,-6.0447804E-3,3.4051502E-4,-3.074059E-3,5.4860127E-4,2.9864337E-3],"categories":[],"categories_nodes":[],"categories_segments":[],"categories_sizes":[],"default_left":[0,0,0,0,0,0,0,0,0,0,0,0,0,0,0],"id":28,"left_children":[1,3,5,7,9,11,13,-1,-1,-1,-1,-1,-1,-1,-1],"loss_changes":[2.1929327E2,6.710437E1,8.711035E1,2.2276466E1,1.8491882E1,2.742173E1,3.239368E1,0E0,0E0,0E0,0E0,0E0,0E0,0E0,0E0],"parents":[2147483647,0,0,1,1,2,2,3,3,4,4,5,5,6,6],"right_children":[2,4,6,8,10,12,14,-1,-1,-1,-1,-1,-1,-1,-1],"split_conditions":[1.5E1,1.3E1,-1.9E0,5.1E0,2.3E1,-4.8E0,2.4E1,-2.6705584E-3,-2.40618E-4,-3.798085E-3,-6.0447804E-3,3.4051502E-4,-3.074059E-3,5.4860127E-4,2.9864337E-3],"split_indices":[51,80,77,77,80,25,51,0,0,0,0,0,0,0,0],"split_type":[0,0,0,0,0,0,0,0,0,0,0,0,0,0,0],"sum_hessian":[6.4225015E3,3.1706423E3,3.251859E3,1.6185791E3,1.5520634E3,1.0378651E3,2.213994E3,1.019784E3,5.987951E2,9.424679E2,6.095954E2,3.5942294E2,6.7844214E2,1.2441464E3,9.698474E2],"tree_param":{"num_deleted":"0","num_feature":"106","num_nodes":"15","size_leaf_vector":"1"}},{"base_weights":[1.3276449E-1,3.1985548E-1,-4.969611E-2,1.7723031E-1,4.6838316E-1,1.8923688E-1,-1.617368E-1,2.6705584E-3,2.4061844E-4,3.798085E-3,6.0447813E-3,-3.4051476E-4,3.0740588E-3,-5.4860103E-4,-2.9864337E-3],"categories":[],"categories_nodes":[],"categories_segments":[],"categories_sizes":[],"default_left":[0,0,0,0,0,0,0,0,0,0,0,0,0,0,0],"id":29,"left_children":[1,3,5,7,9,11,13,-1,-1,-1,-1,-1,-1,-1,-1],"loss_changes":[2.1929324E2,6.710437E1,8.711035E1,2.2276459E1,1.8491943E1,2.7421711E1,3.2393673E1,0E0,0E0,0E0,0E0,0E0,0E0,0E0,0E0],"parents":[2147483647,0,0,1,1,2,2,3,3,4,4,5,5,6,6],"right_children":[2,4,6,8,10,12,14,-1,-1,-1,-1,-1,-1,-1,-1],"split_conditions":[1.5E1,1.3E1,-1.9E0,5.1E0,2.3E1,-4.8E0,2.4E1,2.6705584E-3,2.4061844E-4,3.798085E-3,6.0447813E-3,-3.4051476E-4,3.0740588E-3,-5.4860103E-4,-2.9864337E-3],"split_indices":[51,80,77,77,80,25,51,0,0,0,0,0,0,0,0],"split_type":[0,0,0,0,0,0,0,0,0,0,0,0,0,0,0],"sum_hessian":[6.4225015E3,3.1706426E3,3.251859E3,1.6185791E3,1.5520634E3,1.037865E3,2.2139937E3,1.01978406E3,5.987951E2,9.424679E2,6.0959546E2,3.594229E2,6.7844214E2,1.2441464E3,9.698474E2],"tree_param":{"num_deleted":"0","num_feature":"106","num_nodes":"15","size_leaf_vector":"1"}},{"base_weights":[-1.3147295E-1,1.06880166E-1,-2.721904E-1,-4.1437708E-2,2.708419E-1,-3.9811262E-1,-9.623935E-2,1.2739488E-3,-1.8306845E-3,4.1458393E-3,2.0186878E-3,-3.2424452E-3,-5.418033E-3,-2.313752E-3,5.642214E-4],"categories":[],"categories_nodes":[],"categories_segments":[],"categories_sizes":[],"default_left":[0,0,0,0,0,0,0,0,0,0,0,0,0,0,0],"id":30,"left_children":[1,3,5,7,9,11,13,-1,-1,-1,-1,-1,-1,-1,-1],"loss_changes":[2.1542072E2,5.8001434E1,8.943332E1,2.9982655E1,1.1146393E1,2.4803894E1,3.4791397E1,0E0,0E0,0E0,0E0,0E0,0E0,0E0,0E0],"parents":[2147483647,0,0,1,1,2,2,3,3,4,4,5,5,6,6],"right_children":[2,4,6,8,10,12,14,-1,-1,-1,-1,-1,-1,-1,-1],"split_conditions":[4.59E-1,5.14E-1,1.6E0,-4.8E0,-6.2E0,2.3E1,1E1,1.2739488E-3,-1.8306845E-3,4.1458393E-3,2.0186878E-3,-3.2424452E-3,-5.418033E-3,-2.313752E-3,5.642214E-4],"split_indices":[3,55,77,25,25,80,51,0,0,0,0,0,0,0,0],"split_type":[0,0,0,0,0,0,0,0,0,0,0,0,0,0,0],"sum_hessian":[6.4208486E3,2.3836174E3,4.037231E3,1.2519055E3,1.1317119E3,2.3524204E3,1.6848107E3,5.7115454E2,6.807509E2,3.65334E2,7.663779E2,1.5558501E3,7.965703E2,8.934307E2,7.913799E2],"tree_param":{"num_deleted":"0","num_feature":"106","num_nodes":"15","size_leaf_vector":"1"}},{"base_weights":[1.3147296E-1,-1.06880136E-1,2.721904E-1,4.143776E-2,-2.708419E-1,3.9811262E-1,9.623933E-2,-1.2739488E-3,1.8306854E-3,-4.1458393E-3,-2.0186875E-3,3.2424459E-3,5.4180315E-3,2.3137517E-3,-5.642218E-4],"categories":[],"categories_nodes":[],"categories_segments":[],"categories_sizes":[],"default_left":[0,0,0,0,0,0,0,0,0,0,0,0,0,0,0],"id":31,"left_children":[1,3,5,7,9,11,13,-1,-1,-1,-1,-1,-1,-1,-1],"loss_changes":[2.1542067E2,5.8001453E1,8.943335E1,2.9982674E1,1.1146393E1,2.4803864E1,3.4791397E1,0E0,0E0,0E0,0E0,0E0,0E0,0E0,0E0],"parents":[2147483647,0,0,1,1,2,2,3,3,4,4,5,5,6,6],"right_children":[2,4,6,8,10,12,14,-1,-1,-1,-1,-1,-1,-1,-1],"split_conditions":[4.59E-1,5.14E-1,1.6E0,-4.8E0,-6.2E0,2.3E1,1E1,-1.2739488E-3,1.8306854E-3,-4.1458393E-3,-2.0186875E-3,3.2424459E-3,5.4180315E-3,2.3137517E-3,-5.642218E-4],"split_indices":[3,55,77,25,25,80,51,0,0,0,0,0,0,0,0],"split_type":[0,0,0,0,0,0,0,0,0,0,0,0,0,0,0],"sum_hessian":[6.420848E3,2.3836174E3,4.037231E3,1.2519055E3,1.1317119E3,2.3524204E3,1.6848105E3,5.7115454E2,6.80751E2,3.6533405E2,7.6637787E2,1.5558501E3,7.965703E2,8.934307E2,7.913799E2],"tree_param":{"num_deleted":"0","num_feature":"106","num_nodes":"15","size_leaf_vector":"1"}},{"base_weights":[-1.3019471E-1,-3.1409675E-1,4.9077395E-2,-1.7378673E-1,-4.6036172E-1,-1.9033888E-1,1.5725134E-1,-2.625179E-3,-2.2528008E-4,-3.7326028E-3,-5.9436625E-3,3.3881975E-4,-3.0906366E-3,2.0224036E-4,2.5960477E-3],"categories":[],"categories_nodes":[],"categories_segments":[],"categories_sizes":[],"default_left":[0,0,0,0,0,0,0,0,0,0,0,0,0,0,0],"id":32,"left_children":[1,3,5,7,9,11,13,-1,-1,-1,-1,-1,-1,-1,-1],"loss_changes":[2.1167679E2,6.496103E1,8.42481E1,2.172551E1,1.7882507E1,2.6962788E1,3.1416557E1,0E0,0E0,0E0,0E0,0E0,0E0,0E0,0E0],"parents":[2147483647,0,0,1,1,2,2,3,3,4,4,5,5,6,6],"right_children":[2,4,6,8,10,12,14,-1,-1,-1,-1,-1,-1,-1,-1],"split_conditions":[1.5E1,1.3E1,-2E0,5.1E0,2.3E1,-4.8E0,2E1,-2.625179E-3,-2.2528008E-4,-3.7326028E-3,-5.9436625E-3,3.3881975E-4,-3.0906366E-3,2.0224036E-4,2.5960477E-3],"split_indices":[51,80,77,77,80,25,28,0,0,0,0,0,0,0,0],"split_type":[0,0,0,0,0,0,0,0,0,0,0,0,0,0,0],"sum_hessian":[6.419107E3,3.168265E3,3.2508418E3,1.6181671E3,1.5500979E3,1.01146185E3,2.23938E3,1.01942053E3,5.9874664E2,9.4175397E2,6.083439E2,3.5040668E2,6.610552E2,9.580169E2,1.281363E3],"tree_param":{"num_deleted":"0","num_feature":"106","num_nodes":"15","size_leaf_vector":"1"}},{"base_weights":[1.301947E-1,3.1409675E-1,-4.907743E-2,1.7378676E-1,4.6036172E-1,1.903388E-1,-1.5725137E-1,2.6251792E-3,2.2528078E-4,3.732602E-3,5.9436634E-3,-3.388206E-4,3.0906359E-3,-2.0224083E-4,-2.5960477E-3],"categories":[],"categories_nodes":[],"categories_segments":[],"categories_sizes":[],"default_left":[0,0,0,0,0,0,0,0,0,0,0,0,0,0,0],"id":33,"left_children":[1,3,5,7,9,11,13,-1,-1,-1,-1,-1,-1,-1,-1],"loss_changes":[2.116768E2,6.496103E1,8.424808E1,2.172551E1,1.7882568E1,2.6962784E1,3.141655E1,0E0,0E0,0E0,0E0,0E0,0E0,0E0,0E0],"parents":[2147483647,0,0,1,1,2,2,3,3,4,4,5,5,6,6],"right_children":[2,4,6,8,10,12,14,-1,-1,-1,-1,-1,-1,-1,-1],"split_conditions":[1.5E1,1.3E1,-2E0,5.1E0,2.3E1,-4.8E0,2E1,2.6251792E-3,2.2528078E-4,3.732602E-3,5.9436634E-3,-3.388206E-4,3.0906359E-3,-2.0224083E-4,-2.5960477E-3],"split_indices":[51,80,77,77,80,25,28,0,0,0,0,0,0,0,0],"split_type":[0,0,0,0,0,0,0,0,0,0,0,0,0,0,0],"sum_hessian":[6.419107E3,3.168265E3,3.2508418E3,1.6181671E3,1.5500979E3,1.01146185E3,2.23938E3,1.01942053E3,5.9874664E2,9.4175397E2,6.083439E2,3.5040665E2,6.610552E2,9.580169E2,1.281363E3],"tree_param":{"num_deleted":"0","num_feature":"106","num_nodes":"15","size_leaf_vector":"1"}},{"base_weights":[-1.2893151E-1,-3.1109303E-1,4.8593555E-2,-1.7207326E-1,-4.561004E-1,-1.8847968E-1,1.5569693E-1,-2.599483E-3,-2.2303288E-4,-3.6969825E-3,-5.8912593E-3,3.354449E-4,-3.0607895E-3,5.1807374E-4,2.8895182E-3],"categories":[],"categories_nodes":[],"categories_segments":[],"categories_sizes":[],"default_left":[0,0,0,0,0,0,0,0,0,0,0,0,0,0,0],"id":34,"left_children":[1,3,5,7,9,11,13,-1,-1,-1,-1,-1,-1,-1,-1],"loss_changes":[2.0757153E2,6.3783234E1,8.2586266E1,2.1301353E1,1.7596985E1,2.6439758E1,3.0997051E1,0E0,0E0,0E0,0E0,0E0,0E0,0E0,0E0],"parents":[2147483647,0,0,1,1,2,2,3,3,4,4,5,5,6,6],"right_children":[2,4,6,8,10,12,14,-1,-1,-1,-1,-1,-1,-1,-1],"split_conditions":[1.5E1,1.3E1,-2E0,5.1E0,2.3E1,-4.8E0,2.4E1,-2.599483E-3,-2.2303288E-4,-3.6969825E-3,-5.8912593E-3,3.354449E-4,-3.0607895E-3,5.1807374E-4,2.8895182E-3],"split_indices":[51,80,77,77,80,25,51,0,0,0,0,0,0,0,0],"split_type":[0,0,0,0,0,0,0,0,0,0,0,0,0,0,0],"sum_hessian":[6.417298E3,3.1669172E3,3.2503806E3,1.617956E3,1.5489612E3,1.01124066E3,2.23914E3,1.0192137E3,5.987424E2,9.4133105E2,6.076301E2,3.504035E2,6.6083716E2,1.2589855E3,9.8015454E2],"tree_param":{"num_deleted":"0","num_feature":"106","num_nodes":"15","size_leaf_vector":"1"}},{"base_weights":[1.2893151E-1,3.11093E-1,-4.859355E-2,1.7207322E-1,4.561004E-1,1.8847969E-1,-1.5569694E-1,2.5994824E-3,2.2303223E-4,3.6969825E-3,5.8912593E-3,-3.3544464E-4,3.0607895E-3,-5.180739E-4,-2.8895182E-3],"categories":[],"categories_nodes":[],"categories_segments":[],"categories_sizes":[],"default_left":[0,0,0,0,0,0,0,0,0,0,0,0,0,0,0],"id":35,"left_children":[1,3,5,7,9,11,13,-1,-1,-1,-1,-1,-1,-1,-1],"loss_changes":[2.075715E2,6.3783264E1,8.258627E1,2.1301357E1,1.7596954E1,2.6439747E1,3.0997051E1,0E0,0E0,0E0,0E0,0E0,0E0,0E0,0E0],"parents":[2147483647,0,0,1,1,2,2,3,3,4,4,5,5,6,6],"right_children":[2,4,6,8,10,12,14,-1,-1,-1,-1,-1,-1,-1,-1],"split_conditions":[1.5E1,1.3E1,-2E0,5.1E0,2.3E1,-4.8E0,2.4E1,2.5994824E-3,2.2303223E-4,3.6969825E-3,5.8912593E-3,-3.3544464E-4,3.0607895E-3,-5.180739E-4,-2.8895182E-3],"split_indices":[51,80,77,77,80,25,51,0,0,0,0,0,0,0,0],"split_type":[0,0,0,0,0,0,0,0,0,0,0,0,0,0,0],"sum_hessian":[6.417298E3,3.1669172E3,3.2503806E3,1.617956E3,1.5489612E3,1.0112406E3,2.23914E3,1.0192137E3,5.987424E2,9.4133105E2,6.076302E2,3.504035E2,6.6083716E2,1.2589855E3,9.801545E2],"tree_param":{"num_deleted":"0","num_feature":"106","num_nodes":"15","size_leaf_vector":"1"}},{"base_weights":[-1.2768273E-1,1.04345866E-1,-2.6474676E-1,-4.0590033E-2,2.6460552E-1,-3.8780743E-1,-9.302935E-2,1.2353773E-3,-1.7830738E-3,4.057619E-3,1.9692811E-3,-3.1597188E-3,-5.2782455E-3,-2.401974E-3,4.281454E-4],"categories":[],"categories_nodes":[],"categories_segments":[],"categories_sizes":[],"default_left":[0,0,0,0,0,0,0,0,0,0,0,0,0,0,0],"id":36,"left_children":[1,3,5,7,9,11,13,-1,-1,-1,-1,-1,-1,-1,-1],"loss_changes":[2.040863E2,5.5372383E1,8.520715E1,2.8331142E1,1.0734482E1,2.3465668E1,3.3703583E1,0E0,0E0,0E0,0E0,0E0,0E0,0E0,0E0],"parents":[2147483647,0,0,1,1,2,2,3,3,4,4,5,5,6,6],"right_children":[2,4,6,8,10,12,14,-1,-1,-1,-1,-1,-1,-1,-1],"split_conditions":[4.59E-1,5.14E-1,1.6E0,-4.8E0,-6.2E0,2.3E1,9E0,1.2353773E-3,-1.7830738E-3,4.057619E-3,1.9692811E-3,-3.1597188E-3,-5.2782455E-3,-2.401974E-3,4.281454E-4],"split_indices":[3,55,77,25,25,80,51,0,0,0,0,0,0,0,0],"split_type":[0,0,0,0,0,0,0,0,0,0,0,0,0,0,0],"sum_hessian":[6.4153784E3,2.3824653E3,4.032913E3,1.2514362E3,1.1310293E3,2.3485645E3,1.6843488E3,5.7101685E2,6.8041925E2,3.6491727E2,7.66112E2,1.5543596E3,7.942047E2,8.081077E2,8.762411E2],"tree_param":{"num_deleted":"0","num_feature":"106","num_nodes":"15","size_leaf_vector":"1"}},{"base_weights":[1.276827E-1,-1.0434585E-1,2.6474673E-1,4.059003E-2,-2.646055E-1,3.8780737E-1,9.302931E-2,-1.2353773E-3,1.7830738E-3,-4.057619E-3,-1.9692807E-3,3.1597184E-3,5.278245E-3,2.4019736E-3,-4.2814563E-4],"categories":[],"categories_nodes":[],"categories_segments":[],"categories_sizes":[],"default_left":[0,0,0,0,0,0,0,0,0,0,0,0,0,0,0],"id":37,"left_children":[1,3,5,7,9,11,13,-1,-1,-1,-1,-1,-1,-1,-1],"loss_changes":[2.0408615E2,5.5372375E1,8.5207245E1,2.8331144E1,1.0734474E1,2.3465607E1,3.3703568E1,0E0,0E0,0E0,0E0,0E0,0E0,0E0,0E0],"parents":[2147483647,0,0,1,1,2,2,3,3,4,4,5,5,6,6],"right_children":[2,4,6,8,10,12,14,-1,-1,-1,-1,-1,-1,-1,-1],"split_conditions":[4.59E-1,5.14E-1,1.6E0,-4.8E0,-6.2E0,2.3E1,9E0,-1.2353773E-3,1.7830738E-3,-4.057619E-3,-1.9692807E-3,3.1597184E-3,5.278245E-3,2.4019736E-3,-4.2814563E-4],"split_indices":[3,55,77,25,25,80,51,0,0,0,0,0,0,0,0],"split_type":[0,0,0,0,0,0,0,0,0,0,0,0,0,0,0],"sum_hessian":[6.4153784E3,2.3824653E3,4.0329133E3,1.2514362E3,1.1310292E3,2.3485645E3,1.6843489E3,5.7101685E2,6.8041925E2,3.6491724E2,7.66112E2,1.5543597E3,7.942047E2,8.081077E2,8.762411E2],"tree_param":{"num_deleted":"0","num_feature":"106","num_nodes":"15","size_leaf_vector":"1"}},{"base_weights":[-1.2644623E-1,-3.0554375E-1,4.8003696E-2,-1.6876535E-1,-4.4838074E-1,-1.8519334E-1,1.5333317E-1,-2.555623E-3,-2.0883352E-4,-3.6336856E-3,-5.7946253E-3,3.211314E-4,-3.003707E-3,1.974507E-4,2.5316714E-3],"categories":[],"categories_nodes":[],"categories_segments":[],"categories_sizes":[],"default_left":[0,0,0,0,0,0,0,0,0,0,0,0,0,0,0],"id":38,"left_children":[1,3,5,7,9,11,13,-1,-1,-1,-1,-1,-1,-1,-1],"loss_changes":[2.0042305E2,6.176233E1,7.986202E1,2.0769009E1,1.7036224E1,2.5332027E1,2.9862274E1,0E0,0E0,0E0,0E0,0E0,0E0,0E0,0E0],"parents":[2147483647,0,0,1,1,2,2,3,3,4,4,5,5,6,6],"right_children":[2,4,6,8,10,12,14,-1,-1,-1,-1,-1,-1,-1,-1],"split_conditions":[1.5E1,1.3E1,-2E0,5.1E0,2.3E1,-4.8E0,2E1,-2.555623E-3,-2.0883352E-4,-3.6336856E-3,-5.7946253E-3,3.211314E-4,-3.003707E-3,1.974507E-4,2.5316714E-3],"split_indices":[51,80,77,77,80,25,28,0,0,0,0,0,0,0,0],"split_type":[0,0,0,0,0,0,0,0,0,0,0,0,0,0,0],"sum_hessian":[6.413393E3,3.1641719E3,3.2492212E3,1.6174805E3,1.5466914E3,1.0107301E3,2.2384912E3,1.01879004E3,5.986904E2,9.4050525E2,6.0618616E2,3.5038177E2,6.603483E2,9.5790875E2,1.2805824E3],"tree_param":{"num_deleted":"0","num_feature":"106","num_nodes":"15","size_leaf_vector":"1"}},{"base_weights":[1.2644622E-1,3.0554372E-1,-4.8003703E-2,1.6876534E-1,4.4838074E-1,1.851933E-1,-1.5333317E-1,2.5556232E-3,2.0883279E-4,3.633685E-3,5.7946257E-3,-3.2113146E-4,3.0037062E-3,-1.974507E-4,-2.5316714E-3],"categories":[],"categories_nodes":[],"categories_segments":[],"categories_sizes":[],"default_left":[0,0,0,0,0,0,0,0,0,0,0,0,0,0,0],"id":39,"left_children":[1,3,5,7,9,11,13,-1,-1,-1,-1,-1,-1,-1,-1],"loss_changes":[2.0042307E2,6.176233E1,7.9862015E1,2.0769024E1,1.7036255E1,2.5332012E1,2.9862274E1,0E0,0E0,0E0,0E0,0E0,0E0,0E0,0E0],"parents":[2147483647,0,0,1,1,2,2,3,3,4,4,5,5,6,6],"right_children":[2,4,6,8,10,12,14,-1,-1,-1,-1,-1,-1,-1,-1],"split_conditions":[1.5E1,1.3E1,-2E0,5.1E0,2.3E1,-4.8E0,2E1,2.5556232E-3,2.0883279E-4,3.633685E-3,5.7946257E-3,-3.2113146E-4,3.0037062E-3,-1.974507E-4,-2.5316714E-3],"split_indices":[51,80,77,77,80,25,28,0,0,0,0,0,0,0,0],"split_type":[0,0,0,0,0,0,0,0,0,0,0,0,0,0,0],"sum_hessian":[6.413393E3,3.1641719E3,3.2492212E3,1.6174806E3,1.5466914E3,1.0107301E3,2.2384912E3,1.01879004E3,5.986905E2,9.4050525E2,6.061861E2,3.5038177E2,6.603483E2,9.5790875E2,1.2805824E3],"tree_param":{"num_deleted":"0","num_feature":"106","num_nodes":"15","size_leaf_vector":"1"}},{"base_weights":[-1.2522446E-1,-2.3930757E-1,1.4356388E-1,-1.04094684E-1,-3.943954E-1,-7.8073926E-2,2.4430859E-1,2.5465802E-4,-2.4975752E-3,-5.3463853E-3,-3.192786E-3,4.3587215E-4,-2.3144563E-3,3.8407594E-3,1.5693078E-3],"categories":[],"categories_nodes":[],"categories_segments":[],"categories_sizes":[],"default_left":[0,0,0,0,0,0,0,0,0,0,0,0,0,0,0],"id":40,"left_children":[1,3,5,7,9,11,13,-1,-1,-1,-1,-1,-1,-1,-1],"loss_changes":[1.9666345E2,9.436618E1,4.269593E1,4.542204E1,2.191565E1,1.1169079E1,1.599012E1,0E0,0E0,0E0,0E0,0E0,0E0,0E0,0E0],"parents":[2147483647,0,0,1,1,2,2,3,3,4,4,5,5,6,6],"right_children":[2,4,6,8,10,12,14,-1,-1,-1,-1,-1,-1,-1,-1],"split_conditions":[2E1,1.4E1,-2E0,2.8E0,8E0,-4.3E0,-6.2E0,2.5465802E-4,-2.4975752E-3,-5.3463853E-3,-3.192786E-3,4.3587215E-4,-2.3144563E-3,3.8407594E-3,1.5693078E-3],"split_indices":[28,80,77,25,51,25,25,0,0,0,0,0,0,0,0],"split_type":[0,0,0,0,0,0,0,0,0,0,0,0,0,0,0],"sum_hessian":[6.4113315E3,4.5010425E3,1.9102891E3,2.4054922E3,2.0955503E3,5.970367E2,1.3132524E3,1.2735513E3,1.1319408E3,7.287869E2,1.3667633E3,3.333359E2,2.637008E2,5.0387354E2,8.0937885E2],"tree_param":{"num_deleted":"0","num_feature":"106","num_nodes":"15","size_leaf_vector":"1"}},{"base_weights":[1.2522446E-1,2.3930755E-1,-1.4356387E-1,1.0409466E-1,3.943954E-1,7.807402E-2,-2.4430862E-1,-2.5465796E-4,2.4975745E-3,5.3463853E-3,3.192786E-3,-4.3587125E-4,2.3144572E-3,-3.8407596E-3,-1.5693078E-3],"categories":[],"categories_nodes":[],"categories_segments":[],"categories_sizes":[],"default_left":[0,0,0,0,0,0,0,0,0,0,0,0,0,0,0],"id":41,"left_children":[1,3,5,7,9,11,13,-1,-1,-1,-1,-1,-1,-1,-1],"loss_changes":[1.9666342E2,9.436618E1,4.269597E1,4.542202E1,2.191568E1,1.1169081E1,1.599012E1,0E0,0E0,0E0,0E0,0E0,0E0,0E0,0E0],"parents":[2147483647,0,0,1,1,2,2,3,3,4,4,5,5,6,6],"right_children":[2,4,6,8,10,12,14,-1,-1,-1,-1,-1,-1,-1,-1],"split_conditions":[2E1,1.4E1,-2E0,2.8E0,8E0,-4.3E0,-6.2E0,-2.5465796E-4,2.4975745E-3,5.3463853E-3,3.192786E-3,-4.3587125E-4,2.3144572E-3,-3.8407596E-3,-1.5693078E-3],"split_indices":[28,80,77,25,51,25,25,0,0,0,0,0,0,0,0],"split_type":[0,0,0,0,0,0,0,0,0,0,0,0,0,0,0],"sum_hessian":[6.4113315E3,4.5010425E3,1.9102892E3,2.4054922E3,2.0955503E3,5.9703674E2,1.3132524E3,1.2735513E3,1.1319408E3,7.287869E2,1.3667633E3,3.333359E2,2.637008E2,5.0387354E2,8.0937885E2],"tree_param":{"num_deleted":"0","num_feature":"106","num_nodes":"15","size_leaf_vector":"1"}},{"base_weights":[-1.240132E-1,-2.9999036E-1,4.729786E-2,-1.6557705E-1,-4.4054165E-1,-9.501037E-2,2.1458098E-1,-2.3788789E-3,9.082069E-5,-3.5617184E-3,-5.708019E-3,1.166852E-3,-2.0726786E-3,3.9777337E-3,1.5510917E-3],"categories":[],"categories_nodes":[],"categories_segments":[],"categories_sizes":[],"default_left":[0,0,0,0,0,0,0,0,0,0,0,0,0,0,0],"id":42,"left_children":[1,3,5,7,9,11,13,-1,-1,-1,-1,-1,-1,-1,-1],"loss_changes":[1.9326428E2,5.9667572E1,7.7367096E1,2.043718E1,1.6778656E1,4.1761227E1,1.6212845E1,0E0,0E0,0E0,0E0,0E0,0E0,0E0,0E0],"parents":[2147483647,0,0,1,1,2,2,3,3,4,4,5,5,6,6],"right_children":[2,4,6,8,10,12,14,-1,-1,-1,-1,-1,-1,-1,-1],"split_conditions":[1.5E1,1.3E1,5.24E-1,6E0,2.3E1,-4.8E0,-6.1E0,-2.3788789E-3,9.082069E-5,-3.5617184E-3,-5.708019E-3,1.166852E-3,-2.0726786E-3,3.9777337E-3,1.5510917E-3],"split_indices":[51,80,55,77,80,25,25,0,0,0,0,0,0,0,0],"split_type":[0,0,0,0,0,0,0,0,0,0,0,0,0,0,0],"sum_hessian":[6.4092944E3,3.1612197E3,3.2480747E3,1.6170068E3,1.5442129E3,1.7552827E3,1.4927921E3,1.1433041E3,4.7370285E2,9.394583E2,6.047546E2,6.082339E2,1.1470488E3,3.6445728E2,1.1283348E3],"tree_param":{"num_deleted":"0","num_feature":"106","num_nodes":"15","size_leaf_vector":"1"}},{"base_weights":[1.2401318E-1,2.9999033E-1,-4.729787E-2,1.6557701E-1,4.405416E-1,9.501036E-2,-2.1458097E-1,2.3788786E-3,-9.0821246E-5,3.5617182E-3,5.7080183E-3,-1.1668527E-3,2.0726789E-3,-3.9777337E-3,-1.5510917E-3],"categories":[],"categories_nodes":[],"categories_segments":[],"categories_sizes":[],"default_left":[0,0,0,0,0,0,0,0,0,0,0,0,0,0,0],"id":43,"left_children":[1,3,5,7,9,11,13,-1,-1,-1,-1,-1,-1,-1,-1],"loss_changes":[1.9326425E2,5.9667572E1,7.736709E1,2.0437195E1,1.6778625E1,4.1761242E1,1.6212845E1,0E0,0E0,0E0,0E0,0E0,0E0,0E0,0E0],"parents":[2147483647,0,0,1,1,2,2,3,3,4,4,5,5,6,6],"right_children":[2,4,6,8,10,12,14,-1,-1,-1,-1,-1,-1,-1,-1],"split_conditions":[1.5E1,1.3E1,5.24E-1,6E0,2.3E1,-4.8E0,-6.1E0,2.3788786E-3,-9.0821246E-5,3.5617182E-3,5.7080183E-3,-1.1668527E-3,2.0726789E-3,-3.9777337E-3,-1.5510917E-3],"split_indices":[51,80,55,77,80,25,25,0,0,0,0,0,0,0,0],"split_type":[0,0,0,0,0,0,0,0,0,0,0,0,0,0,0],"sum_hessian":[6.4092944E3,3.1612197E3,3.2480747E3,1.617007E3,1.5442129E3,1.7552827E3,1.4927921E3,1.1433041E3,4.7370285E2,9.394583E2,6.047546E2,6.082339E2,1.1470488E3,3.6445728E2,1.1283348E3],"tree_param":{"num_deleted":"0","num_feature":"106","num_nodes":"15","size_leaf_vector":"1"}},{"base_weights":[-1.22816816E-1,1.01074636E-1,-2.5519046E-1,-3.9241444E-2,2.5629318E-1,-3.746866E-1,-8.878644E-2,1.1861303E-3,-1.7173807E-3,3.928679E-3,1.9091078E-3,-3.0490654E-3,-5.1107393E-3,-2.3234976E-3,4.364296E-4],"categories":[],"categories_nodes":[],"categories_segments":[],"categories_sizes":[],"default_left":[0,0,0,0,0,0,0,0,0,0,0,0,0,0,0],"id":44,"left_children":[1,3,5,7,9,11,13,-1,-1,-1,-1,-1,-1,-1,-1],"loss_changes":[1.8994456E2,5.188276E1,8.004996E1,2.6201338E1,1.0023781E1,2.2150116E1,3.2038086E1,0E0,0E0,0E0,0E0,0E0,0E0,0E0,0E0],"parents":[2147483647,0,0,1,1,2,2,3,3,4,4,5,5,6,6],"right_children":[2,4,6,8,10,12,14,-1,-1,-1,-1,-1,-1,-1,-1],"split_conditions":[4.59E-1,5.14E-1,1.6E0,-4.8E0,-6.2E0,2.3E1,9E0,1.1861303E-3,-1.7173807E-3,3.928679E-3,1.9091078E-3,-3.0490654E-3,-5.1107393E-3,-2.3234976E-3,4.364296E-4],"split_indices":[3,55,77,25,25,80,51,0,0,0,0,0,0,0,0],"split_type":[0,0,0,0,0,0,0,0,0,0,0,0,0,0,0],"sum_hessian":[6.407094E3,2.3807039E3,4.0263904E3,1.2507684E3,1.1299354E3,2.3427732E3,1.6836171E3,5.70814E2,6.799544E2,3.6418826E2,7.657472E2,1.5519712E3,7.9080194E2,8.074868E2,8.7613025E2],"tree_param":{"num_deleted":"0","num_feature":"106","num_nodes":"15","size_leaf_vector":"1"}},{"base_weights":[1.2281681E-1,-1.0107467E-1,2.5519046E-1,3.9241437E-2,-2.5629327E-1,3.7468663E-1,8.878644E-2,-1.1861303E-3,1.7173806E-3,-3.92868E-3,-1.9091083E-3,3.0490654E-3,5.1107393E-3,2.3234976E-3,-4.3642978E-4],"categories":[],"categories_nodes":[],"categories_segments":[],"categories_sizes":[],"default_left":[0,0,0,0,0,0,0,0,0,0,0,0,0,0,0],"id":45,"left_children":[1,3,5,7,9,11,13,-1,-1,-1,-1,-1,-1,-1,-1],"loss_changes":[1.8994461E2,5.1882786E1,8.004996E1,2.620134E1,1.0023773E1,2.2150146E1,3.2038094E1,0E0,0E0,0E0,0E0,0E0,0E0,0E0,0E0],"parents":[2147483647,0,0,1,1,2,2,3,3,4,4,5,5,6,6],"right_children":[2,4,6,8,10,12,14,-1,-1,-1,-1,-1,-1,-1,-1],"split_conditions":[4.59E-1,5.14E-1,1.6E0,-4.8E0,-6.2E0,2.3E1,9E0,-1.1861303E-3,1.7173806E-3,-3.92868E-3,-1.9091083E-3,3.0490654E-3,5.1107393E-3,2.3234976E-3,-4.3642978E-4],"split_indices":[3,55,77,25,25,80,51,0,0,0,0,0,0,0,0],"split_type":[0,0,0,0,0,0,0,0,0,0,0,0,0,0,0],"sum_hessian":[6.407094E3,2.3807039E3,4.0263904E3,1.2507684E3,1.1299354E3,2.3427732E3,1.6836171E3,5.70814E2,6.799544E2,3.6418826E2,7.657472E2,1.5519713E3,7.9080194E2,8.074868E2,8.7613025E2],"tree_param":{"num_deleted":"0","num_feature":"106","num_nodes":"15","size_leaf_vector":"1"}},{"base_weights":[-1.2163318E-1,-2.946788E-1,4.672362E-2,-1.6240053E-1,-4.3318698E-1,-1.7950587E-1,1.4887148E-1,-2.3387787E-3,1.0182998E-4,-3.50123E-3,-5.616516E-3,-4.442231E-5,-3.1257912E-3,5.034059E-4,2.754264E-3],"categories":[],"categories_nodes":[],"categories_segments":[],"categories_sizes":[],"default_left":[0,0,0,0,0,0,0,0,0,0,0,0,0,0,0],"id":46,"left_children":[1,3,5,7,9,11,13,-1,-1,-1,-1,-1,-1,-1,-1],"loss_changes":[1.8663693E2,5.7808655E1,7.507871E1,1.995515E1,1.6263977E1,2.3544846E1,2.7893398E1,0E0,0E0,0E0,0E0,0E0,0E0,0E0,0E0],"parents":[2147483647,0,0,1,1,2,2,3,3,4,4,5,5,6,6],"right_children":[2,4,6,8,10,12,14,-1,-1,-1,-1,-1,-1,-1,-1],"split_conditions":[1.5E1,1.3E1,-2E0,6E0,2.3E1,-3.7E0,2.4E1,-2.3387787E-3,1.0182998E-4,-3.50123E-3,-5.616516E-3,-4.442231E-5,-3.1257912E-3,5.034059E-4,2.754264E-3],"split_indices":[51,80,77,77,80,25,51,0,0,0,0,0,0,0,0],"split_type":[0,0,0,0,0,0,0,0,0,0,0,0,0,0,0],"sum_hessian":[6.404813E3,3.1580547E3,3.2467583E3,1.6164668E3,1.5415879E3,1.0097288E3,2.2370295E3,1.142806E3,4.736607E2,9.3849286E2,6.0309503E2,4.3651187E2,5.732169E2,1.25856E3,9.784695E2],"tree_param":{"num_deleted":"0","num_feature":"106","num_nodes":"15","size_leaf_vector":"1"}},{"base_weights":[1.2163317E-1,2.946788E-1,-4.672365E-2,1.6240056E-1,4.3318695E-1,1.7950581E-1,-1.488715E-1,2.3387792E-3,-1.0182992E-4,3.5012295E-3,5.616516E-3,4.4421646E-5,3.1257905E-3,-5.034061E-4,-2.7542645E-3],"categories":[],"categories_nodes":[],"categories_segments":[],"categories_sizes":[],"default_left":[0,0,0,0,0,0,0,0,0,0,0,0,0,0,0],"id":47,"left_children":[1,3,5,7,9,11,13,-1,-1,-1,-1,-1,-1,-1,-1],"loss_changes":[1.8663696E2,5.7808624E1,7.507869E1,1.9955162E1,1.6263977E1,2.3544846E1,2.7893406E1,0E0,0E0,0E0,0E0,0E0,0E0,0E0,0E0],"parents":[2147483647,0,0,1,1,2,2,3,3,4,4,5,5,6,6],"right_children":[2,4,6,8,10,12,14,-1,-1,-1,-1,-1,-1,-1,-1],"split_conditions":[1.5E1,1.3E1,-2E0,6E0,2.3E1,-3.7E0,2.4E1,2.3387792E-3,-1.0182992E-4,3.5012295E-3,5.616516E-3,4.4421646E-5,3.1257905E-3,-5.034061E-4,-2.7542645E-3],"split_indices":[51,80,77,77,80,25,51,0,0,0,0,0,0,0,0],"split_type":[0,0,0,0,0,0,0,0,0,0,0,0,0,0,0],"sum_hessian":[6.404813E3,3.1580547E3,3.2467583E3,1.6164668E3,1.5415879E3,1.0097288E3,2.2370295E3,1.142806E3,4.736607E2,9.3849286E2,6.0309503E2,4.3651187E2,5.732169E2,1.25856E3,9.784695E2],"tree_param":{"num_deleted":"0","num_feature":"106","num_nodes":"15","size_leaf_vector":"1"}},{"base_weights":[-1.2046327E-1,-2.3080826E-1,1.3931991E-1,-1.0019152E-1,-3.8096714E-1,-1.424312E-1,2.1409136E-1,2.570641E-4,-2.4182685E-3,-5.1863515E-3,-3.0734406E-3,-2.3064946E-3,5.91157E-4,3.5258222E-3,1.2670803E-3],"categories":[],"categories_nodes":[],"categories_segments":[],"categories_sizes":[],"default_left":[0,0,0,0,0,0,0,0,0,0,0,0,0,0,0],"id":48,"left_children":[1,3,5,7,9,11,13,-1,-1,-1,-1,-1,-1,-1,-1],"loss_changes":[1.8359256E2,8.81196E1,4.0261333E1,4.289439E1,2.1030212E1,7.145315E0,1.8223747E1,0E0,0E0,0E0,0E0,0E0,0E0,0E0,0E0],"parents":[2147483647,0,0,1,1,2,2,3,3,4,4,5,5,6,6],"right_children":[2,4,6,8,10,12,14,-1,-1,-1,-1,-1,-1,-1,-1],"split_conditions":[2E1,1.4E1,3.61E-1,2.8E0,8E0,2.7E1,-6.2E0,2.570641E-4,-2.4182685E-3,-5.1863515E-3,-3.0734406E-3,-2.3064946E-3,5.91157E-4,3.5258222E-3,1.2670803E-3],"split_indices":[28,80,55,25,51,28,25,0,0,0,0,0,0,0,0],"split_type":[0,0,0,0,0,0,0,0,0,0,0,0,0,0,0],"sum_hessian":[6.4024697E3,4.4938027E3,1.9086671E3,2.4041787E3,2.089624E3,4.0010416E2,1.508563E3,1.2732345E3,1.1309441E3,7.2601025E2,1.3636139E3,2.7819302E2,1.21911125E2,5.8243964E2,9.261234E2],"tree_param":{"num_deleted":"0","num_feature":"106","num_nodes":"15","size_leaf_vector":"1"}},{"base_weights":[1.2046327E-1,2.3080824E-1,-1.393199E-1,1.0019148E-1,3.8096717E-1,1.424312E-1,-2.1409135E-1,-2.5706438E-4,2.418268E-3,5.1863515E-3,3.0734413E-3,2.3064946E-3,-5.9115695E-4,-3.5258217E-3,-1.26708E-3],"categories":[],"categories_nodes":[],"categories_segments":[],"categories_sizes":[],"default_left":[0,0,0,0,0,0,0,0,0,0,0,0,0,0,0],"id":49,"left_children":[1,3,5,7,9,11,13,-1,-1,-1,-1,-1,-1,-1,-1],"loss_changes":[1.8359253E2,8.811963E1,4.0261345E1,4.2894394E1,2.1030182E1,7.145314E0,1.822374E1,0E0,0E0,0E0,0E0,0E0,0E0,0E0,0E0],"parents":[2147483647,0,0,1,1,2,2,3,3,4,4,5,5,6,6],"right_children":[2,4,6,8,10,12,14,-1,-1,-1,-1,-1,-1,-1,-1],"split_conditions":[2E1,1.4E1,3.61E-1,2.8E0,8E0,2.7E1,-6.2E0,-2.5706438E-4,2.418268E-3,5.1863515E-3,3.0734413E-3,2.3064946E-3,-5.9115695E-4,-3.5258217E-3,-1.26708E-3],"split_indices":[28,80,55,25,51,28,25,0,0,0,0,0,0,0,0],"split_type":[0,0,0,0,0,0,0,0,0,0,0,0,0,0,0],"sum_hessian":[6.4024697E3,4.4938027E3,1.9086672E3,2.4041787E3,2.089624E3,4.0010416E2,1.508563E3,1.2732345E3,1.1309441E3,7.260102E2,1.3636139E3,2.7819302E2,1.21911125E2,5.824397E2,9.2612335E2],"tree_param":{"num_deleted":"0","num_feature":"106","num_nodes":"15","size_leaf_vector":"1"}},{"base_weights":[-1.1930219E-1,-2.2859794E-1,1.3795672E-1,-9.920266E-2,-3.7744635E-1,-7.5364195E-2,2.3497972E-1,2.5449475E-4,-2.3947333E-3,-5.14061E-3,-3.0443387E-3,4.066088E-4,-2.2178045E-3,3.690794E-3,1.5129399E-3],"categories":[],"categories_nodes":[],"categories_segments":[],"categories_sizes":[],"default_left":[0,0,0,0,0,0,0,0,0,0,0,0,0,0,0],"id":50,"left_children":[1,3,5,7,9,11,13,-1,-1,-1,-1,-1,-1,-1,-1],"loss_changes":[1.8001657E2,8.649788E1,3.9534096E1,4.205564E1,2.0680908E1,1.0161968E1,1.46747055E1,0E0,0E0,0E0,0E0,0E0,0E0,0E0,0E0],"parents":[2147483647,0,0,1,1,2,2,3,3,4,4,5,5,6,6],"right_children":[2,4,6,8,10,12,14,-1,-1,-1,-1,-1,-1,-1,-1],"split_conditions":[2E1,1.4E1,-2E0,2.8E0,8E0,-4.3E0,-6.2E0,2.5449475E-4,-2.3947333E-3,-5.14061E-3,-3.0443387E-3,4.066088E-4,-2.2178045E-3,3.690794E-3,1.5129399E-3],"split_indices":[28,80,77,25,51,25,25,0,0,0,0,0,0,0,0],"split_type":[0,0,0,0,0,0,0,0,0,0,0,0,0,0,0],"sum_hessian":[6.400219E3,4.491942E3,1.9082777E3,2.4038872E3,2.0880544E3,5.966557E2,1.311622E3,1.2732377E3,1.1306497E3,7.251587E2,1.3628958E3,3.332777E2,2.6337796E2,5.026904E2,8.089316E2],"tree_param":{"num_deleted":"0","num_feature":"106","num_nodes":"15","size_leaf_vector":"1"}},{"base_weights":[1.193022E-1,2.2859794E-1,-1.3795671E-1,9.920265E-2,3.7744638E-1,7.53642E-2,-2.349797E-1,-2.5449492E-4,2.3947333E-3,5.140611E-3,3.0443391E-3,-4.0660865E-4,2.2178045E-3,-3.6907943E-3,-1.5129396E-3],"categories":[],"categories_nodes":[],"categories_segments":[],"categories_sizes":[],"default_left":[0,0,0,0,0,0,0,0,0,0,0,0,0,0,0],"id":51,"left_children":[1,3,5,7,9,11,13,-1,-1,-1,-1,-1,-1,-1,-1],"loss_changes":[1.8001656E2,8.649794E1,3.953409E1,4.205565E1,2.0680908E1,1.0161966E1,1.4674713E1,0E0,0E0,0E0,0E0,0E0,0E0,0E0,0E0],"parents":[2147483647,0,0,1,1,2,2,3,3,4,4,5,5,6,6],"right_children":[2,4,6,8,10,12,14,-1,-1,-1,-1,-1,-1,-1,-1],"split_conditions":[2E1,1.4E1,-2E0,2.8E0,8E0,-4.3E0,-6.2E0,-2.5449492E-4,2.3947333E-3,5.140611E-3,3.0443391E-3,-4.0660865E-4,2.2178045E-3,-3.6907943E-3,-1.5129396E-3],"split_indices":[28,80,77,25,51,25,25,0,0,0,0,0,0,0,0],"split_type":[0,0,0,0,0,0,0,0,0,0,0,0,0,0,0],"sum_hessian":[6.400219E3,4.491942E3,1.9082777E3,2.4038872E3,2.0880544E3,5.966557E2,1.311622E3,1.2732377E3,1.1306497E3,7.251587E2,1.3628958E3,3.3327774E2,2.63378E2,5.026904E2,8.089316E2],"tree_param":{"num_deleted":"0","num_feature":"106","num_nodes":"15","size_leaf_vector":"1"}},{"base_weights":[-1.1815477E-1,-2.8684464E-1,4.580361E-2,-1.5787566E-1,-4.2218968E-1,-8.130244E-2,2.1996506E-1,-2.423635E-3,-1.4094655E-4,-3.3968189E-3,-5.500443E-3,1.2008944E-3,-1.8735448E-3,3.9195064E-3,1.6364978E-3],"categories":[],"categories_nodes":[],"categories_segments":[],"categories_sizes":[],"default_left":[0,0,0,0,0,0,0,0,0,0,0,0,0,0,0],"id":52,"left_children":[1,3,5,7,9,11,13,-1,-1,-1,-1,-1,-1,-1,-1],"loss_changes":[1.7699286E2,5.498822E1,7.186978E1,1.9635406E1,1.6041565E1,4.0113754E1,1.320179E1,0E0,0E0,0E0,0E0,0E0,0E0,0E0,0E0],"parents":[2147483647,0,0,1,1,2,2,3,3,4,4,5,5,6,6],"right_children":[2,4,6,8,10,12,14,-1,-1,-1,-1,-1,-1,-1,-1],"split_conditions":[1.5E1,1.3E1,5.42E-1,5.1E0,2.3E1,-4.8E0,-6.1E0,-2.423635E-3,-1.4094655E-4,-3.3968189E-3,-5.500443E-3,1.2008944E-3,-1.8735448E-3,3.9195064E-3,1.6364978E-3],"split_indices":[51,80,55,77,80,25,25,0,0,0,0,0,0,0,0],"split_type":[0,0,0,0,0,0,0,0,0,0,0,0,0,0,0],"sum_hessian":[6.397834E3,3.1530474E3,3.2447869E3,1.6156637E3,1.5373837E3,1.8761055E3,1.3686814E3,1.0172354E3,5.9842834E2,9.366175E2,6.007662E2,6.4711237E2,1.2289932E3,3.361443E2,1.0325371E3],"tree_param":{"num_deleted":"0","num_feature":"106","num_nodes":"15","size_leaf_vector":"1"}},{"base_weights":[1.1815479E-1,2.8684464E-1,-4.5803603E-2,1.5787566E-1,4.221897E-1,8.1302434E-2,-2.1996501E-1,2.423635E-3,1.4094687E-4,3.396819E-3,5.500443E-3,-1.2008941E-3,1.8735444E-3,-3.9195055E-3,-1.6364974E-3],"categories":[],"categories_nodes":[],"categories_segments":[],"categories_sizes":[],"default_left":[0,0,0,0,0,0,0,0,0,0,0,0,0,0,0],"id":53,"left_children":[1,3,5,7,9,11,13,-1,-1,-1,-1,-1,-1,-1,-1],"loss_changes":[1.7699286E2,5.498822E1,7.186976E1,1.9635399E1,1.6041565E1,4.011374E1,1.320179E1,0E0,0E0,0E0,0E0,0E0,0E0,0E0,0E0],"parents":[2147483647,0,0,1,1,2,2,3,3,4,4,5,5,6,6],"right_children":[2,4,6,8,10,12,14,-1,-1,-1,-1,-1,-1,-1,-1],"split_conditions":[1.5E1,1.3E1,5.42E-1,5.1E0,2.3E1,-4.8E0,-6.1E0,2.423635E-3,1.4094687E-4,3.396819E-3,5.500443E-3,-1.2008941E-3,1.8735444E-3,-3.9195055E-3,-1.6364974E-3],"split_indices":[51,80,55,77,80,25,25,0,0,0,0,0,0,0,0],"split_type":[0,0,0,0,0,0,0,0,0,0,0,0,0,0,0],"sum_hessian":[6.3978345E3,3.1530474E3,3.2447869E3,1.6156637E3,1.5373837E3,1.8761055E3,1.3686814E3,1.0172354E3,5.9842834E2,9.3661755E2,6.007662E2,6.4711237E2,1.2289932E3,3.3614432E2,1.032537E3],"tree_param":{"num_deleted":"0","num_feature":"106","num_nodes":"15","size_leaf_vector":"1"}},{"base_weights":[-1.1702096E-1,-2.244858E-1,1.3582306E-1,-9.743177E-2,-3.7083015E-1,-1.4008695E-1,2.0906824E-1,2.52473E-4,-2.355379E-3,-5.058502E-3,-2.9875159E-3,-2.2649167E-3,5.723846E-4,3.4381046E-3,1.2414649E-3],"categories":[],"categories_nodes":[],"categories_segments":[],"categories_sizes":[],"default_left":[0,0,0,0,0,0,0,0,0,0,0,0,0,0,0],"id":54,"left_children":[1,3,5,7,9,11,13,-1,-1,-1,-1,-1,-1,-1,-1],"loss_changes":[1.7383008E2,8.342963E1,3.8595722E1,4.073952E1,2.0147491E1,6.848823E0,1.7217682E1,0E0,0E0,0E0,0E0,0E0,0E0,0E0,0E0],"parents":[2147483647,0,0,1,1,2,2,3,3,4,4,5,5,6,6],"right_children":[2,4,6,8,10,12,14,-1,-1,-1,-1,-1,-1,-1,-1],"split_conditions":[2E1,1.4E1,3.61E-1,2.8E0,8E0,2.7E1,-6.2E0,2.52473E-4,-2.355379E-3,-5.058502E-3,-2.9875159E-3,-2.2649167E-3,5.723846E-4,3.4381046E-3,1.2414649E-3],"split_indices":[28,80,55,25,51,28,25,0,0,0,0,0,0,0,0],"split_type":[0,0,0,0,0,0,0,0,0,0,0,0,0,0,0],"sum_hessian":[6.395312E3,4.4879404E3,1.9073716E3,2.4031912E3,2.0847495E3,3.9993378E2,1.5074377E3,1.2731102E3,1.1300808E3,7.234813E2,1.3612682E3,2.7803864E2,1.2189514E2,5.8159454E2,9.258432E2],"tree_param":{"num_deleted":"0","num_feature":"106","num_nodes":"15","size_leaf_vector":"1"}},{"base_weights":[1.1702096E-1,2.244858E-1,-1.3582304E-1,9.743177E-2,3.7083015E-1,1.4008702E-1,-2.0906825E-1,-2.5247323E-4,2.3553795E-3,5.058502E-3,2.9875156E-3,2.2649174E-3,-5.7238434E-4,-3.4381049E-3,-1.2414647E-3],"categories":[],"categories_nodes":[],"categories_segments":[],"categories_sizes":[],"default_left":[0,0,0,0,0,0,0,0,0,0,0,0,0,0,0],"id":55,"left_children":[1,3,5,7,9,11,13,-1,-1,-1,-1,-1,-1,-1,-1],"loss_changes":[1.7383005E2,8.342966E1,3.859574E1,4.0739536E1,2.0147491E1,6.8488245E0,1.721769E1,0E0,0E0,0E0,0E0,0E0,0E0,0E0,0E0],"parents":[2147483647,0,0,1,1,2,2,3,3,4,4,5,5,6,6],"right_children":[2,4,6,8,10,12,14,-1,-1,-1,-1,-1,-1,-1,-1],"split_conditions":[2E1,1.4E1,3.61E-1,2.8E0,8E0,2.7E1,-6.2E0,-2.5247323E-4,2.3553795E-3,5.058502E-3,2.9875156E-3,2.2649174E-3,-5.7238434E-4,-3.4381049E-3,-1.2414647E-3],"split_indices":[28,80,55,25,51,28,25,0,0,0,0,0,0,0,0],"split_type":[0,0,0,0,0,0,0,0,0,0,0,0,0,0,0],"sum_hessian":[6.395312E3,4.487941E3,1.9073716E3,2.4031912E3,2.0847495E3,3.9993378E2,1.5074377E3,1.2731102E3,1.1300808E3,7.234813E2,1.3612683E3,2.7803864E2,1.2189514E2,5.8159454E2,9.2584326E2],"tree_param":{"num_deleted":"0","num_feature":"106","num_nodes":"15","size_leaf_vector":"1"}},{"base_weights":[-1.1589674E-1,-2.8169197E-1,4.512905E-2,-1.5489677E-1,-4.14972E-1,-1.7307965E-1,1.4362383E-1,-2.2528123E-3,1.4912015E-4,-3.3303152E-3,-5.421402E-3,-4.7570215E-5,-3.0124309E-3,4.9738673E-4,2.6438183E-3],"categories":[],"categories_nodes":[],"categories_segments":[],"categories_sizes":[],"default_left":[0,0,0,0,0,0,0,0,0,0,0,0,0,0,0],"id":56,"left_children":[1,3,5,7,9,11,13,-1,-1,-1,-1,-1,-1,-1,-1],"loss_changes":[1.7071167E2,5.3175446E1,6.9755905E1,1.9318596E1,1.5817963E1,2.1775826E1,2.5336914E1,0E0,0E0,0E0,0E0,0E0,0E0,0E0,0E0],"parents":[2147483647,0,0,1,1,2,2,3,3,4,4,5,5,6,6],"right_children":[2,4,6,8,10,12,14,-1,-1,-1,-1,-1,-1,-1,-1],"split_conditions":[1.5E1,1.3E1,-2E0,6E0,2.3E1,-3.7E0,2.4E1,-2.2528123E-3,1.4912015E-4,-3.3303152E-3,-5.421402E-3,-4.7570215E-5,-3.0124309E-3,4.9738673E-4,2.6438183E-3],"split_indices":[51,80,77,77,80,25,51,0,0,0,0,0,0,0,0],"split_type":[0,0,0,0,0,0,0,0,0,0,0,0,0,0,0],"sum_hessian":[6.3928647E3,3.1494163E3,3.2434485E3,1.6150808E3,1.5343356E3,1.0084769E3,2.2349714E3,1.1415785E3,4.735023E2,9.352979E2,5.990376E2,4.3638745E2,5.720895E2,1.2581868E3,9.767847E2],"tree_param":{"num_deleted":"0","num_feature":"106","num_nodes":"15","size_leaf_vector":"1"}},{"base_weights":[1.1589673E-1,2.8169194E-1,-4.5129057E-2,1.5489677E-1,4.1497198E-1,1.7307965E-1,-1.4362383E-1,2.252812E-3,-1.4912037E-4,3.3303152E-3,5.421402E-3,4.7570327E-5,3.0124309E-3,-4.973868E-4,-2.6438183E-3],"categories":[],"categories_nodes":[],"categories_segments":[],"categories_sizes":[],"default_left":[0,0,0,0,0,0,0,0,0,0,0,0,0,0,0],"id":57,"left_children":[1,3,5,7,9,11,13,-1,-1,-1,-1,-1,-1,-1,-1],"loss_changes":[1.7071167E2,5.317543E1,6.9755905E1,1.9318592E1,1.5817993E1,2.1775818E1,2.533691E1,0E0,0E0,0E0,0E0,0E0,0E0,0E0,0E0],"parents":[2147483647,0,0,1,1,2,2,3,3,4,4,5,5,6,6],"right_children":[2,4,6,8,10,12,14,-1,-1,-1,-1,-1,-1,-1,-1],"split_conditions":[1.5E1,1.3E1,-2E0,6E0,2.3E1,-3.7E0,2.4E1,2.252812E-3,-1.4912037E-4,3.3303152E-3,5.421402E-3,4.7570327E-5,3.0124309E-3,-4.973868E-4,-2.6438183E-3],"split_indices":[51,80,77,77,80,25,51,0,0,0,0,0,0,0,0],"split_type":[0,0,0,0,0,0,0,0,0,0,0,0,0,0,0],"sum_hessian":[6.3928647E3,3.1494163E3,3.2434485E3,1.6150808E3,1.5343354E3,1.0084769E3,2.2349714E3,1.1415785E3,4.735023E2,9.352979E2,5.9903754E2,4.3638745E2,5.720895E2,1.2581868E3,9.767847E2],"tree_param":{"num_deleted":"0","num_feature":"106","num_nodes":"15","size_leaf_vector":"1"}},{"base_weights":[-1.14787586E-1,9.5769085E-2,-2.3950548E-1,-3.7954442E-2,2.43812E-1,-3.3183387E-1,-4.2932156E-2,1.1027717E-3,-1.6243018E-3,3.7191578E-3,1.8267917E-3,-4.5575257E-3,-2.496476E-3,8.463176E-4,-1.671521E-3],"categories":[],"categories_nodes":[],"categories_segments":[],"categories_sizes":[],"default_left":[0,0,0,0,0,0,0,0,0,0,0,0,0,0,0],"id":58,"left_children":[1,3,5,7,9,11,13,-1,-1,-1,-1,-1,-1,-1,-1],"loss_changes":[1.6785756E2,4.7089405E1,7.283797E1,2.3088943E1,8.771996E0,2.7700623E1,2.0360004E1,0E0,0E0,0E0,0E0,0E0,0E0,0E0,0E0],"parents":[2147483647,0,0,1,1,2,2,3,3,4,4,5,5,6,6],"right_children":[2,4,6,8,10,12,14,-1,-1,-1,-1,-1,-1,-1,-1],"split_conditions":[4.59E-1,5.14E-1,3E0,-4.8E0,-6.2E0,8E0,3.1E0,1.1027717E-3,-1.6243018E-3,3.7191578E-3,1.8267917E-3,-4.5575257E-3,-2.496476E-3,8.463176E-4,-1.671521E-3],"split_indices":[3,55,77,25,25,51,25,0,0,0,0,0,0,0,0],"split_type":[0,0,0,0,0,0,0,0,0,0,0,0,0,0,0],"sum_hessian":[6.3902197E3,2.3771675E3,4.0130525E3,1.2493783E3,1.1277891E3,2.730077E3,1.2829757E3,5.703238E2,6.7905457E2,3.626896E2,7.650995E2,1.0868306E3,1.6432462E3,6.3312537E2,6.498503E2],"tree_param":{"num_deleted":"0","num_feature":"106","num_nodes":"15","size_leaf_vector":"1"}},{"base_weights":[1.147876E-1,-9.576906E-2,2.3950551E-1,3.795445E-2,-2.4381196E-1,3.3183387E-1,4.293218E-2,-1.1027715E-3,1.6243018E-3,-3.7191578E-3,-1.8267911E-3,4.5575257E-3,2.4964765E-3,-8.463176E-4,1.6715215E-3],"categories":[],"categories_nodes":[],"categories_segments":[],"categories_sizes":[],"default_left":[0,0,0,0,0,0,0,0,0,0,0,0,0,0,0],"id":59,"left_children":[1,3,5,7,9,11,13,-1,-1,-1,-1,-1,-1,-1,-1],"loss_changes":[1.6785757E2,4.708941E1,7.283797E1,2.3088938E1,8.771996E0,2.7700653E1,2.0360012E1,0E0,0E0,0E0,0E0,0E0,0E0,0E0,0E0],"parents":[2147483647,0,0,1,1,2,2,3,3,4,4,5,5,6,6],"right_children":[2,4,6,8,10,12,14,-1,-1,-1,-1,-1,-1,-1,-1],"split_conditions":[4.59E-1,5.14E-1,3E0,-4.8E0,-6.2E0,8E0,3.1E0,-1.1027715E-3,1.6243018E-3,-3.7191578E-3,-1.8267911E-3,4.5575257E-3,2.4964765E-3,-8.463176E-4,1.6715215E-3],"split_indices":[3,55,77,25,25,51,25,0,0,0,0,0,0,0,0],"split_type":[0,0,0,0,0,0,0,0,0,0,0,0,0,0,0],"sum_hessian":[6.3902197E3,2.3771675E3,4.0130525E3,1.2493783E3,1.1277891E3,2.7300767E3,1.2829757E3,5.703238E2,6.7905457E2,3.626896E2,7.650995E2,1.0868306E3,1.6432461E3,6.3312537E2,6.498503E2],"tree_param":{"num_deleted":"0","num_feature":"106","num_nodes":"15","size_leaf_vector":"1"}},{"base_weights":[-1.13686286E-1,-2.1842518E-1,1.3257876E-1,-9.428025E-2,-3.6169165E-1,-1.395678E-1,2.0371586E-1,2.5500456E-4,-2.2922154E-3,-4.9393377E-3,-2.9123249E-3,-2.2733535E-3,6.069383E-4,3.3424674E-3,1.2163103E-3],"categories":[],"categories_nodes":[],"categories_segments":[],"categories_sizes":[],"default_left":[0,0,0,0,0,0,0,0,0,0,0,0,0,0,0],"id":60,"left_children":[1,3,5,7,9,11,13,-1,-1,-1,-1,-1,-1,-1,-1],"loss_changes":[1.6481491E2,7.9693726E1,3.694711E1,3.884571E1,1.9243591E1,6.9700212E0,1.6162132E1,0E0,0E0,0E0,0E0,0E0,0E0,0E0,0E0],"parents":[2147483647,0,0,1,1,2,2,3,3,4,4,5,5,6,6],"right_children":[2,4,6,8,10,12,14,-1,-1,-1,-1,-1,-1,-1,-1],"split_conditions":[2E1,1.4E1,3.58E-1,2.8E0,8E0,2.7E1,-6.2E0,2.5500456E-4,-2.2922154E-3,-4.9393377E-3,-2.9123249E-3,-2.2733535E-3,6.069383E-4,3.3424674E-3,1.2163103E-3],"split_indices":[28,80,55,25,51,28,25,0,0,0,0,0,0,0,0],"split_type":[0,0,0,0,0,0,0,0,0,0,0,0,0,0,0],"sum_hessian":[6.387654E3,4.4816694E3,1.9059841E3,2.4019563E3,2.0797134E3,3.9476898E2,1.5112151E3,1.2728878E3,1.1290685E3,7.2082086E2,1.3588923E3,2.7438196E2,1.2038704E2,5.8225085E2,9.289643E2],"tree_param":{"num_deleted":"0","num_feature":"106","num_nodes":"15","size_leaf_vector":"1"}},{"base_weights":[1.1368628E-1,2.1842517E-1,-1.3257878E-1,9.428026E-2,3.616916E-1,1.3956778E-1,-2.0371586E-1,-2.5500453E-4,2.2922154E-3,4.939337E-3,2.912325E-3,2.273353E-3,-6.0693815E-4,-3.342468E-3,-1.2163098E-3],"categories":[],"categories_nodes":[],"categories_segments":[],"categories_sizes":[],"default_left":[0,0,0,0,0,0,0,0,0,0,0,0,0,0,0],"id":61,"left_children":[1,3,5,7,9,11,13,-1,-1,-1,-1,-1,-1,-1,-1],"loss_changes":[1.6481487E2,7.969374E1,3.6947105E1,3.8845703E1,1.924353E1,6.970017E0,1.6162148E1,0E0,0E0,0E0,0E0,0E0,0E0,0E0,0E0],"parents":[2147483647,0,0,1,1,2,2,3,3,4,4,5,5,6,6],"right_children":[2,4,6,8,10,12,14,-1,-1,-1,-1,-1,-1,-1,-1],"split_conditions":[2E1,1.4E1,3.58E-1,2.8E0,8E0,2.7E1,-6.2E0,-2.5500453E-4,2.2922154E-3,4.939337E-3,2.912325E-3,2.273353E-3,-6.0693815E-4,-3.342468E-3,-1.2163098E-3],"split_indices":[28,80,55,25,51,28,25,0,0,0,0,0,0,0,0],"split_type":[0,0,0,0,0,0,0,0,0,0,0,0,0,0,0],"sum_hessian":[6.387654E3,4.48167E3,1.9059841E3,2.4019563E3,2.0797134E3,3.9476898E2,1.5112151E3,1.2728878E3,1.1290686E3,7.208209E2,1.3588925E3,2.7438196E2,1.2038703E2,5.8225085E2,9.289643E2],"tree_param":{"num_deleted":"0","num_feature":"106","num_nodes":"15","size_leaf_vector":"1"}},{"base_weights":[-1.1259717E-1,-2.7423447E-1,4.4215467E-2,-1.5026203E-1,-4.0485686E-1,-7.8576125E-2,2.1247947E-1,-2.1964677E-3,1.7027045E-4,-3.2335662E-3,-5.315967E-3,1.1403505E-3,-1.8004649E-3,3.7708066E-3,1.5873027E-3],"categories":[],"categories_nodes":[],"categories_segments":[],"categories_sizes":[],"default_left":[0,0,0,0,0,0,0,0,0,0,0,0,0,0,0],"id":62,"left_children":[1,3,5,7,9,11,13,-1,-1,-1,-1,-1,-1,-1,-1],"loss_changes":[1.6187756E2,5.086441E1,6.7006256E1,1.8750145E1,1.5639526E1,3.666871E1,1.2044193E1,0E0,0E0,0E0,0E0,0E0,0E0,0E0,0E0],"parents":[2147483647,0,0,1,1,2,2,3,3,4,4,5,5,6,6],"right_children":[2,4,6,8,10,12,14,-1,-1,-1,-1,-1,-1,-1,-1],"split_conditions":[1.5E1,1.3E1,5.42E-1,6E0,2.3E1,-4.8E0,-6.1E0,-2.1964677E-3,1.7027045E-4,-3.2335662E-3,-5.315967E-3,1.1403505E-3,-1.8004649E-3,3.7708066E-3,1.5873027E-3],"split_indices":[51,80,55,77,80,25,25,0,0,0,0,0,0,0,0],"split_type":[0,0,0,0,0,0,0,0,0,0,0,0,0,0,0],"sum_hessian":[6.3850376E3,3.1437817E3,3.2412556E3,1.6140516E3,1.5297302E3,1.8741311E3,1.3671245E3,1.1406451E3,4.7340643E2,9.331917E2,5.965385E2,6.4661053E2,1.2275206E3,3.3505103E2,1.0320735E3],"tree_param":{"num_deleted":"0","num_feature":"106","num_nodes":"15","size_leaf_vector":"1"}},{"base_weights":[1.1259717E-1,2.7423447E-1,-4.4215467E-2,1.5026204E-1,4.0485686E-1,7.8576125E-2,-2.1247947E-1,2.1964677E-3,-1.7027034E-4,3.2335662E-3,5.315968E-3,-1.1403505E-3,1.8004649E-3,-3.7708066E-3,-1.5873027E-3],"categories":[],"categories_nodes":[],"categories_segments":[],"categories_sizes":[],"default_left":[0,0,0,0,0,0,0,0,0,0,0,0,0,0,0],"id":63,"left_children":[1,3,5,7,9,11,13,-1,-1,-1,-1,-1,-1,-1,-1],"loss_changes":[1.6187758E2,5.0864395E1,6.7006256E1,1.8750145E1,1.5639526E1,3.666871E1,1.2044193E1,0E0,0E0,0E0,0E0,0E0,0E0,0E0,0E0],"parents":[2147483647,0,0,1,1,2,2,3,3,4,4,5,5,6,6],"right_children":[2,4,6,8,10,12,14,-1,-1,-1,-1,-1,-1,-1,-1],"split_conditions":[1.5E1,1.3E1,5.42E-1,6E0,2.3E1,-4.8E0,-6.1E0,2.1964677E-3,-1.7027034E-4,3.2335662E-3,5.315968E-3,-1.1403505E-3,1.8004649E-3,-3.7708066E-3,-1.5873027E-3],"split_indices":[51,80,55,77,80,25,25,0,0,0,0,0,0,0,0],"split_type":[0,0,0,0,0,0,0,0,0,0,0,0,0,0,0],"sum_hessian":[6.3850376E3,3.1437817E3,3.2412556E3,1.6140516E3,1.5297302E3,1.8741311E3,1.3671245E3,1.1406451E3,4.7340643E2,9.331917E2,5.965386E2,6.4661053E2,1.2275206E3,3.3505103E2,1.0320735E3],"tree_param":{"num_deleted":"0","num_feature":"106","num_nodes":"15","size_leaf_vector":"1"}},{"base_weights":[-1.1152146E-1,-2.1452084E-1,1.3053326E-1,-1.273761E-1,-4.1294482E-1,3.6969914E-3,2.7945748E-1,-6.826178E-5,-2.6473156E-3,-2.9497498E-3,-4.752936E-3,1.1673289E-3,-1.1782865E-3,4.0145363E-3,1.917564E-3],"categories":[],"categories_nodes":[],"categories_segments":[],"categories_sizes":[],"default_left":[0,0,0,0,0,0,0,0,0,0,0,0,0,0,0],"id":64,"left_children":[1,3,5,7,9,11,13,-1,-1,-1,-1,-1,-1,-1,-1],"loss_changes":[1.5917184E2,7.7382904E1,3.600204E1,5.1545124E1,9.908081E0,1.41676445E1,9.302673E0,0E0,0E0,0E0,0E0,0E0,0E0,0E0,0E0],"parents":[2147483647,0,0,1,1,2,2,3,3,4,4,5,5,6,6],"right_children":[2,4,6,8,10,12,14,-1,-1,-1,-1,-1,-1,-1,-1],"split_conditions":[2E1,1.9E1,5E-1,2.8E0,5.28E-1,-4.8E0,-5.9E0,-6.826178E-5,-2.6473156E-3,-2.9497498E-3,-4.752936E-3,1.1673289E-3,-1.1782865E-3,4.0145363E-3,1.917564E-3],"split_indices":[28,80,77,25,3,25,25,0,0,0,0,0,0,0,0],"split_type":[0,0,0,0,0,0,0,0,0,0,0,0,0,0,0],"sum_hessian":[6.3822476E3,4.477213E3,1.9050347E3,3.1120781E3,1.3651348E3,1.029366E3,8.756688E2,1.6579922E3,1.4540859E3,4.7400427E2,8.911305E2,5.3333185E2,4.9603406E2,3.6473236E2,5.1093646E2],"tree_param":{"num_deleted":"0","num_feature":"106","num_nodes":"15","size_leaf_vector":"1"}},{"base_weights":[1.11521445E-1,2.1452083E-1,-1.3053325E-1,1.273761E-1,4.129448E-1,-3.6969997E-3,-2.7945748E-1,6.8261696E-5,2.6473156E-3,2.9497491E-3,4.7529354E-3,-1.1673289E-3,1.1782864E-3,-4.0145353E-3,-1.9175641E-3],"categories":[],"categories_nodes":[],"categories_segments":[],"categories_sizes":[],"default_left":[0,0,0,0,0,0,0,0,0,0,0,0,0,0,0],"id":65,"left_children":[1,3,5,7,9,11,13,-1,-1,-1,-1,-1,-1,-1,-1],"loss_changes":[1.5917183E2,7.738289E1,3.6002033E1,5.1545135E1,9.908081E0,1.4167644E1,9.302666E0,0E0,0E0,0E0,0E0,0E0,0E0,0E0,0E0],"parents":[2147483647,0,0,1,1,2,2,3,3,4,4,5,5,6,6],"right_children":[2,4,6,8,10,12,14,-1,-1,-1,-1,-1,-1,-1,-1],"split_conditions":[2E1,1.9E1,5E-1,2.8E0,5.28E-1,-4.8E0,-5.9E0,6.8261696E-5,2.6473156E-3,2.9497491E-3,4.7529354E-3,-1.1673289E-3,1.1782864E-3,-4.0145353E-3,-1.9175641E-3],"split_indices":[28,80,77,25,3,25,25,0,0,0,0,0,0,0,0],"split_type":[0,0,0,0,0,0,0,0,0,0,0,0,0,0,0],"sum_hessian":[6.3822476E3,4.477213E3,1.9050348E3,3.1120781E3,1.3651346E3,1.029366E3,8.756689E2,1.6579923E3,1.4540859E3,4.7400424E2,8.9113043E2,5.3333185E2,4.9603406E2,3.647324E2,5.1093646E2],"tree_param":{"num_deleted":"0","num_feature":"106","num_nodes":"15","size_leaf_vector":"1"}},{"base_weights":[-1.1045485E-1,9.2656106E-2,-2.3090087E-1,-1.558343E-1,1.6764238E-1,-3.2106993E-1,-3.9373E-2,2.7311135E-5,-2.8205242E-3,8.1635464E-4,2.791972E-3,-4.419966E-3,-2.4103024E-3,8.39634E-4,-1.5958054E-3],"categories":[],"categories_nodes":[],"categories_segments":[],"categories_sizes":[],"default_left":[0,0,0,0,0,0,0,0,0,0,0,0,0,0,0],"id":66,"left_children":[1,3,5,7,9,11,13,-1,-1,-1,-1,-1,-1,-1,-1],"loss_changes":[1.5611362E2,4.4297096E1,6.9163864E1,1.10340605E1,1.749303E1,2.6252167E1,1.9039661E1,0E0,0E0,0E0,0E0,0E0,0E0,0E0,0E0],"parents":[2147483647,0,0,1,1,2,2,3,3,4,4,5,5,6,6],"right_children":[2,4,6,8,10,12,14,-1,-1,-1,-1,-1,-1,-1,-1],"split_conditions":[4.59E-1,3.71E-1,3E0,-4.8E0,2.6E1,8E0,3.1E0,2.7311135E-5,-2.8205242E-3,8.1635464E-4,2.791972E-3,-4.419966E-3,-2.4103024E-3,8.39634E-4,-1.5958054E-3],"split_indices":[3,55,77,25,51,51,25,0,0,0,0,0,0,0,0],"split_type":[0,0,0,0,0,0,0,0,0,0,0,0,0,0,0],"sum_hessian":[6.379511E3,2.3748972E3,4.0046143E3,5.502834E2,1.8246138E3,2.7223076E3,1.2823068E3,2.4432318E2,3.059602E2,1.0312605E3,7.933532E2,1.0824233E3,1.6398842E3,6.330652E2,6.492416E2],"tree_param":{"num_deleted":"0","num_feature":"106","num_nodes":"15","size_leaf_vector":"1"}},{"base_weights":[1.1045484E-1,-9.265609E-2,2.3090084E-1,1.5583432E-1,-1.6764237E-1,3.2106993E-1,3.9372943E-2,-2.7310747E-5,2.8205242E-3,-8.163546E-4,-2.7919714E-3,4.419966E-3,2.4103024E-3,-8.3963457E-4,1.5958048E-3],"categories":[],"categories_nodes":[],"categories_segments":[],"categories_sizes":[],"default_left":[0,0,0,0,0,0,0,0,0,0,0,0,0,0,0],"id":67,"left_children":[1,3,5,7,9,11,13,-1,-1,-1,-1,-1,-1,-1,-1],"loss_changes":[1.5611359E2,4.4297096E1,6.9163895E1,1.1034057E1,1.7493027E1,2.6252197E1,1.9039661E1,0E0,0E0,0E0,0E0,0E0,0E0,0E0,0E0],"parents":[2147483647,0,0,1,1,2,2,3,3,4,4,5,5,6,6],"right_children":[2,4,6,8,10,12,14,-1,-1,-1,-1,-1,-1,-1,-1],"split_conditions":[4.59E-1,3.71E-1,3E0,-4.8E0,2.6E1,8E0,3.1E0,-2.7310747E-5,2.8205242E-3,-8.163546E-4,-2.7919714E-3,4.419966E-3,2.4103024E-3,-8.3963457E-4,1.5958048E-3],"split_indices":[3,55,77,25,51,51,25,0,0,0,0,0,0,0,0],"split_type":[0,0,0,0,0,0,0,0,0,0,0,0,0,0,0],"sum_hessian":[6.379511E3,2.3748972E3,4.0046143E3,5.502834E2,1.8246138E3,2.7223076E3,1.2823068E3,2.4432318E2,3.059602E2,1.0312605E3,7.933532E2,1.0824233E3,1.6398842E3,6.330651E2,6.492416E2],"tree_param":{"num_deleted":"0","num_feature":"106","num_nodes":"15","size_leaf_vector":"1"}},{"base_weights":[-1.0939844E-1,-2.6695648E-1,4.327402E-2,-3.278048E-1,-1.0012609E-2,-1.6665655E-1,1.3799621E-1,-2.6856367E-3,-5.2087847E-3,1.7850175E-4,-4.1377256E-3,-6.412834E-5,-2.8891398E-3,2.1786922E-4,2.2511613E-3],"categories":[],"categories_nodes":[],"categories_segments":[],"categories_sizes":[],"default_left":[0,0,0,0,0,0,0,0,0,0,0,0,0,0,0],"id":68,"left_children":[1,3,5,7,9,11,13,-1,-1,-1,-1,-1,-1,-1,-1],"loss_changes":[1.5342801E2,4.907094E1,6.445026E1,2.8887085E1,6.7801223E0,1.9742384E1,2.2603886E1,0E0,0E0,0E0,0E0,0E0,0E0,0E0,0E0],"parents":[2147483647,0,0,1,1,2,2,3,3,4,4,5,5,6,6],"right_children":[2,4,6,8,10,12,14,-1,-1,-1,-1,-1,-1,-1,-1],"split_conditions":[1.5E1,5.1E0,-2E0,2.3E1,1.08E1,-3.7E0,2E1,-2.6856367E-3,-5.2087847E-3,1.7850175E-4,-4.1377256E-3,-6.412834E-5,-2.8891398E-3,2.1786922E-4,2.2511613E-3],"split_indices":[51,77,77,80,25,25,28,0,0,0,0,0,0,0,0],"split_type":[0,0,0,0,0,0,0,0,0,0,0,0,0,0,0],"sum_hessian":[6.3767974E3,3.1378188E3,3.2389788E3,2.536791E3,6.0102765E2,1.00682245E3,2.2321562E3,1.9430062E3,5.9378485E2,5.631233E2,3.7904385E1,4.361759E2,5.7064655E2,9.569416E2,1.2752147E3],"tree_param":{"num_deleted":"0","num_feature":"106","num_nodes":"15","size_leaf_vector":"1"}},{"base_weights":[1.09398425E-1,2.6695645E-1,-4.327403E-2,3.278048E-1,1.0012634E-2,1.6665654E-1,-1.3799623E-1,2.6856367E-3,5.2087842E-3,-1.7850148E-4,4.1377256E-3,6.412829E-5,2.8891396E-3,-2.1786902E-4,-2.2511615E-3],"categories":[],"categories_nodes":[],"categories_segments":[],"categories_sizes":[],"default_left":[0,0,0,0,0,0,0,0,0,0,0,0,0,0,0],"id":69,"left_children":[1,3,5,7,9,11,13,-1,-1,-1,-1,-1,-1,-1,-1],"loss_changes":[1.5342801E2,4.9070923E1,6.445024E1,2.8887115E1,6.7801223E0,1.9742378E1,2.26039E1,0E0,0E0,0E0,0E0,0E0,0E0,0E0,0E0],"parents":[2147483647,0,0,1,1,2,2,3,3,4,4,5,5,6,6],"right_children":[2,4,6,8,10,12,14,-1,-1,-1,-1,-1,-1,-1,-1],"split_conditions":[1.5E1,5.1E0,-2E0,2.3E1,1.08E1,-3.7E0,2E1,2.6856367E-3,5.2087842E-3,-1.7850148E-4,4.1377256E-3,6.412829E-5,2.8891396E-3,-2.1786902E-4,-2.2511615E-3],"split_indices":[51,77,77,80,25,25,28,0,0,0,0,0,0,0,0],"split_type":[0,0,0,0,0,0,0,0,0,0,0,0,0,0,0],"sum_hessian":[6.3767974E3,3.1378188E3,3.2389788E3,2.536791E3,6.010277E2,1.00682245E3,2.2321562E3,1.9430062E3,5.937848E2,5.6312335E2,3.790439E1,4.361759E2,5.7064655E2,9.569416E2,1.2752147E3],"tree_param":{"num_deleted":"0","num_feature":"106","num_nodes":"15","size_leaf_vector":"1"}},{"base_weights":[-1.0835625E-1,-2.0863919E-1,1.2714736E-1,-1.2872323E-1,-4.1728744E-1,2.9552116E-3,2.7306265E-1,-1.7130357E-4,-2.6071332E-3,-3.1068495E-3,-4.8010345E-3,1.1311441E-3,-1.1548394E-3,4.0133777E-3,1.9199232E-3],"categories":[],"categories_nodes":[],"categories_segments":[],"categories_sizes":[],"default_left":[0,0,0,0,0,0,0,0,0,0,0,0,0,0,0],"id":70,"left_children":[1,3,5,7,9,11,13,-1,-1,-1,-1,-1,-1,-1,-1],"loss_changes":[1.5058255E2,7.450403E1,3.451149E1,4.7637417E1,8.140121E0,1.3449552E1,9.029114E0,0E0,0E0,0E0,0E0,0E0,0E0,0E0,0E0],"parents":[2147483647,0,0,1,1,2,2,3,3,4,4,5,5,6,6],"right_children":[2,4,6,8,10,12,14,-1,-1,-1,-1,-1,-1,-1,-1],"split_conditions":[2E1,2E1,5E-1,2.9E0,5.36E-1,-4.8E0,-6.1E0,-1.7130357E-4,-2.6071332E-3,-3.1068495E-3,-4.8010345E-3,1.1311441E-3,-1.1548394E-3,4.0133777E-3,1.9199232E-3],"split_indices":[28,80,77,25,3,25,25,0,0,0,0,0,0,0,0],"split_type":[0,0,0,0,0,0,0,0,0,0,0,0,0,0,0],"sum_hessian":[6.373902E3,4.4704106E3,1.9034911E3,3.2335288E3,1.2368818E3,1.0288398E3,8.7465125E2,1.7527617E3,1.4807671E3,4.6080856E2,7.7607324E2,5.330758E2,4.9576407E2,3.371842E2,5.3746704E2],"tree_param":{"num_deleted":"0","num_feature":"106","num_nodes":"15","size_leaf_vector":"1"}},{"base_weights":[1.08356275E-1,2.0863922E-1,-1.2714736E-1,1.2872325E-1,4.1728747E-1,-2.955199E-3,-2.7306262E-1,1.7130378E-4,2.6071332E-3,3.1068495E-3,4.801035E-3,-1.1311441E-3,1.1548398E-3,-4.0133772E-3,-1.9199236E-3],"categories":[],"categories_nodes":[],"categories_segments":[],"categories_sizes":[],"default_left":[0,0,0,0,0,0,0,0,0,0,0,0,0,0,0],"id":71,"left_children":[1,3,5,7,9,11,13,-1,-1,-1,-1,-1,-1,-1,-1],"loss_changes":[1.5058258E2,7.450404E1,3.451149E1,4.7637413E1,8.140152E0,1.3449555E1,9.0290985E0,0E0,0E0,0E0,0E0,0E0,0E0,0E0,0E0],"parents":[2147483647,0,0,1,1,2,2,3,3,4,4,5,5,6,6],"right_children":[2,4,6,8,10,12,14,-1,-1,-1,-1,-1,-1,-1,-1],"split_conditions":[2E1,2E1,5E-1,2.9E0,5.36E-1,-4.8E0,-6.1E0,1.7130378E-4,2.6071332E-3,3.1068495E-3,4.801035E-3,-1.1311441E-3,1.1548398E-3,-4.0133772E-3,-1.9199236E-3],"split_indices":[28,80,77,25,3,25,25,0,0,0,0,0,0,0,0],"split_type":[0,0,0,0,0,0,0,0,0,0,0,0,0,0,0],"sum_hessian":[6.373902E3,4.4704106E3,1.9034911E3,3.2335288E3,1.2368818E3,1.0288398E3,8.7465125E2,1.7527617E3,1.4807671E3,4.608086E2,7.7607324E2,5.330758E2,4.9576407E2,3.371842E2,5.3746704E2],"tree_param":{"num_deleted":"0","num_feature":"106","num_nodes":"15","size_leaf_vector":"1"}},{"base_weights":[-1.07322246E-1,-2.6216865E-1,4.2595126E-2,-3.2240206E-1,-8.18607E-3,-7.467948E-2,2.0774288E-1,-2.6405016E-3,-5.13074E-3,1.9350868E-4,-4.0748934E-3,1.090889E-3,-1.7120835E-3,3.631281E-3,1.5688041E-3],"categories":[],"categories_nodes":[],"categories_segments":[],"categories_sizes":[],"default_left":[0,0,0,0,0,0,0,0,0,0,0,0,0,0,0],"id":72,"left_children":[1,3,5,7,9,11,13,-1,-1,-1,-1,-1,-1,-1,-1],"loss_changes":[1.479327E2,4.7951736E1,6.2735817E1,2.805478E1,6.6263175E0,3.3623512E1,1.0572922E1,0E0,0E0,0E0,0E0,0E0,0E0,0E0,0E0],"parents":[2147483647,0,0,1,1,2,2,3,3,4,4,5,5,6,6],"right_children":[2,4,6,8,10,12,14,-1,-1,-1,-1,-1,-1,-1,-1],"split_conditions":[1.5E1,5.1E0,5.45E-1,2.3E1,1.08E1,-4.8E0,-6.1E0,-2.6405016E-3,-5.13074E-3,1.9350868E-4,-4.0748934E-3,1.090889E-3,-1.7120835E-3,3.631281E-3,1.5688041E-3],"split_indices":[51,77,55,80,25,25,25,0,0,0,0,0,0,0,0],"split_type":[0,0,0,0,0,0,0,0,0,0,0,0,0,0,0],"sum_hessian":[6.3710376E3,3.1336301E3,3.2374072E3,2.5327131E3,6.00917E2,1.8934089E3,1.3439983E3,1.9410673E3,5.91646E2,5.630399E2,3.7877083E1,6.520081E2,1.2414009E3,3.2992767E2,1.0140707E3],"tree_param":{"num_deleted":"0","num_feature":"106","num_nodes":"15","size_leaf_vector":"1"}},{"base_weights":[1.0732224E-1,2.6216865E-1,-4.2595133E-2,3.2240206E-1,8.186074E-3,7.467948E-2,-2.0774291E-1,2.6405016E-3,5.13074E-3,-1.9350869E-4,4.0748944E-3,-1.0908892E-3,1.7120836E-3,-3.631281E-3,-1.5688045E-3],"categories":[],"categories_nodes":[],"categories_segments":[],"categories_sizes":[],"default_left":[0,0,0,0,0,0,0,0,0,0,0,0,0,0,0],"id":73,"left_children":[1,3,5,7,9,11,13,-1,-1,-1,-1,-1,-1,-1,-1],"loss_changes":[1.4793271E2,4.7951706E1,6.2735832E1,2.805481E1,6.6263204E0,3.362352E1,1.0572918E1,0E0,0E0,0E0,0E0,0E0,0E0,0E0,0E0],"parents":[2147483647,0,0,1,1,2,2,3,3,4,4,5,5,6,6],"right_children":[2,4,6,8,10,12,14,-1,-1,-1,-1,-1,-1,-1,-1],"split_conditions":[1.5E1,5.1E0,5.45E-1,2.3E1,1.08E1,-4.8E0,-6.1E0,2.6405016E-3,5.13074E-3,-1.9350869E-4,4.0748944E-3,-1.0908892E-3,1.7120836E-3,-3.631281E-3,-1.5688045E-3],"split_indices":[51,77,55,80,25,25,25,0,0,0,0,0,0,0,0],"split_type":[0,0,0,0,0,0,0,0,0,0,0,0,0,0,0],"sum_hessian":[6.3710376E3,3.1336301E3,3.2374072E3,2.5327131E3,6.0091693E2,1.8934089E3,1.3439983E3,1.9410673E3,5.9164594E2,5.6303986E2,3.787708E1,6.520081E2,1.2414009E3,3.2992767E2,1.0140707E3],"tree_param":{"num_deleted":"0","num_feature":"106","num_nodes":"15","size_leaf_vector":"1"}},{"base_weights":[-1.0630059E-1,-2.0492741E-1,1.2519787E-1,-8.6764276E-2,-3.4195083E-1,-1.3529073E-1,1.9334784E-1,-2.4276918E-3,6.1922234E-5,-4.696726E-3,-2.741982E-3,-2.1951813E-3,5.667765E-4,3.1723762E-3,1.1565223E-3],"categories":[],"categories_nodes":[],"categories_segments":[],"categories_sizes":[],"default_left":[0,0,0,0,0,0,0,0,0,0,0,0,0,0,0],"id":74,"left_children":[1,3,5,7,9,11,13,-1,-1,-1,-1,-1,-1,-1,-1],"loss_changes":[1.4544351E2,7.229021E1,3.3816063E1,3.480144E1,1.776593E1,6.4040437E0,1.448954E1,0E0,0E0,0E0,0E0,0E0,0E0,0E0,0E0],"parents":[2147483647,0,0,1,1,2,2,3,3,4,4,5,5,6,6],"right_children":[2,4,6,8,10,12,14,-1,-1,-1,-1,-1,-1,-1,-1],"split_conditions":[2E1,1.4E1,3.58E-1,8E0,8E0,2.7E1,-6.2E0,-2.4276918E-3,6.1922234E-5,-4.696726E-3,-2.741982E-3,-2.1951813E-3,5.667765E-4,3.1723762E-3,1.1565223E-3],"split_indices":[28,80,55,51,51,28,25,0,0,0,0,0,0,0,0],"split_type":[0,0,0,0,0,0,0,0,0,0,0,0,0,0,0],"sum_hessian":[6.3680493E3,4.4656387E3,1.9024108E3,2.398719E3,2.0669197E3,3.9429974E2,1.5081111E3,8.950251E2,1.5036938E3,7.143511E2,1.3525686E3,2.7395615E2,1.203436E2,5.800722E2,9.280389E2],"tree_param":{"num_deleted":"0","num_feature":"106","num_nodes":"15","size_leaf_vector":"1"}},{"base_weights":[1.0630059E-1,2.0492741E-1,-1.2519789E-1,8.676427E-2,3.4195083E-1,1.3529068E-1,-1.9334784E-1,2.4276914E-3,-6.192204E-5,4.6967254E-3,2.7419822E-3,2.1951809E-3,-5.6677725E-4,-3.1723762E-3,-1.1565223E-3],"categories":[],"categories_nodes":[],"categories_segments":[],"categories_sizes":[],"default_left":[0,0,0,0,0,0,0,0,0,0,0,0,0,0,0],"id":75,"left_children":[1,3,5,7,9,11,13,-1,-1,-1,-1,-1,-1,-1,-1],"loss_changes":[1.4544354E2,7.229021E1,3.3816048E1,3.4801414E1,1.7765915E1,6.404045E0,1.448954E1,0E0,0E0,0E0,0E0,0E0,0E0,0E0,0E0],"parents":[2147483647,0,0,1,1,2,2,3,3,4,4,5,5,6,6],"right_children":[2,4,6,8,10,12,14,-1,-1,-1,-1,-1,-1,-1,-1],"split_conditions":[2E1,1.4E1,3.58E-1,8E0,8E0,2.7E1,-6.2E0,2.4276914E-3,-6.192204E-5,4.6967254E-3,2.7419822E-3,2.1951809E-3,-5.6677725E-4,-3.1723762E-3,-1.1565223E-3],"split_indices":[28,80,55,51,51,28,25,0,0,0,0,0,0,0,0],"split_type":[0,0,0,0,0,0,0,0,0,0,0,0,0,0,0],"sum_hessian":[6.3680493E3,4.4656387E3,1.9024108E3,2.398719E3,2.0669197E3,3.942997E2,1.5081111E3,8.950251E2,1.5036938E3,7.143511E2,1.3525686E3,2.7395612E2,1.2034359E2,5.800722E2,9.280389E2],"tree_param":{"num_deleted":"0","num_feature":"106","num_nodes":"15","size_leaf_vector":"1"}},{"base_weights":[-1.0528752E-1,-2.5755924E-1,4.200793E-2,-3.1708908E-1,-6.9230776E-3,-1.622616E-1,1.3414651E-1,-2.5940335E-3,-5.0602616E-3,2.0267822E-4,-4.014921E-3,-7.2769406E-5,-2.8069231E-3,4.8383253E-4,2.448141E-3],"categories":[],"categories_nodes":[],"categories_segments":[],"categories_sizes":[],"default_left":[0,0,0,0,0,0,0,0,0,0,0,0,0,0,0],"id":76,"left_children":[1,3,5,7,9,11,13,-1,-1,-1,-1,-1,-1,-1,-1],"loss_changes":[1.4279633E2,4.6703384E1,6.094195E1,2.7437744E1,6.4649134E0,1.8474289E1,2.116483E1,0E0,0E0,0E0,0E0,0E0,0E0,0E0,0E0],"parents":[2147483647,0,0,1,1,2,2,3,3,4,4,5,5,6,6],"right_children":[2,4,6,8,10,12,14,-1,-1,-1,-1,-1,-1,-1,-1],"split_conditions":[1.5E1,5.1E0,-2E0,2.3E1,1.08E1,-3.7E0,2.4E1,-2.5940335E-3,-5.0602616E-3,2.0267822E-4,-4.014921E-3,-7.2769406E-5,-2.8069231E-3,4.8383253E-4,2.448141E-3],"split_indices":[51,77,77,80,25,25,51,0,0,0,0,0,0,0,0],"split_type":[0,0,0,0,0,0,0,0,0,0,0,0,0,0,0],"sum_hessian":[6.3651313E3,3.1293303E3,3.2358008E3,2.5285068E3,6.0082355E2,1.0056134E3,2.2301873E3,1.9389003E3,5.896066E2,5.629759E2,3.7847675E1,4.3604425E2,5.6956915E2,1.2572797E3,9.729077E2],"tree_param":{"num_deleted":"0","num_feature":"106","num_nodes":"15","size_leaf_vector":"1"}},{"base_weights":[1.05287544E-1,2.5755924E-1,-4.2007912E-2,3.170891E-1,6.9230758E-3,1.622616E-1,-1.341465E-1,2.5940337E-3,5.0602616E-3,-2.0267822E-4,4.0149204E-3,7.276943E-5,2.8069227E-3,-4.8383218E-4,-2.4481409E-3],"categories":[],"categories_nodes":[],"categories_segments":[],"categories_sizes":[],"default_left":[0,0,0,0,0,0,0,0,0,0,0,0,0,0,0],"id":77,"left_children":[1,3,5,7,9,11,13,-1,-1,-1,-1,-1,-1,-1,-1],"loss_changes":[1.4279636E2,4.670337E1,6.0941933E1,