{"learner":{"attributes":{},"feature_names":[],"feature_types":[],"gradient_booster":{"model":{"gbtree_model_param":{"num_parallel_tree":"1","num_trees":"1500"},"iteration_indptr":[0,2,4,6,8,10,12,14,16,18,20,22,24,26,28,30,32,34,36,38,40,42,44,46,48,50,52,54,56,58,60,62,64,66,68,70,72,74,76,78,80,82,84,86,88,90,92,94,96,98,100,102,104,106,108,110,112,114,116,118,120,122,124,126,128,130,132,134,136,138,140,142,144,146,148,150,152,154,156,158,160,162,164,166,168,170,172,174,176,178,180,182,184,186,188,190,192,194,196,198,200,202,204,206,208,210,212,214,216,218,220,222,224,226,228,230,232,234,236,238,240,242,244,246,248,250,252,254,256,258,260,262,264,266,268,270,272,274,276,278,280,282,284,286,288,290,292,294,296,298,300,302,304,306,308,310,312,314,316,318,320,322,324,326,328,330,332,334,336,338,340,342,344,346,348,350,352,354,356,358,360,362,364,366,368,370,372,374,376,378,380,382,384,386,388,390,392,394,396,398,400,402,404,406,408,410,412,414,416,418,420,422,424,426,428,430,432,434,436,438,440,442,444,446,448,450,452,454,456,458,460,462,464,466,468,470,472,474,476,478,480,482,484,486,488,490,492,494,496,498,500,502,504,506,508,510,512,514,516,518,520,522,524,526,528,530,532,534,536,538,540,542,544,546,548,550,552,554,556,558,560,562,564,566,568,570,572,574,576,578,580,582,584,586,588,590,592,594,596,598,600,602,604,606,608,610,612,614,616,618,620,622,624,626,628,630,632,634,636,638,640,642,644,646,648,650,652,654,656,658,660,662,664,666,668,670,672,674,676,678,680,682,684,686,688,690,692,694,696,698,700,702,704,706,708,710,712,714,716,718,720,722,724,726,728,730,732,734,736,738,740,742,744,746,748,750,752,754,756,758,760,762,764,766,768,770,772,774,776,778,780,782,784,786,788,790,792,794,796,798,800,802,804,806,808,810,812,814,816,818,820,822,824,826,828,830,832,834,836,838,840,842,844,846,848,850,852,854,856,858,860,862,864,866,868,870,872,874,876,878,880,882,884,886,888,890,892,894,896,898,900,902,904,906,908,910,912,914,916,918,920,922,924,926,928,930,932,934,936,938,940,942,944,946,948,950,952,954,956,958,960,962,964,966,968,970,972,974,976,978,980,982,984,986,988,990,992,994,996,998,1000,1002,1004,1006,1008,1010,1012,1014,1016,1018,1020,1022,1024,1026,1028,1030,1032,1034,1036,1038,1040,1042,1044,1046,1048,1050,1052,1054,1056,1058,1060,1062,1064,1066,1068,1070,1072,1074,1076,1078,1080,1082,1084,1086,1088,1090,1092,1094,1096,1098,1100,1102,1104,1106,1108,1110,1112,1114,1116,1118,1120,1122,1124,1126,1128,1130,1132,1134,1136,1138,1140,1142,1144,1146,1148,1150,1152,1154,1156,1158,1160,1162,1164,1166,1168,1170,1172,1174,1176,1178,1180,1182,1184,1186,1188,1190,1192,1194,1196,1198,1200,1202,1204,1206,1208,1210,1212,1214,1216,1218,1220,1222,1224,1226,1228,1230,1232,1234,1236,1238,1240,1242,1244,1246,1248,1250,1252,1254,1256,1258,1260,1262,1264,1266,1268,1270,1272,1274,1276,1278,1280,1282,1284,1286,1288,1290,1292,1294,1296,1298,1300,1302,1304,1306,1308,1310,1312,1314,1316,1318,1320,1322,1324,1326,1328,1330,1332,1334,1336,1338,1340,1342,1344,1346,1348,1350,1352,1354,1356,1358,1360,1362,1364,1366,1368,1370,1372,1374,1376,1378,1380,1382,1384,1386,1388,1390,1392,1394,1396,1398,1400,1402,1404,1406,1408,1410,1412,1414,1416,1418,1420,1422,1424,1426,1428,1430,1432,1434,1436,1438,1440,1442,1444,1446,1448,1450,1452,1454,1456,1458,1460,1462,1464,1466,1468,1470,1472,1474,1476,1478,1480,1482,1484,1486,1488,1490,1492,1494,1496,1498,1500],"tree_info":[0,1,0,1,0,1,0,1,0,1,0,1,0,1,0,1,0,1,0,1,0,1,0,1,0,1,0,1,0,1,0,1,0,1,0,1,0,1,0,1,0,1,0,1,0,1,0,1,0,1,0,1,0,1,0,1,0,1,0,1,0,1,0,1,0,1,0,1,0,1,0,1,0,1,0,1,0,1,0,1,0,1,0,1,0,1,0,1,0,1,0,1,0,1,0,1,0,1,0,1,0,1,0,1,0,1,0,1,0,1,0,1,0,1,0,1,0,1,0,1,0,1,0,1,0,1,0,1,0,1,0,1,0,1,0,1,0,1,0,1,0,1,0,1,0,1,0,1,0,1,0,1,0,1,0,1,0,1,0,1,0,1,0,1,0,1,0,1,0,1,0,1,0,1,0,1,0,1,0,1,0,1,0,1,0,1,0,1,0,1,0,1,0,1,0,1,0,1,0,1,0,1,0,1,0,1,0,1,0,1,0,1,0,1,0,1,0,1,0,1,0,1,0,1,0,1,0,1,0,1,0,1,0,1,0,1,0,1,0,1,0,1,0,1,0,1,0,1,0,1,0,1,0,1,0,1,0,1,0,1,0,1,0,1,0,1,0,1,0,1,0,1,0,1,0,1,0,1,0,1,0,1,0,1,0,1,0,1,0,1,0,1,0,1,0,1,0,1,0,1,0,1,0,1,0,1,0,1,0,1,0,1,0,1,0,1,0,1,0,1,0,1,0,1,0,1,0,1,0,1,0,1,0,1,0,1,0,1,0,1,0,1,0,1,0,1,0,1,0,1,0,1,0,1,0,1,0,1,0,1,0,1,0,1,0,1,0,1,0,1,0,1,0,1,0,1,0,1,0,1,0,1,0,1,0,1,0,1,0,1,0,1,0,1,0,1,0,1,0,1,0,1,0,1,0,1,0,1,0,1,0,1,0,1,0,1,0,1,0,1,0,1,0,1,0,1,0,1,0,1,0,1,0,1,0,1,0,1,0,1,0,1,0,1,0,1,0,1,0,1,0,1,0,1,0,1,0,1,0,1,0,1,0,1,0,1,0,1,0,1,0,1,0,1,0,1,0,1,0,1,0,1,0,1,0,1,0,1,0,1,0,1,0,1,0,1,0,1,0,1,0,1,0,1,0,1,0,1,0,1,0,1,0,1,0,1,0,1,0,1,0,1,0,1,0,1,0,1,0,1,0,1,0,1,0,1,0,1,0,1,0,1,0,1,0,1,0,1,0,1,0,1,0,1,0,1,0,1,0,1,0,1,0,1,0,1,0,1,0,1,0,1,0,1,0,1,0,1,0,1,0,1,0,1,0,1,0,1,0,1,0,1,0,1,0,1,0,1,0,1,0,1,0,1,0,1,0,1,0,1,0,1,0,1,0,1,0,1,0,1,0,1,0,1,0,1,0,1,0,1,0,1,0,1,0,1,0,1,0,1,0,1,0,1,0,1,0,1,0,1,0,1,0,1,0,1,0,1,0,1,0,1,0,1,0,1,0,1,0,1,0,1,0,1,0,1,0,1,0,1,0,1,0,1,0,1,0,1,0,1,0,1,0,1,0,1,0,1,0,1,0,1,0,1,0,1,0,1,0,1,0,1,0,1,0,1,0,1,0,1,0,1,0,1,0,1,0,1,0,1,0,1,0,1,0,1,0,1,0,1,0,1,0,1,0,1,0,1,0,1,0,1,0,1,0,1,0,1,0,1,0,1,0,1,0,1,0,1,0,1,0,1,0,1,0,1,0,1,0,1,0,1,0,1,0,1,0,1,0,1,0,1,0,1,0,1,0,1,0,1,0,1,0,1,0,1,0,1,0,1,0,1,0,1,0,1,0,1,0,1,0,1,0,1,0,1,0,1,0,1,0,1,0,1,0,1,0,1,0,1,0,1,0,1,0,1,0,1,0,1,0,1,0,1,0,1,0,1,0,1,0,1,0,1,0,1,0,1,0,1,0,1,0,1,0,1,0,1,0,1,0,1,0,1,0,1,0,1,0,1,0,1,0,1,0,1,0,1,0,1,0,1,0,1,0,1,0,1,0,1,0,1,0,1,0,1,0,1,0,1,0,1,0,1,0,1,0,1,0,1,0,1,0,1,0,1,0,1,0,1,0,1,0,1,0,1,0,1,0,1,0,1,0,1,0,1,0,1,0,1,0,1,0,1,0,1,0,1,0,1,0,1,0,1,0,1,0,1,0,1,0,1,0,1,0,1,0,1,0,1,0,1,0,1,0,1,0,1,0,1,0,1,0,1,0,1,0,1,0,1,0,1,0,1,0,1,0,1,0,1,0,1,0,1,0,1,0,1,0,1,0,1,0,1,0,1,0,1,0,1,0,1,0,1,0,1,0,1,0,1,0,1,0,1,0,1,0,1,0,1,0,1,0,1,0,1,0,1,0,1,0,1,0,1,0,1,0,1,0,1,0,1,0,1,0,1,0,1,0,1,0,1,0,1,0,1,0,1,0,1,0,1,0,1,0,1,0,1,0,1,0,1,0,1,0,1,0,1,0,1,0,1,0,1,0,1,0,1,0,1,0,1,0,1,0,1,0,1,0,1,0,1,0,1,0,1,0,1,0,1,0,1,0,1,0,1,0,1,0,1,0,1,0,1,0,1,0,1,0,1,0,1,0,1,0,1,0,1,0,1,0,1,0,1,0,1,0,1,0,1,0,1,0,1,0,1,0,1,0,1,0,1,0,1,0,1,0,1,0,1,0,1,0,1,0,1,0,1,0,1,0,1,0,1,0,1,0,1,0,1,0,1,0,1,0,1,0,1,0,1,0,1,0,1,0,1,0,1,0,1,0,1,0,1,0,1,0,1,0,1,0,1,0,1,0,1,0,1,0,1,0,1,0,1,0,1,0,1,0,1,0,1,0,1,0,1,0,1,0,1,0,1,0,1,0,1,0,1,0,1,0,1,0,1,0,1,0,1,0,1,0,1,0,1,0,1,0,1,0,1,0,1,0,1,0,1,0,1,0,1,0,1,0,1,0,1,0,1,0,1,0,1,0,1,0,1,0,1,0,1,0,1,0,1,0,1,0,1,0,1,0,1,0,1,0,1,0,1,0,1,0,1,0,1,0,1,0,1,0,1,0,1,0,1,0,1,0,1,0,1,0,1,0,1,0,1,0,1,0,1,0,1,0,1,0,1,0,1,0,1,0,1,0,1,0,1,0,1,0,1,0,1,0,1,0,1,0,1,0,1,0,1,0,1,0,1,0,1,0,1,0,1,0,1,0,1,0,1,0,1,0,1,0,1,0,1,0,1,0,1,0,1,0,1,0,1,0,1,0,1,0,1,0,1,0,1,0,1,0,1,0,1,0,1,0,1,0,1,0,1,0,1,0,1,0,1,0,1,0,1],"trees":[{"base_weights":[-1.5140598E-1,-3.5979676E-1,5.1460363E-2,-2.0174347E-1,-5.2396375E-1,-2.196307E-1,1.7780295E-1,-2.908012E-3,-5.033557E-4,-4.3412074E-3,-6.6751055E-3,6.437768E-4,-3.6517265E-3,6.019261E-4,3.2987013E-3],"categories":[],"categories_nodes":[],"categories_segments":[],"categories_sizes":[],"default_left":[0,0,0,0,0,0,0,0,0,0,0,0,0,0,0],"id":0,"left_children":[1,3,5,7,9,11,13,-1,-1,-1,-1,-1,-1,-1,-1],"loss_changes":[2.69884E2,8.160181E1,1.1085604E2,2.164074E1,1.962268E1,4.255737E1,3.9460556E1,0E0,0E0,0E0,0E0,0E0,0E0,0E0,0E0],"parents":[2147483647,0,0,1,1,2,2,3,3,4,4,5,5,6,6],"right_children":[2,4,6,8,10,12,14,-1,-1,-1,-1,-1,-1,-1,-1],"split_conditions":[1.5E1,1.3E1,-1.9E0,5.1E0,2.3E1,-4.8E0,2.4E1,-2.908012E-3,-5.033557E-4,-4.3412074E-3,-6.6751055E-3,6.437768E-4,-3.6517265E-3,6.019261E-4,3.2987013E-3],"split_indices":[51,80,77,77,80,25,51,0,0,0,0,0,0,0,0],"split_type":[0,0,0,0,0,0,0,0,0,0,0,0,0,0,0],"sum_hessian":[6.3825E3,3.148E3,3.2345E3,1.605E3,1.543E3,1.028E3,2.2065E3,1.01E3,5.95E2,9.515E2,5.915E2,3.485E2,6.795E2,1.245E3,9.615E2],"tree_param":{"num_deleted":"0","num_feature":"106","num_nodes":"15","size_leaf_vector":"1"}},{"base_weights":[1.5140598E-1,3.5979676E-1,-5.1460363E-2,2.0174347E-1,5.2396375E-1,2.196307E-1,-1.7780295E-1,2.908012E-3,5.033557E-4,4.3412074E-3,6.6751055E-3,-6.437768E-4,3.6517265E-3,-6.019261E-4,-3.2987013E-3],"categories":[],"categories_nodes":[],"categories_segments":[],"categories_sizes":[],"default_left":[0,0,0,0,0,0,0,0,0,0,0,0,0,0,0],"id":1,"left_children":[1,3,5,7,9,11,13,-1,-1,-1,-1,-1,-1,-1,-1],"loss_changes":[2.69884E2,8.160181E1,1.1085604E2,2.164074E1,1.962268E1,4.255737E1,3.9460556E1,0E0,0E0,0E0,0E0,0E0,0E0,0E0,0E0],"parents":[2147483647,0,0,1,1,2,2,3,3,4,4,5,5,6,6],"right_children":[2,4,6,8,10,12,14,-1,-1,-1,-1,-1,-1,-1,-1],"split_conditions":[1.5E1,1.3E1,-1.9E0,5.1E0,2.3E1,-4.8E0,2.4E1,2.908012E-3,5.033557E-4,4.3412074E-3,6.6751055E-3,-6.437768E-4,3.6517265E-3,-6.019261E-4,-3.2987013E-3],"split_indices":[51,80,77,77,80,25,51,0,0,0,0,0,0,0,0],"split_type":[0,0,0,0,0,0,0,0,0,0,0,0,0,0,0],"sum_hessian":[6.3825E3,3.148E3,3.2345E3,1.605E3,1.543E3,1.028E3,2.2065E3,1.01E3,5.95E2,9.515E2,5.915E2,3.485E2,6.795E2,1.245E3,9.615E2],"tree_param":{"num_deleted":"0","num_feature":"106","num_nodes":"15","size_leaf_vector":"1"}},{"base_weights":[-1.4989574E-1,-3.5620943E-1,5.0946392E-2,-1.9972926E-1,-5.187462E-1,-2.1743925E-1,1.760276E-1,-2.8789851E-3,-4.98331E-4,-4.2979224E-3,-6.608762E-3,6.373582E-4,-3.615311E-3,5.9591234E-4,3.2657846E-3],"categories":[],"categories_nodes":[],"categories_segments":[],"categories_sizes":[],"default_left":[0,0,0,0,0,0,0,0,0,0,0,0,0,0,0],"id":2,"left_children":[1,3,5,7,9,11,13,-1,-1,-1,-1,-1,-1,-1,-1],"loss_changes":[2.6452484E2,7.998599E1,1.08653336E2,2.1210808E1,1.9236237E1,4.1712643E1,3.8676933E1,0E0,0E0,0E0,0E0,0E0,0E0,0E0,0E0],"parents":[2147483647,0,0,1,1,2,2,3,3,4,4,5,5,6,6],"right_children":[2,4,6,8,10,12,14,-1,-1,-1,-1,-1,-1,-1,-1],"split_conditions":[1.5E1,1.3E1,-1.9E0,5.1E0,2.3E1,-4.8E0,2.4E1,-2.8789851E-3,-4.98331E-4,-4.2979224E-3,-6.608762E-3,6.373582E-4,-3.615311E-3,5.9591234E-4,3.2657846E-3],"split_indices":[51,80,77,77,80,25,51,0,0,0,0,0,0,0,0],"split_type":[0,0,0,0,0,0,0,0,0,0,0,0,0,0,0],"sum_hessian":[6.382427E3,3.147947E3,3.2344797E3,1.6049913E3,1.5429557E3,1.0279907E3,2.206489E3,1.00999146E3,5.949998E2,9.51482E2,5.9147363E2,3.4849985E2,6.794909E2,1.2449995E3,9.614895E2],"tree_param":{"num_deleted":"0","num_feature":"106","num_nodes":"15","size_leaf_vector":"1"}},{"base_weights":[1.4989577E-1,3.562094E-1,-5.094633E-2,1.9972922E-1,5.187462E-1,2.1743926E-1,-1.760275E-1,2.8789851E-3,4.9833005E-4,4.2979224E-3,6.608762E-3,-6.373579E-4,3.615311E-3,-5.959114E-4,-3.2657837E-3],"categories":[],"categories_nodes":[],"categories_segments":[],"categories_sizes":[],"default_left":[0,0,0,0,0,0,0,0,0,0,0,0,0,0,0],"id":3,"left_children":[1,3,5,7,9,11,13,-1,-1,-1,-1,-1,-1,-1,-1],"loss_changes":[2.6452478E2,7.998602E1,1.0865329E2,2.1210815E1,1.9236267E1,4.1712635E1,3.8676933E1,0E0,0E0,0E0,0E0,0E0,0E0,0E0,0E0],"parents":[2147483647,0,0,1,1,2,2,3,3,4,4,5,5,6,6],"right_children":[2,4,6,8,10,12,14,-1,-1,-1,-1,-1,-1,-1,-1],"split_conditions":[1.5E1,1.3E1,-1.9E0,5.1E0,2.3E1,-4.8E0,2.4E1,2.8789851E-3,4.9833005E-4,4.2979224E-3,6.608762E-3,-6.373579E-4,3.615311E-3,-5.959114E-4,-3.2657837E-3],"split_indices":[51,80,77,77,80,25,51,0,0,0,0,0,0,0,0],"split_type":[0,0,0,0,0,0,0,0,0,0,0,0,0,0,0],"sum_hessian":[6.382427E3,3.147947E3,3.23448E3,1.6049913E3,1.5429557E3,1.0279907E3,2.2064893E3,1.00999146E3,5.949999E2,9.5148206E2,5.9147363E2,3.4849985E2,6.794909E2,1.2449996E3,9.6148956E2],"tree_param":{"num_deleted":"0","num_feature":"106","num_nodes":"15","size_leaf_vector":"1"}},{"base_weights":[-1.4840399E-1,-3.5266954E-1,5.043811E-2,-1.9773723E-1,-5.1360965E-1,-2.1527348E-1,1.7427161E-1,-2.8502953E-3,-4.9335585E-4,-4.2552263E-3,-6.5436517E-3,6.3100306E-4,-3.5793525E-3,5.8995845E-4,3.233265E-3],"categories":[],"categories_nodes":[],"categories_segments":[],"categories_sizes":[],"default_left":[0,0,0,0,0,0,0,0,0,0,0,0,0,0,0],"id":4,"left_children":[1,3,5,7,9,11,13,-1,-1,-1,-1,-1,-1,-1,-1],"loss_changes":[2.5928207E2,7.841293E1,1.0649578E2,2.0790123E1,1.8863007E1,4.0886124E1,3.7910362E1,0E0,0E0,0E0,0E0,0E0,0E0,0E0,0E0],"parents":[2147483647,0,0,1,1,2,2,3,3,4,4,5,5,6,6],"right_children":[2,4,6,8,10,12,14,-1,-1,-1,-1,-1,-1,-1,-1],"split_conditions":[1.5E1,1.3E1,-1.9E0,5.1E0,2.3E1,-4.8E0,2.4E1,-2.8502953E-3,-4.9335585E-4,-4.2552263E-3,-6.5436517E-3,6.3100306E-4,-3.5793525E-3,5.8995845E-4,3.233265E-3],"split_indices":[51,80,77,77,80,25,51,0,0,0,0,0,0,0,0],"split_type":[0,0,0,0,0,0,0,0,0,0,0,0,0,0,0],"sum_hessian":[6.3822104E3,3.14779E3,3.2344204E3,1.6049655E3,1.5428246E3,1.0279636E3,2.2064568E3,1.0099661E3,5.949994E2,9.51429E2,5.913956E2,3.4849942E2,6.794642E2,1.2449982E3,9.6145856E2],"tree_param":{"num_deleted":"0","num_feature":"106","num_nodes":"15","size_leaf_vector":"1"}},{"base_weights":[1.4840397E-1,3.526695E-1,-5.04381E-2,1.9773725E-1,5.136095E-1,2.152735E-1,-1.7427161E-1,2.8502955E-3,4.9335585E-4,4.2552254E-3,6.5436503E-3,-6.310022E-4,3.579352E-3,-5.899582E-4,-3.233265E-3],"categories":[],"categories_nodes":[],"categories_segments":[],"categories_sizes":[],"default_left":[0,0,0,0,0,0,0,0,0,0,0,0,0,0,0],"id":5,"left_children":[1,3,5,7,9,11,13,-1,-1,-1,-1,-1,-1,-1,-1],"loss_changes":[2.5928198E2,7.84129E1,1.0649579E2,2.079013E1,1.8863007E1,4.0886093E1,3.791037E1,0E0,0E0,0E0,0E0,0E0,0E0,0E0,0E0],"parents":[2147483647,0,0,1,1,2,2,3,3,4,4,5,5,6,6],"right_children":[2,4,6,8,10,12,14,-1,-1,-1,-1,-1,-1,-1,-1],"split_conditions":[1.5E1,1.3E1,-1.9E0,5.1E0,2.3E1,-4.8E0,2.4E1,2.8502955E-3,4.9335585E-4,4.2552254E-3,6.5436503E-3,-6.310022E-4,3.579352E-3,-5.899582E-4,-3.233265E-3],"split_indices":[51,80,77,77,80,25,51,0,0,0,0,0,0,0,0],"split_type":[0,0,0,0,0,0,0,0,0,0,0,0,0,0,0],"sum_hessian":[6.3822104E3,3.1477903E3,3.2344202E3,1.6049656E3,1.5428246E3,1.0279635E3,2.2064568E3,1.0099662E3,5.949994E2,9.51429E2,5.913956E2,3.4849945E2,6.794641E2,1.2449982E3,9.6145856E2],"tree_param":{"num_deleted":"0","num_feature":"106","num_nodes":"15","size_leaf_vector":"1"}},{"base_weights":[-1.469303E-1,-3.4917608E-1,4.9935486E-2,-1.9576715E-1,-5.085517E-1,-2.1313302E-1,1.725348E-1,-2.8219367E-3,-4.8843183E-4,-4.2131054E-3,-6.4797327E-3,6.247126E-4,-3.5438433E-3,5.840646E-4,3.2011354E-3],"categories":[],"categories_nodes":[],"categories_segments":[],"categories_sizes":[],"default_left":[0,0,0,0,0,0,0,0,0,0,0,0,0,0,0],"id":6,"left_children":[1,3,5,7,9,11,13,-1,-1,-1,-1,-1,-1,-1,-1],"loss_changes":[2.5415254E2,7.688095E1,1.0438245E2,2.0378445E1,1.850241E1,4.0077396E1,3.716043E1,0E0,0E0,0E0,0E0,0E0,0E0,0E0,0E0],"parents":[2147483647,0,0,1,1,2,2,3,3,4,4,5,5,6,6],"right_children":[2,4,6,8,10,12,14,-1,-1,-1,-1,-1,-1,-1,-1],"split_conditions":[1.5E1,1.3E1,-1.9E0,5.1E0,2.3E1,-4.8E0,2.4E1,-2.8219367E-3,-4.8843183E-4,-4.2131054E-3,-6.4797327E-3,6.247126E-4,-3.5438433E-3,5.840646E-4,3.2011354E-3],"split_indices":[51,80,77,77,80,25,51,0,0,0,0,0,0,0,0],"split_type":[0,0,0,0,0,0,0,0,0,0,0,0,0,0,0],"sum_hessian":[6.381855E3,3.1475327E3,3.2343225E3,1.6049233E3,1.5426095E3,1.0279187E3,2.2064038E3,1.0099246E3,5.949987E2,9.5134186E2,5.912676E2,3.4849872E2,6.7942E2,1.244996E3,9.614077E2],"tree_param":{"num_deleted":"0","num_feature":"106","num_nodes":"15","size_leaf_vector":"1"}},{"base_weights":[1.4693029E-1,3.4917605E-1,-4.9935468E-2,1.957671E-1,5.085517E-1,2.1313296E-1,-1.7253475E-1,2.8219367E-3,4.8843067E-4,4.2131054E-3,6.4797327E-3,-6.247126E-4,3.5438421E-3,-5.8406364E-4,-3.2011354E-3],"categories":[],"categories_nodes":[],"categories_segments":[],"categories_sizes":[],"default_left":[0,0,0,0,0,0,0,0,0,0,0,0,0,0,0],"id":7,"left_children":[1,3,5,7,9,11,13,-1,-1,-1,-1,-1,-1,-1,-1],"loss_changes":[2.5415247E2,7.688098E1,1.0438239E2,2.0378468E1,1.850241E1,4.0077377E1,3.7160454E1,0E0,0E0,0E0,0E0,0E0,0E0,0E0,0E0],"parents":[2147483647,0,0,1,1,2,2,3,3,4,4,5,5,6,6],"right_children":[2,4,6,8,10,12,14,-1,-1,-1,-1,-1,-1,-1,-1],"split_conditions":[1.5E1,1.3E1,-1.9E0,5.1E0,2.3E1,-4.8E0,2.4E1,2.8219367E-3,4.8843067E-4,4.2131054E-3,6.4797327E-3,-6.247126E-4,3.5438421E-3,-5.8406364E-4,-3.2011354E-3],"split_indices":[51,80,77,77,80,25,51,0,0,0,0,0,0,0,0],"split_type":[0,0,0,0,0,0,0,0,0,0,0,0,0,0,0],"sum_hessian":[6.381855E3,3.1475327E3,3.2343225E3,1.6049233E3,1.5426094E3,1.0279188E3,2.2064038E3,1.0099246E3,5.9499866E2,9.513418E2,5.912675E2,3.4849872E2,6.7942004E2,1.2449961E3,9.614077E2],"tree_param":{"num_deleted":"0","num_feature":"106","num_nodes":"15","size_leaf_vector":"1"}},{"base_weights":[-1.4547437E-1,-3.4572807E-1,4.9438454E-2,-1.9381866E-1,-5.0357056E-1,-2.1101728E-1,1.7081687E-1,-2.793905E-3,-4.8355653E-4,-4.171548E-3,-6.416969E-3,6.1848445E-4,-3.508771E-3,5.782293E-4,3.1693901E-3],"categories":[],"categories_nodes":[],"categories_segments":[],"categories_sizes":[],"default_left":[0,0,0,0,0,0,0,0,0,0,0,0,0,0,0],"id":8,"left_children":[1,3,5,7,9,11,13,-1,-1,-1,-1,-1,-1,-1,-1],"loss_changes":[2.4913365E2,7.538861E1,1.0231232E2,1.9975552E1,1.8153778E1,3.9285923E1,3.6426727E1,0E0,0E0,0E0,0E0,0E0,0E0,0E0,0E0],"parents":[2147483647,0,0,1,1,2,2,3,3,4,4,5,5,6,6],"right_children":[2,4,6,8,10,12,14,-1,-1,-1,-1,-1,-1,-1,-1],"split_conditions":[1.5E1,1.3E1,-1.9E0,5.1E0,2.3E1,-4.8E0,2.4E1,-2.793905E-3,-4.8355653E-4,-4.171548E-3,-6.416969E-3,6.1848445E-4,-3.508771E-3,5.782293E-4,3.1693901E-3],"split_indices":[51,80,77,77,80,25,51,0,0,0,0,0,0,0,0],"split_type":[0,0,0,0,0,0,0,0,0,0,0,0,0,0,0],"sum_hessian":[6.3813647E3,3.1471772E3,3.2341877E3,1.604865E3,1.5423124E3,1.027857E3,2.2063306E3,1.0098673E3,5.949976E2,9.512216E2,5.9109076E2,3.4849774E2,6.793593E2,1.244993E3,9.613375E2],"tree_param":{"num_deleted":"0","num_feature":"106","num_nodes":"15","size_leaf_vector":"1"}},{"base_weights":[1.4547437E-1,3.457281E-1,-4.94385E-2,1.9381864E-1,5.035706E-1,2.1101724E-1,-1.7081691E-1,2.7939053E-3,4.8355563E-4,4.1715493E-3,6.416969E-3,-6.184853E-4,3.5087706E-3,-5.7823025E-4,-3.16939E-3],"categories":[],"categories_nodes":[],"categories_segments":[],"categories_sizes":[],"default_left":[0,0,0,0,0,0,0,0,0,0,0,0,0,0,0],"id":9,"left_children":[1,3,5,7,9,11,13,-1,-1,-1,-1,-1,-1,-1,-1],"loss_changes":[2.4913374E2,7.538867E1,1.0231232E2,1.997557E1,1.8153687E1,3.928593E1,3.642668E1,0E0,0E0,0E0,0E0,0E0,0E0,0E0,0E0],"parents":[2147483647,0,0,1,1,2,2,3,3,4,4,5,5,6,6],"right_children":[2,4,6,8,10,12,14,-1,-1,-1,-1,-1,-1,-1,-1],"split_conditions":[1.5E1,1.3E1,-1.9E0,5.1E0,2.3E1,-4.8E0,2.4E1,2.7939053E-3,4.8355563E-4,4.1715493E-3,6.416969E-3,-6.184853E-4,3.5087706E-3,-5.7823025E-4,-3.16939E-3],"split_indices":[51,80,77,77,80,25,51,0,0,0,0,0,0,0,0],"split_type":[0,0,0,0,0,0,0,0,0,0,0,0,0,0,0],"sum_hessian":[6.3813647E3,3.1471775E3,3.2341875E3,1.604865E3,1.5423124E3,1.027857E3,2.2063303E3,1.0098674E3,5.949977E2,9.512216E2,5.910908E2,3.4849774E2,6.793593E2,1.2449929E3,9.6133746E2],"tree_param":{"num_deleted":"0","num_feature":"106","num_nodes":"15","size_leaf_vector":"1"}},{"base_weights":[-1.4403583E-1,-3.423244E-1,4.8946925E-2,-1.9189131E-1,-4.9866387E-1,-2.0892589E-1,1.6911756E-1,-2.7661924E-3,-4.7872873E-4,-4.130541E-3,-6.355321E-3,6.123197E-4,-3.4741294E-3,5.724541E-4,3.1380195E-3],"categories":[],"categories_nodes":[],"categories_segments":[],"categories_sizes":[],"default_left":[0,0,0,0,0,0,0,0,0,0,0,0,0,0,0],"id":10,"left_children":[1,3,5,7,9,11,13,-1,-1,-1,-1,-1,-1,-1,-1],"loss_changes":[2.4422235E2,7.393457E1,1.0028441E2,1.9581238E1,1.7816437E1,3.8511356E1,3.5708725E1,0E0,0E0,0E0,0E0,0E0,0E0,0E0,0E0],"parents":[2147483647,0,0,1,1,2,2,3,3,4,4,5,5,6,6],"right_children":[2,4,6,8,10,12,14,-1,-1,-1,-1,-1,-1,-1,-1],"split_conditions":[1.5E1,1.3E1,-1.9E0,5.1E0,2.3E1,-4.8E0,2.4E1,-2.7661924E-3,-4.7872873E-4,-4.130541E-3,-6.355321E-3,6.123197E-4,-3.4741294E-3,5.724541E-4,3.1380195E-3],"split_indices":[51,80,77,77,80,25,51,0,0,0,0,0,0,0,0],"split_type":[0,0,0,0,0,0,0,0,0,0,0,0,0,0,0],"sum_hessian":[6.380744E3,3.1467275E3,3.2340168E3,1.6047913E3,1.5419363E3,1.0277789E3,2.2062378E3,1.0097949E3,5.949964E2,9.5106934E2,5.90867E2,3.4849652E2,6.7928235E2,1.2449891E3,9.612487E2],"tree_param":{"num_deleted":"0","num_feature":"106","num_nodes":"15","size_leaf_vector":"1"}},{"base_weights":[1.4403585E-1,3.4232444E-1,-4.8946902E-2,1.9189133E-1,4.9866387E-1,2.0892589E-1,-1.6911751E-1,2.7661922E-3,4.7872963E-4,4.130541E-3,6.355321E-3,-6.123197E-4,3.4741294E-3,-5.724532E-4,-3.1380195E-3],"categories":[],"categories_nodes":[],"categories_segments":[],"categories_sizes":[],"default_left":[0,0,0,0,0,0,0,0,0,0,0,0,0,0,0],"id":11,"left_children":[1,3,5,7,9,11,13,-1,-1,-1,-1,-1,-1,-1,-1],"loss_changes":[2.4422234E2,7.39346E1,1.0028439E2,1.9581219E1,1.7816437E1,3.8511356E1,3.570875E1,0E0,0E0,0E0,0E0,0E0,0E0,0E0,0E0],"parents":[2147483647,0,0,1,1,2,2,3,3,4,4,5,5,6,6],"right_children":[2,4,6,8,10,12,14,-1,-1,-1,-1,-1,-1,-1,-1],"split_conditions":[1.5E1,1.3E1,-1.9E0,5.1E0,2.3E1,-4.8E0,2.4E1,2.7661922E-3,4.7872963E-4,4.130541E-3,6.355321E-3,-6.123197E-4,3.4741294E-3,-5.724532E-4,-3.1380195E-3],"split_indices":[51,80,77,77,80,25,51,0,0,0,0,0,0,0,0],"split_type":[0,0,0,0,0,0,0,0,0,0,0,0,0,0,0],"sum_hessian":[6.3807446E3,3.1467275E3,3.2340168E3,1.6047913E3,1.5419363E3,1.0277789E3,2.206238E3,1.00979486E3,5.949964E2,9.5106934E2,5.90867E2,3.4849652E2,6.7928235E2,1.2449893E3,9.612488E2],"tree_param":{"num_deleted":"0","num_feature":"106","num_nodes":"15","size_leaf_vector":"1"}},{"base_weights":[-1.4261441E-1,-3.389643E-1,4.8460815E-2,-1.8998508E-1,-4.9382973E-1,-2.0685849E-1,1.6743661E-1,-2.7387964E-3,-4.7395143E-4,-4.09007E-3,-6.2947553E-3,6.062171E-4,-3.43991E-3,5.667363E-4,3.1070192E-3],"categories":[],"categories_nodes":[],"categories_segments":[],"categories_sizes":[],"default_left":[0,0,0,0,0,0,0,0,0,0,0,0,0,0,0],"id":12,"left_children":[1,3,5,7,9,11,13,-1,-1,-1,-1,-1,-1,-1,-1],"loss_changes":[2.3941614E2,7.251721E1,9.82979E1,1.919527E1,1.7490112E1,3.775326E1,3.500616E1,0E0,0E0,0E0,0E0,0E0,0E0,0E0,0E0],"parents":[2147483647,0,0,1,1,2,2,3,3,4,4,5,5,6,6],"right_children":[2,4,6,8,10,12,14,-1,-1,-1,-1,-1,-1,-1,-1],"split_conditions":[1.5E1,1.3E1,-1.9E0,5.1E0,2.3E1,-4.8E0,2.4E1,-2.7387964E-3,-4.7395143E-4,-4.09007E-3,-6.2947553E-3,6.062171E-4,-3.43991E-3,5.667363E-4,3.1070192E-3],"split_indices":[51,80,77,77,80,25,51,0,0,0,0,0,0,0,0],"split_type":[0,0,0,0,0,0,0,0,0,0,0,0,0,0,0],"sum_hessian":[6.379997E3,3.1461858E3,3.233811E3,1.6047023E3,1.5414835E3,1.0276848E3,2.2061262E3,1.00970746E3,5.949948E2,9.50886E2,5.9059753E2,3.4849506E2,6.791897E2,1.2449846E3,9.611417E2],"tree_param":{"num_deleted":"0","num_feature":"106","num_nodes":"15","size_leaf_vector":"1"}},{"base_weights":[1.4261436E-1,3.3896425E-1,-4.846085E-2,1.89985E-1,4.9382967E-1,2.0685846E-1,-1.6743666E-1,2.7387952E-3,4.7395143E-4,4.09007E-3,6.294755E-3,-6.062171E-4,3.43991E-3,-5.667363E-4,-3.1070202E-3],"categories":[],"categories_nodes":[],"categories_segments":[],"categories_sizes":[],"default_left":[0,0,0,0,0,0,0,0,0,0,0,0,0,0,0],"id":13,"left_children":[1,3,5,7,9,11,13,-1,-1,-1,-1,-1,-1,-1,-1],"loss_changes":[2.394161E2,7.251718E1,9.829791E1,1.9195251E1,1.7490112E1,3.7753254E1,3.5006184E1,0E0,0E0,0E0,0E0,0E0,0E0,0E0,0E0],"parents":[2147483647,0,0,1,1,2,2,3,3,4,4,5,5,6,6],"right_children":[2,4,6,8,10,12,14,-1,-1,-1,-1,-1,-1,-1,-1],"split_conditions":[1.5E1,1.3E1,-1.9E0,5.1E0,2.3E1,-4.8E0,2.4E1,2.7387952E-3,4.7395143E-4,4.09007E-3,6.294755E-3,-6.062171E-4,3.43991E-3,-5.667363E-4,-3.1070202E-3],"split_indices":[51,80,77,77,80,25,51,0,0,0,0,0,0,0,0],"split_type":[0,0,0,0,0,0,0,0,0,0,0,0,0,0,0],"sum_hessian":[6.3799966E3,3.1461858E3,3.233811E3,1.6047023E3,1.5414835E3,1.0276847E3,2.2061262E3,1.00970746E3,5.949948E2,9.50886E2,5.905976E2,3.4849506E2,6.791897E2,1.2449846E3,9.6114166E2],"tree_param":{"num_deleted":"0","num_feature":"106","num_nodes":"15","size_leaf_vector":"1"}},{"base_weights":[-1.4120975E-1,-3.3564672E-1,4.798003E-2,-1.8809941E-1,-4.8906624E-1,-2.0481467E-1,1.6577378E-1,-2.911188E-3,-7.332736E-4,-4.050125E-3,-6.235237E-3,6.001755E-4,-3.4061049E-3,5.61076E-4,3.0763815E-3],"categories":[],"categories_nodes":[],"categories_segments":[],"categories_sizes":[],"default_left":[0,0,0,0,0,0,0,0,0,0,0,0,0,0,0],"id":14,"left_children":[1,3,5,7,9,11,13,-1,-1,-1,-1,-1,-1,-1,-1],"loss_changes":[2.3471219E2,7.113541E1,9.635184E1,1.8962852E1,1.7174133E1,3.7011204E1,3.4318592E1,0E0,0E0,0E0,0E0,0E0,0E0,0E0,0E0],"parents":[2147483647,0,0,1,1,2,2,3,3,4,4,5,5,6,6],"right_children":[2,4,6,8,10,12,14,-1,-1,-1,-1,-1,-1,-1,-1],"split_conditions":[1.5E1,1.3E1,-1.9E0,8E0,2.3E1,-4.8E0,2.4E1,-2.911188E-3,-7.332736E-4,-4.050125E-3,-6.235237E-3,6.001755E-4,-3.4061049E-3,5.61076E-4,3.0763815E-3],"split_indices":[51,80,77,51,80,25,51,0,0,0,0,0,0,0,0],"split_type":[0,0,0,0,0,0,0,0,0,0,0,0,0,0,0],"sum_hessian":[6.3791265E3,3.1455552E3,3.2335715E3,1.6045989E3,1.5409563E3,1.0275752E3,2.2059963E3,8.447842E2,7.598147E2,9.506724E2,5.902838E2,3.4849335E2,6.7908185E2,1.2449791E3,9.6101715E2],"tree_param":{"num_deleted":"0","num_feature":"106","num_nodes":"15","size_leaf_vector":"1"}},{"base_weights":[1.4120977E-1,3.3564675E-1,-4.7980025E-2,1.8809941E-1,4.8906624E-1,2.0481469E-1,-1.6577378E-1,2.911188E-3,7.332736E-4,4.050125E-3,6.235237E-3,-6.0017523E-4,3.4061049E-3,-5.61076E-4,-3.0763815E-3],"categories":[],"categories_nodes":[],"categories_segments":[],"categories_sizes":[],"default_left":[0,0,0,0,0,0,0,0,0,0,0,0,0,0,0],"id":15,"left_children":[1,3,5,7,9,11,13,-1,-1,-1,-1,-1,-1,-1,-1],"loss_changes":[2.3471219E2,7.113544E1,9.6351845E1,1.8962852E1,1.7174133E1,3.70112E1,3.4318592E1,0E0,0E0,0E0,0E0,0E0,0E0,0E0,0E0],"parents":[2147483647,0,0,1,1,2,2,3,3,4,4,5,5,6,6],"right_children":[2,4,6,8,10,12,14,-1,-1,-1,-1,-1,-1,-1,-1],"split_conditions":[1.5E1,1.3E1,-1.9E0,8E0,2.3E1,-4.8E0,2.4E1,2.911188E-3,7.332736E-4,4.050125E-3,6.235237E-3,-6.0017523E-4,3.4061049E-3,-5.61076E-4,-3.0763815E-3],"split_indices":[51,80,77,51,80,25,51,0,0,0,0,0,0,0,0],"split_type":[0,0,0,0,0,0,0,0,0,0,0,0,0,0,0],"sum_hessian":[6.3791265E3,3.1455552E3,3.2335715E3,1.6045989E3,1.5409563E3,1.0275752E3,2.2059963E3,8.447842E2,7.598147E2,9.506724E2,5.902839E2,3.4849332E2,6.7908185E2,1.2449791E3,9.6101715E2],"tree_param":{"num_deleted":"0","num_feature":"106","num_nodes":"15","size_leaf_vector":"1"}},{"base_weights":[-1.3982107E-1,-3.323681E-1,4.750447E-2,-1.8623129E-1,-4.8437148E-1,-2.0279399E-1,1.6412872E-1,-2.6928813E-3,-4.5090955E-4,-4.010694E-3,-6.1767334E-3,5.941937E-4,-3.3727044E-3,5.554719E-4,3.0461E-3],"categories":[],"categories_nodes":[],"categories_segments":[],"categories_sizes":[],"default_left":[0,0,0,0,0,0,0,0,0,0,0,0,0,0,0],"id":16,"left_children":[1,3,5,7,9,11,13,-1,-1,-1,-1,-1,-1,-1,-1],"loss_changes":[2.3010576E2,6.9789764E1,9.44453E1,1.8808681E1,1.6868011E1,3.6284775E1,3.3645622E1,0E0,0E0,0E0,0E0,0E0,0E0,0E0,0E0],"parents":[2147483647,0,0,1,1,2,2,3,3,4,4,5,5,6,6],"right_children":[2,4,6,8,10,12,14,-1,-1,-1,-1,-1,-1,-1,-1],"split_conditions":[1.5E1,1.3E1,-1.9E0,5.1E0,2.3E1,-4.8E0,2.4E1,-2.6928813E-3,-4.5090955E-4,-4.010694E-3,-6.1767334E-3,5.941937E-4,-3.3727044E-3,5.554719E-4,3.0461E-3],"split_indices":[51,80,77,77,80,25,51,0,0,0,0,0,0,0,0],"split_type":[0,0,0,0,0,0,0,0,0,0,0,0,0,0,0],"sum_hessian":[6.378164E3,3.1448647E3,3.233299E3,1.6045078E3,1.540357E3,1.0274506E3,2.2058486E3,1.00952496E3,5.949829E2,9.5042975E2,5.8992725E2,3.484914E2,6.7895917E2,1.244973E3,9.6087555E2],"tree_param":{"num_deleted":"0","num_feature":"106","num_nodes":"15","size_leaf_vector":"1"}},{"base_weights":[1.3982107E-1,3.3236814E-1,-4.7504492E-2,1.8623132E-1,4.843715E-1,2.0279399E-1,-1.6412877E-1,2.6928815E-3,4.509094E-4,4.010694E-3,6.1767334E-3,-5.941937E-4,3.3727044E-3,-5.554719E-4,-3.0461012E-3],"categories":[],"categories_nodes":[],"categories_segments":[],"categories_sizes":[],"default_left":[0,0,0,0,0,0,0,0,0,0,0,0,0,0,0],"id":17,"left_children":[1,3,5,7,9,11,13,-1,-1,-1,-1,-1,-1,-1,-1],"loss_changes":[2.3010574E2,6.9789856E1,9.444531E1,1.88087E1,1.686795E1,3.6284775E1,3.3645657E1,0E0,0E0,0E0,0E0,0E0,0E0,0E0,0E0],"parents":[2147483647,0,0,1,1,2,2,3,3,4,4,5,5,6,6],"right_children":[2,4,6,8,10,12,14,-1,-1,-1,-1,-1,-1,-1,-1],"split_conditions":[1.5E1,1.3E1,-1.9E0,5.1E0,2.3E1,-4.8E0,2.4E1,2.6928815E-3,4.509094E-4,4.010694E-3,6.1767334E-3,-5.941937E-4,3.3727044E-3,-5.554719E-4,-3.0461012E-3],"split_indices":[51,80,77,77,80,25,51,0,0,0,0,0,0,0,0],"split_type":[0,0,0,0,0,0,0,0,0,0,0,0,0,0,0],"sum_hessian":[6.378164E3,3.144865E3,3.233299E3,1.6045078E3,1.540357E3,1.0274506E3,2.2058486E3,1.0095249E3,5.9498285E2,9.504298E2,5.899273E2,3.484914E2,6.7895917E2,1.244973E3,9.608755E2],"tree_param":{"num_deleted":"0","num_feature":"106","num_nodes":"15","size_leaf_vector":"1"}},{"base_weights":[-1.38449E-1,-3.2913268E-1,4.7034126E-2,-1.8438576E-1,-4.797437E-1,-2.221638E-1,1.5340918E-1,-2.8636968E-3,-7.0778874E-4,-3.9717657E-3,-6.1192126E-3,5.232919E-4,-3.6257135E-3,4.619995E-4,2.9209773E-3],"categories":[],"categories_nodes":[],"categories_segments":[],"categories_sizes":[],"default_left":[0,0,0,0,0,0,0,0,0,0,0,0,0,0,0],"id":18,"left_children":[1,3,5,7,9,11,13,-1,-1,-1,-1,-1,-1,-1,-1],"loss_changes":[2.2559866E2,6.8475555E1,9.2642586E1,1.8579777E1,1.657129E1,3.5337307E1,3.4461197E1,0E0,0E0,0E0,0E0,0E0,0E0,0E0,0E0],"parents":[2147483647,0,0,1,1,2,2,3,3,4,4,5,5,6,6],"right_children":[2,4,6,8,10,12,14,-1,-1,-1,-1,-1,-1,-1,-1],"split_conditions":[1.5E1,1.3E1,-2.4E0,8E0,2.3E1,-4.8E0,2.4E1,-2.8636968E-3,-7.0778874E-4,-3.9717657E-3,-6.1192126E-3,5.232919E-4,-3.6257135E-3,4.619995E-4,2.9209773E-3],"split_indices":[51,80,77,51,80,25,51,0,0,0,0,0,0,0,0],"split_type":[0,0,0,0,0,0,0,0,0,0,0,0,0,0,0],"sum_hessian":[6.377063E3,3.1440679E3,3.232995E3,1.6043798E3,1.5396882E3,9.15386E2,2.3176091E3,8.446364E2,7.5974335E2,9.5015894E2,5.8952924E2,3.099904E2,6.0539557E2,1.3079044E3,1.00970483E3],"tree_param":{"num_deleted":"0","num_feature":"106","num_nodes":"15","size_leaf_vector":"1"}},{"base_weights":[1.3844898E-1,3.2913265E-1,-4.7034137E-2,1.8438575E-1,4.797437E-1,2.2216389E-1,-1.5340923E-1,2.8636968E-3,7.077883E-4,3.9717657E-3,6.1192126E-3,-5.232919E-4,3.6257147E-3,-4.6199947E-4,-2.9209787E-3],"categories":[],"categories_nodes":[],"categories_segments":[],"categories_sizes":[],"default_left":[0,0,0,0,0,0,0,0,0,0,0,0,0,0,0],"id":19,"left_children":[1,3,5,7,9,11,13,-1,-1,-1,-1,-1,-1,-1,-1],"loss_changes":[2.2559866E2,6.8475494E1,9.264265E1,1.8579792E1,1.657129E1,3.533733E1,3.4461227E1,0E0,0E0,0E0,0E0,0E0,0E0,0E0,0E0],"parents":[2147483647,0,0,1,1,2,2,3,3,4,4,5,5,6,6],"right_children":[2,4,6,8,10,12,14,-1,-1,-1,-1,-1,-1,-1,-1],"split_conditions":[1.5E1,1.3E1,-2.4E0,8E0,2.3E1,-4.8E0,2.4E1,2.8636968E-3,7.077883E-4,3.9717657E-3,6.1192126E-3,-5.232919E-4,3.6257147E-3,-4.6199947E-4,-2.9209787E-3],"split_indices":[51,80,77,51,80,25,51,0,0,0,0,0,0,0,0],"split_type":[0,0,0,0,0,0,0,0,0,0,0,0,0,0,0],"sum_hessian":[6.377063E3,3.1440679E3,3.232995E3,1.6043798E3,1.5396881E3,9.15386E2,2.3176091E3,8.4463635E2,7.5974335E2,9.501589E2,5.8952924E2,3.099904E2,6.0539557E2,1.3079044E3,1.00970483E3],"tree_param":{"num_deleted":"0","num_feature":"106","num_nodes":"15","size_leaf_vector":"1"}},{"base_weights":[-1.3709214E-1,-3.2593462E-1,4.6568487E-2,-1.8255731E-1,-4.7518128E-1,-1.9901529E-1,1.6098185E-1,-2.6479007E-3,-4.28468E-4,-3.9333296E-3,-6.062647E-3,5.804904E-4,-3.309029E-3,5.453111E-4,2.9875159E-3],"categories":[],"categories_nodes":[],"categories_segments":[],"categories_sizes":[],"default_left":[0,0,0,0,0,0,0,0,0,0,0,0,0,0,0],"id":20,"left_children":[1,3,5,7,9,11,13,-1,-1,-1,-1,-1,-1,-1,-1],"loss_changes":[2.2118445E2,6.719504E1,9.089202E1,1.8431194E1,1.62836E1,3.4877716E1,3.2343693E1,0E0,0E0,0E0,0E0,0E0,0E0,0E0,0E0],"parents":[2147483647,0,0,1,1,2,2,3,3,4,4,5,5,6,6],"right_children":[2,4,6,8,10,12,14,-1,-1,-1,-1,-1,-1,-1,-1],"split_conditions":[1.5E1,1.3E1,-1.9E0,5.1E0,2.3E1,-4.8E0,2.4E1,-2.6479007E-3,-4.28468E-4,-3.9333296E-3,-6.062647E-3,5.804904E-4,-3.309029E-3,5.453111E-4,2.9875159E-3],"split_indices":[51,80,77,77,80,25,51,0,0,0,0,0,0,0,0],"split_type":[0,0,0,0,0,0,0,0,0,0,0,0,0,0,0],"sum_hessian":[6.3758906E3,3.1432163E3,3.2326743E3,1.6042646E3,1.5389515E3,1.0271653E3,2.2055093E3,1.0093009E3,5.949637E2,9.4986066E2,5.8909094E2,3.4848575E2,6.786795E2,1.24496E3,9.605492E2],"tree_param":{"num_deleted":"0","num_feature":"106","num_nodes":"15","size_leaf_vector":"1"}},{"base_weights":[1.3709214E-1,3.2593462E-1,-4.6568476E-2,1.825573E-1,4.7518125E-1,1.9901535E-1,-1.6098186E-1,2.6479003E-3,4.284686E-4,3.9333296E-3,6.062646E-3,-5.8048934E-4,3.3090292E-3,-5.45312E-4,-2.987515E-3],"categories":[],"categories_nodes":[],"categories_segments":[],"categories_sizes":[],"default_left":[0,0,0,0,0,0,0,0,0,0,0,0,0,0,0],"id":21,"left_children":[1,3,5,7,9,11,13,-1,-1,-1,-1,-1,-1,-1,-1],"loss_changes":[2.2118442E2,6.719498E1,9.0892075E1,1.8431164E1,1.628363E1,3.4877705E1,3.2343636E1,0E0,0E0,0E0,0E0,0E0,0E0,0E0,0E0],"parents":[2147483647,0,0,1,1,2,2,3,3,4,4,5,5,6,6],"right_children":[2,4,6,8,10,12,14,-1,-1,-1,-1,-1,-1,-1,-1],"split_conditions":[1.5E1,1.3E1,-1.9E0,5.1E0,2.3E1,-4.8E0,2.4E1,2.6479003E-3,4.284686E-4,3.9333296E-3,6.062646E-3,-5.8048934E-4,3.3090292E-3,-5.45312E-4,-2.987515E-3],"split_indices":[51,80,77,77,80,25,51,0,0,0,0,0,0,0,0],"split_type":[0,0,0,0,0,0,0,0,0,0,0,0,0,0,0],"sum_hessian":[6.3758906E3,3.143216E3,3.2326743E3,1.6042646E3,1.5389515E3,1.0271653E3,2.2055093E3,1.00930096E3,5.949637E2,9.4986066E2,5.8909094E2,3.4848575E2,6.786795E2,1.24496E3,9.6054926E2],"tree_param":{"num_deleted":"0","num_feature":"106","num_nodes":"15","size_leaf_vector":"1"}},{"base_weights":[-1.357515E-1,-3.22778E-1,4.6108235E-2,-1.7099927E-1,-4.6116737E-1,-2.1802795E-1,1.5046649E-1,-2.5658302E-3,-3.9471893E-4,-3.827448E-3,-6.007004E-3,5.1229633E-4,-3.5582231E-3,4.5376623E-4,2.8645897E-3],"categories":[],"categories_nodes":[],"categories_segments":[],"categories_sizes":[],"default_left":[0,0,0,0,0,0,0,0,0,0,0,0,0,0,0],"id":22,"left_children":[1,3,5,7,9,11,13,-1,-1,-1,-1,-1,-1,-1,-1],"loss_changes":[2.1686469E2,6.5944E1,8.915835E1,1.6882675E1,1.7754822E1,3.400708E1,3.311774E1,0E0,0E0,0E0,0E0,0E0,0E0,0E0,0E0],"parents":[2147483647,0,0,1,1,2,2,3,3,4,4,5,5,6,6],"right_children":[2,4,6,8,10,12,14,-1,-1,-1,-1,-1,-1,-1,-1],"split_conditions":[1.5E1,1.2E1,-2.4E0,9E0,2.3E1,-4.8E0,2.4E1,-2.5658302E-3,-3.9471893E-4,-3.827448E-3,-6.007004E-3,5.1229633E-4,-3.5582231E-3,4.5376623E-4,2.8645897E-3],"split_indices":[51,80,77,51,80,25,51,0,0,0,0,0,0,0,0],"split_type":[0,0,0,0,0,0,0,0,0,0,0,0,0,0,0],"sum_hessian":[6.374574E3,3.142263E3,3.2323113E3,1.4997006E3,1.6425625E3,9.150876E2,2.3172236E3,9.079526E2,5.917479E2,1.0539487E3,5.886138E2,3.099862E2,6.051014E2,1.3078784E3,1.00934534E3],"tree_param":{"num_deleted":"0","num_feature":"106","num_nodes":"15","size_leaf_vector":"1"}},{"base_weights":[1.3575152E-1,3.22778E-1,-4.6108205E-2,1.7099924E-1,4.611674E-1,2.1802795E-1,-1.5046644E-1,2.5658302E-3,3.947184E-4,3.827448E-3,6.0070055E-3,-5.1229633E-4,3.5582231E-3,-4.5376545E-4,-2.8645897E-3],"categories":[],"categories_nodes":[],"categories_segments":[],"categories_sizes":[],"default_left":[0,0,0,0,0,0,0,0,0,0,0,0,0,0,0],"id":23,"left_children":[1,3,5,7,9,11,13,-1,-1,-1,-1,-1,-1,-1,-1],"loss_changes":[2.1686461E2,6.5944E1,8.915833E1,1.6882675E1,1.7754883E1,3.400708E1,3.3117767E1,0E0,0E0,0E0,0E0,0E0,0E0,0E0,0E0],"parents":[2147483647,0,0,1,1,2,2,3,3,4,4,5,5,6,6],"right_children":[2,4,6,8,10,12,14,-1,-1,-1,-1,-1,-1,-1,-1],"split_conditions":[1.5E1,1.2E1,-2.4E0,9E0,2.3E1,-4.8E0,2.4E1,2.5658302E-3,3.947184E-4,3.827448E-3,6.0070055E-3,-5.1229633E-4,3.5582231E-3,-4.5376545E-4,-2.8645897E-3],"split_indices":[51,80,77,51,80,25,51,0,0,0,0,0,0,0,0],"split_type":[0,0,0,0,0,0,0,0,0,0,0,0,0,0,0],"sum_hessian":[6.374574E3,3.142263E3,3.2323113E3,1.4997006E3,1.6425625E3,9.150876E2,2.3172239E3,9.079526E2,5.917479E2,1.0539487E3,5.886137E2,3.099862E2,6.051014E2,1.3078784E3,1.00934534E3],"tree_param":{"num_deleted":"0","num_feature":"106","num_nodes":"15","size_leaf_vector":"1"}},{"base_weights":[-1.3442542E-1,-3.1965688E-1,4.565259E-2,-1.7892092E-1,-4.6628553E-1,2.2866705E-1,-1.0240805E-1,-2.6026785E-3,-4.0749362E-4,-3.858544E-3,-5.9522605E-3,4.259684E-3,1.6263421E-3,1.3808588E-3,-2.294536E-3],"categories":[],"categories_nodes":[],"categories_segments":[],"categories_sizes":[],"default_left":[0,0,0,0,0,0,0,0,0,0,0,0,0,0,0],"id":24,"left_children":[1,3,5,7,9,11,13,-1,-1,-1,-1,-1,-1,-1,-1],"loss_changes":[2.1263293E2,6.476001E1,8.762697E1,1.8028996E1,1.5723694E1,1.877124E1,5.4656128E1,0E0,0E0,0E0,0E0,0E0,0E0,0E0,0E0],"parents":[2147483647,0,0,1,1,2,2,3,3,4,4,5,5,6,6],"right_children":[2,4,6,8,10,12,14,-1,-1,-1,-1,-1,-1,-1,-1],"split_conditions":[1.5E1,1.3E1,1.4E1,5.1E0,2.3E1,-5.9E0,-4.8E0,-2.6026785E-3,-4.0749362E-4,-3.858544E-3,-5.9522605E-3,4.259684E-3,1.6263421E-3,1.3808588E-3,-2.294536E-3],"split_indices":[51,80,103,77,80,25,25,0,0,0,0,0,0,0,0],"split_type":[0,0,0,0,0,0,0,0,0,0,0,0,0,0,0],"sum_hessian":[6.373194E3,3.1412612E3,3.2319329E3,1.6039707E3,1.5372906E3,1.4451145E3,1.7868182E3,1.0090314E3,5.949393E2,9.4919183E2,5.880988E2,3.6100537E2,1.0841091E3,6.1761053E2,1.1692076E3],"tree_param":{"num_deleted":"0","num_feature":"106","num_nodes":"15","size_leaf_vector":"1"}},{"base_weights":[1.3442546E-1,3.196569E-1,-4.5652535E-2,1.7892095E-1,4.6628553E-1,-2.2866698E-1,1.02408096E-1,2.6026787E-3,4.0749362E-4,3.858544E-3,5.9522605E-3,-4.259684E-3,-1.6263413E-3,-1.3808582E-3,2.2945362E-3],"categories":[],"categories_nodes":[],"categories_segments":[],"categories_sizes":[],"default_left":[0,0,0,0,0,0,0,0,0,0,0,0,0,0,0],"id":25,"left_children":[1,3,5,7,9,11,13,-1,-1,-1,-1,-1,-1,-1,-1],"loss_changes":[2.1263287E2,6.476004E1,8.762695E1,1.8029003E1,1.5723694E1,1.8771248E1,5.4656105E1,0E0,0E0,0E0,0E0,0E0,0E0,0E0,0E0],"parents":[2147483647,0,0,1,1,2,2,3,3,4,4,5,5,6,6],"right_children":[2,4,6,8,10,12,14,-1,-1,-1,-1,-1,-1,-1,-1],"split_conditions":[1.5E1,1.3E1,1.4E1,5.1E0,2.3E1,-5.9E0,-4.8E0,2.6026787E-3,4.0749362E-4,3.858544E-3,5.9522605E-3,-4.259684E-3,-1.6263413E-3,-1.3808582E-3,2.2945362E-3],"split_indices":[51,80,103,77,80,25,25,0,0,0,0,0,0,0,0],"split_type":[0,0,0,0,0,0,0,0,0,0,0,0,0,0,0],"sum_hessian":[6.3731943E3,3.1412612E3,3.2319329E3,1.6039707E3,1.5372906E3,1.4451145E3,1.7868182E3,1.0090314E3,5.949393E2,9.4919183E2,5.880988E2,3.6100534E2,1.0841093E3,6.176106E2,1.1692078E3],"tree_param":{"num_deleted":"0","num_feature":"106","num_nodes":"15","size_leaf_vector":"1"}},{"base_weights":[-1.3311231E-1,1.028954E-1,-2.7212387E-1,-1.431381E-1,2.0354947E-1,-3.7616825E-1,-5.0848223E-2,5.4381293E-4,-2.9742997E-3,-1.4257237E-3,2.3635768E-3,-5.051128E-3,-2.8994759E-3,1.0075757E-3,-2.0043852E-3],"categories":[],"categories_nodes":[],"categories_segments":[],"categories_sizes":[],"default_left":[0,0,0,0,0,0,0,0,0,0,0,0,0,0,0],"id":26,"left_children":[1,3,5,7,9,11,13,-1,-1,-1,-1,-1,-1,-1,-1],"loss_changes":[2.0910489E2,5.8546562E1,9.231952E1,2.0941734E1,1.9081032E1,3.018158E1,2.91374E1,0E0,0E0,0E0,0E0,0E0,0E0,0E0,0E0],"parents":[2147483647,0,0,1,1,2,2,3,3,4,4,5,5,6,6],"right_children":[2,4,6,8,10,12,14,-1,-1,-1,-1,-1,-1,-1,-1],"split_conditions":[4.59E-1,-2.4E0,3E0,-4.8E0,5E0,8E0,3.1E0,5.4381293E-4,-2.9742997E-3,-1.4257237E-3,2.3635768E-3,-5.051128E-3,-2.8994759E-3,1.0075757E-3,-2.0043852E-3],"split_indices":[3,77,77,25,53,51,25,0,0,0,0,0,0,0,0],"split_type":[0,0,0,0,0,0,0,0,0,0,0,0,0,0,0],"sum_hessian":[6.3717803E3,2.3619778E3,4.0098027E3,6.856324E2,1.6763456E3,2.726905E3,1.2828977E3,3.009779E2,3.8465445E2,1.4485028E2,1.5314952E3,1.0907737E3,1.6361312E3,6.3731866E2,6.4557904E2],"tree_param":{"num_deleted":"0","num_feature":"106","num_nodes":"15","size_leaf_vector":"1"}},{"base_weights":[1.331123E-1,-1.02895424E-1,2.7212387E-1,1.4313805E-1,-2.0354949E-1,3.7616825E-1,5.0848216E-2,-5.4381293E-4,2.9742988E-3,1.4257235E-3,-2.363577E-3,5.0511286E-3,2.8994759E-3,-1.0075757E-3,2.004385E-3],"categories":[],"categories_nodes":[],"categories_segments":[],"categories_sizes":[],"default_left":[0,0,0,0,0,0,0,0,0,0,0,0,0,0,0],"id":27,"left_children":[1,3,5,7,9,11,13,-1,-1,-1,-1,-1,-1,-1,-1],"loss_changes":[2.091049E2,5.8546555E1,9.231955E1,2.0941729E1,1.9081032E1,3.0181519E1,2.9137392E1,0E0,0E0,0E0,0E0,0E0,0E0,0E0,0E0],"parents":[2147483647,0,0,1,1,2,2,3,3,4,4,5,5,6,6],"right_children":[2,4,6,8,10,12,14,-1,-1,-1,-1,-1,-1,-1,-1],"split_conditions":[4.59E-1,-2.4E0,3E0,-4.8E0,5E0,8E0,3.1E0,-5.4381293E-4,2.9742988E-3,1.4257235E-3,-2.363577E-3,5.0511286E-3,2.8994759E-3,-1.0075757E-3,2.004385E-3],"split_indices":[3,77,77,25,53,51,25,0,0,0,0,0,0,0,0],"split_type":[0,0,0,0,0,0,0,0,0,0,0,0,0,0,0],"sum_hessian":[6.3717803E3,2.361978E3,4.0098025E3,6.856324E2,1.6763456E3,2.7269048E3,1.2828977E3,3.009779E2,3.8465448E2,1.4485028E2,1.5314952E3,1.0907737E3,1.6361312E3,6.3731866E2,6.4557904E2],"tree_param":{"num_deleted":"0","num_feature":"106","num_nodes":"15","size_leaf_vector":"1"}},{"base_weights":[-1.3181104E-1,4.0701244E-2,-3.184511E-1,-2.027659E-1,1.5393811E-1,-1.7914268E-1,-4.6413594E-1,5.473773E-4,-3.3042154E-3,5.410388E-4,2.8898236E-3,-2.54003E-3,-1.9449428E-4,-3.910754E-3,-5.8012963E-3],"categories":[],"categories_nodes":[],"categories_segments":[],"categories_sizes":[],"default_left":[0,0,0,0,0,0,0,0,0,0,0,0,0,0,0],"id":28,"left_children":[1,3,5,7,9,11,13,-1,-1,-1,-1,-1,-1,-1,-1],"loss_changes":[2.0515845E2,9.1339E1,6.2030396E1,3.4592995E1,3.0468704E1,1.8717575E1,1.2445892E1,0E0,0E0,0E0,0E0,0E0,0E0,0E0,0E0],"parents":[2147483647,0,0,1,1,2,2,3,3,4,4,5,5,6,6],"right_children":[2,4,6,8,10,12,14,-1,-1,-1,-1,-1,-1,-1,-1],"split_conditions":[6E-1,-1.9E0,1.3E1,-4.8E0,2.4E1,5.8E0,2.3E1,5.473773E-4,-3.3042154E-3,5.410388E-4,2.8898236E-3,-2.54003E-3,-1.9449428E-4,-3.910754E-3,-5.8012963E-3],"split_indices":[25,77,80,25,51,77,80,0,0,0,0,0,0,0,0],"split_type":[0,0,0,0,0,0,0,0,0,0,0,0,0,0,0],"sum_hessian":[6.370433E3,3.3109182E3,3.059515E3,1.0508109E3,2.2601072E3,1.5651238E3,1.4943911E3,3.484659E2,7.0234503E2,1.3002623E3,9.5984485E2,1.0651954E3,4.9992844E2,9.195615E2,5.748296E2],"tree_param":{"num_deleted":"0","num_feature":"106","num_nodes":"15","size_leaf_vector":"1"}},{"base_weights":[1.3181102E-1,-4.0701263E-2,3.1845108E-1,2.0276585E-1,-1.5393813E-1,1.7914267E-1,4.6413592E-1,-5.473775E-4,3.304215E-3,-5.4103934E-4,-2.8898236E-3,2.54003E-3,1.9449407E-4,3.9107534E-3,5.8012954E-3],"categories":[],"categories_nodes":[],"categories_segments":[],"categories_sizes":[],"default_left":[0,0,0,0,0,0,0,0,0,0,0,0,0,0,0],"id":29,"left_children":[1,3,5,7,9,11,13,-1,-1,-1,-1,-1,-1,-1,-1],"loss_changes":[2.0515851E2,9.133899E1,6.2030396E1,3.4593002E1,3.0468689E1,1.8717583E1,1.2445862E1,0E0,0E0,0E0,0E0,0E0,0E0,0E0,0E0],"parents":[2147483647,0,0,1,1,2,2,3,3,4,4,5,5,6,6],"right_children":[2,4,6,8,10,12,14,-1,-1,-1,-1,-1,-1,-1,-1],"split_conditions":[6E-1,-1.9E0,1.3E1,-4.8E0,2.4E1,5.8E0,2.3E1,-5.473775E-4,3.304215E-3,-5.4103934E-4,-2.8898236E-3,2.54003E-3,1.9449407E-4,3.9107534E-3,5.8012954E-3],"split_indices":[25,77,80,25,51,77,80,0,0,0,0,0,0,0,0],"split_type":[0,0,0,0,0,0,0,0,0,0,0,0,0,0,0],"sum_hessian":[6.370433E3,3.3109182E3,3.059515E3,1.050811E3,2.2601072E3,1.5651238E3,1.4943911E3,3.4846594E2,7.0234503E2,1.3002623E3,9.598448E2,1.0651954E3,4.999284E2,9.195615E2,5.748296E2],"tree_param":{"num_deleted":"0","num_feature":"106","num_nodes":"15","size_leaf_vector":"1"}},{"base_weights":[-1.3052928E-1,-2.4616717E-1,1.4331141E-1,-1.0529467E-1,-4.0799916E-1,-1.1873732E-2,2.9455706E-1,-2.5434718E-3,3.2840073E-4,-5.467673E-3,-3.3281383E-3,1.3213105E-3,-1.6722474E-3,4.4822507E-3,2.0407138E-3],"categories":[],"categories_nodes":[],"categories_segments":[],"categories_sizes":[],"default_left":[0,0,0,0,0,0,0,0,0,0,0,0,0,0,0],"id":30,"left_children":[1,3,5,7,9,11,13,-1,-1,-1,-1,-1,-1,-1,-1],"loss_changes":[2.0174261E2,1.0206613E2,4.4407116E1,4.9337753E1,2.1561646E1,2.0933044E1,1.323098E1,0E0,0E0,0E0,0E0,0E0,0E0,0E0,0E0],"parents":[2147483647,0,0,1,1,2,2,3,3,4,4,5,5,6,6],"right_children":[2,4,6,8,10,12,14,-1,-1,-1,-1,-1,-1,-1,-1],"split_conditions":[2E1,1.4E1,0E0,1E1,8E0,-4.8E0,-6.2E0,-2.5434718E-3,3.2840073E-4,-5.467673E-3,-3.3281383E-3,1.3213105E-3,-1.6722474E-3,4.4822507E-3,2.0407138E-3],"split_indices":[28,80,77,51,51,25,25,0,0,0,0,0,0,0,0],"split_type":[0,0,0,0,0,0,0,0,0,0,0,0,0,0,0],"sum_hessian":[6.3687686E3,4.477925E3,1.890844E3,2.3948723E3,2.0830522E3,9.337225E2,9.571215E2,1.1515096E3,1.2433628E3,7.2980084E2,1.3532513E3,4.8463382E2,4.4908862E2,3.5325308E2,6.0386847E2],"tree_param":{"num_deleted":"0","num_feature":"106","num_nodes":"15","size_leaf_vector":"1"}},{"base_weights":[1.3052928E-1,2.4616715E-1,-1.4331141E-1,1.0529465E-1,4.079992E-1,1.1873737E-2,-2.945571E-1,2.5434713E-3,-3.2840073E-4,5.467673E-3,3.3281383E-3,-1.3213104E-3,1.6722473E-3,-4.48225E-3,-2.0407143E-3],"categories":[],"categories_nodes":[],"categories_segments":[],"categories_sizes":[],"default_left":[0,0,0,0,0,0,0,0,0,0,0,0,0,0,0],"id":31,"left_children":[1,3,5,7,9,11,13,-1,-1,-1,-1,-1,-1,-1,-1],"loss_changes":[2.0174265E2,1.0206613E2,4.4407127E1,4.9337746E1,2.1561676E1,2.0933039E1,1.3230972E1,0E0,0E0,0E0,0E0,0E0,0E0,0E0,0E0],"parents":[2147483647,0,0,1,1,2,2,3,3,4,4,5,5,6,6],"right_children":[2,4,6,8,10,12,14,-1,-1,-1,-1,-1,-1,-1,-1],"split_conditions":[2E1,1.4E1,0E0,1E1,8E0,-4.8E0,-6.2E0,2.5434713E-3,-3.2840073E-4,5.467673E-3,3.3281383E-3,-1.3213104E-3,1.6722473E-3,-4.48225E-3,-2.0407143E-3],"split_indices":[28,80,77,51,51,25,25,0,0,0,0,0,0,0,0],"split_type":[0,0,0,0,0,0,0,0,0,0,0,0,0,0,0],"sum_hessian":[6.3687686E3,4.477925E3,1.890844E3,2.3948723E3,2.0830522E3,9.337225E2,9.571215E2,1.1515096E3,1.2433628E3,7.2980084E2,1.3532513E3,4.8463382E2,4.4908862E2,3.5325308E2,6.038684E2],"tree_param":{"num_deleted":"0","num_feature":"106","num_nodes":"15","size_leaf_vector":"1"}},{"base_weights":[-1.2925674E-1,1.00372076E-1,-2.6457354E-1,-1.39327E-1,1.984238E-1,-3.664252E-1,-4.818571E-2,5.49854E-4,-2.872468E-3,-1.4342582E-3,2.3083638E-3,-4.924717E-3,-2.8222047E-3,1.0022122E-3,-1.9466343E-3],"categories":[],"categories_nodes":[],"categories_segments":[],"categories_sizes":[],"default_left":[0,0,0,0,0,0,0,0,0,0,0,0,0,0,0],"id":32,"left_children":[1,3,5,7,9,11,13,-1,-1,-1,-1,-1,-1,-1,-1],"loss_changes":[1.9790361E2,5.5540802E1,8.829974E1,1.9741468E1,1.8611137E1,2.8778961E1,2.7924038E1,0E0,0E0,0E0,0E0,0E0,0E0,0E0,0E0],"parents":[2147483647,0,0,1,1,2,2,3,3,4,4,5,5,6,6],"right_children":[2,4,6,8,10,12,14,-1,-1,-1,-1,-1,-1,-1,-1],"split_conditions":[4.59E-1,-2.4E0,3E0,-4.9E0,5E0,8E0,3.1E0,5.49854E-4,-2.872468E-3,-1.4342582E-3,2.3083638E-3,-4.924717E-3,-2.8222047E-3,1.0022122E-3,-1.9466343E-3],"split_indices":[3,77,77,25,53,51,25,0,0,0,0,0,0,0,0],"split_type":[0,0,0,0,0,0,0,0,0,0,0,0,0,0,0],"sum_hessian":[6.3672095E3,2.3609695E3,4.0062402E3,6.852859E2,1.6756836E3,2.7235833E3,1.282657E3,2.9646622E2,3.888197E2,1.4482414E2,1.5308595E3,1.0888414E3,1.6347417E3,6.372896E2,6.453674E2],"tree_param":{"num_deleted":"0","num_feature":"106","num_nodes":"15","size_leaf_vector":"1"}},{"base_weights":[1.2925674E-1,-1.0037206E-1,2.6457354E-1,1.3932699E-1,-1.9842379E-1,3.6642516E-1,4.818574E-2,-5.4985425E-4,2.872468E-3,1.4342582E-3,-2.3083636E-3,4.924717E-3,2.8222045E-3,-1.0022118E-3,1.9466346E-3],"categories":[],"categories_nodes":[],"categories_segments":[],"categories_sizes":[],"default_left":[0,0,0,0,0,0,0,0,0,0,0,0,0,0,0],"id":33,"left_children":[1,3,5,7,9,11,13,-1,-1,-1,-1,-1,-1,-1,-1],"loss_changes":[1.9790364E2,5.5540787E1,8.829965E1,1.9741474E1,1.8611137E1,2.8778961E1,2.7924038E1,0E0,0E0,0E0,0E0,0E0,0E0,0E0,0E0],"parents":[2147483647,0,0,1,1,2,2,3,3,4,4,5,5,6,6],"right_children":[2,4,6,8,10,12,14,-1,-1,-1,-1,-1,-1,-1,-1],"split_conditions":[4.59E-1,-2.4E0,3E0,-4.9E0,5E0,8E0,3.1E0,-5.4985425E-4,2.872468E-3,1.4342582E-3,-2.3083636E-3,4.924717E-3,2.8222045E-3,-1.0022118E-3,1.9466346E-3],"split_indices":[3,77,77,25,53,51,25,0,0,0,0,0,0,0,0],"split_type":[0,0,0,0,0,0,0,0,0,0,0,0,0,0,0],"sum_hessian":[6.3672095E3,2.3609695E3,4.00624E3,6.8528595E2,1.6756836E3,2.7235833E3,1.282657E3,2.9646622E2,3.888197E2,1.4482414E2,1.5308595E3,1.0888414E3,1.6347418E3,6.372896E2,6.453673E2],"tree_param":{"num_deleted":"0","num_feature":"106","num_nodes":"15","size_leaf_vector":"1"}},{"base_weights":[-1.279983E-1,-3.0532968E-1,4.4192985E-2,-1.700011E-1,-4.4666123E-1,-9.038221E-2,2.32497E-1,-2.4827356E-3,-3.4519372E-4,-3.67445E-3,-5.7391357E-3,1.4592973E-3,-2.1334724E-3,4.0231836E-3,1.7696532E-3],"categories":[],"categories_nodes":[],"categories_segments":[],"categories_sizes":[],"default_left":[0,0,0,0,0,0,0,0,0,0,0,0,0,0,0],"id":34,"left_children":[1,3,5,7,9,11,13,-1,-1,-1,-1,-1,-1,-1,-1],"loss_changes":[1.9441737E2,5.991562E1,8.189774E1,1.7000523E1,1.52491455E1,5.4806915E1,1.2631157E1,0E0,0E0,0E0,0E0,0E0,0E0,0E0,0E0],"parents":[2147483647,0,0,1,1,2,2,3,3,4,4,5,5,6,6],"right_children":[2,4,6,8,10,12,14,-1,-1,-1,-1,-1,-1,-1,-1],"split_conditions":[1.5E1,1.3E1,5.45E-1,9E0,2.3E1,-4.8E0,-6E0,-2.4827356E-3,-3.4519372E-4,-3.67445E-3,-5.7391357E-3,1.4592973E-3,-2.1334724E-3,4.0231836E-3,1.7696532E-3],"split_indices":[51,80,55,29,80,25,25,0,0,0,0,0,0,0,0],"split_type":[0,0,0,0,0,0,0,0,0,0,0,0,0,0,0],"sum_hessian":[6.3656094E3,3.1356177E3,3.229992E3,1.6029526E3,1.5326652E3,1.8840431E3,1.3459487E3,1.01545624E3,5.874964E2,9.470205E2,5.856446E2,6.447629E2,1.2392803E3,3.3013092E2,1.0158178E3],"tree_param":{"num_deleted":"0","num_feature":"106","num_nodes":"15","size_leaf_vector":"1"}},{"base_weights":[1.2799834E-1,3.0532968E-1,-4.4192962E-2,1.7000118E-1,4.466612E-1,9.038222E-2,-2.3249696E-1,2.4827363E-3,3.4519404E-4,3.6744496E-3,5.739136E-3,-1.4592973E-3,2.1334724E-3,-4.023183E-3,-1.7696528E-3],"categories":[],"categories_nodes":[],"categories_segments":[],"categories_sizes":[],"default_left":[0,0,0,0,0,0,0,0,0,0,0,0,0,0,0],"id":35,"left_children":[1,3,5,7,9,11,13,-1,-1,-1,-1,-1,-1,-1,-1],"loss_changes":[1.9441739E2,5.991559E1,8.189773E1,1.700053E1,1.5249176E1,5.480692E1,1.2631157E1,0E0,0E0,0E0,0E0,0E0,0E0,0E0,0E0],"parents":[2147483647,0,0,1,1,2,2,3,3,4,4,5,5,6,6],"right_children":[2,4,6,8,10,12,14,-1,-1,-1,-1,-1,-1,-1,-1],"split_conditions":[1.5E1,1.3E1,5.45E-1,9E0,2.3E1,-4.8E0,-6E0,2.4827363E-3,3.4519404E-4,3.6744496E-3,5.739136E-3,-1.4592973E-3,2.1334724E-3,-4.023183E-3,-1.7696528E-3],"split_indices":[51,80,55,29,80,25,25,0,0,0,0,0,0,0,0],"split_type":[0,0,0,0,0,0,0,0,0,0,0,0,0,0,0],"sum_hessian":[6.36561E3,3.1356177E3,3.229992E3,1.6029526E3,1.5326652E3,1.8840431E3,1.3459487E3,1.01545624E3,5.8749634E2,9.470205E2,5.856446E2,6.447629E2,1.2392803E3,3.3013092E2,1.0158179E3],"tree_param":{"num_deleted":"0","num_feature":"106","num_nodes":"15","size_leaf_vector":"1"}},{"base_weights":[-1.2675531E-1,-2.3942289E-1,1.3993114E-1,-1.0191951E-1,-3.9758077E-1,-1.1724667E-2,2.877724E-1,-2.4698742E-3,3.245448E-4,-5.3325794E-3,-3.2416966E-3,1.281651E-3,-1.6267269E-3,4.387948E-3,1.9890813E-3],"categories":[],"categories_nodes":[],"categories_segments":[],"categories_sizes":[],"default_left":[0,0,0,0,0,0,0,0,0,0,0,0,0,0,0],"id":36,"left_children":[1,3,5,7,9,11,13,-1,-1,-1,-1,-1,-1,-1,-1],"loss_changes":[1.912771E2,9.727527E1,4.2400925E1,4.6696083E1,2.0552094E1,1.9751863E1,1.2763786E1,0E0,0E0,0E0,0E0,0E0,0E0,0E0,0E0],"parents":[2147483647,0,0,1,1,2,2,3,3,4,4,5,5,6,6],"right_children":[2,4,6,8,10,12,14,-1,-1,-1,-1,-1,-1,-1,-1],"split_conditions":[2E1,1.4E1,0E0,1E1,8E0,-4.8E0,-6.2E0,-2.4698742E-3,3.245448E-4,-5.3325794E-3,-3.2416966E-3,1.281651E-3,-1.6267269E-3,4.387948E-3,1.9890813E-3],"split_indices":[28,80,77,51,51,25,25,0,0,0,0,0,0,0,0],"split_type":[0,0,0,0,0,0,0,0,0,0,0,0,0,0,0],"sum_hessian":[6.3638315E3,4.473855E3,1.8899766E3,2.3940762E3,2.0797788E3,9.3340686E2,9.565697E2,1.1508258E3,1.2432504E3,7.2801324E2,1.3517656E3,4.8452682E2,4.4888E2,3.528955E2,6.036742E2],"tree_param":{"num_deleted":"0","num_feature":"106","num_nodes":"15","size_leaf_vector":"1"}},{"base_weights":[1.2675531E-1,2.394229E-1,-1.3993117E-1,1.0191952E-1,3.975808E-1,1.1724599E-2,-2.8777236E-1,2.4698745E-3,-3.245448E-4,5.3325803E-3,3.2416969E-3,-1.281652E-3,1.6267268E-3,-4.3879477E-3,-1.9890808E-3],"categories":[],"categories_nodes":[],"categories_segments":[],"categories_sizes":[],"default_left":[0,0,0,0,0,0,0,0,0,0,0,0,0,0,0],"id":37,"left_children":[1,3,5,7,9,11,13,-1,-1,-1,-1,-1,-1,-1,-1],"loss_changes":[1.9127707E2,9.72753E1,4.24009E1,4.6696087E1,2.0552124E1,1.9751873E1,1.2763786E1,0E0,0E0,0E0,0E0,0E0,0E0,0E0,0E0],"parents":[2147483647,0,0,1,1,2,2,3,3,4,4,5,5,6,6],"right_children":[2,4,6,8,10,12,14,-1,-1,-1,-1,-1,-1,-1,-1],"split_conditions":[2E1,1.4E1,0E0,1E1,8E0,-4.8E0,-6.2E0,2.4698745E-3,-3.245448E-4,5.3325803E-3,3.2416969E-3,-1.281652E-3,1.6267268E-3,-4.3879477E-3,-1.9890808E-3],"split_indices":[28,80,77,51,51,25,25,0,0,0,0,0,0,0,0],"split_type":[0,0,0,0,0,0,0,0,0,0,0,0,0,0,0],"sum_hessian":[6.3638315E3,4.473855E3,1.8899766E3,2.3940762E3,2.0797788E3,9.334068E2,9.565697E2,1.1508258E3,1.2432504E3,7.2801324E2,1.3517656E3,4.8452682E2,4.4888E2,3.528955E2,6.036742E2],"tree_param":{"num_deleted":"0","num_feature":"106","num_nodes":"15","size_leaf_vector":"1"}},{"base_weights":[-1.2552452E-1,3.9433967E-2,-3.0422372E-1,-1.9561023E-1,1.4870231E-1,-1.7053255E-1,-4.4441766E-1,5.0400663E-4,-3.1772985E-3,5.336113E-4,2.7779867E-3,-2.4412684E-3,-1.3650914E-4,-3.939702E-3,-6.0886443E-3],"categories":[],"categories_nodes":[],"categories_segments":[],"categories_sizes":[],"default_left":[0,0,0,0,0,0,0,0,0,0,0,0,0,0,0],"id":38,"left_children":[1,3,5,7,9,11,13,-1,-1,-1,-1,-1,-1,-1,-1],"loss_changes":[1.8758095E2,8.502936E1,5.717227E1,3.1583233E1,2.7800037E1,1.8066578E1,1.2123749E1,0E0,0E0,0E0,0E0,0E0,0E0,0E0,0E0],"parents":[2147483647,0,0,1,1,2,2,3,3,4,4,5,5,6,6],"right_children":[2,4,6,8,10,12,14,-1,-1,-1,-1,-1,-1,-1,-1],"split_conditions":[6E-1,-1.9E0,1.3E1,-4.8E0,2.4E1,5.8E0,2.7E1,5.0400663E-4,-3.1772985E-3,5.336113E-4,2.7779867E-3,-2.4412684E-3,-1.3650914E-4,-3.939702E-3,-6.0886443E-3],"split_indices":[25,77,80,25,51,77,103,0,0,0,0,0,0,0,0],"split_type":[0,0,0,0,0,0,0,0,0,0,0,0,0,0,0],"sum_hessian":[6.3620254E3,3.3086067E3,3.0534187E3,1.0497429E3,2.2588638E3,1.5640922E3,1.4893265E3,3.4842514E2,7.0131775E2,1.3001104E3,9.5875354E2,1.0642765E3,4.9981567E2,1.1422986E3,3.4702798E2],"tree_param":{"num_deleted":"0","num_feature":"106","num_nodes":"15","size_leaf_vector":"1"}},{"base_weights":[1.255245E-1,-3.943399E-2,3.0422372E-1,1.9561023E-1,-1.4870234E-1,1.7053258E-1,4.444176E-1,-5.040073E-4,3.177299E-3,-5.3361186E-4,-2.7779867E-3,2.4412686E-3,1.3650909E-4,3.9397017E-3,6.0886443E-3],"categories":[],"categories_nodes":[],"categories_segments":[],"categories_sizes":[],"default_left":[0,0,0,0,0,0,0,0,0,0,0,0,0,0,0],"id":39,"left_children":[1,3,5,7,9,11,13,-1,-1,-1,-1,-1,-1,-1,-1],"loss_changes":[1.8758096E2,8.5029366E1,5.717221E1,3.1583244E1,2.7800018E1,1.806659E1,1.2123749E1,0E0,0E0,0E0,0E0,0E0,0E0,0E0,0E0],"parents":[2147483647,0,0,1,1,2,2,3,3,4,4,5,5,6,6],"right_children":[2,4,6,8,10,12,14,-1,-1,-1,-1,-1,-1,-1,-1],"split_conditions":[6E-1,-1.9E0,1.3E1,-4.8E0,2.4E1,5.8E0,2.7E1,-5.040073E-4,3.177299E-3,-5.3361186E-4,-2.7779867E-3,2.4412686E-3,1.3650909E-4,3.9397017E-3,6.0886443E-3],"split_indices":[25,77,80,25,51,77,103,0,0,0,0,0,0,0,0],"split_type":[0,0,0,0,0,0,0,0,0,0,0,0,0,0,0],"sum_hessian":[6.3620254E3,3.3086067E3,3.0534187E3,1.0497429E3,2.2588638E3,1.5640922E3,1.4893267E3,3.4842514E2,7.0131775E2,1.3001102E3,9.5875354E2,1.0642765E3,4.9981564E2,1.1422987E3,3.4702798E2],"tree_param":{"num_deleted":"0","num_feature":"106","num_nodes":"15","size_leaf_vector":"1"}},{"base_weights":[-1.24311395E-1,-2.3502369E-1,1.3766754E-1,-9.9903435E-2,-3.9059666E-1,4.377678E-3,3.0083448E-1,-2.427748E-3,3.239136E-4,-5.244584E-3,-3.1823765E-3,1.3946319E-3,-1.4069284E-3,4.413859E-3,2.0385124E-3],"categories":[],"categories_nodes":[],"categories_segments":[],"categories_sizes":[],"default_left":[0,0,0,0,0,0,0,0,0,0,0,0,0,0,0],"id":40,"left_children":[1,3,5,7,9,11,13,-1,-1,-1,-1,-1,-1,-1,-1],"loss_changes":[1.8452838E2,9.3961975E1,4.1108524E1,4.5267265E1,1.9962982E1,2.0427534E1,1.1494492E1,0E0,0E0,0E0,0E0,0E0,0E0,0E0,0E0],"parents":[2147483647,0,0,1,1,2,2,3,3,4,4,5,5,6,6],"right_children":[2,4,6,8,10,12,14,-1,-1,-1,-1,-1,-1,-1,-1],"split_conditions":[2E1,1.4E1,6E-1,1E1,8E0,-4.8E0,-5.9E0,-2.427748E-3,3.239136E-4,-5.244584E-3,-3.1823765E-3,1.3946319E-3,-1.4069284E-3,4.413859E-3,2.0385124E-3],"split_indices":[28,80,77,51,51,25,25,0,0,0,0,0,0,0,0],"split_type":[0,0,0,0,0,0,0,0,0,0,0,0,0,0,0],"sum_hessian":[6.3599917E3,4.470754E3,1.8892378E3,2.3935334E3,2.0772207E3,1.0403833E3,8.4885443E2,1.1503651E3,1.2431683E3,7.2666534E2,1.3505553E3,5.387517E2,5.0163156E2,3.4512964E2,5.0372482E2],"tree_param":{"num_deleted":"0","num_feature":"106","num_nodes":"15","size_leaf_vector":"1"}},{"base_weights":[1.2431138E-1,2.3502368E-1,-1.3766757E-1,9.990342E-2,3.9059666E-1,-4.377697E-3,-3.0083454E-1,2.4277477E-3,-3.2391364E-4,5.244584E-3,3.1823765E-3,-1.3946322E-3,1.4069283E-3,-4.4138595E-3,-2.0385128E-3],"categories":[],"categories_nodes":[],"categories_segments":[],"categories_sizes":[],"default_left":[0,0,0,0,0,0,0,0,0,0,0,0,0,0,0],"id":41,"left_children":[1,3,5,7,9,11,13,-1,-1,-1,-1,-1,-1,-1,-1],"loss_changes":[1.8452841E2,9.3962006E1,4.1108532E1,4.5267258E1,1.9962952E1,2.0427536E1,1.1494499E1,0E0,0E0,0E0,0E0,0E0,0E0,0E0,0E0],"parents":[2147483647,0,0,1,1,2,2,3,3,4,4,5,5,6,6],"right_children":[2,4,6,8,10,12,14,-1,-1,-1,-1,-1,-1,-1,-1],"split_conditions":[2E1,1.4E1,6E-1,1E1,8E0,-4.8E0,-5.9E0,2.4277477E-3,-3.2391364E-4,5.244584E-3,3.1823765E-3,-1.3946322E-3,1.4069283E-3,-4.4138595E-3,-2.0385128E-3],"split_indices":[28,80,77,51,51,25,25,0,0,0,0,0,0,0,0],"split_type":[0,0,0,0,0,0,0,0,0,0,0,0,0,0,0],"sum_hessian":[6.3599917E3,4.470754E3,1.8892378E3,2.3935334E3,2.0772207E3,1.0403833E3,8.4885443E2,1.1503651E3,1.2431683E3,7.2666534E2,1.3505553E3,5.387518E2,5.0163156E2,3.4512964E2,5.0372482E2],"tree_param":{"num_deleted":"0","num_feature":"106","num_nodes":"15","size_leaf_vector":"1"}},{"base_weights":[-1.2310711E-1,-2.3275937E-1,1.363205E-1,-9.8915845E-2,-3.8694543E-1,4.3342826E-3,2.9792804E-1,-2.4040283E-3,3.2067666E-4,-5.1977406E-3,-3.1519087E-3,1.3808376E-3,-1.3930092E-3,4.372357E-3,2.0184477E-3],"categories":[],"categories_nodes":[],"categories_segments":[],"categories_sizes":[],"default_left":[0,0,0,0,0,0,0,0,0,0,0,0,0,0,0],"id":42,"left_children":[1,3,5,7,9,11,13,-1,-1,-1,-1,-1,-1,-1,-1],"loss_changes":[1.8092624E2,9.221156E1,4.0309746E1,4.4379616E1,1.9631042E1,2.0023607E1,1.1283585E1,0E0,0E0,0E0,0E0,0E0,0E0,0E0,0E0],"parents":[2147483647,0,0,1,1,2,2,3,3,4,4,5,5,6,6],"right_children":[2,4,6,8,10,12,14,-1,-1,-1,-1,-1,-1,-1,-1],"split_conditions":[2E1,1.4E1,6E-1,1E1,8E0,-4.8E0,-5.9E0,-2.4040283E-3,3.2067666E-4,-5.1977406E-3,-3.1519087E-3,1.3808376E-3,-1.3930092E-3,4.372357E-3,2.0184477E-3],"split_indices":[28,80,77,51,51,25,25,0,0,0,0,0,0,0,0],"split_type":[0,0,0,0,0,0,0,0,0,0,0,0,0,0,0],"sum_hessian":[6.3580396E3,4.4691616E3,1.8888777E3,2.3932803E3,2.0758816E3,1.0402905E3,8.4858716E2,1.1501091E3,1.243171E3,7.258949E2,1.3499868E3,5.3870276E2,5.0158777E2,3.4493198E2,5.0365518E2],"tree_param":{"num_deleted":"0","num_feature":"106","num_nodes":"15","size_leaf_vector":"1"}},{"base_weights":[1.2310713E-1,2.327594E-1,-1.3632053E-1,9.8915845E-2,3.869455E-1,-4.334304E-3,-2.9792807E-1,2.404028E-3,-3.206765E-4,5.197741E-3,3.1519094E-3,-1.3808376E-3,1.3930087E-3,-4.372358E-3,-2.0184477E-3],"categories":[],"categories_nodes":[],"categories_segments":[],"categories_sizes":[],"default_left":[0,0,0,0,0,0,0,0,0,0,0,0,0,0,0],"id":43,"left_children":[1,3,5,7,9,11,13,-1,-1,-1,-1,-1,-1,-1,-1],"loss_changes":[1.8092627E2,9.221161E1,4.030974E1,4.4379616E1,1.9631042E1,2.0023602E1,1.1283592E1,0E0,0E0,0E0,0E0,0E0,0E0,0E0,0E0],"parents":[2147483647,0,0,1,1,2,2,3,3,4,4,5,5,6,6],"right_children":[2,4,6,8,10,12,14,-1,-1,-1,-1,-1,-1,-1,-1],"split_conditions":[2E1,1.4E1,6E-1,1E1,8E0,-4.8E0,-5.9E0,2.404028E-3,-3.206765E-4,5.197741E-3,3.1519094E-3,-1.3808376E-3,1.3930087E-3,-4.372358E-3,-2.0184477E-3],"split_indices":[28,80,77,51,51,25,25,0,0,0,0,0,0,0,0],"split_type":[0,0,0,0,0,0,0,0,0,0,0,0,0,0,0],"sum_hessian":[6.3580396E3,4.4691616E3,1.8888777E3,2.39328E3,2.0758816E3,1.0402905E3,8.4858716E2,1.1501091E3,1.243171E3,7.258949E2,1.3499868E3,5.3870276E2,5.015878E2,3.4493198E2,5.0365518E2],"tree_param":{"num_deleted":"0","num_feature":"106","num_nodes":"15","size_leaf_vector":"1"}},{"base_weights":[-1.2191611E-1,-2.917491E-1,4.2752817E-2,-1.5301019E-1,-4.189867E-1,-2.0163897E-1,1.392152E-1,-2.331706E-3,-3.042006E-4,-3.4372883E-3,-5.5357562E-3,4.2448007E-4,-3.2692018E-3,2.952483E-3,5.9388194E-4],"categories":[],"categories_nodes":[],"categories_segments":[],"categories_sizes":[],"default_left":[0,0,0,0,0,0,0,0,0,0,0,0,0,0,0],"id":44,"left_children":[1,3,5,7,9,11,13,-1,-1,-1,-1,-1,-1,-1,-1],"loss_changes":[1.7779387E2,5.5181427E1,7.613743E1,1.4720367E1,1.6338715E1,2.7965534E1,2.8822044E1,0E0,0E0,0E0,0E0,0E0,0E0,0E0,0E0],"parents":[2147483647,0,0,1,1,2,2,3,3,4,4,5,5,6,6],"right_children":[2,4,6,8,10,12,14,-1,-1,-1,-1,-1,-1,-1,-1],"split_conditions":[1.5E1,1.2E1,-2.4E0,5.1E0,2.3E1,-4.8E0,8E0,-2.331706E-3,-3.042006E-4,-3.4372883E-3,-5.5357562E-3,4.2448007E-4,-3.2692018E-3,2.952483E-3,5.9388194E-4],"split_indices":[51,80,77,77,80,25,103,0,0,0,0,0,0,0,0],"split_type":[0,0,0,0,0,0,0,0,0,0,0,0,0,0,0],"sum_hessian":[6.356006E3,3.128561E3,3.227445E3,1.497692E3,1.6308689E3,9.1306464E2,2.3143804E3,9.0501215E2,5.9267993E2,1.0482657E3,5.826031E2,3.0991483E2,6.031498E2,7.8239026E2,1.5319902E3],"tree_param":{"num_deleted":"0","num_feature":"106","num_nodes":"15","size_leaf_vector":"1"}},{"base_weights":[1.21916115E-1,2.917491E-1,-4.2752814E-2,1.5301019E-1,4.1898674E-1,2.0163897E-1,-1.392152E-1,2.331706E-3,3.042006E-4,3.437289E-3,5.535756E-3,-4.2448018E-4,3.2692018E-3,-2.952483E-3,-5.9388194E-4],"categories":[],"categories_nodes":[],"categories_segments":[],"categories_sizes":[],"default_left":[0,0,0,0,0,0,0,0,0,0,0,0,0,0,0],"id":45,"left_children":[1,3,5,7,9,11,13,-1,-1,-1,-1,-1,-1,-1,-1],"loss_changes":[1.7779388E2,5.5181427E1,7.613743E1,1.4720367E1,1.6338715E1,2.7965534E1,2.8822048E1,0E0,0E0,0E0,0E0,0E0,0E0,0E0,0E0],"parents":[2147483647,0,0,1,1,2,2,3,3,4,4,5,5,6,6],"right_children":[2,4,6,8,10,12,14,-1,-1,-1,-1,-1,-1,-1,-1],"split_conditions":[1.5E1,1.2E1,-2.4E0,5.1E0,2.3E1,-4.8E0,8E0,2.331706E-3,3.042006E-4,3.437289E-3,5.535756E-3,-4.2448018E-4,3.2692018E-3,-2.952483E-3,-5.9388194E-4],"split_indices":[51,80,77,77,80,25,103,0,0,0,0,0,0,0,0],"split_type":[0,0,0,0,0,0,0,0,0,0,0,0,0,0,0],"sum_hessian":[6.356006E3,3.128561E3,3.227445E3,1.4976921E3,1.6308689E3,9.1306464E2,2.3143804E3,9.0501215E2,5.9268E2,1.0482657E3,5.826031E2,3.0991483E2,6.031498E2,7.8239026E2,1.5319902E3],"tree_param":{"num_deleted":"0","num_feature":"106","num_nodes":"15","size_leaf_vector":"1"}},{"base_weights":[-1.2074028E-1,-2.2867335E-1,1.3451499E-1,-9.723867E-2,-3.8025394E-1,-9.229212E-2,2.2549516E-1,-2.5177114E-3,1.894476E-4,-5.1139435E-3,-3.0948876E-3,6.2166475E-4,-2.4318004E-3,3.5944167E-3,1.4621478E-3],"categories":[],"categories_nodes":[],"categories_segments":[],"categories_sizes":[],"default_left":[0,0,0,0,0,0,0,0,0,0,0,0,0,0,0],"id":46,"left_children":[1,3,5,7,9,11,13,-1,-1,-1,-1,-1,-1,-1,-1],"loss_changes":[1.7510983E2,8.8952255E1,3.900386E1,4.298072E1,1.9088959E1,1.2636841E1,1.4268768E1,0E0,0E0,0E0,0E0,0E0,0E0,0E0,0E0],"parents":[2147483647,0,0,1,1,2,2,3,3,4,4,5,5,6,6],"right_children":[2,4,6,8,10,12,14,-1,-1,-1,-1,-1,-1,-1,-1],"split_conditions":[2E1,1.4E1,-2.4E0,9E0,8E0,-4.9E0,-6.3E0,-2.5177114E-3,1.894476E-4,-5.1139435E-3,-3.0948876E-3,6.2166475E-4,-2.4318004E-3,3.5944167E-3,1.4621478E-3],"split_indices":[28,80,77,51,51,25,25,0,0,0,0,0,0,0,0],"split_type":[0,0,0,0,0,0,0,0,0,0,0,0,0,0,0],"sum_hessian":[6.3538457E3,4.46567E3,1.8881761E3,2.392654E3,2.0730156E3,5.405669E2,1.3476093E3,1.0263569E3,1.3662971E3,7.2438135E2,1.3486343E3,2.6741336E2,2.731535E2,4.9974377E2,8.4786554E2],"tree_param":{"num_deleted":"0","num_feature":"106","num_nodes":"15","size_leaf_vector":"1"}},{"base_weights":[1.2074028E-1,2.2867335E-1,-1.3451497E-1,9.7238675E-2,3.8025394E-1,9.229215E-2,-2.2549516E-1,2.5177118E-3,-1.894476E-4,5.113943E-3,3.094888E-3,-6.21665E-4,2.4318015E-3,-3.594417E-3,-1.4621477E-3],"categories":[],"categories_nodes":[],"categories_segments":[],"categories_sizes":[],"default_left":[0,0,0,0,0,0,0,0,0,0,0,0,0,0,0],"id":47,"left_children":[1,3,5,7,9,11,13,-1,-1,-1,-1,-1,-1,-1,-1],"loss_changes":[1.7510983E2,8.8952255E1,3.9003876E1,4.298072E1,1.9088898E1,1.2636851E1,1.4268776E1,0E0,0E0,0E0,0E0,0E0,0E0,0E0,0E0],"parents":[2147483647,0,0,1,1,2,2,3,3,4,4,5,5,6,6],"right_children":[2,4,6,8,10,12,14,-1,-1,-1,-1,-1,-1,-1,-1],"split_conditions":[2E1,1.4E1,-2.4E0,9E0,8E0,-4.9E0,-6.3E0,2.5177118E-3,-1.894476E-4,5.113943E-3,3.094888E-3,-6.21665E-4,2.4318015E-3,-3.594417E-3,-1.4621477E-3],"split_indices":[28,80,77,51,51,25,25,0,0,0,0,0,0,0,0],"split_type":[0,0,0,0,0,0,0,0,0,0,0,0,0,0,0],"sum_hessian":[6.3538457E3,4.46567E3,1.8881761E3,2.392654E3,2.0730156E3,5.405669E2,1.3476093E3,1.0263569E3,1.3662971E3,7.2438135E2,1.3486343E3,2.674134E2,2.7315353E2,4.9974377E2,8.4786554E2],"tree_param":{"num_deleted":"0","num_feature":"106","num_nodes":"15","size_leaf_vector":"1"}},{"base_weights":[-1.1957552E-1,8.634815E-2,-2.510145E-1,-1.6849875E-1,1.6836841E-1,-1.2173396E-1,-3.99843E-1,7.4500545E-5,-2.9380845E-3,9.312972E-4,3.2263722E-3,-2.5054081E-3,3.704107E-5,-3.380396E-3,-5.356388E-3],"categories":[],"categories_nodes":[],"categories_segments":[],"categories_sizes":[],"default_left":[0,0,0,0,0,0,0,0,0,0,0,0,0,0,0],"id":48,"left_children":[1,3,5,7,9,11,13,-1,-1,-1,-1,-1,-1,-1,-1],"loss_changes":[1.7196545E2,5.177883E1,7.456413E1,1.330389E1,2.1715477E1,3.355413E1,1.4944244E1,0E0,0E0,0E0,0E0,0E0,0E0,0E0,0E0],"parents":[2147483647,0,0,1,1,2,2,3,3,4,4,5,5,6,6],"right_children":[2,4,6,8,10,12,14,-1,-1,-1,-1,-1,-1,-1,-1],"split_conditions":[4.69E-1,-3.2E0,1.4E1,-4.8E0,2.7E1,9E0,2.6E1,7.4500545E-5,-2.9380845E-3,9.312972E-4,3.2263722E-3,-2.5054081E-3,3.704107E-5,-3.380396E-3,-5.356388E-3],"split_indices":[3,77,80,25,51,51,103,0,0,0,0,0,0,0,0],"split_type":[0,0,0,0,0,0,0,0,0,0,0,0,0,0,0],"sum_hessian":[6.351666E3,2.4747896E3,3.8768762E3,6.023039E2,1.8724857E3,2.0756614E3,1.8012148E3,2.5092197E2,3.5138193E2,1.2597128E3,6.127729E2,1.0235873E3,1.0520741E3,1.2402443E3,5.609706E2],"tree_param":{"num_deleted":"0","num_feature":"106","num_nodes":"15","size_leaf_vector":"1"}},{"base_weights":[1.1957553E-1,-8.634814E-2,2.5101453E-1,1.6849878E-1,-1.6836841E-1,1.21734E-1,3.9984298E-1,-7.4500465E-5,2.9380848E-3,-9.3129714E-4,-3.226372E-3,2.5054084E-3,-3.7040718E-5,3.3803957E-3,5.3563872E-3],"categories":[],"categories_nodes":[],"categories_segments":[],"categories_sizes":[],"default_left":[0,0,0,0,0,0,0,0,0,0,0,0,0,0,0],"id":49,"left_children":[1,3,5,7,9,11,13,-1,-1,-1,-1,-1,-1,-1,-1],"loss_changes":[1.7196548E2,5.1778835E1,7.456406E1,1.330389E1,2.1715477E1,3.355413E1,1.4944275E1,0E0,0E0,0E0,0E0,0E0,0E0,0E0,0E0],"parents":[2147483647,0,0,1,1,2,2,3,3,4,4,5,5,6,6],"right_children":[2,4,6,8,10,12,14,-1,-1,-1,-1,-1,-1,-1,-1],"split_conditions":[4.69E-1,-3.2E0,1.4E1,-4.8E0,2.7E1,9E0,2.6E1,-7.4500465E-5,2.9380848E-3,-9.3129714E-4,-3.226372E-3,2.5054084E-3,-3.7040718E-5,3.3803957E-3,5.3563872E-3],"split_indices":[3,77,80,25,51,51,103,0,0,0,0,0,0,0,0],"split_type":[0,0,0,0,0,0,0,0,0,0,0,0,0,0,0],"sum_hessian":[6.351666E3,2.4747896E3,3.8768762E3,6.023039E2,1.8724857E3,2.0756614E3,1.8012148E3,2.5092197E2,3.5138193E2,1.2597128E3,6.127729E2,1.0235873E3,1.0520741E3,1.2402443E3,5.609706E2],"tree_param":{"num_deleted":"0","num_feature":"106","num_nodes":"15","size_leaf_vector":"1"}},{"base_weights":[-1.18423186E-1,3.8155008E-2,-2.8835925E-1,-2.0583622E-1,1.3415039E-1,-1.6128413E-1,-4.221654E-1,4.138878E-4,-3.28692E-3,2.8848853E-3,5.5858935E-4,-2.3355908E-3,-7.354682E-5,-3.726468E-3,-5.840358E-3],"categories":[],"categories_nodes":[],"categories_segments":[],"categories_sizes":[],"default_left":[0,0,0,0,0,0,0,0,0,0,0,0,0,0,0],"id":50,"left_children":[1,3,5,7,9,11,13,-1,-1,-1,-1,-1,-1,-1,-1],"loss_changes":[1.689855E2,7.746103E1,5.171489E1,2.8377373E1,2.8659626E1,1.7394009E1,1.1667999E1,0E0,0E0,0E0,0E0,0E0,0E0,0E0,0E0],"parents":[2147483647,0,0,1,1,2,2,3,3,4,4,5,5,6,6],"right_children":[2,4,6,8,10,12,14,-1,-1,-1,-1,-1,-1,-1,-1],"split_conditions":[6E-1,-2.4E0,1.3E1,-4.8E0,8E0,5.8E0,2.7E1,4.138878E-4,-3.28692E-3,2.8848853E-3,5.5858935E-4,-2.3355908E-3,-7.354682E-5,-3.726468E-3,-5.840358E-3],"split_indices":[25,77,80,25,103,77,103,0,0,0,0,0,0,0,0],"split_type":[0,0,0,0,0,0,0,0,0,0,0,0,0,0,0],"sum_hessian":[6.3494487E3,3.3050076E3,3.0444412E3,9.3284735E2,2.3721602E3,1.5626267E3,1.4818143E3,3.0989764E2,6.229497E2,7.9744653E2,1.5747135E3,1.0629972E3,4.9962958E2,1.1372229E3,3.4459146E2],"tree_param":{"num_deleted":"0","num_feature":"106","num_nodes":"15","size_leaf_vector":"1"}},{"base_weights":[1.1842318E-1,-3.815501E-2,2.8835925E-1,2.0583622E-1,-1.341504E-1,1.6128413E-1,4.2216536E-1,-4.138879E-4,3.28692E-3,-2.884885E-3,-5.585895E-4,2.335591E-3,7.35468E-5,3.7264677E-3,5.840359E-3],"categories":[],"categories_nodes":[],"categories_segments":[],"categories_sizes":[],"default_left":[0,0,0,0,0,0,0,0,0,0,0,0,0,0,0],"id":51,"left_children":[1,3,5,7,9,11,13,-1,-1,-1,-1,-1,-1,-1,-1],"loss_changes":[1.6898553E2,7.746103E1,5.171486E1,2.8377369E1,2.8659626E1,1.7394012E1,1.166803E1,0E0,0E0,0E0,0E0,0E0,0E0,0E0,0E0],"parents":[2147483647,0,0,1,1,2,2,3,3,4,4,5,5,6,6],"right_children":[2,4,6,8,10,12,14,-1,-1,-1,-1,-1,-1,-1,-1],"split_conditions":[6E-1,-2.4E0,1.3E1,-4.8E0,8E0,5.8E0,2.7E1,-4.138879E-4,3.28692E-3,-2.884885E-3,-5.585895E-4,2.335591E-3,7.35468E-5,3.7264677E-3,5.840359E-3],"split_indices":[25,77,80,25,103,77,103,0,0,0,0,0,0,0,0],"split_type":[0,0,0,0,0,0,0,0,0,0,0,0,0,0,0],"sum_hessian":[6.3494487E3,3.3050076E3,3.0444412E3,9.3284735E2,2.3721602E3,1.5626267E3,1.4818143E3,3.0989764E2,6.229497E2,7.9744653E2,1.5747136E3,1.0629972E3,4.9962958E2,1.1372229E3,3.4459146E2],"tree_param":{"num_deleted":"0","num_feature":"106","num_nodes":"15","size_leaf_vector":"1"}},{"base_weights":[-1.1728403E-1,-2.2263756E-1,1.3171637E-1,-9.4722405E-2,-3.7042677E-1,4.3013985E-3,2.8780335E-1,-2.4522017E-3,1.8350282E-4,-4.9972283E-3,-3.0076813E-3,1.3236874E-3,-1.3330507E-3,4.2389594E-3,1.940802E-3],"categories":[],"categories_nodes":[],"categories_segments":[],"categories_sizes":[],"default_left":[0,0,0,0,0,0,0,0,0,0,0,0,0,0,0],"id":52,"left_children":[1,3,5,7,9,11,13,-1,-1,-1,-1,-1,-1,-1,-1],"loss_changes":[1.6656047E2,8.430034E1,3.7547028E1,4.0721535E1,1.848825E1,1.8354067E1,1.0740555E1,0E0,0E0,0E0,0E0,0E0,0E0,0E0,0E0],"parents":[2147483647,0,0,1,1,2,2,3,3,4,4,5,5,6,6],"right_children":[2,4,6,8,10,12,14,-1,-1,-1,-1,-1,-1,-1,-1],"split_conditions":[2E1,1.4E1,6E-1,9E0,8E0,-4.8E0,-5.9E0,-2.4522017E-3,1.8350282E-4,-4.9972283E-3,-3.0076813E-3,1.3236874E-3,-1.3330507E-3,4.2389594E-3,1.940802E-3],"split_indices":[28,80,77,51,51,25,25,0,0,0,0,0,0,0,0],"split_type":[0,0,0,0,0,0,0,0,0,0,0,0,0,0,0],"sum_hessian":[6.3471377E3,4.460135E3,1.8870033E3,2.3917004E3,2.068434E3,1.0394885E3,8.475147E2,1.0255468E3,1.3661536E3,7.2204486E2,1.3463893E3,5.384256E2,5.0106296E2,3.441956E2,5.0331912E2],"tree_param":{"num_deleted":"0","num_feature":"106","num_nodes":"15","size_leaf_vector":"1"}},{"base_weights":[1.1728404E-1,2.2263758E-1,-1.3171639E-1,9.472243E-2,3.7042674E-1,-4.301441E-3,-2.8780335E-1,2.4522021E-3,-1.8350275E-4,4.9972283E-3,3.0076813E-3,-1.323688E-3,1.3330504E-3,-4.2389594E-3,-1.940802E-3],"categories":[],"categories_nodes":[],"categories_segments":[],"categories_sizes":[],"default_left":[0,0,0,0,0,0,0,0,0,0,0,0,0,0,0],"id":53,"left_children":[1,3,5,7,9,11,13,-1,-1,-1,-1,-1,-1,-1,-1],"loss_changes":[1.6656049E2,8.430032E1,3.7547012E1,4.0721542E1,1.848825E1,1.8354073E1,1.0740555E1,0E0,0E0,0E0,0E0,0E0,0E0,0E0,0E0],"parents":[2147483647,0,0,1,1,2,2,3,3,4,4,5,5,6,6],"right_children":[2,4,6,8,10,12,14,-1,-1,-1,-1,-1,-1,-1,-1],"split_conditions":[2E1,1.4E1,6E-1,9E0,8E0,-4.8E0,-5.9E0,2.4522021E-3,-1.8350275E-4,4.9972283E-3,3.0076813E-3,-1.323688E-3,1.3330504E-3,-4.2389594E-3,-1.940802E-3],"split_indices":[28,80,77,51,51,25,25,0,0,0,0,0,0,0,0],"split_type":[0,0,0,0,0,0,0,0,0,0,0,0,0,0,0],"sum_hessian":[6.3471377E3,4.460135E3,1.8870033E3,2.3917004E3,2.068434E3,1.0394885E3,8.475147E2,1.0255469E3,1.3661536E3,7.2204486E2,1.3463893E3,5.384256E2,5.0106296E2,3.441956E2,5.0331912E2],"tree_param":{"num_deleted":"0","num_feature":"106","num_nodes":"15","size_leaf_vector":"1"}},{"base_weights":[-1.1615527E-1,9.257001E-2,-2.3945278E-1,-1.6384186E-1,1.7083177E-1,-3.3464617E-1,-3.8202874E-2,1.6337956E-4,-3.0245753E-3,-1.7524144E-3,2.0195993E-3,-2.7387314E-3,-4.889836E-3,9.851459E-4,-1.7335633E-3],"categories":[],"categories_nodes":[],"categories_segments":[],"categories_sizes":[],"default_left":[0,0,0,0,0,0,0,0,0,0,0,0,0,0,0],"id":54,"left_children":[1,3,5,7,9,11,13,-1,-1,-1,-1,-1,-1,-1,-1],"loss_changes":[1.6333305E2,4.7331436E1,7.641756E1,1.3785085E1,1.9496204E1,2.5268677E1,2.3710184E1,0E0,0E0,0E0,0E0,0E0,0E0,0E0,0E0],"parents":[2147483647,0,0,1,1,2,2,3,3,4,4,5,5,6,6],"right_children":[2,4,6,8,10,12,14,-1,-1,-1,-1,-1,-1,-1,-1],"split_conditions":[4.59E-1,3.71E-1,3E0,-4.8E0,5E0,2.3E1,3.1E0,1.6337956E-4,-3.0245753E-3,-1.7524144E-3,2.0195993E-3,-2.7387314E-3,-4.889836E-3,9.851459E-4,-1.7335633E-3],"split_indices":[3,55,77,25,53,80,25,0,0,0,0,0,0,0,0],"split_type":[0,0,0,0,0,0,0,0,0,0,0,0,0,0,0],"sum_hessian":[6.344791E3,2.3562468E3,3.988544E3,5.507409E2,1.805506E3,2.7072993E3,1.2812445E3,2.3985158E2,3.108893E2,1.4861557E2,1.6568905E3,1.9444241E3,7.6287537E2,6.3707166E2,6.441729E2],"tree_param":{"num_deleted":"0","num_feature":"106","num_nodes":"15","size_leaf_vector":"1"}},{"base_weights":[1.1615527E-1,-9.2569984E-2,2.3945278E-1,1.638419E-1,-1.7083175E-1,3.3464614E-1,3.8202856E-2,-1.6337934E-4,3.0245755E-3,1.7524143E-3,-2.019599E-3,2.7387314E-3,4.8898365E-3,-9.85146E-4,1.7335629E-3],"categories":[],"categories_nodes":[],"categories_segments":[],"categories_sizes":[],"default_left":[0,0,0,0,0,0,0,0,0,0,0,0,0,0,0],"id":55,"left_children":[1,3,5,7,9,11,13,-1,-1,-1,-1,-1,-1,-1,-1],"loss_changes":[1.6333301E2,4.7331448E1,7.641753E1,1.3785087E1,1.9496204E1,2.5268707E1,2.3710178E1,0E0,0E0,0E0,0E0,0E0,0E0,0E0,0E0],"parents":[2147483647,0,0,1,1,2,2,3,3,4,4,5,5,6,6],"right_children":[2,4,6,8,10,12,14,-1,-1,-1,-1,-1,-1,-1,-1],"split_conditions":[4.59E-1,3.71E-1,3E0,-4.8E0,5E0,2.3E1,3.1E0,-1.6337934E-4,3.0245755E-3,1.7524143E-3,-2.019599E-3,2.7387314E-3,4.8898365E-3,-9.85146E-4,1.7335629E-3],"split_indices":[3,55,77,25,53,80,25,0,0,0,0,0,0,0,0],"split_type":[0,0,0,0,0,0,0,0,0,0,0,0,0,0,0],"sum_hessian":[6.344791E3,2.3562468E3,3.988544E3,5.507409E2,1.805506E3,2.7072993E3,1.2812445E3,2.3985156E2,3.108893E2,1.4861557E2,1.6568905E3,1.9444241E3,7.6287537E2,6.3707166E2,6.441729E2],"tree_param":{"num_deleted":"0","num_feature":"106","num_nodes":"15","size_leaf_vector":"1"}},{"base_weights":[-1.1503737E-1,-2.7680296E-1,4.14895E-2,-1.4460164E-1,-3.985583E-1,-8.280498E-2,2.1537136E-1,-2.2283471E-3,-2.507957E-4,-3.253758E-3,-5.299415E-3,1.2805728E-3,-1.976153E-3,3.713034E-3,1.6456518E-3],"categories":[],"categories_nodes":[],"categories_segments":[],"categories_sizes":[],"default_left":[0,0,0,0,0,0,0,0,0,0,0,0,0,0,0],"id":56,"left_children":[1,3,5,7,9,11,13,-1,-1,-1,-1,-1,-1,-1,-1],"loss_changes":[1.606333E2,5.015741E1,6.9714584E1,1.3994553E1,1.5436798E1,4.556962E1,1.059079E1,0E0,0E0,0E0,0E0,0E0,0E0,0E0,0E0],"parents":[2147483647,0,0,1,1,2,2,3,3,4,4,5,5,6,6],"right_children":[2,4,6,8,10,12,14,-1,-1,-1,-1,-1,-1,-1,-1],"split_conditions":[1.5E1,1.2E1,5.45E-1,5.1E0,2.3E1,-4.6E0,-6E0,-2.2283471E-3,-2.507957E-4,-3.253758E-3,-5.299415E-3,1.2805728E-3,-1.976153E-3,3.713034E-3,1.6456518E-3],"split_indices":[51,80,55,77,80,25,25,0,0,0,0,0,0,0,0],"split_type":[0,0,0,0,0,0,0,0,0,0,0,0,0,0,0],"sum_hessian":[6.342508E3,3.118681E3,3.223827E3,1.496249E3,1.622432E3,1.8802837E3,1.3435433E3,9.038018E2,5.924472E2,1.0442467E3,5.7818524E2,6.6282135E2,1.2174623E3,3.2862717E2,1.01491614E3],"tree_param":{"num_deleted":"0","num_feature":"106","num_nodes":"15","size_leaf_vector":"1"}},{"base_weights":[1.1503739E-1,2.76803E-1,-4.1489486E-2,1.4460163E-1,3.9855832E-1,8.280499E-2,-2.1537134E-1,2.2283471E-3,2.507958E-4,3.2537582E-3,5.2994154E-3,-1.2805728E-3,1.976153E-3,-3.7130336E-3,-1.6456515E-3],"categories":[],"categories_nodes":[],"categories_segments":[],"categories_sizes":[],"default_left":[0,0,0,0,0,0,0,0,0,0,0,0,0,0,0],"id":57,"left_children":[1,3,5,7,9,11,13,-1,-1,-1,-1,-1,-1,-1,-1],"loss_changes":[1.6063332E2,5.0157425E1,6.971458E1,1.39945545E1,1.5436798E1,4.556962E1,1.0590786E1,0E0,0E0,0E0,0E0,0E0,0E0,0E0,0E0],"parents":[2147483647,0,0,1,1,2,2,3,3,4,4,5,5,6,6],"right_children":[2,4,6,8,10,12,14,-1,-1,-1,-1,-1,-1,-1,-1],"split_conditions":[1.5E1,1.2E1,5.45E-1,5.1E0,2.3E1,-4.6E0,-6E0,2.2283471E-3,2.507958E-4,3.2537582E-3,5.2994154E-3,-1.2805728E-3,1.976153E-3,-3.7130336E-3,-1.6456515E-3],"split_indices":[51,80,55,77,80,25,25,0,0,0,0,0,0,0,0],"split_type":[0,0,0,0,0,0,0,0,0,0,0,0,0,0,0],"sum_hessian":[6.342508E3,3.118681E3,3.223827E3,1.496249E3,1.622432E3,1.8802837E3,1.3435433E3,9.0380176E2,5.924472E2,1.0442468E3,5.7818524E2,6.6282135E2,1.2174623E3,3.2862717E2,1.01491614E3],"tree_param":{"num_deleted":"0","num_feature":"106","num_nodes":"15","size_leaf_vector":"1"}},{"base_weights":[-1.1393366E-1,-2.1663564E-1,1.2863396E-1,-9.193356E-2,-3.6098686E-1,-1.1140376E-2,2.6506346E-1,-2.392569E-3,1.8680621E-4,-4.8879334E-3,-2.9224716E-3,1.1510251E-3,-1.4752125E-3,4.070677E-3,1.8179337E-3],"categories":[],"categories_nodes":[],"categories_segments":[],"categories_sizes":[],"default_left":[0,0,0,0,0,0,0,0,0,0,0,0,0,0,0],"id":58,"left_children":[1,3,5,7,9,11,13,-1,-1,-1,-1,-1,-1,-1,-1],"loss_changes":[1.579959E2,8.016458E1,3.5982704E1,3.8978622E1,1.79953E1,1.6079304E1,1.1216904E1,0E0,0E0,0E0,0E0,0E0,0E0,0E0,0E0],"parents":[2147483647,0,0,1,1,2,2,3,3,4,4,5,5,6,6],"right_children":[2,4,6,8,10,12,14,-1,-1,-1,-1,-1,-1,-1,-1],"split_conditions":[2E1,1.4E1,0E0,9E0,8E0,-4.8E0,-6.2E0,-2.392569E-3,1.8680621E-4,-4.8879334E-3,-2.9224716E-3,1.1510251E-3,-1.4752125E-3,4.070677E-3,1.8179337E-3],"split_indices":[28,80,77,51,51,25,25,0,0,0,0,0,0,0,0],"split_type":[0,0,0,0,0,0,0,0,0,0,0,0,0,0,0],"sum_hessian":[6.339997E3,4.454212E3,1.8857852E3,2.3906313E3,2.0635808E3,9.3192773E2,9.538575E2,1.0247019E3,1.3659293E3,7.195756E2,1.3440051E3,4.8403238E2,4.4789536E2,3.5114514E2,6.0271234E2],"tree_param":{"num_deleted":"0","num_feature":"106","num_nodes":"15","size_leaf_vector":"1"}},{"base_weights":[1.1393367E-1,2.1663563E-1,-1.2863393E-1,9.1933556E-2,3.6098683E-1,1.1140404E-2,-2.650634E-1,2.3925693E-3,-1.8680637E-4,4.887933E-3,2.9224714E-3,-1.1510246E-3,1.4752127E-3,-4.0706764E-3,-1.8179334E-3],"categories":[],"categories_nodes":[],"categories_segments":[],"categories_sizes":[],"default_left":[0,0,0,0,0,0,0,0,0,0,0,0,0,0,0],"id":59,"left_children":[1,3,5,7,9,11,13,-1,-1,-1,-1,-1,-1,-1,-1],"loss_changes":[1.5799585E2,8.016461E1,3.59827E1,3.8978626E1,1.799527E1,1.6079302E1,1.1216904E1,0E0,0E0,0E0,0E0,0E0,0E0,0E0,0E0],"parents":[2147483647,0,0,1,1,2,2,3,3,4,4,5,5,6,6],"right_children":[2,4,6,8,10,12,14,-1,-1,-1,-1,-1,-1,-1,-1],"split_conditions":[2E1,1.4E1,0E0,9E0,8E0,-4.8E0,-6.2E0,2.3925693E-3,-1.8680637E-4,4.887933E-3,2.9224714E-3,-1.1510246E-3,1.4752127E-3,-4.0706764E-3,-1.8179334E-3],"split_indices":[28,80,77,51,51,25,25,0,0,0,0,0,0,0,0],"split_type":[0,0,0,0,0,0,0,0,0,0,0,0,0,0,0],"sum_hessian":[6.339997E3,4.454212E3,1.8857852E3,2.3906313E3,2.0635808E3,9.3192773E2,9.538575E2,1.0247019E3,1.3659294E3,7.195756E2,1.3440051E3,4.840324E2,4.4789536E2,3.5114514E2,6.0271234E2],"tree_param":{"num_deleted":"0","num_feature":"106","num_nodes":"15","size_leaf_vector":"1"}},{"base_weights":[-1.12840414E-1,3.71959E-2,-2.7597553E-1,-1.9892778E-1,1.3002402E-1,-1.5404105E-1,-4.0487728E-1,3.7667173E-4,-3.1673955E-3,2.7929517E-3,5.434102E-4,-2.2476309E-3,-3.5607893E-5,-3.5613393E-3,-5.6465655E-3],"categories":[],"categories_nodes":[],"categories_segments":[],"categories_sizes":[],"default_left":[0,0,0,0,0,0,0,0,0,0,0,0,0,0,0],"id":60,"left_children":[1,3,5,7,9,11,13,-1,-1,-1,-1,-1,-1,-1,-1],"loss_changes":[1.5515201E2,7.241696E1,4.766873E1,2.6001053E1,2.6773945E1,1.6624432E1,1.1291214E1,0E0,0E0,0E0,0E0,0E0,0E0,0E0,0E0],"parents":[2147483647,0,0,1,1,2,2,3,3,4,4,5,5,6,6],"right_children":[2,4,6,8,10,12,14,-1,-1,-1,-1,-1,-1,-1,-1],"split_conditions":[6E-1,-2.4E0,1.3E1,-4.8E0,8E0,5.8E0,2.7E1,3.7667173E-4,-3.1673955E-3,2.7929517E-3,5.434102E-4,-2.2476309E-3,-3.5607893E-5,-3.5613393E-3,-5.6465655E-3],"split_indices":[25,77,80,25,103,77,103,0,0,0,0,0,0,0,0],"split_type":[0,0,0,0,0,0,0,0,0,0,0,0,0,0,0],"sum_hessian":[6.337476E3,3.3016768E3,3.0357993E3,9.313898E2,2.3702869E3,1.5611891E3,1.4746101E3,3.0983844E2,6.2155133E2,7.965481E2,1.5737389E3,1.0617153E3,4.9947372E2,1.1323857E3,3.422244E2],"tree_param":{"num_deleted":"0","num_feature":"106","num_nodes":"15","size_leaf_vector":"1"}},{"base_weights":[1.12840414E-1,-3.719589E-2,2.7597553E-1,1.9892779E-1,-1.30024E-1,1.5404107E-1,4.0487725E-1,-3.7667155E-4,3.1673955E-3,-2.7929514E-3,-5.4341013E-4,2.2476309E-3,3.5607885E-5,3.561339E-3,5.646565E-3],"categories":[],"categories_nodes":[],"categories_segments":[],"categories_sizes":[],"default_left":[0,0,0,0,0,0,0,0,0,0,0,0,0,0,0],"id":61,"left_children":[1,3,5,7,9,11,13,-1,-1,-1,-1,-1,-1,-1,-1],"loss_changes":[1.5515201E2,7.241696E1,4.76687E1,2.6001053E1,2.6773933E1,1.662444E1,1.1291229E1,0E0,0E0,0E0,0E0,0E0,0E0,0E0,0E0],"parents":[2147483647,0,0,1,1,2,2,3,3,4,4,5,5,6,6],"right_children":[2,4,6,8,10,12,14,-1,-1,-1,-1,-1,-1,-1,-1],"split_conditions":[6E-1,-2.4E0,1.3E1,-4.8E0,8E0,5.8E0,2.7E1,-3.7667155E-4,3.1673955E-3,-2.7929514E-3,-5.4341013E-4,2.2476309E-3,3.5607885E-5,3.561339E-3,5.646565E-3],"split_indices":[25,77,80,25,103,77,103,0,0,0,0,0,0,0,0],"split_type":[0,0,0,0,0,0,0,0,0,0,0,0,0,0,0],"sum_hessian":[6.337476E3,3.3016768E3,3.0357993E3,9.313898E2,2.3702869E3,1.5611891E3,1.4746101E3,3.0983844E2,6.2155133E2,7.965481E2,1.5737389E3,1.0617153E3,4.9947372E2,1.1323857E3,3.422244E2],"tree_param":{"num_deleted":"0","num_feature":"106","num_nodes":"15","size_leaf_vector":"1"}},{"base_weights":[-1.11759886E-1,-2.1287577E-1,1.2694496E-1,-3.0379218E-1,-2.1566385E-2,4.2937486E-3,2.7732363E-1,-2.1435863E-3,-4.2173634E-3,9.990446E-4,-1.6936428E-3,1.2677439E-3,-1.273647E-3,4.1023414E-3,1.8596295E-3],"categories":[],"categories_nodes":[],"categories_segments":[],"categories_sizes":[],"default_left":[0,0,0,0,0,0,0,0,0,0,0,0,0,0,0],"id":62,"left_children":[1,3,5,7,9,11,13,-1,-1,-1,-1,-1,-1,-1,-1],"loss_changes":[1.529556E2,7.7410095E1,3.4782833E1,3.173407E1,2.5778214E1,1.6782495E1,1.0210831E1,0E0,0E0,0E0,0E0,0E0,0E0,0E0,0E0],"parents":[2147483647,0,0,1,1,2,2,3,3,4,4,5,5,6,6],"right_children":[2,4,6,8,10,12,14,-1,-1,-1,-1,-1,-1,-1,-1],"split_conditions":[2E1,3E0,6E-1,6E-1,3.1E0,-4.8E0,-5.9E0,-2.1435863E-3,-4.2173634E-3,9.990446E-4,-1.6936428E-3,1.2677439E-3,-1.273647E-3,4.1023414E-3,1.8596295E-3],"split_indices":[28,77,77,3,25,25,25,0,0,0,0,0,0,0,0],"split_type":[0,0,0,0,0,0,0,0,0,0,0,0,0,0,0],"sum_hessian":[6.3348955E3,4.449982E3,1.8849137E3,3.0160632E3,1.4339187E3,1.0387343E3,8.461795E2,1.7169607E3,1.2991025E3,7.87236E2,6.466827E2,5.381424E2,5.005918E2,3.4328372E2,5.0289575E2],"tree_param":{"num_deleted":"0","num_feature":"106","num_nodes":"15","size_leaf_vector":"1"}},{"base_weights":[1.11759886E-1,2.1287578E-1,-1.2694496E-1,3.0379218E-1,2.1566415E-2,-4.2937454E-3,-2.7732363E-1,2.1435863E-3,4.2173634E-3,-9.990445E-4,1.6936432E-3,-1.2677436E-3,1.273647E-3,-4.102342E-3,-1.8596295E-3],"categories":[],"categories_nodes":[],"categories_segments":[],"categories_sizes":[],"default_left":[0,0,0,0,0,0,0,0,0,0,0,0,0,0,0],"id":63,"left_children":[1,3,5,7,9,11,13,-1,-1,-1,-1,-1,-1,-1,-1],"loss_changes":[1.529556E2,7.741008E1,3.4782837E1,3.17341E1,2.577822E1,1.6782494E1,1.0210838E1,0E0,0E0,0E0,0E0,0E0,0E0,0E0,0E0],"parents":[2147483647,0,0,1,1,2,2,3,3,4,4,5,5,6,6],"right_children":[2,4,6,8,10,12,14,-1,-1,-1,-1,-1,-1,-1,-1],"split_conditions":[2E1,3E0,6E-1,6E-1,3.1E0,-4.8E0,-5.9E0,2.1435863E-3,4.2173634E-3,-9.990445E-4,1.6936432E-3,-1.2677436E-3,1.273647E-3,-4.102342E-3,-1.8596295E-3],"split_indices":[28,77,77,3,25,25,25,0,0,0,0,0,0,0,0],"split_type":[0,0,0,0,0,0,0,0,0,0,0,0,0,0,0],"sum_hessian":[6.3348955E3,4.449982E3,1.8849137E3,3.0160632E3,1.4339187E3,1.0387343E3,8.461795E2,1.7169607E3,1.2991024E3,7.87236E2,6.466827E2,5.381424E2,5.005918E2,3.4328372E2,5.0289575E2],"tree_param":{"num_deleted":"0","num_feature":"106","num_nodes":"15","size_leaf_vector":"1"}},{"base_weights":[-1.1068699E-1,-2.108456E-1,1.2571178E-1,-8.90562E-2,-3.520962E-1,-1.0466801E-2,2.5870985E-1,-2.32941E-3,1.8888606E-4,-2.9024903E-3,-4.893418E-3,1.1226683E-3,-1.4310849E-3,3.9837E-3,1.7691819E-3],"categories":[],"categories_nodes":[],"categories_segments":[],"categories_sizes":[],"default_left":[0,0,0,0,0,0,0,0,0,0,0,0,0,0,0],"id":64,"left_children":[1,3,5,7,9,11,13,-1,-1,-1,-1,-1,-1,-1,-1],"loss_changes":[1.4998415E2,7.650319E1,3.41505E1,3.7131073E1,1.7340012E1,1.5197331E1,1.0825829E1,0E0,0E0,0E0,0E0,0E0,0E0,0E0,0E0],"parents":[2147483647,0,0,1,1,2,2,3,3,4,4,5,5,6,6],"right_children":[2,4,6,8,10,12,14,-1,-1,-1,-1,-1,-1,-1,-1],"split_conditions":[2E1,1.4E1,0E0,9E0,2.6E1,-4.8E0,-6.2E0,-2.32941E-3,1.8888606E-4,-2.9024903E-3,-4.893418E-3,1.1226683E-3,-1.4310849E-3,3.9837E-3,1.7691819E-3],"split_indices":[28,80,77,51,103,25,25,0,0,0,0,0,0,0,0],"split_type":[0,0,0,0,0,0,0,0,0,0,0,0,0,0,0],"sum_hessian":[6.3323726E3,4.4479507E3,1.884422E3,2.3893933E3,2.0585576E3,9.315332E2,9.528888E2,1.0236985E3,1.3656947E3,1.4212245E3,6.3733307E2,4.8391724E2,4.4761597E2,3.5051306E2,6.0237573E2],"tree_param":{"num_deleted":"0","num_feature":"106","num_nodes":"15","size_leaf_vector":"1"}},{"base_weights":[1.1068697E-1,2.1084559E-1,-1.2571178E-1,8.905618E-2,3.5209617E-1,1.046678E-2,-2.5870982E-1,2.3294096E-3,-1.8888609E-4,2.90249E-3,4.8934184E-3,-1.1226684E-3,1.4310848E-3,-3.9836997E-3,-1.7691818E-3],"categories":[],"categories_nodes":[],"categories_segments":[],"categories_sizes":[],"default_left":[0,0,0,0,0,0,0,0,0,0,0,0,0,0,0],"id":65,"left_children":[1,3,5,7,9,11,13,-1,-1,-1,-1,-1,-1,-1,-1],"loss_changes":[1.4998413E2,7.650314E1,3.415049E1,3.7131065E1,1.7340042E1,1.5197331E1,1.0825829E1,0E0,0E0,0E0,0E0,0E0,0E0,0E0,0E0],"parents":[2147483647,0,0,1,1,2,2,3,3,4,4,5,5,6,6],"right_children":[2,4,6,8,10,12,14,-1,-1,-1,-1,-1,-1,-1,-1],"split_conditions":[2E1,1.4E1,0E0,9E0,2.6E1,-4.8E0,-6.2E0,2.3294096E-3,-1.8888609E-4,2.90249E-3,4.8934184E-3,-1.1226684E-3,1.4310848E-3,-3.9836997E-3,-1.7691818E-3],"split_indices":[28,80,77,51,103,25,25,0,0,0,0,0,0,0,0],"split_type":[0,0,0,0,0,0,0,0,0,0,0,0,0,0,0],"sum_hessian":[6.3323726E3,4.4479507E3,1.884422E3,2.3893933E3,2.0585576E3,9.315332E2,9.528888E2,1.0236985E3,1.3656947E3,1.4212245E3,6.3733307E2,4.8391724E2,4.4761597E2,3.5051306E2,6.0237573E2],"tree_param":{"num_deleted":"0","num_feature":"106","num_nodes":"15","size_leaf_vector":"1"}},{"base_weights":[-1.0962715E-1,-2.649185E-1,4.0351484E-2,-1.3770413E-1,-3.825361E-1,-1.851016E-1,1.2918755E-1,-2.13909E-3,-2.1404363E-4,-3.1052025E-3,-5.1224753E-3,3.5820014E-4,-2.9901213E-3,2.747209E-3,5.482621E-4],"categories":[],"categories_nodes":[],"categories_segments":[],"categories_sizes":[],"default_left":[0,0,0,0,0,0,0,0,0,0,0,0,0,0,0],"id":66,"left_children":[1,3,5,7,9,11,13,-1,-1,-1,-1,-1,-1,-1,-1],"loss_changes":[1.4745575E2,4.648726E1,6.454166E1,1.3252167E1,1.4932709E1,2.2934782E1,2.4998814E1,0E0,0E0,0E0,0E0,0E0,0E0,0E0,0E0],"parents":[2147483647,0,0,1,1,2,2,3,3,4,4,5,5,6,6],"right_children":[2,4,6,8,10,12,14,-1,-1,-1,-1,-1,-1,-1,-1],"split_conditions":[1.5E1,1.2E1,-2.4E0,5.1E0,2.3E1,-4.8E0,8E0,-2.13909E-3,-2.1404363E-4,-3.1052025E-3,-5.1224753E-3,3.5820014E-4,-2.9901213E-3,2.747209E-3,5.482621E-4],"split_indices":[51,80,77,77,80,25,103,0,0,0,0,0,0,0,0],"split_type":[0,0,0,0,0,0,0,0,0,0,0,0,0,0,0],"sum_hessian":[6.329726E3,3.1094072E3,3.2203188E3,1.4948063E3,1.6146011E3,9.0993976E2,2.3103792E3,9.025653E2,5.9224097E2,1.0403772E3,5.742239E2,3.0979648E2,6.0014325E2,7.8038495E2,1.5299941E3],"tree_param":{"num_deleted":"0","num_feature":"106","num_nodes":"15","size_leaf_vector":"1"}},{"base_weights":[1.0962714E-1,2.649185E-1,-4.0351488E-2,1.3770413E-1,3.8253608E-1,1.851016E-1,-1.2918755E-1,2.1390899E-3,2.1404368E-4,3.1052022E-3,5.1224753E-3,-3.5820008E-4,2.9901213E-3,-2.747209E-3,-5.482621E-4],"categories":[],"categories_nodes":[],"categories_segments":[],"categories_sizes":[],"default_left":[0,0,0,0,0,0,0,0,0,0,0,0,0,0,0],"id":67,"left_children":[1,3,5,7,9,11,13,-1,-1,-1,-1,-1,-1,-1,-1],"loss_changes":[1.4745572E2,4.6487244E1,6.454166E1,1.3252171E1,1.4932709E1,2.2934778E1,2.4998817E1,0E0,0E0,0E0,0E0,0E0,0E0,0E0,0E0],"parents":[2147483647,0,0,1,1,2,2,3,3,4,4,5,5,6,6],"right_children":[2,4,6,8,10,12,14,-1,-1,-1,-1,-1,-1,-1,-1],"split_conditions":[1.5E1,1.2E1,-2.4E0,5.1E0,2.3E1,-4.8E0,8E0,2.1390899E-3,2.1404368E-4,3.1052022E-3,5.1224753E-3,-3.5820008E-4,2.9901213E-3,-2.747209E-3,-5.482621E-4],"split_indices":[51,80,77,77,80,25,103,0,0,0,0,0,0,0,0],"split_type":[0,0,0,0,0,0,0,0,0,0,0,0,0,0,0],"sum_hessian":[6.329726E3,3.1094072E3,3.2203188E3,1.4948063E3,1.6146011E3,9.099397E2,2.3103792E3,9.025653E2,5.9224097E2,1.0403772E3,5.742239E2,3.0979645E2,6.0014325E2,7.8038495E2,1.5299941E3],"tree_param":{"num_deleted":"0","num_feature":"106","num_nodes":"15","size_leaf_vector":"1"}},{"base_weights":[-1.0858029E-1,8.0763236E-2,-2.2977951E-1,-1.5694655E-1,1.5720455E-1,-3.1888393E-1,-4.21864E-2,1.3756047E-5,-2.7016448E-3,8.6654123E-4,3.0220526E-3,-2.590355E-3,-4.7204853E-3,8.786543E-4,-1.6351041E-3],"categories":[],"categories_nodes":[],"categories_segments":[],"categories_sizes":[],"default_left":[0,0,0,0,0,0,0,0,0,0,0,0,0,0,0],"id":68,"left_children":[1,3,5,7,9,11,13,-1,-1,-1,-1,-1,-1,-1,-1],"loss_changes":[1.4523476E2,4.4914566E1,6.448349E1,1.0784404E1,1.9101727E1,2.385614E1,1.9638159E1,0E0,0E0,0E0,0E0,0E0,0E0,0E0,0E0],"parents":[2147483647,0,0,1,1,2,2,3,3,4,4,5,5,6,6],"right_children":[2,4,6,8,10,12,14,-1,-1,-1,-1,-1,-1,-1,-1],"split_conditions":[4.69E-1,-3.2E0,3E0,-4.8E0,2.7E1,2.3E1,3.1E0,1.3756047E-5,-2.7016448E-3,8.6654123E-4,3.0220526E-3,-2.590355E-3,-4.7204853E-3,8.786543E-4,-1.6351041E-3],"split_indices":[3,77,77,25,51,80,25,0,0,0,0,0,0,0,0],"split_type":[0,0,0,0,0,0,0,0,0,0,0,0,0,0,0],"sum_hessian":[6.326975E3,2.4694343E3,3.8575408E3,6.0062274E2,1.8688114E3,2.614829E3,1.2427117E3,2.5084E2,3.4978278E2,1.2582194E3,6.1059204E2,1.8820981E3,7.327309E2,5.999153E2,6.427963E2],"tree_param":{"num_deleted":"0","num_feature":"106","num_nodes":"15","size_leaf_vector":"1"}},{"base_weights":[1.085803E-1,-8.076321E-2,2.2977951E-1,1.5694658E-1,-1.5720454E-1,3.1888393E-1,4.218641E-2,-1.3755888E-5,2.7016455E-3,-8.665411E-4,-3.0220523E-3,2.590355E-3,4.7204853E-3,-8.7865425E-4,1.6351041E-3],"categories":[],"categories_nodes":[],"categories_segments":[],"categories_sizes":[],"default_left":[0,0,0,0,0,0,0,0,0,0,0,0,0,0,0],"id":69,"left_children":[1,3,5,7,9,11,13,-1,-1,-1,-1,-1,-1,-1,-1],"loss_changes":[1.4523474E2,4.491457E1,6.4483505E1,1.078441E1,1.910173E1,2.385614E1,1.963816E1,0E0,0E0,0E0,0E0,0E0,0E0,0E0,0E0],"parents":[2147483647,0,0,1,1,2,2,3,3,4,4,5,5,6,6],"right_children":[2,4,6,8,10,12,14,-1,-1,-1,-1,-1,-1,-1,-1],"split_conditions":[4.69E-1,-3.2E0,3E0,-4.8E0,2.7E1,2.3E1,3.1E0,-1.3755888E-5,2.7016455E-3,-8.665411E-4,-3.0220523E-3,2.590355E-3,4.7204853E-3,-8.7865425E-4,1.6351041E-3],"split_indices":[3,77,77,25,51,80,25,0,0,0,0,0,0,0,0],"split_type":[0,0,0,0,0,0,0,0,0,0,0,0,0,0,0],"sum_hessian":[6.326975E3,2.469434E3,3.8575408E3,6.0062274E2,1.8688114E3,2.614829E3,1.2427117E3,2.5084E2,3.4978275E2,1.2582194E3,6.1059204E2,1.8820983E3,7.3273096E2,5.999153E2,6.427963E2],"tree_param":{"num_deleted":"0","num_feature":"106","num_nodes":"15","size_leaf_vector":"1"}},{"base_weights":[-1.0754217E-1,3.6374174E-2,-2.643236E-1,-1.9091628E-1,1.2563342E-1,-1.4680813E-1,-3.8906485E-1,3.5124883E-4,-3.0376827E-3,2.6950957E-3,5.274171E-4,-2.1559377E-3,-6.21967E-6,-3.4140188E-3,-5.4586004E-3],"categories":[],"categories_nodes":[],"categories_segments":[],"categories_sizes":[],"default_left":[0,0,0,0,0,0,0,0,0,0,0,0,0,0,0],"id":70,"left_children":[1,3,5,7,9,11,13,-1,-1,-1,-1,-1,-1,-1,-1],"loss_changes":[1.427292E2,6.694975E1,4.432228E1,2.3749115E1,2.483289E1,1.5691269E1,1.0784225E1,0E0,0E0,0E0,0E0,0E0,0E0,0E0,0E0],"parents":[2147483647,0,0,1,1,2,2,3,3,4,4,5,5,6,6],"right_children":[2,4,6,8,10,12,14,-1,-1,-1,-1,-1,-1,-1,-1],"split_conditions":[6E-1,-2.4E0,1.3E1,-4.8E0,8E0,5.8E0,2.7E1,3.5124883E-4,-3.0376827E-3,2.6950957E-3,5.274171E-4,-2.1559377E-3,-6.21967E-6,-3.4140188E-3,-5.4586004E-3],"split_indices":[25,77,80,25,103,77,103,0,0,0,0,0,0,0,0],"split_type":[0,0,0,0,0,0,0,0,0,0,0,0,0,0,0],"sum_hessian":[6.3242666E3,3.2978228E3,3.0264438E3,9.295838E2,2.3682388E3,1.5594778E3,1.4669662E3,3.0978235E2,6.1980145E2,7.954516E2,1.5727874E3,1.0601606E3,4.993171E2,1.1274258E3,3.3954044E2],"tree_param":{"num_deleted":"0","num_feature":"106","num_nodes":"15","size_leaf_vector":"1"}},{"base_weights":[1.0754219E-1,-3.637417E-2,2.6432362E-1,1.9091626E-1,-1.2563339E-1,1.4680816E-1,3.8906485E-1,-3.5124924E-4,3.0376825E-3,-2.6950953E-3,-5.27417E-4,2.155938E-3,6.220456E-6,3.4140183E-3,5.4586E-3],"categories":[],"categories_nodes":[],"categories_segments":[],"categories_sizes":[],"default_left":[0,0,0,0,0,0,0,0,0,0,0,0,0,0,0],"id":71,"left_children":[1,3,5,7,9,11,13,-1,-1,-1,-1,-1,-1,-1,-1],"loss_changes":[1.4272922E2,6.694972E1,4.4322266E1,2.3749115E1,2.4832886E1,1.5691257E1,1.0784225E1,0E0,0E0,0E0,0E0,0E0,0E0,0E0,0E0],"parents":[2147483647,0,0,1,1,2,2,3,3,4,4,5,5,6,6],"right_children":[2,4,6,8,10,12,14,-1,-1,-1,-1,-1,-1,-1,-1],"split_conditions":[6E-1,-2.4E0,1.3E1,-4.8E0,8E0,5.8E0,2.7E1,-3.5124924E-4,3.0376825E-3,-2.6950953E-3,-5.27417E-4,2.155938E-3,6.220456E-6,3.4140183E-3,5.4586E-3],"split_indices":[25,77,80,25,103,77,103,0,0,0,0,0,0,0,0],"split_type":[0,0,0,0,0,0,0,0,0,0,0,0,0,0,0],"sum_hessian":[6.3242666E3,3.2978228E3,3.0264438E3,9.295838E2,2.368239E3,1.5594778E3,1.4669662E3,3.0978235E2,6.1980145E2,7.954516E2,1.5727874E3,1.0601606E3,4.993171E2,1.1274258E3,3.3954044E2],"tree_param":{"num_deleted":"0","num_feature":"106","num_nodes":"15","size_leaf_vector":"1"}},{"base_weights":[-1.065165E-1,-2.0372821E-1,1.2268386E-1,-8.600482E-2,-3.406551E-1,-1.3304304E-1,1.8961945E-1,-2.2579574E-3,1.8773168E-4,-4.7895233E-3,-2.8036789E-3,-2.2891562E-3,7.845962E-4,3.2068805E-3,1.0938805E-3],"categories":[],"categories_nodes":[],"categories_segments":[],"categories_sizes":[],"default_left":[0,0,0,0,0,0,0,0,0,0,0,0,0,0,0],"id":72,"left_children":[1,3,5,7,9,11,13,-1,-1,-1,-1,-1,-1,-1,-1],"loss_changes":[1.4089531E2,7.153932E1,3.2266735E1,3.4991364E1,1.6976028E1,7.95308E0,1.5667568E1,0E0,0E0,0E0,0E0,0E0,0E0,0E0,0E0],"parents":[2147483647,0,0,1,1,2,2,3,3,4,4,5,5,6,6],"right_children":[2,4,6,8,10,12,14,-1,-1,-1,-1,-1,-1,-1,-1],"split_conditions":[2E1,1.4E1,3.58E-1,9E0,7E0,2.7E1,-6.2E0,-2.2579574E-3,1.8773168E-4,-4.7895233E-3,-2.8036789E-3,-2.2891562E-3,7.845962E-4,3.2068805E-3,1.0938805E-3],"split_indices":[28,80,55,51,51,28,25,0,0,0,0,0,0,0,0],"split_type":[0,0,0,0,0,0,0,0,0,0,0,0,0,0,0],"sum_hessian":[6.321452E3,4.4388813E3,1.8825704E3,2.3876868E3,2.0511948E3,3.9033002E2,1.4922405E3,1.0224358E3,1.365251E3,6.20603E2,1.4305917E3,2.6852658E2,1.21803444E2,5.6547125E2,9.2676917E2],"tree_param":{"num_deleted":"0","num_feature":"106","num_nodes":"15","size_leaf_vector":"1"}},{"base_weights":[1.06516495E-1,2.0372821E-1,-1.2268385E-1,8.6004816E-2,3.4065506E-1,1.3304308E-1,-1.8961945E-1,2.2579571E-3,-1.8773161E-4,4.789523E-3,2.8036789E-3,2.2891567E-3,-7.8459614E-4,-3.2068803E-3,-1.0938806E-3],"categories":[],"categories_nodes":[],"categories_segments":[],"categories_sizes":[],"default_left":[0,0,0,0,0,0,0,0,0,0,0,0,0,0,0],"id":73,"left_children":[1,3,5,7,9,11,13,-1,-1,-1,-1,-1,-1,-1,-1],"loss_changes":[1.4089528E2,7.153932E1,3.2266747E1,3.4991356E1,1.6976013E1,7.953082E0,1.5667568E1,0E0,0E0,0E0,0E0,0E0,0E0,0E0,0E0],"parents":[2147483647,0,0,1,1,2,2,3,3,4,4,5,5,6,6],"right_children":[2,4,6,8,10,12,14,-1,-1,-1,-1,-1,-1,-1,-1],"split_conditions":[2E1,1.4E1,3.58E-1,9E0,7E0,2.7E1,-6.2E0,2.2579571E-3,-1.8773161E-4,4.789523E-3,2.8036789E-3,2.2891567E-3,-7.8459614E-4,-3.2068803E-3,-1.0938806E-3],"split_indices":[28,80,55,51,51,28,25,0,0,0,0,0,0,0,0],"split_type":[0,0,0,0,0,0,0,0,0,0,0,0,0,0,0],"sum_hessian":[6.321452E3,4.4388813E3,1.8825704E3,2.3876868E3,2.0511948E3,3.9033002E2,1.4922405E3,1.0224358E3,1.365251E3,6.20603E2,1.4305918E3,2.6852658E2,1.21803444E2,5.6547125E2,9.2676917E2],"tree_param":{"num_deleted":"0","num_feature":"106","num_nodes":"15","size_leaf_vector":"1"}},{"base_weights":[-1.05499186E-1,-2.0179823E-1,1.2148944E-1,-2.8887624E-1,-1.9179918E-2,3.939593E-3,2.6576653E-1,-2.0206103E-3,-4.037031E-3,9.6421456E-4,-1.5997601E-3,1.2032229E-3,-1.212318E-3,3.947431E-3,1.7733818E-3],"categories":[],"categories_nodes":[],"categories_segments":[],"categories_sizes":[],"default_left":[0,0,0,0,0,0,0,0,0,0,0,0,0,0,0],"id":74,"left_children":[1,3,5,7,9,11,13,-1,-1,-1,-1,-1,-1,-1,-1],"loss_changes":[1.3816515E2,7.056116E1,3.1935762E1,2.9871796E1,2.335316E1,1.5145784E1,9.572166E0,0E0,0E0,0E0,0E0,0E0,0E0,0E0,0E0],"parents":[2147483647,0,0,1,1,2,2,3,3,4,4,5,5,6,6],"right_children":[2,4,6,8,10,12,14,-1,-1,-1,-1,-1,-1,-1,-1],"split_conditions":[2E1,3E0,6E-1,6E-1,3.1E0,-4.8E0,-5.9E0,-2.0206103E-3,-4.037031E-3,9.6421456E-4,-1.5997601E-3,1.2032229E-3,-1.212318E-3,3.947431E-3,1.7733818E-3],"split_indices":[28,77,77,3,25,25,25,0,0,0,0,0,0,0,0],"split_type":[0,0,0,0,0,0,0,0,0,0,0,0,0,0,0],"sum_hessian":[6.3186836E3,4.436589E3,1.8820946E3,3.0037344E3,1.4328546E3,1.0376753E3,8.444194E2,1.7120746E3,1.2916598E3,7.8699963E2,6.45855E2,5.3773505E2,4.999402E2,3.4205417E2,5.0236517E2],"tree_param":{"num_deleted":"0","num_feature":"106","num_nodes":"15","size_leaf_vector":"1"}},{"base_weights":[1.05499186E-1,2.0179823E-1,-1.2148945E-1,2.8887624E-1,1.9179923E-2,-3.9396035E-3,-2.657665E-1,2.02061E-3,4.037031E-3,-9.6421456E-4,1.5997603E-3,-1.203223E-3,1.212318E-3,-3.947431E-3,-1.773382E-3],"categories":[],"categories_nodes":[],"categories_segments":[],"categories_sizes":[],"default_left":[0,0,0,0,0,0,0,0,0,0,0,0,0,0,0],"id":75,"left_children":[1,3,5,7,9,11,13,-1,-1,-1,-1,-1,-1,-1,-1],"loss_changes":[1.3816516E2,7.056116E1,3.1935759E1,2.9871796E1,2.3353165E1,1.5145786E1,9.572166E0,0E0,0E0,0E0,0E0,0E0,0E0,0E0,0E0],"parents":[2147483647,0,0,1,1,2,2,3,3,4,4,5,5,6,6],"right_children":[2,4,6,8,10,12,14,-1,-1,-1,-1,-1,-1,-1,-1],"split_conditions":[2E1,3E0,6E-1,6E-1,3.1E0,-4.8E0,-5.9E0,2.02061E-3,4.037031E-3,-9.6421456E-4,1.5997603E-3,-1.203223E-3,1.212318E-3,-3.947431E-3,-1.773382E-3],"split_indices":[28,77,77,3,25,25,25,0,0,0,0,0,0,0,0],"split_type":[0,0,0,0,0,0,0,0,0,0,0,0,0,0,0],"sum_hessian":[6.3186836E3,4.436589E3,1.8820946E3,3.0037344E3,1.4328546E3,1.0376753E3,8.444194E2,1.7120746E3,1.2916598E3,7.8699963E2,6.45855E2,5.3773505E2,4.999402E2,3.4205417E2,5.0236517E2],"tree_param":{"num_deleted":"0","num_feature":"106","num_nodes":"15","size_leaf_vector":"1"}},{"base_weights":[-1.0449095E-1,-1.9988364E-1,1.2031286E-1,-8.387604E-2,-3.350009E-1,-1.317788E-1,1.86313E-1,-2.0778682E-3,3.038798E-4,-4.7170343E-3,-2.7550955E-3,-2.2630063E-3,7.667752E-4,3.151687E-3,1.0750701E-3],"categories":[],"categories_nodes":[],"categories_segments":[],"categories_sizes":[],"default_left":[0,0,0,0,0,0,0,0,0,0,0,0,0,0,0],"id":76,"left_children":[1,3,5,7,9,11,13,-1,-1,-1,-1,-1,-1,-1,-1],"loss_changes":[1.3548758E2,6.949428E1,3.1346554E1,3.381357E1,1.653038E1,7.725259E0,1.5120407E1,0E0,0E0,0E0,0E0,0E0,0E0,0E0,0E0],"parents":[2147483647,0,0,1,1,2,2,3,3,4,4,5,5,6,6],"right_children":[2,4,6,8,10,12,14,-1,-1,-1,-1,-1,-1,-1,-1],"split_conditions":[2E1,1.4E1,3.58E-1,1E1,7E0,2.7E1,-6.2E0,-2.0778682E-3,3.038798E-4,-4.7170343E-3,-2.7550955E-3,-2.2630063E-3,7.667752E-4,3.151687E-3,1.0750701E-3],"split_indices":[28,80,55,51,51,28,25,0,0,0,0,0,0,0,0],"split_type":[0,0,0,0,0,0,0,0,0,0,0,0,0,0,0],"sum_hessian":[6.315894E3,4.4343457E3,1.8815483E3,2.3867637E3,2.0475822E3,3.9019135E2,1.491357E3,1.1446538E3,1.2421099E3,6.187817E2,1.4288005E3,2.6840222E2,1.2178912E2,5.648201E2,9.2653687E2],"tree_param":{"num_deleted":"0","num_feature":"106","num_nodes":"15","size_leaf_vector":"1"}},{"base_weights":[1.0449094E-1,1.9988362E-1,-1.2031285E-1,8.3876014E-2,3.350009E-1,1.3177885E-1,-1.86313E-1,2.0778677E-3,-3.038799E-4,4.7170348E-3,2.7550955E-3,2.2630068E-3,-7.6677446E-4,-3.151687E-3,-1.07507E-3],"categories":[],"categories_nodes":[],"categories_segments":[],"categories_sizes":[],"default_left":[0,0,0,0,0,0,0,0,0,0,0,0,0,0,0],"id":77,"left_children":[1,3,5,7,9,11,13,-1,-1,-1,-1,-1,-1,-1,-1],"loss_changes":[1.3548755E2,6.949429E1,3.1346556E1,3.3813564E1,1.6530396E1,7.7252584E0,1.5120407E1,0E0,0E0,0E0,0E0,0E0,0E0,0E0,0E0],"parents":[2147483647,0,0,1,1,2,2,3,3,4,4,5,5,6,6],"right_children":[2,4,6,8,10,12,14,-1,-1,-1,-1,-1,-1,-1,-1],"split_conditions":[2E1,1.4E1,3.58E-1,1E1,7E0,2.7E1,-6.2E0,2.0778677E-3,-3.038799E-4,